
\data\
ngram 1=145293

\1-grams:
-4.887971	#
-7.803898	#absurape
-7.803898	#aluu
-7.803898	#andgoodbye
-7.326777	#bringbackourgirls
-7.803898	#childnotbride
-7.803898	#circumcision
-7.803898	#explosion
-7.803898	#griesafault
-7.803898	#hope
-7.803898	#inequalityforevah
-7.803898	#killallmoslems
-7.803898	#nfpguesses
-7.803898	#occupynigeria
-7.803898	#opendoor
-7.803898	#porteouverte
-6.502868	#x
-6.17043	*
-7.104928	***
-7.803898	***we
-7.803898	**defined**
-7.803898	**sifi
-7.803898	*account*
-7.502868	*another*
-7.803898	*appear*
-7.803898	*artificial
-7.803898	*between*
-7.803898	*campfire*
-7.803898	*chaos*
-7.803898	*china
-7.803898	*comments
-7.803898	*created*
-7.803898	*crisis*
-7.803898	*development*
-7.803898	*direct*
-7.803898	*does*
-7.803898	*drama*
-7.803898	*economic
-7.803898	*eurogroup
-7.803898	*except*
-7.803898	*falsify*
-7.803898	*free*
-7.803898	*good*
-7.803898	*honesty
-7.803898	*how*
-7.803898	*i
-7.803898	*imaginary*
-7.803898	*impersonal*
-7.803898	*inclusive*
-7.803898	*institutions
-7.803898	*let
-7.803898	*liberal*
-7.803898	*madrid*
-7.803898	*make*
-7.803898	*matters
-7.502868	*me*
-7.803898	*normal*
-7.803898	*not*
-7.502868	*objective*
-7.803898	*participatory*
-7.803898	*poor
-7.803898	*procedural
-7.803898	*reality*
-7.803898	*risk*
-7.803898	*science*
-7.803898	*sequencing*
-7.803898	*severe*
-7.803898	*shadow*
-7.803898	*spanish
-7.803898	*subjectively*american
-7.803898	*the
-7.803898	*tonality*
-7.803898	*why
-1.404661	</s>
-99	<s>
-7.803898	<speaker
-7.803898	<titre>on
-7.803898	>
-7.803898	>others
-7.803898	>questions
-7.803898	>rmhk
-7.803898	>taleban
-7.803898	>turkishcypriot
-7.803898	>will
-7.502868	@
-7.201838	@ap
-7.803898	@bp_america
-7.803898	@econtalk
-7.201838	@ft
-7.803898	@juantigar
-7.502868	@lis
-7.803898	@pontifex
-6.9588	@steven_strauss
-5.08706	[
-5.721113	[]
-7.803898	[]and
-6.9588	[a
-7.201838	[a]
-7.803898	[a]dvisers
-7.803898	[a]grees
-7.326777	[a]ll
-7.803898	[a]lmost
-7.803898	[a]n
-7.803898	[a]nnounces
-7.803898	[about
-7.803898	[academic]
-7.803898	[access
-7.803898	[actions
-7.803898	[addressing]
-7.803898	[adopted]
-7.803898	[affordable]
-7.803898	[african]
-7.803898	[after
-7.502868	[against
-7.803898	[ahmed]
-7.803898	[all
-7.803898	[alliance
-7.803898	[also]
-7.803898	[america]
-7.803898	[americans]
-6.372534	[amp]
-7.502868	[an
-7.326777	[and
-6.65777	[and]
-7.803898	[animal]
-7.803898	[antizionist]
-7.803898	[apolitical]
-7.803898	[apparently
-7.502868	[applause]
-7.803898	[apply
-7.803898	[are
-7.326777	[are]
-7.025747	[article
-7.803898	[as
-7.803898	[assange]
-7.803898	[assanges]
-7.502868	[at
-7.803898	[austrian
-7.803898	[b]oth
-7.803898	[bad
-7.803898	[bank
-7.803898	[basque
-7.803898	[basque]
-7.502868	[be
-7.803898	[because]
-7.803898	[become]
-7.803898	[before
-7.803898	[being
-7.803898	[being]
-7.803898	[belgian
-7.803898	[belgrade]
-7.803898	[between
-7.803898	[brazil
-7.803898	[bush]
-7.803898	[business
-7.502868	[but
-7.502868	[but]
-7.803898	[buy
-7.502868	[by
-7.803898	[by]
-5.778592	[c
-7.803898	[c]ongratulates
-7.803898	[c]onsiders
-7.803898	[c]onsumer
-7.803898	[called
-7.803898	[cameron]
-7.803898	[capital]
-7.803898	[carlos
-7.803898	[carried
-7.803898	[channels]
-7.803898	[charles]
-7.803898	[chasse
-7.502868	[china
-7.803898	[china]
-7.803898	[chinas]
-7.803898	[chinese]
-7.803898	[clearance
-7.326777	[click
-5.002494	[com
-7.803898	[come
-7.803898	[committees]
-7.803898	[community]
-7.803898	[competent
-7.803898	[competent]
-7.803898	[concession]
-7.502868	[confidence]
-7.803898	[conseil
-7.803898	[controlling
-7.803898	[cooke
-7.803898	[corn]
-7.803898	[could]
-7.803898	[council
-7.502868	[cronyism]
-7.803898	[crowley]
-7.803898	[currentaccount]
-7.803898	[d]eregulation
-7.803898	[d]evelop
-7.803898	[daesh]
-7.803898	[dear
-7.803898	[death]
-7.803898	[decent
-7.803898	[defining]
-7.803898	[demands
-7.803898	[department
-7.803898	[der
-7.803898	[derived]
-7.803898	[did
-7.803898	[director
-7.803898	[dispossessed]
-7.803898	[doesnt]
-7.803898	[dumped
-7.803898	[durban]
-7.104928	[dutch
-7.502868	[dutch]
-7.803898	[early
-7.803898	[econometric
-7.803898	[economic
-7.803898	[efsf]
-7.803898	[england]
-7.803898	[ensure]
-7.803898	[enthusiasm
-7.803898	[entitlements]
-7.803898	[equality]
-7.803898	[ermua
-7.803898	[esrb]
-7.803898	[establishing
-7.803898	[eu
-7.104928	[european
-7.803898	[example
-7.803898	[face]
-7.803898	[fda]
-7.803898	[find
-6.9588	[for
-7.502868	[for]
-7.803898	[forum
-7.803898	[freedom]
-7.803898	[from
-7.803898	[ft
-7.803898	[further]
-7.803898	[galileo
-7.803898	[gallowsland]
-7.803898	[genetically
-7.803898	[germany]
-7.803898	[global
-7.803898	[going
-7.803898	[good
-7.803898	[governmentsponsored]
-7.803898	[grant
-7.803898	[greeces
-7.803898	[green
-7.803898	[gross
-7.803898	[h]istory
-7.803898	[h]ouseholds
-7.803898	[h]uge
-7.803898	[had
-7.803898	[hake
-7.803898	[half]
-7.803898	[hanseatic
-7.803898	[has]
-7.502868	[have]
-7.502868	[he
-7.803898	[he]
-7.803898	[here
-7.803898	[hessischer
-7.803898	[high
-7.803898	[him]
-7.326777	[his]
-7.803898	[homosexuals]
-7.803898	[how
-7.201838	[html
-7.803898	[httpwwweuroparleuintoeilfindbyprocnumdolang
-7.803898	[humaninduced]
-7.803898	[hungarian
-7.803898	[hunting
-7.803898	[hyman]
-7.201838	[i
-7.803898	[i]
-7.803898	[i]n
-7.803898	[i]nflation
-7.502868	[i]t
-7.326777	[ie
-7.803898	[if
-7.803898	[if]
-6.573449	[in
-7.803898	[included
-7.803898	[income]
-7.803898	[india
-7.803898	[initially]
-7.326777	[international
-7.803898	[involving]
-7.502868	[iran]
-7.803898	[irans]
-7.803898	[is]
-7.201838	[it
-7.104928	[it]
-7.502868	[italian
-7.104928	[its]
-7.502868	[jesus]
-7.803898	[jewish
-7.803898	[joseph
-7.803898	[jpm]
-7.803898	[keynes]
-7.803898	[khan]
-7.803898	[ladder]
-7.803898	[lama]
-7.803898	[law
-7.803898	[lca]
-7.803898	[leaving]
-7.502868	[let
-7.803898	[like
-7.803898	[liquefied
-7.502868	[literally
-7.803898	[live
-7.502868	[long
-7.803898	[lt]the
-7.502868	[m]ajor
-7.502868	[m]any
-7.803898	[making]
-7.803898	[malaria
-7.803898	[malaria]
-7.803898	[malthuss]
-7.803898	[martyrdom]
-7.803898	[mary
-7.803898	[may
-7.803898	[mermaids]
-7.502868	[mff]
-7.803898	[micro]
-7.803898	[middle
-7.803898	[military
-7.803898	[military]
-7.803898	[minister
-7.803898	[monday]
-7.803898	[monetary]
-7.803898	[monthly]
-7.803898	[more
-7.803898	[moreover
-7.803898	[move
-7.326777	[mr
-7.803898	[msy]
-7.803898	[multiannual
-7.803898	[musharraf]
-7.803898	[must]
-7.803898	[my
-7.803898	[n
-7.803898	[n]ow
-7.803898	[national
-7.803898	[national]
-7.803898	[nato
-7.104928	[never
-7.502868	[new]
-7.803898	[niels
-7.326777	[no
-7.803898	[nonroma]
-7.803898	[not]
-7.803898	[note
-7.803898	[nothing
-7.803898	[nothing]
-7.803898	[notwithstanding
-7.803898	[now
-7.803898	[o]pen
-7.803898	[oceanward]
-6.573449	[of
-7.803898	[of]
-7.803898	[olmert]
-7.201838	[on
-7.803898	[on]
-7.803898	[one
-7.803898	[ones
-7.803898	[only
-7.803898	[only]
-7.803898	[opening
-7.803898	[opposition]
-7.803898	[optional
-7.803898	[or
-7.803898	[or]
-7.803898	[output]
-7.803898	[overthecounter]
-7.326777	[p
-7.803898	[p]eople
-7.803898	[pacts
-7.803898	[pakistan]
-7.803898	[paper
-7.326777	[parliament]
-7.803898	[parliamentary]
-7.803898	[peace
-6.627807	[pecons
-7.803898	[piketty]
-7.803898	[policy]
-7.803898	[polychlorinated
-7.803898	[ppede
-7.803898	[president]
-7.803898	[previous
-7.803898	[princeton]
-7.803898	[prisoners]
-7.803898	[private
-7.803898	[prod
-7.803898	[promote
-7.803898	[promote]
-7.803898	[purged
-7.803898	[putin]
-7.803898	[quiet
-7.803898	[r]ecommends
-7.803898	[rapporteur
-7.803898	[rcc
-7.803898	[receding]
-7.803898	[rectora
-7.803898	[region]
-7.803898	[regrets
-7.803898	[religions]
-7.502868	[revenu
-7.803898	[right]
-7.803898	[rights]
-7.803898	[risks]
-7.803898	[road]
-7.803898	[rome]
-7.803898	[rsp]
-7.803898	[russians]
-7.803898	[saddam
-7.803898	[said]
-7.803898	[sans
-7.803898	[saudi
-7.803898	[say
-6.372534	[sec
-7.803898	[see
-7.502868	[sek
-7.803898	[shady]
-7.326777	[should]
-7.502868	[sic]
-7.803898	[silent
-7.803898	[sincere]
-7.201838	[small
-7.803898	[so]
-7.502868	[socalled]
-7.803898	[sodomy]
-7.803898	[some
-7.803898	[started]
-7.803898	[state]
-7.803898	[such
-7.803898	[such]
-7.803898	[supplementary
-7.803898	[support]
-7.803898	[t]hat
-6.502868	[t]he
-7.326777	[t]here
-7.502868	[t]his
-7.502868	[take
-7.803898	[taken
-7.803898	[tax]
-7.803898	[teknologi
-7.803898	[television]
-7.803898	[thank
-7.326777	[that
-7.326777	[that]
-6.122657	[the
-6.900808	[the]
-7.502868	[their
-7.502868	[their]
-7.803898	[them]
-7.803898	[them]selves
-7.803898	[themselves]
-7.803898	[then
-7.502868	[therefore]
-7.502868	[they]
-7.803898	[third
-7.326777	[this
-7.803898	[this]
-7.803898	[threepenny
-7.803898	[thursdaybrussels
-7.803898	[thus]
-6.65777	[to
-7.326777	[to]
-7.803898	[tomorrow
-7.803898	[towards
-7.803898	[traits]
-7.803898	[translation
-7.803898	[treaties
-7.803898	[try
-7.803898	[tv
-7.803898	[twentieth]
-7.803898	[u]nchecked
-7.502868	[un
-7.803898	[unhealthy]
-7.502868	[union
-7.803898	[unique]
-7.803898	[united
-7.803898	[us]
-7.803898	[very
-7.803898	[violence
-7.104928	[w]e
-7.803898	[w]elcomes
-7.803898	[w]hen
-7.803898	[w]ith
-7.803898	[wa
-7.803898	[walter]
-7.803898	[wanderer
-7.803898	[was]
-7.803898	[waste
-7.201838	[we
-7.326777	[we]
-7.803898	[wednesday]
-7.803898	[wednesdaybrussels
-7.502868	[were]healthy
-7.803898	[weve]
-7.201838	[what
-7.803898	[when
-7.803898	[where
-7.803898	[which
-7.201838	[which]
-7.803898	[while
-7.803898	[who
-7.803898	[wider
-7.803898	[will
-7.803898	[wind
-7.502868	[with
-7.502868	[world
-7.803898	[would
-7.803898	[would]
-7.803898	[y]ou
-7.502868	[you
-6.122657	]
-7.803898	]#
-7.502868	_
-7.803898	______
-7.502868	_______
-7.803898	______________________________________________________________
-7.803898	__________________________________________________nbsp*
-7.502868	_blank
-7.803898	_dcl
-7.803898	_parliaments
-6.573449	_ta
-7.502868	_taprov
-7.502868	`
-7.803898	``
-7.803898	``[t]he
-7.502868	``a
-7.803898	``abbreviated
-7.803898	``acts
-7.803898	``adhering
-7.803898	``america
-7.502868	``americanization
-7.803898	``americanize
-7.803898	``americanized
-7.803898	``americas
-7.803898	``anchoring
-7.803898	``and
-7.803898	``annual
-7.803898	``antioligarch
-7.803898	``anything
-7.803898	``area
-7.803898	``as
-7.803898	``assembly
-7.803898	``astonishing
-7.803898	``asymmetrical
-7.803898	``asymmetries
-7.803898	``asymmetry
-7.803898	``automatic
-7.803898	``autonomous
-7.502868	``axis
-7.502868	``back
-7.803898	``beyond
-7.502868	``big
-7.803898	``bleached
-7.502868	``blood
-7.803898	``brain
-7.803898	``british
-7.502868	``buildup
-7.803898	``business
-7.803898	``but
-7.803898	``by
-7.803898	``centerless
-7.803898	``china
-7.502868	``clash
-7.803898	``clean
-7.803898	``closedeconomy
-7.326777	``collective
-7.803898	``common
-7.803898	``compassing
-7.803898	``confrontation
-7.803898	``conservatism
-7.803898	``conservatives
-7.803898	``consider
-7.803898	``constitutional
-7.803898	``consultations
-7.803898	``cornerstone
-7.803898	``creation
-7.502868	``crisis
-7.803898	``crusade
-7.803898	``cultural
-7.502868	``curse
-7.803898	``dechristianizationpolish
-7.803898	``defined
-7.803898	``demand
-7.803898	``democratic
-7.803898	``develop
-7.803898	``dialogue
-7.803898	``diaspora
-7.326777	``dictatorship
-7.803898	``dutch
-7.803898	``earn
-7.803898	``eastern
-7.803898	``economical
-7.803898	``economization
-7.803898	``enabling
-7.502868	``enemies
-7.803898	``enemy
-7.803898	``entertainment
-7.803898	``entitlement
-7.803898	``equilibrium
-7.803898	``establish
-7.803898	``establishment
-7.803898	``eternal
-7.803898	``ethnic
-7.803898	``europe
-7.803898	``europhobe
-7.803898	``externalities
-7.803898	``face
-7.803898	``failed
-7.803898	``federalist
-7.803898	``finance
-7.502868	``for
-7.803898	``foreign
-7.803898	``france
-7.502868	``free
-7.803898	``freedom
-7.803898	``george
-7.502868	``global
-7.803898	``globalizers
-7.803898	``good
-7.803898	``governance
-7.803898	``governmental
-7.803898	``great
-7.803898	``greater
-7.803898	``guideline
-7.803898	``hard
-7.803898	``has
-7.803898	``havenots
-7.803898	``haves
-7.803898	``heres
-7.803898	``highdevelopmentlevel
-7.803898	``hightech
-7.803898	``house
-7.803898	``human
-7.502868	``humanitarian
-7.502868	``humanness
-7.803898	``hysteria
-7.803898	``i
-7.326777	``if
-7.803898	``in
-7.803898	``incompetent
-7.803898	``independent
-7.803898	``inhouse
-7.803898	``intended
-7.803898	``international
-7.803898	``islamic
-7.326777	``it
-7.803898	``ive
-7.803898	``japan
-7.803898	``japans
-7.803898	``jihad
-7.803898	``joke
-7.803898	``juridification
-7.803898	``just
-7.803898	``kamikaze
-7.803898	``learned
-7.803898	``less
-7.803898	``lies
-7.803898	``lifting
-7.803898	``limited
-7.803898	``local
-7.326777	``market
-7.803898	``martyrs
-7.803898	``mass
-7.803898	``messiah
-7.803898	``military
-7.803898	``miracle
-7.803898	``money
-7.803898	``mood
-7.803898	``more
-7.803898	``national
-7.502868	``neither
-6.9588	``new
-7.502868	``no
-7.502868	``normal
-7.803898	``notake
-7.803898	``odious
-7.326777	``old
-7.201838	``one
-7.803898	``open
-7.803898	``other
-7.803898	``our
-7.803898	``overblown
-7.803898	``pacified
-7.502868	``peace
-7.803898	``peaceful
-7.502868	``pearl
-7.803898	``people
-7.803898	``plan
-7.803898	``popular
-7.803898	``populism
-7.326777	``power
-7.803898	``preventive
-7.803898	``principles
-7.803898	``prison
-7.803898	``progressives
-7.803898	``proof
-7.803898	``provided
-7.803898	``public
-7.803898	``punishment
-7.803898	``quiet
-7.803898	``race
-7.803898	``reform
-7.803898	``reformers
-7.803898	``rejoining
-7.803898	``resilience
-7.803898	``revolting
-7.803898	``revolution
-7.502868	``rightist
-7.803898	``rr
-7.803898	``rules
-7.803898	``ruthless
-7.803898	``second
-7.803898	``secondclass
-7.803898	``secular
-7.803898	``sedentary
-7.803898	``selfcriticism
-7.025747	``selfdefense
-7.803898	``selfhealing
-7.803898	``sexed
-7.803898	``simply
-7.803898	``slow
-7.803898	``small
-7.803898	``smart
-7.502868	``social
-7.803898	``solidarity
-7.803898	``special
-7.803898	``spillover
-7.803898	``spiritual
-7.803898	``stagnoeurope
-7.803898	``state
-7.502868	``strike
-7.803898	``structural
-7.803898	``subsidiarity
-7.803898	``successful
-7.803898	``target
-7.803898	``that
-6.65777	``the
-7.201838	``third
-7.502868	``this
-7.803898	``those
-7.803898	``threestrikesandyoure
-7.803898	``tiger
-7.803898	``to
-7.803898	``too
-7.803898	``total
-7.502868	``traditional
-7.803898	``trojan
-7.803898	``trust
-7.803898	``unconditional
-7.803898	``understandable
-7.803898	``universal
-7.803898	``unjustified
-7.803898	``unlawful
-7.803898	``uyghuristan
-7.803898	``vigorous
-7.803898	``violent
-7.326777	``war
-7.502868	``we
-7.502868	``western
-7.803898	``what
-7.502868	``when
-7.803898	``whether
-7.803898	``will
-7.326777	``within
-7.803898	``witnesses
-7.803898	``wmds
-7.803898	``working
-7.803898	``x
-7.803898	``yellow
-7.502868	``yes
-7.803898	`addiction
-7.803898	`blowing
-7.803898	`but
-7.803898	`certificate
-7.502868	`conflict
-7.803898	`country
-7.803898	`inalienable
-7.803898	`its
-7.803898	`just
-7.803898	`market
-7.803898	`metabolic
-7.803898	`mildish
-7.803898	`minorities
-7.803898	`noninstrumental
-7.803898	`our
-7.803898	`overshooting
-7.803898	`party
-7.803898	`pesofication
-7.803898	`proprietary
-7.502868	`public
-7.803898	`publish
-7.803898	`receptor
-7.803898	`regime
-7.803898	`safe
-7.803898	`solutions
-7.803898	`to
-7.803898	`union
-7.803898	`united
-7.803898	`useless
-7.803898	`vertical
-1.782989	a
-7.803898	a#
-7.502868	a*
-7.803898	a[n]
-6.689955	aa
-6.150685	aaa
-6.803898	aaafns
-7.803898	aaagh
-6.762505	aaarated
-7.201838	aaas
-6.298748	aachen
-7.803898	aachenbrussels
-7.803898	aachens
-7.803898	aada
-7.201838	aadmi
-7.803898	aagreement
-7.502868	aain
-7.803898	aair
-7.201838	aaiun
-7.104928	aajg
-7.502868	aakash
-6.762505	aal
-7.502868	aalborg
-7.025747	aalto
-6.65777	aaltonen
-7.803898	aaltonens
-7.201838	aam
-7.502868	aamer
-7.104928	aan
-7.803898	aane
-7.803898	aanmerking
-7.803898	aap
-7.803898	aargh
-5.573449	aarhus
-7.803898	aarne
-7.326777	aaron
-7.803898	aart
-6.65777	aartsen
-7.803898	aasearchaction
-7.803898	aasearchan
-7.803898	aasearchdismiss
-7.803898	aastha
-7.803898	aaten
-7.502868	aau
-7.803898	aavc
-6.803898	ab
-7.803898	aba
-5.73944	ababa
-7.326777	abac
-7.502868	abacc
-6.201838	abacha
-6.762505	abachas
-6.04047	aback
-7.803898	abaclat
-6.405958	abad
-7.803898	abadan
-7.326777	abadi
-7.803898	abaga
-7.502868	abai
-7.803898	abairt
-7.803898	abalanced
-4.678742	abandon
-4.737945	abandoned
-7.803898	abandoned#
-5.036742	abandoning
-5.229867	abandonment
-6.104928	abandons
-7.803898	abano
-7.803898	abarrel
-7.803898	abasement
-7.803898	abashed
-7.803898	abashidze
-7.803898	abasi
-7.502868	abasing
-7.803898	abasis
-7.502868	abassi
-6.481678	abate
-6.461475	abated
-6.096328	abatement
-7.502868	abatements
-6.900808	abates
-7.803898	abathing
-6.372534	abating
-7.803898	abattlefield
-6.272419	abattoir
-5.774514	abattoirs
-6.312536	abb
-6.900808	abba
-7.326777	abbaba
-7.201838	abbabm
-6.724717	abbalsthom
-5.205107	abbas
-7.502868	abbasfayad
-7.803898	abbasi
-7.201838	abbasid
-7.803898	abbasids
-7.803898	abbasled
-6.004558	abbass
-7.803898	abbed
-7.803898	abberations
-7.201838	abbeville
-7.104928	abbey
-7.803898	abbondio
-6.9588	abbot
-7.803898	abbots
-6.548625	abbott
-7.025747	abbottabad
-6.849656	abbotts
-7.025747	abbou
-7.502868	abbreviate
-5.477562	abbreviated
-7.502868	abbreviating
-6.423687	abbreviation
-6.724717	abbreviations
-7.502868	abbruzes
-7.803898	abbyazov
-6.573449	abc
-7.502868	abch
-7.803898	abchazia
-7.803898	abcm
-6.372534	abd
-7.803898	abdala
-7.803898	abdalla
-7.104928	abdallah
-7.502868	abdallahi
-7.502868	abdallahs
-7.502868	abdalrahman
-6.201838	abdel
-6.803898	abdelaziz
-7.803898	abdelazizbouteflika
-7.803898	abdelbaset
-7.803898	abdelfattah
-7.803898	abdelghani
-7.803898	abdelilah
-7.502868	abdelillah
-6.803898	abdeljalil
-7.502868	abdelkadar
-7.803898	abdelkader
-7.502868	abdelmajid
-7.502868	abdelnassers
-7.502868	abdelrahman
-7.803898	abdelwahab
-7.803898	abdennour
-7.803898	abderraouf
-7.803898	abderrezak
-7.201838	abdi
-6.372534	abdicate
-6.599778	abdicated
-7.326777	abdicates
-6.502868	abdicating
-6.191114	abdication
-7.201838	abdications
-7.326777	abdin
-7.803898	abdirahim
-7.803898	abdirahman
-7.803898	abdo
-7.803898	abdoelaye
-7.104928	abdolfattah
-7.803898	abdolkarim
-7.803898	abdolvahed
-7.803898	abdolwahed
-7.025747	abdomen
-6.762505	abdominal
-7.502868	abdou
-7.803898	abdoul
-6.849656	abdoulaye
-7.803898	abdrabbu
-6.689955	abduct
-5.412963	abducted
-7.803898	abductee
-7.201838	abductees
-6.724717	abducting
-5.393965	abduction
-5.799577	abductions
-7.502868	abductive
-7.803898	abductor
-6.9588	abductors
-7.104928	abducts
-7.502868	abduh
-7.502868	abduhs
-6.033046	abdul
-7.803898	abdulah
-7.201838	abdulazeez
-7.803898	abdulazeezs
-7.326777	abdulaziz
-7.803898	abdulfattah
-7.502868	abdulhamid
-7.025747	abdulla
-5.513864	abdullah
-7.803898	abdullahi
-6.35674	abdullahs
-7.803898	abdullaj
-7.502868	abdullayev
-7.502868	abdulqadir
-7.803898	abdulrahman
-7.803898	abdulwahab
-7.803898	abdur
-7.803898	abdurahman
-7.803898	abdurajak
-7.803898	abdurazakov
-7.201838	abdurrahman
-7.803898	abdussalam
-5.319598	abe
-7.326777	abeba
-7.803898	abecedarian
-6.803898	abed
-7.803898	abedrabbo
-7.803898	abeed
-7.803898	abeele
-7.803898	abein
-6.900808	abel
-7.803898	abell
-7.803898	abengoa
-5.746993	abenomics
-7.803898	abenomicss
-7.502868	aber
-7.502868	abera
-7.104928	aberdare
-7.104928	aberdares
-6.35674	aberdeen
-7.502868	aberdeenshire
-7.104928	aberfan
-7.803898	abernethy
-7.803898	aberra
-7.803898	aberrance
-6.423687	aberrant
-7.803898	aberrantly
-5.864379	aberration
-7.803898	aberrational
-6.079622	aberrations
-7.502868	aberthaw
-5.591711	abes
-6.689955	abet
-7.803898	abeto
-6.160445	abetted
-7.502868	abetter
-6.405958	abetting
-7.803898	abettor
-6.247595	abeyance
-7.803898	abeyancethe
-7.326777	abf
-7.502868	abgeordnete
-7.803898	abgepackte
-7.502868	abhasias
-7.803898	abhijit
-6.65777	abhisit
-7.201838	abhisits
-7.803898	abhiyan
-7.803898	abhngigkeit
-6.160445	abhor
-6.9588	abhorred
-6.224114	abhorrence
-5.803898	abhorrent
-6.502868	abhors
-7.326777	abi
-7.803898	abid
-7.502868	abidance
-4.960042	abide
-6.235696	abided
-6.212833	abides
-7.803898	abidin
-6.689955	abidine
-5.778592	abiding
-7.803898	abidingly
-6.247595	abidjan
-5.263568	abilities
-7.803898	abilitiesorganized
-4.104321	ability
-7.803898	abilityand
-7.803898	abilityboth
-7.803898	abilitytopay
-7.803898	abinding
-6.312536	abiola
-7.502868	abiolas
-7.502868	abiotic
-6.573449	abitbol
-7.803898	abitbols
-7.803898	abitibibowater
-7.326777	abitur
-7.803898	abiyan
-7.803898	abizaid
-5.735712	abject
-6.9588	abjectly
-7.803898	abjectness
-7.502868	abjure
-7.803898	abjured
-7.803898	abjuring
-7.803898	abkazian
-7.201838	abkhasia
-6.803898	abkhaz
-7.803898	abkhazgeorgian
-7.803898	abkhazi
-5.18585	abkhazia
-7.803898	abkhaziael
-6.44217	abkhazian
-6.65777	abkhazians
-7.803898	abkhaziaossetia
-7.201838	abkhazias
-7.803898	abkhazis
-6.388925	ablaze
-3.256874	able
-6.326777	ablebodied
-7.502868	ablest
-7.803898	ableto
-5.977823	ably
-7.803898	ablyazov
-6.079622	abm
-7.803898	abmabb
-7.502868	abmg
-7.326777	abmtreaty
-7.326777	abn
-7.104928	abnamro
-7.803898	abnegating
-7.201838	abnegation
-5.724717	abnormal
-6.44217	abnormalities
-7.025747	abnormality
-6.160445	abnormally
-6.079622	aboard
-6.461475	abode
-7.803898	abodes
-7.803898	abogado
-7.803898	abogo
-7.803898	abok
-7.502868	abolhassan
-4.80303	abolish
-4.790218	abolished
-6.1318	abolishes
-4.995012	abolishing
-6.803898	abolishment
-4.55299	abolition
-6.502868	abolitionist
-6.9588	abolitionists
-7.803898	abolitions
-7.326777	abomb
-5.844857	abominable
-7.104928	abominably
-7.326777	abominate
-7.803898	abominated
-7.803898	abominating
-6.235696	abomination
-6.9588	abominations
-7.803898	aborad
-6.372534	aboriginal
-7.803898	aboriginals
-7.326777	aborigine
-6.9588	aborigines
-7.803898	aborning
-6.9588	abort
-6.150685	aborted
-7.326777	abortifacient
-7.502868	aborting
-4.814448	abortion
-7.803898	abortionist
-7.803898	abortionoriented
-5.500702	abortions
-6.235696	abortive
-7.502868	abortus
-6.689955	abou
-7.803898	aboubakr
-7.803898	aboudis
-7.201838	aboul
-7.803898	aboulnaga
-5.724717	abound
-6.724717	abounded
-7.803898	abounding
-6.481678	abounds
-2.813417	about
-7.803898	about[t]his
-6.724717	aboutface
-7.502868	aboutfaces
-7.803898	aboutnot
-7.803898	aboutthe
-7.803898	aboutto
-6.285384	aboutturn
-7.326777	aboutturns
-3.706155	above
-6.372534	aboveaverage
-6.849656	aboveboard
-7.803898	abovecited
-6.9588	aboveground
-7.803898	aboveinflation
-7.502868	abovemarket
-7.803898	abovemedium
-5.375763	abovementioned
-7.803898	abovenamed
-7.201838	abovenoted
-7.502868	abovepotential
-7.803898	abovequoted
-7.803898	aboverelatively
-7.502868	abovescale
-7.803898	abovestated
-6.900808	abovetarget
-7.326777	abovetrend
-7.326777	abp
-7.502868	abps
-7.326777	abracadabra
-6.048023	abraham
-7.326777	abrahamic
-7.326777	abrahams
-7.803898	abrahim
-7.502868	abramovich
-7.326777	abramovitz
-7.502868	abrams
-7.025747	abramson
-7.803898	abramsons
-7.803898	abrasionproof
-7.025747	abrasive
-7.803898	abre
-5.906271	abreast
-7.326777	abridge
-6.762505	abridged
-7.502868	abridgement
-7.803898	abridging
-7.326777	abridgment
-7.502868	abril
-4.492992	abroad
-7.803898	abroadmust
-7.803898	abroadsuicide
-6.298748	abrogate
-6.298748	abrogated
-7.803898	abrogates
-6.849656	abrogating
-6.423687	abrogation
-7.803898	abrogations
-7.803898	abrogative
-7.803898	abromovictch
-5.817126	abrupt
-5.88482	abruptly
-7.502868	abruptness
-7.104928	abruzzi
-6.180649	abruzzo
-6.405958	abs
-7.502868	abscess
-7.803898	abscissa
-7.326777	abscond
-6.9588	absconded
-7.104928	absconding
-4.304348	absence
-6.548625	absences
-4.882212	absent
-7.803898	absented
-6.405958	absentee
-6.423687	absenteeism
-7.502868	absentees
-6.004558	absentia
-7.803898	absentminded
-7.803898	absentmindedness
-7.326777	absents
-7.803898	absicht
-7.803898	absolut
-4.366306	absolute
-3.906931	absolutely
-7.803898	absoluteminimum
-6.9588	absolutes
-6.762505	absolution
-7.803898	absolutisation
-6.689955	absolutism
-6.224114	absolutist
-7.104928	absolutists
-6.063535	absolve
-6.525145	absolved
-7.104928	absolves
-6.548625	absolving
-5.134581	absorb
-7.326777	absorbable
-5.400777	absorbed
-7.502868	absorbency
-7.803898	absorbent
-6.627807	absorber
-6.762505	absorbers
-5.735712	absorbing
-6.1318	absorbs
-7.803898	absorbtion
-5.243991	absorption
-6.65777	absorptive
-7.502868	abss
-4.862387	abstain
-4.583267	abstained
-7.803898	abstainedvoted
-7.326777	abstainers
-5.3415	abstaining
-6.9588	abstains
-7.201838	abstemious
-7.803898	abstentia
-5.329682	abstention
-7.803898	abstentionism
-7.803898	abstentionist
-5.457545	abstentions
-6.44217	abstinence
-7.803898	abstinent
-5.264822	abstract
-6.900808	abstracted
-7.803898	abstracting
-6.3415	abstraction
-6.803898	abstractions
-7.502868	abstractly
-7.201838	abstracts
-6.388925	abstruse
-4.667494	absurd
-7.502868	absurdistan
-6.3415	absurdities
-5.622055	absurdity
-6.004558	absurdly
-7.803898	absurdness
-6.724717	absurdum
-5.364565	abu
-6.44217	abubakar
-7.803898	abububar
-7.803898	abububars
-7.803898	abudget
-7.803898	abudja
-7.803898	abuelas
-5.946566	abuja
-6.224114	abujamal
-7.326777	abujamals
-7.025747	abul
-7.803898	abulqasim
-7.502868	abulughod
-7.803898	abumazen
-5.459506	abundance
-5.494268	abundant
-5.26734	abundantly
-7.803898	abunimah
-7.803898	abunimahs
-7.803898	abuomar
-7.803898	abus
-7.803898	abusable
-4.313799	abuse
-5.056486	abused
-7.803898	abusei
-7.803898	abuseof
-7.104928	abuser
-7.803898	abuseridden
-5.9588	abusers
-4.612167	abuses
-5.53908	abusing
-5.502868	abusive
-6.9588	abusively
-7.025747	abut
-7.326777	abutere
-7.104928	abuts
-6.900808	abuzz
-7.803898	abwani
-7.803898	abya
-7.326777	abyad
-5.911803	abyei
-7.803898	abyeis
-7.803898	abyproduct
-6.113702	abysmal
-6.65777	abysmally
-5.660883	abyss
-7.803898	abyssal
-7.502868	abysses
-7.104928	abyssinia
-7.803898	abzesolar
-6.65777	ac
-6.849656	aca
-7.803898	academe
-5.849656	academia
-7.803898	academias
-4.854508	academic
-6.9588	academically
-7.502868	academician
-5.407699	academics
-7.803898	academicsnot
-6.326777	academies
-7.803898	academisch
-5.563349	academy
-7.104928	academys
-7.803898	acadia
-7.803898	acadians
-6.9588	acadmie
-7.502868	acandidate
-7.803898	acandle
-7.803898	acapulco
-7.201838	acar
-7.803898	acara
-7.803898	acareer
-7.502868	acaricides
-7.803898	acarid
-7.803898	acarids
-7.326777	acas
-7.803898	acash
-7.803898	acat
-7.803898	acause
-7.803898	acaza
-7.201838	acc
-7.803898	acc]
-7.803898	acca
-7.803898	accademia
-7.803898	acccounting
-5.111051	accede
-5.505045	acceded
-7.502868	acceder
-6.405958	accedes
-5.252448	acceding
-7.803898	acceed
-7.803898	accelerant
-4.914596	accelerate
-5.029381	accelerated
-7.803898	accelerated#
-6.071504	accelerates
-5.21731	accelerating
-5.393965	acceleration
-7.502868	accelerations
-6.17043	accelerator
-7.803898	acceleratordecelerator
-7.104928	accelerators
-5.821627	accent
-7.803898	accented
-6.689955	accents
-5.900808	accentuate
-6.004558	accentuated
-6.326777	accentuates
-6.298748	accentuating
-7.502868	accentuation
-7.803898	accenture
-3.637912	accept
-5.864379	acceptability
-4.078885	acceptable
-7.803898	acceptableas
-6.803898	acceptably
-4.572428	acceptance
-7.803898	acceptance]
-6.9588	acceptances
-7.803898	acceptation
-3.9835	accepted
-7.803898	acceptedin
-7.803898	acceptedthe
-4.616096	accepting
-7.803898	acceptit
-7.803898	acceptkangaroo
-7.803898	acceptladies
-4.810021	accepts
-3.525076	access
-7.803898	accessbased
-5.8694	accessed
-7.104928	accesses
-5.04047	accessibility
-4.574985	accessible
-7.502868	accessibly
-5.211721	accessing
-3.795468	accession
-7.803898	accessioncom
-7.326777	accessiondriven
-7.803898	accessionoriented
-7.104928	accessionrelated
-5.586414	accessions
-7.803898	accessionthey
-7.502868	accesslimitation
-6.160445	accessories
-6.201838	accessory
-7.803898	accessproviders
-7.201838	acci
-7.502868	acciai
-4.438036	accident
-5.541447	accidental
-5.928837	accidentally
-7.803898	accidentavoidance
-7.803898	accidentplagued
-6.900808	accidentprone
-7.326777	accidentrelated
-4.357516	accidents
-7.803898	accidentstricken
-7.502868	accin
-6.17043	acclaim
-6.25983	acclaimed
-7.326777	acclaiming
-6.3415	acclamation
-7.803898	acclamations
-7.803898	acclerated
-7.803898	acclimation
-7.201838	acclimatise
-7.502868	acclimatised
-7.803898	acclimatising
-7.326777	acclimatization
-6.803898	accolade
-7.025747	accolades
-5.058043	accommodate
-5.670359	accommodated
-6.1318	accommodates
-5.481678	accommodating
-5.171441	accommodation
-7.803898	accommodationrental
-6.65777	accommodations
-6.372534	accommodative
-7.803898	accommodator
-7.803898	accomodate
-7.803898	accomodation
-4.512973	accompanied
-7.803898	accompaniers
-5.799577	accompanies
-6.461475	accompaniment
-7.502868	accompaniments
-5.196443	accompany
-4.934666	accompanying
-5.651609	accompli
-6.180649	accomplice
-7.803898	accomplicereminds
-5.651609	accomplices
-7.803898	accomplir
-6.25983	accomplis
-5.231026	accomplish
-7.803898	accomplishable
-5.027197	accomplished
-6.599778	accomplishes
-6.087894	accomplishing
-5.799577	accomplishment
-7.803898	accomplishmentgiven
-5.854508	accomplishments
-7.803898	accompnay
-4.897563	accord
-3.988254	accordance
-5.101468	accorded
-7.803898	accordin
-3.751666	according
-4.439535	accordingly
-7.803898	accordinglynbspnbsp
-7.803898	accordion
-7.803898	accordions
-5.236872	accords
-7.803898	accost
-7.201838	accosted
-3.51213	account
-7.803898	accountabilities
-4.57141	accountability
-4.769269	accountable
-7.104928	accountably
-5.849656	accountancy
-7.803898	accountancybased
-7.803898	accountand
-5.934666	accountant
-5.7432	accountants
-7.803898	accountanttype
-7.803898	accountbased
-5.166408	accounted
-7.803898	accountedfor
-7.803898	accountgo
-7.326777	accountholders
-4.558138	accounting
-7.803898	accountingbased
-7.803898	accountkeeping
-4.272419	accounts
-7.803898	accounts]
-7.803898	accountsbased
-7.803898	accountsettling
-7.803898	accountsreceivable
-7.803898	accountsrepayment
-7.803898	accountsstandardsetting
-6.011506	accra
-6.803898	accredit
-5.676793	accreditation
-7.502868	accreditations
-5.746993	accredited
-7.104928	accrediting
-7.803898	accredits
-7.502868	accretions
-7.803898	accrington
-6.481678	accrual
-7.201838	accrualbased
-7.803898	accruals
-7.803898	accrualsbased
-5.791061	accrue
-5.997718	accrued
-6.599778	accrues
-6.201838	accruing
-7.803898	acculturating
-7.803898	acculturation
-5.487927	accumulate
-5.221835	accumulated
-6.44217	accumulates
-5.762505	accumulating
-5.213948	accumulation
-6.525145	accumulations
-7.104928	accumulative
-6.9588	accumulator
-7.803898	accumulatorprocessing
-5.984354	accumulators
-5.340005	accuracy
-4.681682	accurate
-5.090407	accurately
-7.803898	accuratelyampnbsp
-7.803898	accuratelydefined
-7.201838	accursed
-7.803898	accusare
-7.502868	accusatio
-5.325332	accusation
-7.803898	accusation]
-4.911247	accusations
-7.025747	accusatorial
-6.627807	accusatory
-5.3415	accuse
-4.641035	accused
-7.201838	accuseds
-6.627807	accuser
-7.803898	accuserons
-6.9588	accusers
-5.946566	accuses
-5.479616	accusing
-6.849656	accustom
-5.323891	accustomed
-7.502868	accustoming
-7.502868	accustoms
-7.104928	acd
-7.803898	acds
-6.724717	ace
-7.104928	acea
-7.803898	acebes
-5.639545	aceh
-7.326777	acehnese
-7.502868	acehs
-7.803898	acelor
-6.627807	acemoglu
-7.803898	acemoglurobinson
-7.502868	acemoglus
-7.803898	acephalous
-7.104928	acer
-7.502868	aceralia
-7.502868	acerbic
-7.502868	acerbically
-7.502868	acerra
-7.803898	acertain
-7.326777	aces
-7.803898	acesulfame
-7.104928	acetate
-7.502868	acetates
-7.803898	acetic
-7.803898	acetone
-7.502868	acf
-7.326777	acfa
-7.502868	ach
-7.803898	acha
-7.803898	achallenge
-7.803898	achance
-7.803898	achange
-7.803898	achangin
-6.900808	ache
-6.900808	acheloos
-7.803898	acheneau
-7.502868	aches
-6.9588	acheson
-7.803898	achesons
-7.803898	achhe
-7.201838	achievability
-5.213948	achievable
-3.547012	achieve
-3.718929	achieved
-7.803898	achievedas
-7.803898	achievemaintain
-4.433015	achievement
-4.573449	achievements
-7.803898	achiever
-6.65777	achievers
-5.366148	achieves
-4.0296	achieving
-7.803898	achikzai
-7.326777	achild
-7.803898	achille
-5.917407	achilles
-7.104928	achim
-7.201838	aching
-7.502868	achingly
-7.803898	achiote
-7.803898	achmadinejad
-7.502868	achmadov
-7.502868	achmar
-7.502868	acholi
-7.502868	acholiland
-7.803898	achour
-7.803898	achraf
-7.502868	achtung
-6.689955	aci
-6.849656	aci]
-5.463454	acid
-7.803898	acidbase
-7.803898	aciddipped
-6.762505	acidic
-5.630712	acidification
-7.502868	acidified
-7.803898	acidifies
-7.803898	acidify
-6.65777	acidifying
-6.627807	acidity
-7.803898	acidly
-7.803898	acidproducing
-5.911803	acids
-7.803898	acidtest
-6.9588	acio
-7.326777	acitivites
-7.803898	acitizen
-7.803898	acivic
-7.803898	ack
-6.762505	ackermann
-4.366782	acknowledge
-4.626361	acknowledged
-7.803898	acknowledgeif
-5.258591	acknowledgement
-6.803898	acknowledgements
-4.986994	acknowledges
-7.803898	acknowledgessome
-5.089568	acknowledging
-6.071504	acknowledgment
-7.502868	acknowledgments
-7.803898	aclash
-7.326777	aclass
-7.803898	aclasta
-7.201838	aclear
-7.803898	aclu
-7.803898	acma
-7.502868	acme
-7.502868	acmecs
-7.201838	acn
-7.326777	acne
-7.803898	acnled
-7.803898	acnur
-7.104928	acod
-7.201838	acod]
-7.803898	acodecision
-7.803898	acoherent
-7.502868	acold
-7.803898	acolleague
-7.502868	acolyte
-6.502868	acolytes
-7.502868	acommon
-7.803898	acommunication
-7.803898	acommunityof
-7.502868	acomplex
-7.803898	acompromise
-7.803898	aconcerted
-7.803898	acondition
-7.803898	aconibe
-7.803898	aconsensus
-7.803898	aconsolidated
-7.803898	aconsumer
-7.803898	acornerstone
-6.900808	acorns
-7.803898	acount
-7.803898	acounted
-7.803898	acouple
-6.461475	acoustic
-7.803898	acoustical
-6.762505	acoustics
-4.311697	acp
-6.599778	acpec
-7.326777	acpeec
-7.803898	acpelected
-7.803898	acpen
-7.803898	acpep
-7.803898	acpepa
-5.191114	acpeu
-6.627807	acpeuropean
-7.803898	acpoctupr
-7.502868	acpp
-6.627807	acps
-7.803898	acpsensitive
-7.803898	acpue
-7.502868	acpwide
-7.803898	acqua
-7.803898	acquacultural
-7.803898	acquaculture
-7.803898	acquacultures
-6.35674	acquaint
-6.25983	acquaintance
-6.285384	acquaintances
-7.803898	acquaintanceship
-5.546219	acquainted
-7.502868	acquainting
-6.298748	acquiesce
-6.461475	acquiesced
-6.150685	acquiescence
-6.849656	acquiescent
-7.201838	acquiesces
-6.481678	acquiescing
-4.826174	acquire
-4.798288	acquired
-7.803898	acquiredrights
-7.803898	acquirement
-6.9588	acquirer
-7.502868	acquirers
-5.906271	acquires
-5.280151	acquiring
-4.54121	acquis
-7.803898	acquise
-5.180649	acquisition
-5.654679	acquisitions
-7.803898	acquisitionsseeking
-7.502868	acquisitive
-7.803898	acquisitiveness
-6.44217	acquit
-7.502868	acquitaine
-7.025747	acquits
-6.35674	acquittal
-7.326777	acquittals
-5.895413	acquitted
-6.900808	acquitting
-7.803898	acr
-6.803898	acre
-6.372534	acreage
-7.502868	acreages
-6.25983	acres
-7.803898	acrid
-6.423687	acrimonious
-7.502868	acrimoniously
-6.599778	acrimony
-7.803898	acrisis
-7.803898	acrobatic
-6.627807	acrobatics
-7.326777	acrobats
-6.150685	acronym
-7.803898	acronymic
-6.548625	acronyms
-6.272419	acropolis
-3.819011	across
-7.803898	acrossparty
-7.502868	acrossthe
-5.536726	acrosstheboard
-7.326777	acrs
-7.803898	acrucial
-6.65777	acryl
-7.104928	acrylamide
-7.803898	acrylic
-7.803898	acrylonitrile
-7.025747	acs
-7.803898	acse
-7.326777	acseu
-7.803898	acss
-3.666449	act
-7.803898	act]
-5.35058	acta
-7.326777	actal
-7.803898	actdo
-7.502868	acte
-6.573449	acteal
-4.661509	acted
-7.803898	actes
-7.803898	acteu
-7.803898	acteurs
-7.803898	actia
-4.412081	acting
-7.803898	actingpresident
-7.803898	actinides
-3.248296	action
-7.803898	action#
-7.803898	actiona
-7.803898	actionability
-6.762505	actionable
-7.502868	actionaid
-7.803898	actionand
-7.326777	actionbased
-7.803898	actioncomedy
-7.803898	actionfar
-7.803898	actioning
-6.9588	actionism
-7.803898	actionist
-7.803898	actionnaires
-7.502868	actionnbsp
-7.803898	actionorientated
-6.724717	actionoriented
-7.502868	actionpacked
-7.803898	actionreaction
-3.765079	actions
-7.803898	actionscould
-7.803898	actionsstifled
-7.803898	actiont
-5.599778	activate
-5.565852	activated
-6.9588	activates
-5.95264	activating
-5.859415	activation
-7.803898	activations
-7.201838	activators
-3.956572	active
-7.803898	activeage
-7.803898	activeand
-7.803898	activeduty
-7.803898	activeingredient
-4.387091	actively
-7.803898	activelydirected
-7.502868	activelymanaged
-7.803898	activeness
-7.803898	activestrengthened
-7.803898	actividad
-5.676793	activism
-5.353649	activist
-7.803898	activistdominated
-4.802164	activists
-3.717076	activities
-7.803898	activitiesbut
-7.803898	activitiesit
-7.803898	activitiesthe
-7.803898	activitieswhose
-7.803898	activits
-4.0158	activity
-7.803898	activity#
-5.724717	activitybased
-7.803898	activityfriendly
-7.803898	activitynbsp
-7.502868	activityrelated
-7.326777	activitys
-7.803898	actnbspthe
-7.803898	actofaccession
-7.803898	actofaccessionofgreece
-7.803898	actonel
-7.803898	actons
-5.240417	actor
-4.566857	actors
-7.803898	actors#x
-7.803898	actos
-6.548625	actress
-7.201838	actresses
-7.326777	actresss
-4.159853	acts
-7.502868	actsofaccession
-4.164113	actual
-7.803898	actualisation
-7.803898	actualities
-7.025747	actuality
-7.326777	actualization
-7.803898	actualize
-3.644842	actually
-7.803898	actuallyexisting
-7.803898	actuallywe
-6.1318	actuarial
-7.326777	actuarially
-7.201838	actuaries
-7.326777	actuary
-7.803898	actuated
-7.803898	actuation
-7.502868	actus
-7.803898	actvities
-7.803898	acuerdo
-7.803898	acuerdos
-7.326777	acuity
-6.548625	acumen
-7.025747	acupuncture
-7.803898	acupuncturists
-4.906821	acute
-5.573449	acutely
-6.900808	acuteness
-7.803898	acutephase
-7.803898	acvlb
-4.82344	ad
-5.95264	ada
-6.900808	adac
-6.071504	adage
-7.803898	adages
-7.502868	adagio
-6.803898	adair
-5.703527	adalah
-7.502868	adalbert
-7.502868	adalberts
-6.762505	adali
-7.803898	adallahi
-5.359853	adam
-7.803898	adama
-5.874479	adamant
-7.502868	adamantine
-6.423687	adamantly
-7.803898	adamawa
-7.803898	adamchuk
-7.104928	adami
-7.803898	adamiak
-6.849656	adamkus
-7.803898	adamo
-6.689955	adamos
-6.071504	adamou
-6.762505	adamous
-7.502868	adamov
-7.803898	adamowicz
-6.096328	adams
-7.502868	adamsen
-7.803898	adamsmith
-7.502868	adamss
-6.405958	adamu
-7.326777	adamus
-6.803898	adana
-7.803898	adanger
-6.35674	adanya
-4.423144	adapt
-5.479616	adaptability
-5.786865	adaptable
-6.849656	adaptasi
-4.705947	adaptation
-7.803898	adaptationbecause
-5.56086	adaptations
-4.700436	adapted
-7.803898	adapter
-7.326777	adapters
-4.852075	adapting
-6.762505	adaption
-6.096328	adaptive
-7.502868	adaptively
-6.201838	adapts
-7.803898	adas
-6.724717	adat
-7.502868	aday
-6.191114	adb
-7.803898	adb#
-6.803898	adbs
-3.942902	add
-7.803898	addameer
-7.803898	addax
-4.072309	added
-6.35674	addedvalue
-7.502868	addenbrookes
-6.849656	addenda
-6.122657	addendum
-7.803898	addicition
-6.481678	addict
-5.971389	addicted
-4.99704	addiction
-7.803898	addictionrelated
-6.405958	addictions
-5.854508	addictive
-7.803898	addictively
-5.487927	addicts
-4.710827	adding
-5.700094	addis
-7.803898	addisababa
-3.779905	addition
-3.883879	additional
-7.803898	additionalities
-5.42915	additionality
-5.374146	additionally
-5.436542	additions
-5.746993	additive
-4.94356	additives
-7.803898	addled
-6.285384	addon
-6.9588	addons
-3.826723	address
-7.803898	addressdienst
-4.111051	addressed
-7.803898	addressedbut
-7.803898	addressednbsp
-7.803898	addressedthe
-7.201838	addressee
-6.573449	addressees
-4.754292	addresses
-7.803898	addresshttpwwwkhatamicom
-4.371731	addressing
-5.00663	adds
-7.803898	addu
-6.548625	adduce
-6.191114	adduced
-7.502868	adduces
-7.201838	adducing
-7.803898	adecent
-7.803898	adecline
-7.502868	adel
-6.9588	adelaide
-7.326777	adelante
-7.803898	adelboden
-7.803898	adelie
-7.803898	adeline
-7.803898	adelphe
-7.803898	adelson
-7.803898	adem
-7.502868	ademocratic
-6.423687	aden
-7.502868	adena
-5.874479	adenauer
-7.104928	adenauers
-7.502868	adeneler
-7.803898	adenocarcinomas
-7.803898	adenovirus
-7.803898	adenuaer
-7.803898	adenuaers
-7.104928	adep
-5.990984	adept
-7.803898	adeptly
-7.502868	adeptness
-7.803898	adepts
-5.366148	adequacy
-4.134302	adequate
-4.667177	adequately
-7.502868	adequatelyfinanced
-7.803898	adequatelyguaranteed
-7.803898	adess
-7.502868	adevarul
-6.65777	adfl
-7.803898	adfs
-7.104928	adhd
-4.89274	adhere
-5.110171	adhered
-5.206203	adherence
-6.803898	adherent
-5.835415	adherents
-5.849656	adheres
-5.473484	adhering
-6.312536	adhesion
-7.502868	adhesive
-7.326777	adhesives
-6.1318	adhoc
-7.803898	adhocery
-6.689955	adi
-7.025747	adidas
-7.326777	adieu
-7.803898	adifferent
-6.689955	adige
-7.803898	adigesouth
-7.803898	adiktif
-7.104928	adil
-7.025747	adinaioana
-7.502868	adipose
-7.803898	adirective
-7.803898	adiritra
-7.502868	adis
-7.326777	adisease
-7.803898	adisgrace
-7.803898	adisparity
-7.803898	adisplay
-7.803898	adivasis
-7.803898	adiyaman
-6.724717	adiz
-7.502868	adjacency
-5.732016	adjacent
-7.326777	adjectival
-7.502868	adjectivally
-6.201838	adjective
-6.35674	adjectives
-7.803898	adjecto
-6.9588	adjoin
-7.502868	adjoined
-6.071504	adjoining
-7.104928	adjoins
-5.95264	adjourn
-5.013613	adjourned
-6.803898	adjourning
-5.434682	adjournment
-6.849656	adjournments
-7.326777	adjourns
-7.326777	adjudge
-7.502868	adjudged
-6.461475	adjudicate
-7.326777	adjudicated
-7.803898	adjudicates
-6.9588	adjudicating
-6.461475	adjudication
-7.502868	adjudications
-7.803898	adjudicative
-7.803898	adjudicators
-6.405958	adjunct
-7.326777	adjuncts
-4.874479	adjust
-6.65777	adjustable
-6.9588	adjustablerate
-5.091248	adjusted
-7.803898	adjusters
-5.294695	adjusting
-7.803898	adjustingampnbsp
-4.404917	adjustment
-4.762111	adjustments
-6.423687	adjusts
-7.803898	adjutant
-7.104928	adjuvant
-6.9588	adjuvants
-7.803898	adkins
-7.803898	adlabi
-7.502868	adlai
-7.326777	adler
-7.803898	adli
-7.803898	adlib
-7.803898	adly
-7.803898	adm
-6.803898	admati
-7.803898	admatis
-7.201838	admin
-7.803898	adminburden
-5.372534	administer
-5.221835	administered
-7.803898	administerial
-5.591711	administering
-6.35674	administers
-7.803898	administrable
-7.803898	administraive
-6.9588	administrate
-7.502868	administrated
-7.502868	administrating
-4.005247	administration
-7.803898	administration#x
-7.803898	administrationcentred
-7.803898	administrationis
-7.803898	administrationlevel
-7.803898	administrationpeace
-7.803898	administrationrelated
-4.688953	administrations
-7.803898	administrationshowever
-7.803898	administrationsrepublican
-7.803898	administrationsthey
-7.803898	administrationswill
-7.803898	administrationwise
-3.972604	administrative
-7.326777	administrativeboard
-5.977823	administratively
-7.803898	administrativelydemanding
-7.803898	administrativelyordered
-7.803898	administrativelyset
-7.803898	administrativepolitical
-7.803898	administrativetechnical
-7.803898	administrativetype
-5.911803	administrator
-5.599778	administrators
-5.409446	admirable
-5.879619	admirably
-6.35674	admiral
-7.326777	admirals
-7.502868	admiralty
-5.269872	admiration
-5.380652	admire
-5.7432	admired
-6.388925	admirer
-6.44217	admirers
-6.900808	admires
-6.548625	admiring
-7.803898	admiringly
-5.586414	admissibility
-5.412963	admissible
-4.998397	admission
-6.025747	admissions
-4.497687	admit
-5.496402	admits
-6.461475	admittance
-4.894877	admitted
-4.831233	admittedly
-5.440286	admitting
-7.502868	admixed
-7.326777	admixing
-6.65777	admixture
-7.201838	admixtures
-6.900808	admonish
-6.900808	admonished
-7.326777	admonishes
-7.104928	admonishing
-7.803898	admonishingly
-7.502868	admonishment
-7.025747	admonishments
-6.762505	admonition
-6.627807	admonitions
-7.104928	admonitory
-6.724717	adn
-6.762505	adnan
-7.502868	adnr
-7.803898	adns
-5.791061	ado
-7.502868	adobe
-7.502868	adoctor
-6.481678	adolescence
-6.25983	adolescent
-5.565852	adolescents
-6.201838	adolf
-6.849656	adolfo
-7.803898	adolph
-7.803898	adolphe
-7.803898	adolphus
-7.502868	adonino
-7.502868	adonis
-7.803898	adonnino
-3.823304	adopt
-7.803898	adoptable
-3.409884	adopted
-7.803898	adoptedthat
-7.803898	adoptees
-7.201838	adopter
-6.849656	adopters
-4.157004	adopting
-3.937492	adoption
-5.597072	adoptions
-6.201838	adoptive
-7.803898	adoptoften
-5.058043	adopts
-7.803898	adorable
-7.025747	adoration
-6.9588	adore
-7.025747	adored
-7.803898	adores
-6.9588	adoring
-6.627807	adorn
-6.627807	adorned
-7.326777	adorning
-7.502868	adornment
-7.803898	adornments
-7.502868	adorns
-7.803898	adovocates
-7.803898	adp
-7.025747	adpic
-6.3415	adr
-7.803898	adra
-7.502868	adraft
-7.502868	adrelated
-7.803898	adrenal
-6.9588	adrenalin
-7.201838	adrenaline
-7.803898	adri
-7.803898	adriaan
-6.481678	adrian
-7.104928	adriana
-7.803898	adriannastase
-7.502868	adriano
-5.762505	adriatic
-7.502868	adriaticionian
-7.326777	adrien
-6.212833	adrift
-6.900808	adroit
-7.326777	adroitly
-7.201838	adroitness
-6.724717	adrover
-7.803898	adrovers
-6.372534	adrs
-6.285384	ads
-7.201838	adsl
-7.803898	adsls
-7.803898	adua
-7.326777	adual
-7.803898	adudis
-7.502868	adulated
-6.762505	adulation
-5.017857	adult
-7.502868	adultderived
-7.803898	adulte
-7.201838	adulteducation
-7.803898	adulterants
-7.104928	adulterate
-6.160445	adulterated
-7.025747	adulterating
-6.44217	adulteration
-7.502868	adulterators
-7.326777	adulterers
-7.803898	adulterines
-7.025747	adulterous
-5.977823	adultery
-6.096328	adulthood
-7.803898	adultmale
-4.938794	adults
-7.201838	adulyadej
-7.803898	adulyadejs
-7.104928	adumbrated
-7.803898	adumbrates
-7.803898	adumim
-7.803898	adumin
-4.317468	advance
-7.502868	advance]
-4.357672	advanced
-5.9588	advancedcountry
-6.525145	advancedeconomy
-7.803898	advancedincome
-7.803898	advancedstatus
-5.372534	advancement
-6.65777	advancements
-4.689287	advances
-7.803898	advancewithout
-5.126291	advancing
-7.803898	advancs
-7.502868	advani
-4.139162	advantage
-6.212833	advantaged
-5.252448	advantageous
-6.900808	advantageously
-4.4332	advantages
-7.803898	advantageseconomic
-7.803898	advantagesis
-7.803898	advantagesnbsp
-5.33703	advent
-5.917407	adventitious
-7.201838	adventitiously
-5.520597	adventure
-7.201838	adventurer
-6.724717	adventurers
-6.033046	adventures
-7.025747	adventuresome
-7.326777	adventuring
-6.423687	adventurism
-7.803898	adventuristic
-6.372534	adventurous
-7.803898	adventurousness
-7.201838	adverb
-7.803898	adverbs
-6.502868	adversarial
-5.735712	adversaries
-7.803898	adversariesegypts
-5.803898	adversary
-7.201838	adversarys
-4.64373	adverse
-5.262319	adversely
-7.025747	adversities
-5.990984	adversity
-6.525145	advert
-7.803898	advertently
-5.799577	advertise
-5.791061	advertised
-5.817126	advertisement
-5.463454	advertisements
-7.803898	advertisementsupported
-7.201838	advertiser
-6.004558	advertisers
-7.025747	advertises
-4.434682	advertising
-7.803898	advertisingbased
-7.803898	advertisingfunded
-7.803898	advertisingliterate
-7.803898	advertisingmarketing
-7.803898	advertisings
-7.803898	advertisingsponsorship
-6.285384	adverts
-4.41847	advice
-7.803898	advicegiving
-7.803898	advicethey
-5.984354	advisability
-5.194304	advisable
-7.803898	advisably
-4.985672	advise
-5.083739	advised
-6.191114	advisedly
-5.366148	adviser
-5.194304	advisers
-7.803898	advisersnbspwere
-6.025747	advises
-5.630712	advising
-5.859415	advisor
-7.803898	advisories
-5.7432	advisors
-4.773703	advisory
-7.803898	advisorymanagement
-5.639545	advocacy
-7.803898	advocacyfocused
-4.604966	advocate
-4.837287	advocated
-6.235696	advocategeneral
-7.201838	advocategenerals
-7.803898	advocatelawyer
-4.760929	advocates
-6.849656	advocatesgeneral
-4.972668	advocating
-7.803898	advocators
-7.502868	advokasi
-7.104928	adware
-6.9588	adwent
-7.803898	adwents
-7.803898	ady
-7.803898	adzhar
-7.201838	adzharia
-7.803898	adzharians
-7.025747	ae
-6.9588	aea
-7.803898	aebf
-7.326777	aec
-7.803898	aecom
-7.803898	aed
-5.607998	aegean
-5.392278	aegis
-7.803898	aegises
-7.803898	aeif
-5.551045	aelvoet
-6.849656	aelvoets
-7.803898	aem
-7.803898	aena
-7.025747	aeneas
-7.502868	aeo
-7.502868	aeons
-7.803898	aeos
-6.312536	aer
-7.803898	aere
-5.803898	aerial
-7.104928	aerials
-7.803898	aerialsurvey
-7.502868	aerobic
-7.803898	aerobics
-6.573449	aerodromes
-7.502868	aerodynamic
-7.803898	aerodynamically
-7.502868	aerodynamics
-7.201838	aeroflot
-7.803898	aeromechanics
-7.326777	aeronautic
-6.018568	aeronautical
-7.803898	aeronauticalspace
-6.048023	aeronautics
-7.803898	aeropagus
-5.576011	aeroplane
-5.44217	aeroplanes
-6.724717	aerosol
-6.298748	aerosols
-5.492144	aerospace
-7.803898	aerospacematra
-7.803898	aerospacerelated
-7.326777	aers
-7.803898	aes
-7.326777	aesa
-7.104928	aeschylus
-7.803898	aesop
-7.201838	aesops
-7.803898	aess
-5.977823	aesthetic
-7.104928	aesthetically
-7.803898	aestheticolegal
-6.627807	aesthetics
-7.803898	aetate
-7.803898	aetiological
-7.803898	aetiology
-6.502868	aetr
-7.803898	aeu
-7.803898	aeurope
-7.803898	aeurorealist
-7.502868	af
-7.803898	afailure
-7.803898	afairly
-7.803898	afak
-7.803898	afanasievich
-7.803898	afanasievsky
-6.285384	afar
-7.201838	afars
-7.803898	afas
-7.803898	afavourable
-7.201838	afc
-7.803898	afcled
-6.525145	afco
-7.803898	afcofel
-6.9588	afd
-6.724717	afdb
-7.803898	afdc
-7.803898	afdlcz
-7.201838	afesip
-6.326777	afet
-7.803898	afets
-7.326777	afetsede
-6.9588	afew
-7.201838	afewerki
-7.803898	afeworkis
-7.326777	affability
-7.803898	affable
-4.761716	affair
-7.803898	affairand
-7.803898	affaire
-6.9588	affaires
-3.505547	affairs
-7.803898	affairsaimed
-7.803898	affairsand
-7.803898	affairsas
-7.803898	affairsfinally
-7.803898	affairsin
-7.803898	affairsmr
-7.803898	affairsrelated
-7.803898	affairss
-7.803898	affairwe
-7.502868	affari
-4.206642	affect
-7.502868	affectation
-3.953129	affected
-7.803898	affectednbsp
-4.469646	affecting
-5.732016	affection
-6.627807	affectionate
-6.803898	affectionately
-7.104928	affections
-6.762505	affective
-7.803898	affectively
-7.803898	affectivemotivational
-7.502868	affectivity
-4.419903	affects
-7.803898	afferent
-7.025747	affidavit
-7.326777	affidavits
-6.724717	affiliate
-5.977823	affiliated
-6.224114	affiliates
-7.502868	affiliating
-5.683324	affiliation
-6.04047	affiliations
-6.272419	affinities
-5.95264	affinity
-5.273698	affirm
-5.525145	affirmation
-6.3415	affirmations
-5.680046	affirmative
-7.201838	affirmativeaction
-7.201838	affirmatively
-5.578588	affirmed
-5.633636	affirming
-5.8694	affirms
-6.689955	affix
-6.525145	affixed
-6.372534	affixing
-6.05571	afflict
-5.534385	afflicted
-5.724717	afflicting
-6.627807	affliction
-6.689955	afflictions
-6.25983	afflicts
-6.096328	affluence
-7.803898	affluencetesting
-5.63658	affluent
-7.326777	affluents
-4.481885	afford
-5.879619	affordability
-4.877041	affordable
-7.803898	affordablecare
-7.502868	affordablehousing
-7.201838	affordably
-5.127204	afforded
-5.977823	affording
-5.639545	affords
-7.803898	afforest
-6.018568	afforestation
-7.104928	afforested
-7.326777	affray
-5.586414	affront
-6.9588	affronted
-7.803898	affronting
-7.201838	affronts
-7.803898	affrsvrlden
-7.803898	affsa
-4.776141	afghan
-7.803898	afghanaid
-6.724717	afghani
-7.502868	afghaninternational
-7.803898	afghaniran
-7.025747	afghanis
-7.104928	afghanisation
-4.173877	afghanistan
-7.803898	afghanistani
-6.724717	afghanistanpakistan
-5.500702	afghanistans
-7.803898	afghanistanstyle
-7.803898	afghanization
-7.025747	afghanled
-7.803898	afghanlike
-7.104928	afghanpakistan
-7.502868	afghanpakistani
-5.586414	afghans
-7.502868	afi
-7.104928	aficionado
-7.502868	aficionados
-5.911803	afield
-7.803898	afif
-7.803898	afifi
-7.803898	afigureskating
-7.803898	afinal
-7.803898	afinancial
-7.803898	afis
-6.372534	afiuni
-7.502868	afiunis
-7.502868	afjp
-7.502868	afjps
-7.201838	aflame
-7.502868	aflatoxin
-7.803898	aflatoxins
-7.502868	aflcio
-5.854508	afloat
-7.803898	aflood
-7.803898	afnagel
-7.803898	afnahel
-7.803898	afonso
-7.502868	afood
-6.011506	afoot
-5.10233	aforementioned
-5.965049	aforesaid
-7.803898	aform
-6.689955	afoul
-6.9588	afp
-7.201838	afpak
-4.495974	afraid
-7.803898	aframework
-5.911803	afresh
-3.84357	africa
-7.502868	africa#x
-7.803898	africa]
-7.803898	africaa
-7.803898	africaare
-7.803898	africacaribbeanpacific
-7.803898	africacentric
-7.326777	africachina
-7.803898	africadominated
-6.191114	africaeu
-7.326777	africaeurope
-7.326777	africaeuropean
-7.803898	africafocused
-7.803898	africaindeed
-7.803898	africajapan
-7.803898	africamozambique
-4.121392	african
-7.104928	africana
-7.803898	africanallocated
-6.326777	africanamerican
-6.502868	africanamericans
-7.502868	africanbased
-7.803898	africanbrazilian
-7.803898	africanbrazilians
-7.502868	africancaribbeanpacific
-7.502868	africaneurasian
-7.502868	africaneuropean
-7.803898	africanised
-7.502868	africanled
-7.803898	africanmissioninburundi
-7.803898	africanowned
-5.119951	africans
-7.803898	africansand
-7.803898	africanstyle
-7.803898	africanunion
-4.919103	africas
-6.849656	africau
-7.104928	africawide
-7.326777	africom
-7.803898	afridi
-6.481678	afrika
-7.502868	afrikaans
-7.326777	afrikaner
-7.502868	afrikaners
-7.502868	afrique
-7.104928	afroamerican
-7.502868	afroamericans
-7.803898	afroarab
-7.803898	afrobarometer
-7.803898	afrobrazilian
-7.803898	afrocaribbean
-7.803898	afrocaribbeans
-7.502868	afrocolombian
-7.803898	afroliner
-7.502868	afropessimism
-7.803898	afshin
-7.803898	afshinjam
-6.44217	afsj
-6.803898	afssa
-7.502868	aft
-7.502868	aftenposten
-3.28036	after
-7.803898	aftera
-7.803898	afteraction
-7.803898	afterburners
-6.405958	aftercare
-7.502868	afterclosure
-7.502868	afterdinner
-7.803898	aftereffect
-6.224114	aftereffects
-7.104928	afterglow
-7.803898	aftergood
-7.803898	afterimage
-6.9588	afterlife
-7.803898	afterlisbon
-7.803898	aftermadrid
-6.65777	aftermarket
-7.803898	aftermarkets
-5.012909	aftermath
-7.803898	afternbspsatyarthinbsprescued
-4.485626	afternoon
-5.541447	afternoons
-7.803898	afteropening
-7.201838	aftersale
-6.224114	aftersales
-6.849656	afterschool
-7.326777	aftershave
-7.502868	aftershock
-6.502868	aftershocks
-6.525145	aftertaste
-6.312536	aftertax
-7.803898	aftertheevent
-7.502868	afterthefact
-6.247595	afterthought
-7.803898	aftertreatment
-6.525145	afterward
-4.94416	afterwards
-7.326777	aftonbladet
-7.803898	afula
-7.803898	afull
-7.803898	afundamental
-7.326777	afuture
-7.803898	afwerkis
-7.803898	afxentiou
-7.803898	afzal
-7.502868	afzali
-6.05571	ag
-7.803898	aga
-6.224114	agadir
-6.689955	agag
-3.350274	again
-7.104928	again]
-7.803898	againfor
-7.803898	againheckling
-7.803898	againit
-7.803898	againmay
-7.502868	againn
-7.803898	againnbsp
-7.803898	againne
-3.056704	against
-7.803898	againsts
-7.803898	againthere
-7.803898	againwell
-6.9588	agam
-6.762505	agama
-7.502868	agamben
-7.803898	agamemnon
-6.212833	agar
-7.803898	agat
-7.502868	agathon
-6.762505	agboyibo
-4.089401	age
-7.803898	ageand
-7.803898	ageappropriate
-7.803898	ageassessment
-7.104928	agebased
-7.326777	agecc
-7.803898	ageclimate
-7.803898	ageconscious
-5.15359	aged
-7.803898	agediscrimination
-7.803898	agee
-7.326777	agegroups
-4.647955	ageing
-7.104928	ageingrelated
-6.689955	ageism
-7.803898	ageist
-7.803898	agelabelled
-7.104928	agelimit
-7.803898	agelong
-7.803898	agemanagement
-7.803898	agen
-6.44217	agence
-4.085147	agencies
-7.803898	agenciesnbspnot
-3.926642	agency
-7.803898	agencybased
-7.803898	agencyenergy
-7.502868	agencying
-7.502868	agencyitis
-7.803898	agencyled
-7.803898	agencyolism
-5.100606	agencys
-7.803898	agencystyle
-7.803898	agencythe
-7.803898	agencyto
-3.644872	agenda
-7.803898	agendaand
-7.502868	agendadriven
-7.803898	agendai
-7.803898	agendaincluding
-7.803898	agendarelated
-5.182722	agendas
-7.803898	agendasby
-7.803898	agendasetter
-6.65777	agendasetting
-7.803898	agendashaping
-7.803898	agendathe
-7.803898	agender
-7.803898	agenerally
-5.328227	agent
-7.803898	agentbanking
-7.803898	agentbased
-7.803898	agentdysl
-4.77492	agents
-7.803898	agenuine
-7.803898	ageofconsent
-5.664019	ageold
-7.803898	agepyramid
-6.35674	agerelated
-7.803898	agerman
-5.062747	ages
-7.803898	agesincrease
-7.803898	ageslike
-7.803898	agesold
-7.502868	agespecific
-7.803898	agespread
-7.803898	agestandardized
-7.803898	agestyle
-7.803898	agewncy
-7.201838	agf
-7.201838	agfs
-7.803898	aggermany
-7.803898	aggiornamento
-7.502868	agglomerate
-7.803898	agglomerated
-6.573449	agglomeration
-6.298748	agglomerations
-7.803898	aggrandisation
-7.803898	aggrandisement
-7.803898	aggrandized
-7.803898	aggrandizement
-7.803898	aggrandizer
-7.803898	aggrandizing
-5.619206	aggravate
-5.451715	aggravated
-6.071504	aggravates
-5.660883	aggravating
-6.44217	aggravation
-7.502868	aggravations
-5.166408	aggregate
-6.285384	aggregated
-7.025747	aggregatedemand
-7.803898	aggregateoutput
-6.3415	aggregates
-6.900808	aggregating
-6.312536	aggregation
-7.104928	aggregations
-7.326777	aggregators
-7.803898	aggressed
-4.947773	aggression
-6.762505	aggressions
-4.794872	aggressive
-5.576011	aggressively
-6.180649	aggressiveness
-5.965049	aggressor
-6.063535	aggressors
-6.25983	aggrieved
-7.803898	aggro
-7.803898	aggtelek
-7.326777	agh
-7.502868	agha
-7.803898	aghaidh
-6.762505	aghajari
-7.502868	aghajaris
-7.025747	aghasoltan
-6.849656	aghast
-7.803898	aghion
-7.803898	agila
-6.298748	agile
-7.803898	agilely
-6.599778	agility
-7.803898	agim
-7.201838	agincourt
-5.243991	aging
-7.803898	agingrelated
-7.803898	agings
-7.104928	agios
-7.502868	agip
-7.803898	agir
-6.900808	agis
-6.849656	agitate
-6.3415	agitated
-7.502868	agitates
-6.481678	agitating
-6.122657	agitation
-7.803898	agitationas
-7.502868	agitations
-7.104928	agitator
-6.65777	agitators
-7.326777	agitprop
-7.803898	agius
-7.803898	agiza
-7.502868	agley
-7.803898	aglia
-6.04047	aglietta
-7.502868	agliettas
-7.803898	aglobalising
-7.803898	aglona
-7.803898	aglow
-7.803898	agms
-6.9588	agnelli
-7.025747	agnes
-7.025747	agnew
-7.803898	agnews
-7.803898	agni
-6.17043	agnoletto
-7.502868	agnolettos
-6.481678	agnostic
-7.326777	agnosticism
-6.900808	agnostics
-7.502868	agnostik
-7.803898	agnus
-3.606121	ago
-7.803898	ago]
-6.900808	agoa
-7.502868	agoas
-7.803898	agofor
-7.201838	agog
-7.502868	agolli
-7.803898	agomay
-7.803898	agong
-7.025747	agonies
-6.900808	agonise
-7.502868	agonised
-6.405958	agonising
-7.803898	agonisingly
-7.803898	agonist
-7.326777	agonistes
-7.502868	agonists
-7.025747	agonize
-7.025747	agonized
-7.502868	agonizes
-6.44217	agonizing
-7.025747	agonizingly
-5.88482	agony
-7.201838	agood
-6.44217	agora
-7.803898	agores
-7.803898	agos
-7.326777	agostinho
-7.502868	agostini
-7.326777	agostino
-7.803898	agota
-7.502868	agov
-7.803898	agovernment
-7.803898	agovs
-7.803898	agowill
-7.502868	agpl
-7.502868	agra
-7.025747	agrade
-7.803898	agrades
-7.803898	agradual
-7.803898	agramantes
-6.048023	agrarian
-7.803898	agrarianbased
-7.803898	agrariandevelopment
-7.803898	agrarians
-7.803898	agrarpolitik
-7.803898	agratifying
-7.803898	agrave
-7.502868	agreat
-7.502868	agreater
-3.426847	agree
-5.735712	agreeable
-7.502868	agreeably
-7.803898	agreeand
-3.752128	agreed
-7.803898	agreednevertheless
-6.849656	agreedupon
-4.860404	agreeing
-7.803898	agreeis
-3.1264	agreement
-7.803898	agreementa
-7.803898	agreementas
-7.104928	agreementbased
-7.803898	agreementclarification
-7.803898	agreementconstitutes
-7.803898	agreementfor
-7.803898	agreementindeed
-7.803898	agreementis
-7.803898	agreementit
-7.803898	agreementquestion
-3.606287	agreements
-7.803898	agreementsalgeria
-7.803898	agreementseeking
-7.803898	agreementsepa
-7.803898	agreementsin
-7.803898	agreementsis
-7.803898	agreementsstabilisation
-7.803898	agreementstaking
-7.803898	agreementswith
-7.803898	agreementvote
-7.803898	agreementwhen
-7.803898	agreemetn
-7.803898	agreenbsp
-4.576011	agrees
-7.803898	agreing
-7.803898	agrement
-7.502868	agresif
-7.803898	agression
-7.803898	agrevo
-6.25983	agri
-7.803898	agribreeding
-7.803898	agribudget
-6.096328	agribusiness
-7.803898	agribusinessbreeding
-6.599778	agribusinesses
-7.803898	agrichemical
-7.803898	agrichemicals
-7.502868	agricole
-7.803898	agricompensation
-3.63077	agricultural
-7.326777	agriculturalbased
-7.803898	agriculturaleconomic
-7.803898	agriculturalenvironment
-7.803898	agriculturalenvironmental
-7.502868	agriculturalextension
-6.803898	agriculturalists
-6.762505	agriculturally
-7.803898	agriculturallyeconomically
-7.803898	agriculturalproduct
-7.803898	agriculturalrural
-7.803898	agriculturalsupport
-7.803898	agriculturaltraining
-3.748405	agriculture
-7.803898	agricultureand
-7.326777	agriculturebased
-7.803898	agriculturecouncil
-7.502868	agriculturedependent
-7.803898	agriculturedriven
-7.803898	agricultureenvironment
-7.502868	agriculturefood
-7.803898	agricultureis
-7.201838	agricultureled
-7.803898	agricultureministers
-7.502868	agricultureonly
-7.803898	agriculturerelated
-7.502868	agriculturerural
-5.997718	agricultures
-7.803898	agriculturespecific
-7.803898	agriculturist
-7.803898	agriculturists
-7.803898	agridairy
-6.724717	agrienvironment
-5.940575	agrienvironmental
-7.803898	agrienvironmentalists
-7.803898	agrifeed
-7.803898	agrificatie
-7.326777	agrification
-7.803898	agrifisheries
-5.599778	agrifood
-6.762505	agrifoods
-7.025747	agrifoodstuff
-6.326777	agrifoodstuffs
-7.104928	agriforestry
-7.502868	agrifuels
-7.502868	agrigente
-7.326777	agriindustrial
-7.201838	agriindustry
-7.803898	agrimining
-5.906271	agrimonetary
-7.803898	agripolitical
-7.803898	agrirural
-7.803898	agrisector
-6.525145	agritourism
-7.201838	agro
-7.803898	agrobiologists
-7.803898	agrobiotechnology
-7.104928	agrobusiness
-7.502868	agrobusinesses
-6.65777	agrochemical
-6.762505	agrochemicals
-7.803898	agroclimatic
-7.803898	agrodealer
-7.803898	agrodealers
-7.326777	agrodiesel
-7.803898	agrodiversity
-7.201838	agroecological
-7.326777	agroecology
-7.803898	agroenergy
-6.481678	agroenvironmental
-6.423687	agrofood
-7.502868	agrofoodstuff
-7.502868	agrofoodstuffs
-6.900808	agroforestry
-7.025747	agrofuel
-6.502868	agrofuels
-6.326777	agroindustrial
-7.326777	agroindustries
-6.525145	agroindustry
-7.803898	agroislea
-7.803898	agromediterranean
-7.201838	agrometeorological
-7.502868	agromonetary
-6.35674	agronomic
-7.803898	agronomical
-7.502868	agronomist
-7.201838	agronomy
-7.803898	agropastoral
-7.502868	agropastoralists
-7.803898	agropecuria
-7.803898	agropiracy
-7.201838	agroprocessing
-7.502868	agrotechnical
-6.803898	agrotourism
-6.011506	aground
-7.803898	agslacht
-7.502868	aguas
-7.803898	agudn
-7.803898	agued
-7.502868	aguiar
-6.25983	aguilar
-7.803898	aguilera
-6.9588	aguirre
-7.326777	agung
-6.113702	agus
-6.849656	agusta
-7.803898	agustadassault
-7.803898	agustin
-7.803898	agustina
-6.573449	agustn
-7.803898	agustus
-7.803898	agw
-7.803898	agwai
-7.803898	agway
-7.803898	agyros
-6.191114	ah
-7.104928	aha
-7.803898	ahab
-7.803898	ahamad
-7.803898	ahappy
-7.104928	ahari
-7.803898	aharon
-7.502868	aharonot
-4.080032	ahead
-7.502868	ahealthy
-5.513864	ahern
-6.65777	aherns
-7.326777	ahigh
-7.502868	ahighly
-7.502868	ahin
-7.201838	ahistorical
-7.803898	ahistoricism
-7.803898	ahl
-7.803898	ahlehadith
-7.201838	ahli
-7.803898	ahlmark
-7.502868	ahlquist
-6.212833	ahlqvist
-7.201838	ahlqvists
-7.803898	ahlston
-7.502868	ahluwalia
-6.180649	ahmad
-6.599778	ahmadi
-7.803898	ahmadian
-7.803898	ahmadias
-7.803898	ahmadies
-5.393965	ahmadinejad
-5.849656	ahmadinejads
-7.502868	ahmadinejhad
-6.627807	ahmadis
-6.9588	ahmadiyya
-7.803898	ahmadiyyah
-7.803898	ahmadiyyas
-7.502868	ahmadou
-7.803898	ahmadquray
-7.502868	ahmads
-7.502868	ahmadu
-5.859415	ahmed
-7.502868	ahmedabad
-6.201838	ahmedinejad
-6.627807	ahmedinejads
-7.803898	ahmeds
-7.803898	ahmedzakayev
-6.548625	ahmet
-7.803898	ahmo
-6.481678	ahn
-7.201838	ahns
-7.502868	aho
-7.502868	ahold
-7.803898	aholdsuperdiplo
-7.803898	ahora
-7.803898	ahoy
-7.326777	ahronot
-7.201838	ahsan
-7.803898	ahtasaari
-5.639545	ahtisaari
-7.803898	ahtisaarirohan
-6.326777	ahtisaaris
-7.803898	ahtisari
-7.502868	ahtissari
-7.803898	ahuge
-7.803898	ahvaz
-7.803898	ahwad
-7.502868	ahwaz
-7.201838	ahwazi
-5.997718	ai
-7.502868	aia
-7.502868	aichi
-7.803898	aici
-7.025747	aics
-3.400194	aid
-7.326777	aida
-7.803898	aidan
-7.803898	aidandtrade
-7.803898	aidassisted
-7.502868	aidbased
-7.502868	aidco
-7.803898	aidconstituting
-7.803898	aidcos
-6.405958	aidcp
-7.803898	aiddelivery
-7.803898	aiddependence
-7.326777	aiddependency
-7.025747	aiddependent
-6.525145	aide
-5.597072	aided
-7.803898	aideed
-7.803898	aidememoire
-7.104928	aidemmoire
-7.803898	aider
-7.803898	aiders
-6.113702	aides
-7.803898	aidfinanced
-7.803898	aidfordevelopment
-7.025747	aidfortrade
-7.502868	aidgiving
-7.326777	aidhm
-5.696688	aiding
-7.803898	aidit
-7.803898	aidless
-7.803898	aidmore
-7.803898	aidoriented
-7.803898	aidos
-7.803898	aidpertree
-7.803898	aidproperty
-7.803898	aidproviding
-7.502868	aidreceiving
-7.502868	aidrecipient
-7.803898	aidrelated
-4.510978	aids
-7.803898	aidshilfe
-6.689955	aidshiv
-7.803898	aidsinfected
-6.900808	aidsrelated
-7.803898	aidstype
-7.803898	aidsun
-7.502868	aidsupported
-7.803898	aidthere
-7.803898	aidthis
-7.803898	aidto
-7.803898	aidtogdp
-7.502868	aidtype
-7.803898	aidwhile
-7.803898	aidworkers
-7.502868	aiea
-7.326777	aiello
-6.803898	aiem
-6.803898	aifm
-6.011506	aig
-7.326777	aige
-7.803898	aigestortes
-7.803898	aiglike
-6.803898	aigner
-7.502868	aigs
-7.803898	aiguesmortes
-7.502868	aihrc
-5.700094	aiib
-7.803898	aiibfinanced
-6.573449	aiibs
-7.803898	aiii
-7.803898	ailac
-7.502868	ailacs
-5.849656	ailing
-6.762505	ailment
-6.201838	ailments
-6.803898	ails
-3.738767	aim
-7.803898	aimad
-7.803898	aimai
-7.803898	aiman
-3.925376	aimed
-7.803898	aimf
-4.793598	aiming
-7.201838	aimless
-7.025747	aimlessly
-7.803898	aimlessness
-7.803898	aimof
-4.052927	aims
-7.803898	aimsecondly
-7.201838	ain
-7.803898	ainak
-7.803898	ainara
-5.965049	ainardi
-7.025747	ainardis
-7.326777	ainsi
-6.548625	aint
-7.803898	ainu
-7.803898	aio
-7.803898	aip
-6.573449	aipac
-7.201838	aipacs
-7.025747	aipcd
-7.326777	aipmc
-7.803898	aipn
-7.502868	aipo
-3.901297	air
-7.803898	airair
-7.803898	airassistance
-6.762505	airbag
-6.627807	airbags
-7.025747	airbaltic
-6.9588	airbase
-7.326777	airbased
-7.025747	airbases
-6.525145	airbnb
-7.326777	airbnbs
-7.803898	airbnbtype
-7.803898	airbomb
-7.803898	airborder
-6.104928	airborne
-7.803898	airborne*
-7.104928	airbrush
-6.900808	airbrushed
-5.347532	airbus
-7.025747	airbusboeing
-7.326777	airbuses
-7.803898	airbushosted
-6.689955	airbuss
-7.803898	airc
-7.803898	aircarrier
-7.803898	aircarriers
-7.803898	aircombat
-6.900808	airconditioned
-7.803898	airconditioners
-6.05571	airconditioning
-7.502868	aircontrol
-7.803898	aircontroller
-7.803898	aircooled
-4.526747	aircraft
-7.803898	aircraftbuilding
-7.502868	aircraftcarrier
-6.461475	aircrafts
-7.803898	aircrash
-6.849656	aircrew
-7.326777	aircrews
-7.803898	aird
-7.803898	airdefence
-6.689955	airdefense
-7.803898	airdrop
-7.104928	airdrops
-7.104928	aire
-5.934666	aired
-5.494268	aires
-7.803898	airessantiago
-7.803898	aireswashington
-7.803898	airfare
-6.803898	airfares
-7.803898	airfast
-7.104928	airfield
-6.849656	airfields
-7.326777	airforce
-7.502868	airforces
-7.803898	airframes
-7.502868	airfreight
-7.803898	airgeadais
-7.803898	airground
-7.502868	airily
-6.44217	airing
-7.803898	airkilometres
-7.803898	airlanded
-7.803898	airless
-7.803898	airlib
-6.573449	airlift
-7.201838	airlifted
-4.87499	airline
-6.481678	airliner
-7.025747	airliners
-4.468039	airlines
-7.502868	airlineticket
-7.803898	airmail
-7.803898	airmails
-7.803898	airman
-7.502868	airmanship
-7.201838	airmen
-7.803898	airmiles
-7.803898	airnavigation
-7.502868	airplaced
-6.150685	airplane
-6.235696	airplanes
-7.326777	airpocalypse
-7.502868	airpolluting
-7.326777	airpollution
-4.654371	airport
-7.803898	airportbased
-7.803898	airportbyairport
-7.803898	airportcharging
-4.524231	airports
-7.803898	airportss
-7.803898	airportsthe
-7.025747	airpower
-7.803898	airproof
-6.65777	airquality
-7.803898	airraid
-7.803898	airraiding
-7.803898	airraidtype
-7.025747	airs
-7.803898	airsea
-7.803898	airservice
-7.502868	airship
-7.803898	airships
-7.104928	airside
-7.803898	airsole
-4.963165	airspace
-7.803898	airspacehowever
-7.803898	airspacerelated
-7.025747	airspaces
-7.803898	airstrike
-6.191114	airstrikes
-7.502868	airstrip
-7.326777	airstrips
-7.803898	airtaxis
-7.803898	airtech
-7.803898	airtel
-7.803898	airtex
-7.803898	airticket
-6.803898	airtight
-6.724717	airtime
-7.326777	airtoair
-7.803898	airtours
-7.326777	airtoursfirst
-6.689955	airtraffic
-7.803898	airtrain
-6.900808	airtransport
-6.548625	airwaves
-7.803898	airway
-5.710476	airways
-7.502868	airwaysamerican
-6.44217	airworthiness
-7.326777	airworthy
-7.104928	airy
-7.502868	airyfairy
-6.803898	ais
-7.803898	aisa
-7.803898	aise
-7.104928	aish
-6.573449	aisha
-7.326777	aishas
-7.803898	aishatu
-7.803898	aishwarya
-7.803898	aisik
-6.9588	aisle
-6.900808	aisles
-7.803898	aism
-7.803898	aisteach
-7.803898	aisyiyah
-7.326777	ait
-7.803898	aita
-7.803898	aitas
-7.803898	aithne
-7.803898	aitkins
-7.803898	aitmatov
-7.502868	aitzaz
-7.803898	aiud
-7.803898	aix
-7.502868	aixlachapelle
-7.326777	aj
-7.025747	aja
-7.803898	ajaccio
-7.803898	ajanta
-7.025747	ajar
-7.502868	ajaran
-7.025747	ajaria
-7.803898	ajas
-7.025747	ajax
-7.803898	ajelle
-6.285384	ajello
-7.201838	ajellos
-7.201838	ajk
-6.900808	ajka
-7.803898	ajouter
-7.502868	ajp
-7.803898	ajri
-7.803898	ajudge
-7.803898	ajume
-7.803898	ajuriaenea
-6.461475	ak
-7.104928	aka
-7.201838	akademi
-7.803898	akademik
-7.803898	akademisi
-7.502868	akaev
-7.803898	akagi
-7.803898	akal
-7.803898	akali
-7.803898	akam
-7.502868	akamatsu
-5.191114	akan
-7.326777	akar
-7.803898	akarcali
-7.502868	akari
-7.803898	akariprovince
-7.803898	akarnya
-7.803898	akat
-6.900808	akayev
-6.25983	akbar
-7.803898	akbari
-7.803898	akberg
-7.201838	akbulut
-7.502868	akcja
-7.502868	akedova
-7.502868	akel
-7.502868	aker
-6.689955	akerlof
-7.326777	akerlofs
-7.803898	akerson
-7.803898	akessons
-7.326777	akey
-7.803898	akha
-7.201838	akhalgori
-6.481678	akhir
-6.9588	akhirakhir
-6.405958	akhirnya
-7.502868	akhmad
-7.326777	akhmadov
-7.803898	akhmat
-7.502868	akhmatova
-6.900808	akhmed
-7.803898	akhmedilov
-7.502868	akhmetov
-7.803898	akhter
-7.803898	akhzouri
-7.502868	aki
-6.201838	akibat
-6.724717	akibatnya
-7.502868	akihito
-7.025747	akihitos
-7.025747	akim
-5.35674	akin
-7.201838	akinci
-7.803898	akincis
-7.201838	akio
-7.803898	akir
-7.803898	akis
-7.803898	akit
-7.803898	akiyurt
-7.326777	akkadian
-7.803898	akkas
-7.025747	akkuyu
-7.803898	akky
-7.803898	akkyu
-7.502868	akmal
-7.502868	aknowledgebased
-7.803898	akok
-7.502868	akouri
-7.803898	akouyiou
-5.654679	akp
-7.803898	akpinitiated
-6.298748	akps
-7.803898	akrilimida
-7.104928	akrotiri
-7.803898	akroum
-7.502868	aksa
-7.502868	aksai
-7.803898	aksaintifidah
-7.803898	aksara
-7.803898	aksenenko
-6.502868	akses
-6.573449	aksi
-7.502868	aksyonov
-7.502868	akt
-7.803898	aktham
-7.803898	akthamnaisseh
-7.104928	aktif
-7.803898	aktisari
-7.201838	aktivis
-7.803898	aktivisakvitis
-6.849656	aktivitas
-7.803898	aktor
-7.326777	aktuell
-7.803898	aktush
-7.803898	akui
-7.803898	akuifer
-7.502868	akula
-7.803898	akuntabel
-7.502868	akuntabilitas
-7.803898	akuntasi
-7.326777	akurat
-7.803898	akut
-7.803898	akuyu
-7.803898	akyol
-4.927103	al
-6.1318	ala
-7.803898	alaa
-7.803898	alaaalaswany
-7.803898	alaadin
-7.803898	alaali
-7.502868	alabadi
-6.689955	alabama
-7.803898	alabdullah
-7.326777	alabidine
-7.803898	alace
-6.627807	alacrity
-7.803898	aladawiyya
-7.803898	aladdins
-7.201838	aladly
-7.502868	aladlys
-7.502868	alaei
-7.326777	alafghani
-7.803898	alahad
-7.201838	alahmad
-7.803898	alahmar
-7.502868	alai
-5.874479	alain
-7.502868	alajos
-7.104928	alakrana
-7.502868	alaksa
-7.803898	alaksiej
-7.803898	alaldys
-7.502868	alalqami
-7.803898	alalqamis
-7.803898	alalunga
-6.44217	alam
-7.803898	alamara
-7.803898	alamdaar
-6.9588	alami
-7.803898	alamiah
-7.803898	alaminya
-7.502868	alamma
-7.502868	alamn
-7.104928	alamos
-7.803898	alamud
-5.31394	alan
-7.502868	aland
-7.502868	alandalus
-7.803898	alang
-6.9588	alans
-7.803898	alaqima
-6.502868	alaqsa
-7.104928	alara
-7.803898	alarab
-7.326777	alarabiya
-7.803898	alarabiyeh
-7.803898	alaraby
-7.803898	alarcn
-7.201838	alarge
-7.803898	alargemarket
-7.803898	alaria
-7.803898	alaric
-5.016438	alarm
-7.803898	alarmbell
-5.423687	alarmed
-4.73018	alarming
-5.728351	alarmingly
-6.423687	alarmism
-5.95264	alarmist
-6.689955	alarmists
-6.17043	alarms
-5.212833	alas
-7.803898	alas]
-7.803898	alasala
-6.525145	alasan
-7.502868	alasanalasan
-7.502868	alasannya
-7.803898	alasdair
-6.388925	alaska
-7.201838	alaskan
-7.803898	alaskans
-7.502868	alaskariyya
-7.803898	alaskas
-7.803898	alasqa
-5.689955	alassad
-5.826174	alassads
-7.803898	alassal
-6.502868	alassane
-7.326777	alastair
-7.803898	alasting
-7.803898	alaswany
-6.900808	alat
-7.803898	alatas
-7.803898	alatassi
-7.803898	alathar
-5.411201	alavanos
-6.724717	alavanoss
-7.803898	alavi
-7.803898	alavites
-7.326777	alawi
-6.224114	alawite
-7.803898	alawitedominated
-7.803898	alawiteled
-7.803898	alawiteminority
-7.803898	alawiteruled
-6.44217	alawites
-7.803898	alawites#
-7.502868	alawiteshia
-7.502868	alawlaki
-7.803898	alawlakis
-7.803898	alawsat
-7.201838	alazhar
-7.803898	alazhary
-7.803898	alaziz
-7.502868	alaziziya
-7.803898	alazm
-7.803898	alazms
-6.018568	alba
-7.803898	albacan
-7.502868	albacete
-7.326777	albacore
-7.803898	albadeel
-7.803898	albadr
-7.803898	albadri
-6.900808	albaghdadi
-6.9588	alban
-7.803898	albani
-4.557646	albania
-4.883775	albanian
-7.803898	albanianeu
-7.803898	albanianinhabited
-7.502868	albanianisation
-7.803898	albanianmacedonian
-7.326777	albanianmajority
-7.502868	albanianpopulated
-5.14114	albanians
-7.502868	albanianserbian
-7.803898	albanianspeakers
-6.65777	albanianspeaking
-5.8694	albanias
-7.326777	albanna
-7.803898	albans
-7.326777	albany
-7.803898	albar
-7.803898	albara
-7.803898	albaraka
-7.803898	albardawil
-7.803898	albared
-7.803898	albas
-5.879619	albashir
-6.9588	albashirs
-7.803898	albastawisy
-7.201838	albatross
-7.502868	albatrosses
-7.803898	albdekin
-7.502868	albedo
-4.612447	albeit
-6.17043	alber
-7.803898	albergo
-7.803898	alberico
-7.025747	albers
-5.8694	albert
-6.762505	alberta
-7.326777	albertan
-7.803898	albertas
-7.803898	albertcamus
-7.502868	alberteinstein
-5.724717	albertini
-6.548625	albertinis
-6.298748	alberto
-7.803898	albertville
-7.326777	albin
-7.104928	albinism
-6.3415	albino
-7.803898	albinonis
-6.212833	albinos
-7.201838	albion
-7.104928	albor
-6.689955	albrecht
-6.063535	albright
-6.9588	albrights
-7.803898	albu
-7.803898	albufera
-7.025747	album
-7.803898	albumen
-7.803898	albumin
-7.502868	albums
-7.803898	albuni
-6.900808	albunni
-7.803898	albunnis
-7.502868	albuquerque
-7.803898	alburnus
-7.326777	alca
-7.502868	alcal
-7.502868	alcan
-6.627807	alcatel
-7.803898	alcatelespaa
-7.803898	alcatellucent
-6.849656	alcatraz
-7.803898	alcec
-7.803898	alchemies
-7.502868	alchemist
-6.9588	alchemists
-6.461475	alchemy
-7.803898	alchuk
-6.405958	alcide
-7.502868	alcidedegasperi
-7.803898	alckmin
-7.803898	alcntara
-6.900808	alcoa
-4.548867	alcohol
-7.803898	alcoholdependent
-7.803898	alcoholfree
-5.3415	alcoholic
-7.803898	alcoholicrelated
-6.849656	alcoholics
-5.844857	alcoholism
-7.803898	alcoholismawareness
-7.502868	alcoholized
-7.803898	alcoholometry
-6.018568	alcoholrelated
-6.762505	alcohols
-7.803898	alcoholuse
-7.803898	alcopop
-6.372534	alcopops
-7.803898	alcopoptype
-7.803898	alcove
-7.803898	alcue
-7.326777	alczar
-7.803898	aldam
-7.803898	aldawa
-7.803898	aldawla
-4.678417	alde
-6.461475	aldea
-7.201838	aldeadle
-7.803898	aldeas
-7.502868	aldebaqbasi
-7.803898	aldede
-7.803898	aldeliberal
-7.803898	alderdice
-7.803898	alderman
-7.803898	aldermans
-7.803898	aldermaston
-7.803898	aldermen
-7.502868	aldes
-7.803898	aldhouse
-7.025747	aldin
-7.803898	aldins
-7.326777	aldis
-6.071504	aldo
-7.502868	aldonas
-7.201838	aldos
-6.9588	aldous
-7.803898	aldrin
-6.573449	ale
-7.326777	alec
-7.803898	alegal
-7.803898	alegeciras
-5.680046	alegre
-7.803898	aleh
-7.803898	aleisawi
-7.803898	aleixandre
-6.388925	alejandro
-6.573449	alejo
-7.502868	alekhina
-6.461475	aleksander
-7.803898	aleksanderkwaniewski
-7.025747	aleksandr
-7.803898	aleksandra
-7.326777	aleksanyan
-7.803898	alekseeva
-7.502868	aleksei
-7.803898	aleksejev
-7.803898	aleksey
-7.803898	alema
-7.803898	alemannians
-6.900808	alemn
-7.326777	alencar
-7.803898	alenia
-7.803898	alentejanas
-6.762505	alentejo
-7.803898	aleph
-6.372534	aleppo
-7.502868	aleppos
-4.998397	alert
-7.803898	alerte
-5.758575	alerted
-6.247595	alerting
-7.502868	alertly
-6.762505	alertness
-5.934666	alerts
-6.65777	ales
-6.689955	alesina
-7.104928	alesinas
-7.803898	aleskerov
-7.326777	alessandra
-7.803898	alessandria
-6.849656	alessandro
-7.502868	alevel
-7.803898	alevels
-7.803898	aleves
-7.104928	alevi
-7.803898	alevins
-6.900808	alevis
-7.803898	alevists
-7.025747	alevites
-6.191114	alex
-7.502868	alexa
-7.803898	alexandar
-5.197516	alexander
-7.502868	alexanderplatz
-7.502868	alexanders
-7.025747	alexandr
-7.025747	alexandra
-6.372534	alexandre
-7.803898	alexandretta
-6.247595	alexandria
-7.803898	alexandrian
-7.803898	alexandrine
-6.25983	alexandros
-7.502868	alexandroupolis
-7.803898	alexandroupolos
-7.502868	alexandrovich
-6.900808	alexandru
-7.201838	alexanyan
-7.803898	alexe
-6.405958	alexei
-7.803898	alexejeva
-7.326777	alexey
-6.9588	alexeyeva
-7.502868	alexeyivich
-7.201838	alexi
-7.502868	alexia
-6.762505	alexievich
-7.104928	alexievichs
-7.803898	alexinatz
-6.14114	alexis
-7.803898	alexstubbcom
-7.201838	alexy
-7.201838	alf
-6.548625	alfa
-7.803898	alfahura
-7.502868	alfaisal
-7.104928	alfalfa
-7.803898	alfama
-7.326777	alfanek
-6.502868	alfano
-7.803898	alfanos
-7.803898	alfanyurt
-7.502868	alfarra
-7.803898	alfaruqi
-7.502868	alfashir
-6.849656	alfatah
-7.803898	alfateh
-7.803898	alfattah
-7.803898	alfio
-7.803898	alfld
-7.326777	alfons
-7.502868	alfonsin
-7.803898	alfonsinos
-7.201838	alfonsn
-6.65777	alfonso
-7.803898	alford
-7.803898	alfrds
-6.548625	alfred
-6.803898	alfredo
-7.803898	alfreds
-7.803898	alfurqan
-7.502868	alga
-7.326777	algaddafi
-7.803898	algaddafis
-6.150685	algae
-6.849656	algal
-7.502868	algamaa
-7.803898	alganzouri
-5.900808	algarve
-7.803898	algarvia
-7.502868	algebra
-7.502868	algebraic
-6.285384	algeciras
-7.803898	algecirasbobadilla
-7.803898	algemeen
-7.803898	algeneina
-4.720037	algeria
-7.803898	algeriainto
-5.10406	algerian
-7.502868	algerianborn
-7.502868	algerianmoroccan
-5.917407	algerians
-6.272419	algerias
-7.803898	algeriasalman
-7.803898	algeriasardiniaitaly
-7.803898	algeriatunisiaitaly
-7.803898	algezira
-7.326777	alghad
-7.803898	alghani
-7.803898	alghannouchi
-7.803898	alghannushi
-7.803898	alghazal
-7.803898	algheriani
-7.502868	alghero
-7.803898	alghorawi
-7.502868	alghuneim
-7.803898	algicides
-6.011506	algiers
-7.104928	alginate
-7.201838	algirdas
-7.803898	algiza
-7.803898	algodonero
-7.803898	algore
-6.548625	algorithm
-7.502868	algorithmic
-6.35674	algorithms
-7.803898	alhabbash
-7.201838	alhakim
-7.803898	alhamood
-7.803898	alhamwi
-7.803898	alhaq
-7.803898	alharam
-7.803898	alhareth
-7.201838	alhariri
-7.803898	alhasar
-7.803898	alhashemi
-7.803898	alhashids
-7.803898	alhashimi
-7.803898	alhassane
-7.803898	alhaving
-7.803898	alhayat
-7.803898	alhol
-7.803898	alhomayed
-7.326777	alhomsi
-7.803898	alhough
-7.502868	alhouthi
-7.803898	alhussein
-7.326777	alhusseini
-7.803898	alhuthi
-5.264822	ali
-5.114589	alia
-7.803898	aliakbar
-7.502868	aliaksandr
-7.326777	aliansi
-6.900808	alianza
-7.104928	alias
-7.803898	aliased
-7.502868	aliases
-6.35674	alibaba
-7.803898	alibabas
-5.605241	alibi
-6.502868	alibis
-7.803898	alibiwomen
-6.122657	alicante
-7.803898	alicantevalenciamurcia
-6.285384	alice
-7.803898	alices
-5.481678	alien
-7.502868	alienable
-5.9588	alienate
-5.710476	alienated
-6.461475	alienates
-6.079622	alienating
-5.7432	alienation
-7.803898	alieno
-5.849656	aliens
-7.502868	aliev
-7.502868	alievs
-7.803898	alife
-7.803898	alifrazier
-7.326777	alighieri
-6.298748	alight
-7.025747	alighted
-7.326777	alighting
-5.328227	align
-5.416508	aligned
-5.651609	aligning
-5.340005	alignment
-6.689955	alignments
-6.405958	aligns
-7.326777	alih
-7.326777	alihalih
-7.803898	alija
-7.803898	alijev
-7.326777	alik
-4.828007	alike
-7.803898	alikefirmly
-7.803898	alikehave
-7.803898	aliko
-7.104928	alima
-7.803898	alimam
-6.224114	alimentarius
-7.803898	alimiting
-7.326777	alimony
-7.803898	alin
-7.326777	alina
-7.104928	aline
-7.803898	alintifada
-7.502868	alinvest
-7.803898	alioune
-6.548625	aliran
-7.502868	aliraqiya
-7.502868	alireza
-6.372534	alis
-7.803898	alisher
-6.481678	alislam
-7.803898	alislamiya
-7.502868	alislamiyya
-7.502868	alislams
-7.326777	alison
-7.803898	alissawi
-6.849656	alistair
-7.803898	alistikhbarat
-6.35674	alitalia
-7.326777	alitaliaair
-7.803898	alitihad
-7.803898	alito
-7.803898	alitrabelsi
-7.502868	alittle
-7.803898	aliud
-4.891676	alive
-7.803898	aliveinto
-6.247595	aliyev
-7.201838	aliyevs
-7.803898	aliyu
-7.803898	alizamani
-7.803898	alization
-7.803898	aljabari
-7.803898	aljaber
-7.803898	aljawf
-7.502868	aljazair
-6.803898	aljazeera
-7.803898	aljazira
-7.502868	aljihad
-7.803898	aljorashi
-7.104928	aljubeir
-7.803898	aljustrel
-7.803898	aljuwali
-7.803898	alk
-7.803898	alkabir
-7.803898	alkader
-7.326777	alkalaj
-7.803898	alkali
-7.803898	alkalimanganese
-7.025747	alkaline
-7.803898	alkaloid
-7.803898	alkaloids
-7.025747	alkartasuna
-7.803898	alkatiri
-7.803898	alkaukji
-7.502868	alkhalifa
-7.502868	alkhalifas
-7.803898	alkhaliq
-7.803898	alkhanovs
-7.803898	alkhas
-7.025747	alkhatib
-7.803898	alkhatibs
-7.803898	alkhorafi
-7.803898	alkmaar
-6.548625	alkurd
-7.803898	alkyl
-2.521312	all
-7.803898	all#
-7.025747	alla
-7.326777	allabwani
-7.201838	allacp
-7.803898	allafi
-7.326777	allafrican
-7.803898	allagainstall
-6.191114	allah
-7.326777	allahs
-7.803898	allahu
-7.803898	allaire
-6.599778	allais
-7.803898	allaluminum
-7.502868	allam
-7.803898	allama
-7.502868	allamerican
-6.372534	allan
-7.803898	allans
-7.326777	allarab
-7.803898	allare
-7.803898	allat
-7.803898	allatif
-6.548625	allawi
-7.326777	allawis
-5.630712	allay
-6.235696	allayed
-6.423687	allaying
-7.025747	allays
-7.803898	allbattery
-7.803898	allboth
-7.502868	allbright
-7.803898	allbutinevitable
-7.803898	allbutjobless
-6.689955	allclear
-7.803898	allcomers
-7.803898	allcommission
-7.201838	allconsuming
-7.803898	allcontrolling
-7.803898	allcountry
-7.803898	allcovering
-7.201838	alldancing
-7.025747	allday
-7.803898	alldecisive
-7.803898	alldeterminant
-7.803898	alldevouring
-7.803898	alldigital
-7.803898	alldrug
-7.803898	alldutch
-7.326777	alle
-5.835415	alleanza
-7.803898	alledem
-7.803898	allegans
-5.75082	allegation
-4.957561	allegations
-7.803898	allegationsp
-6.191114	allege
-4.823895	alleged
-5.122657	allegedly
-6.525145	alleges
-5.717538	allegiance
-6.235696	allegiances
-6.122657	alleging
-7.201838	allegorical
-7.502868	allegories
-7.201838	allegory
-7.803898	allegre
-7.502868	allegro
-7.326777	allele
-7.803898	allelected
-7.803898	alleleor
-5.821627	allembracing
-6.627807	allen
-5.9588	allencompassing
-7.502868	allendale
-6.599778	allende
-7.326777	allendes
-7.803898	allengulfing
-7.803898	allenlookalike
-7.502868	allens
-7.803898	allenveloping
-6.900808	allergen
-5.859415	allergenic
-7.201838	allergenicity
-6.04047	allergens
-5.826174	allergic
-5.505045	allergies
-6.071504	allergy
-7.803898	allergybased
-7.326777	allergycausing
-7.803898	allergyforming
-7.803898	allergyinducing
-7.326777	allergyproducing
-7.803898	allergysufferers
-7.803898	allergytriggering
-7.803898	allergytroubled
-7.803898	alles
-7.803898	alleurope
-6.44217	alleuropean
-7.803898	alleuropeancoalition
-5.007324	alleviate
-6.1318	alleviated
-6.762505	alleviates
-5.487927	alleviating
-5.667177	alleviation
-7.803898	allexpensespaid
-6.079622	alley
-6.849656	alleys
-7.326777	alleyway
-7.326777	alleyways
-7.803898	allfamous
-7.502868	allfemale
-7.803898	allfinnish
-7.803898	allfor
-7.803898	allgeier
-6.312536	allgemeine
-7.803898	allgemeiner
-7.803898	allgemeines
-7.502868	allgerman
-7.803898	allgirl
-7.803898	allgre
-7.803898	allgroup
-7.803898	allgu
-7.201838	allhazard
-4.165109	alliance
-7.803898	alliance]
-6.849656	allianceb
-7.104928	alliancebuilding
-7.803898	alliancefirst
-7.803898	alliancegreen
-7.803898	alliancein
-7.502868	alliancemaking
-7.502868	allianceon
-7.803898	alliancerelated
-5.085396	alliances
-7.803898	alliancesof
-7.803898	alliancesthe
-7.803898	alliancetesting
-7.502868	alliancetype
-7.502868	alliancewide
-7.502868	allianoi
-7.803898	alliant
-6.900808	allianz
-7.803898	allianza
-7.803898	allibi
-5.374146	allied
-7.803898	alliedapproved
-4.579365	allies
-7.803898	allies]
-7.803898	alligatorfilled
-7.803898	alligators
-5.928837	allimportant
-6.9588	allin
-7.803898	allincluding
-6.201838	allinclusive
-6.849656	allinclusiveness
-7.803898	allinclusivepackage
-7.803898	allindia
-7.803898	alliori
-7.502868	alliotmarie
-6.762505	allireland
-7.326777	allirish
-7.803898	allirishspeaking
-7.326777	allisland
-7.803898	allison
-6.011506	allister
-7.025747	allisters
-7.502868	allknowing
-7.803898	allliance
-7.502868	allliberal
-7.025747	allmale
-7.803898	allmuslim
-7.502868	allnew
-7.803898	allnews
-7.803898	allngos
-6.900808	allnight
-7.803898	allnighters
-7.326777	allnuclear
-4.918537	allocate
-4.314784	allocated
-5.934666	allocates
-5.061173	allocating
-4.518116	allocation
-7.803898	allocational
-5.212833	allocations
-7.803898	allocationseven
-6.9588	allocative
-7.803898	allogeneic
-6.803898	allopathic
-7.502868	allopathy
-6.724717	allornothing
-7.104928	allot
-6.9588	allotment
-7.025747	allotments
-7.502868	allots
-5.248804	allotted
-7.502868	allotting
-5.613566	allout
-3.546483	allow
-5.724717	allowable
-5.058043	allowance
-4.904625	allowances
-7.803898	allowancescumcommodities
-7.803898	allowand
-3.946626	allowed
-4.218889	allowing
-4.293621	allows
-7.803898	alloy
-6.689955	alloys
-6.235696	allparty
-7.803898	allpenetrating
-7.326777	allpervading
-6.849656	allpervasive
-7.803898	allpolitical
-7.803898	allpoliticians
-5.928837	allpowerful
-7.803898	allproduct
-6.65777	allpurpose
-7.803898	allrepressive
-6.025747	allround
-7.502868	allrounders
-7.803898	allrussia
-6.803898	alls
-7.502868	allseeing
-7.803898	allshore
-7.201838	allsinging
-7.803898	allstakeholder
-7.803898	allstar
-7.502868	allterrain
-7.803898	alltid
-5.758575	alltime
-7.803898	allto
-7.502868	alltoo
-7.502868	alltoobrief
-7.201838	alltoocommon
-7.803898	alltooeasy
-7.025747	alltoofamiliar
-7.803898	alltoofew
-7.025747	alltoofrequent
-7.803898	alltoofrequently
-7.803898	alltooheavy
-7.803898	alltoohuman
-7.803898	alltoolongforgotten
-7.803898	alltoonarrow
-7.326777	alltooobvious
-7.803898	alltoooften
-7.803898	alltooplentiful
-7.803898	alltooreal
-7.803898	alltooserious
-7.803898	alltooweak
-7.803898	alltoowelldocumented
-6.312536	allude
-5.602501	alluded
-6.44217	alludes
-6.247595	alluding
-7.803898	allunion
-6.298748	allure
-7.502868	allurement
-7.803898	allures
-6.65777	alluring
-6.17043	allusion
-6.35674	allusions
-7.502868	allusive
-7.803898	allusively
-7.104928	alluvial
-7.326777	allvolunteer
-7.803898	allwales
-7.025747	allweather
-7.803898	allwheeldrive
-7.803898	allwhite
-7.502868	allwomen
-4.939387	ally
-7.326777	allyearround
-6.65777	allying
-7.201838	allys
-7.803898	allyson
-7.803898	allywhile
-7.025747	alma
-7.201838	almaata
-7.803898	almada
-7.803898	almaden
-6.1318	almadn
-7.201838	almadraba
-7.803898	almahir
-7.803898	almajali
-7.502868	almajid
-7.803898	almalak
-7.502868	almaleh
-6.388925	almaliki
-6.849656	almalikis
-7.201838	alman
-6.724717	almanar
-7.803898	almanqous
-7.803898	almansa
-7.502868	almansouri
-7.803898	almansur
-7.803898	almaqsud
-7.803898	almara
-7.803898	almashaaer
-7.803898	almashhandani
-7.803898	almasri
-6.548625	almaty
-7.803898	almaz
-7.502868	almegrahi
-6.372534	almeida
-7.803898	almeiras
-7.326777	almelo
-7.803898	almendralejo
-7.803898	almendralejooviedo
-6.9588	almera
-6.9588	almeria
-7.803898	almerias
-6.388925	almighty
-7.803898	almightys
-7.803898	almindelige
-7.803898	almodena
-7.104928	almond
-7.803898	almondo
-6.65777	almonds
-3.79962	almost
-7.803898	almostcertain
-7.803898	almostcomplete
-7.803898	almostforgotten
-7.803898	almosthalfthelabor
-7.803898	almostpublic
-6.803898	alms
-7.803898	almuasher
-7.803898	almubarek
-7.803898	almugadassah
-7.803898	almuhsin
-7.803898	almukhabarat
-7.803898	almulla
-5.297393	almunia
-6.525145	almunias
-7.803898	almustasim
-7.803898	almustasims
-7.502868	almutawa
-7.201838	almutlaq
-7.803898	alnaga
-7.326777	alnahda
-7.803898	alnashif
-6.573449	alnashiri
-7.803898	alnashiris
-7.502868	alnasir
-7.803898	alnawa
-7.502868	alnimeiry
-7.803898	alnimeirys
-6.9588	alnour
-7.104928	alnusra
-7.803898	alobaidi
-7.326777	alobeidi
-6.849656	aloft
-7.803898	alogoskoufis
-6.762505	alois
-6.9588	alojz
-7.803898	alon
-3.969732	alone
-7.803898	aloneit
-7.803898	alonesome
-3.870006	along
-4.485626	alongside
-7.803898	aloni
-6.25983	alonso
-7.803898	alonsos
-6.113702	aloof
-6.762505	aloofness
-7.803898	alors
-7.803898	alos
-7.803898	alot
-6.272419	aloud
-7.803898	alower
-7.803898	alowhali
-7.803898	alowlevel
-7.803898	aloyzas
-6.9588	alp
-7.803898	alpe
-7.326777	alpescte
-6.201838	alpha
-7.803898	alpha#
-7.803898	alphabenzopyrenes
-6.388925	alphabet
-6.762505	alphabetical
-7.803898	alphabetically
-7.803898	alphabets
-7.803898	alphandry
-7.803898	alphanumeric
-7.502868	alphanumerical
-7.803898	alpharadioactive
-7.803898	alpharadioactivity
-7.803898	alphareductase
-7.803898	alphen
-7.803898	alphons
-7.201838	alphonse
-7.803898	alpilles
-5.29068	alpine
-7.803898	alpineadriatic
-7.803898	alpnet
-5.361418	alps
-7.326777	alqa
-7.025747	alqaddafi
-7.803898	alqaddafis
-7.803898	alqadr
-5.421881	alqaeda
-7.803898	alqaedaand
-7.803898	alqaedadirected
-7.502868	alqaedainspired
-6.525145	alqaedas
-7.326777	alqaedastyle
-7.803898	alqaeida
-5.854508	alqaida
-7.201838	alqaidas
-7.803898	alqaidataliban
-7.803898	alqami
-7.803898	alqaradawi
-7.803898	alqardawi
-7.803898	alqassam
-7.803898	alquaeda
-7.803898	alquaida
-7.201838	alquds
-7.803898	alqudwa
-7.025747	alqueva
-7.502868	alquran
-7.803898	alradi
-6.9588	alrahim
-7.326777	alrahman
-7.803898	alrai
-7.803898	alrantissi
-7.326777	alrashid
-7.803898	alrawi
-7.803898	alrayyaniya
-3.182524	already
-7.803898	alreadybeleaguered
-7.803898	alreadycompleted
-7.803898	alreadycomplicated
-7.803898	alreadyconsiderable
-7.803898	alreadycontentious
-7.803898	alreadydangerous
-7.201838	alreadydelicate
-7.803898	alreadydepressed
-7.803898	alreadydifficult
-7.803898	alreadydisturbing
-7.803898	alreadyeffective
-7.803898	alreadyelected
-7.803898	alreadyemployed
-7.502868	alreadyescalating
-7.326777	alreadyestablished
-7.803898	alreadyexcessive
-6.762505	alreadyexisting
-7.104928	alreadyfragile
-7.803898	alreadyfraught
-7.803898	alreadyfunctioning
-7.803898	alreadyhazy
-7.104928	alreadyhigh
-7.803898	alreadyhot
-7.803898	alreadyindebted
-7.803898	alreadyindustrialized
-7.025747	alreadylarge
-7.803898	alreadylimited
-7.803898	alreadylost
-7.502868	alreadylow
-7.502868	alreadymassive
-7.502868	alreadymentioned
-7.502868	alreadyminimal
-7.803898	alreadymodest
-7.803898	alreadymoribund
-7.803898	alreadymuddy
-7.803898	alreadynbsp
-7.803898	alreadyoverheating
-7.803898	alreadyprivatized
-7.803898	alreadyprudent
-7.803898	alreadyrejected
-7.803898	alreadyrich
-7.803898	alreadysaturated
-7.803898	alreadyscarce
-7.803898	alreadysignificant
-7.803898	alreadysizeable
-7.803898	alreadyskewed
-7.803898	alreadyslow
-7.326777	alreadystrained
-7.803898	alreadystressed
-7.502868	alreadystretched
-7.803898	alreadystrict
-7.803898	alreadysubstantial
-7.201838	alreadyunstable
-7.803898	alreadyunsustainable
-7.803898	alreadyvisible
-7.104928	alreadyweak
-7.803898	alreadyweakening
-7.502868	alreadywide
-6.033046	alright
-7.803898	alrishawi
-7.803898	alrosade
-7.803898	alrubat
-6.481678	als
-7.201838	alsaadi
-7.025747	alsabah
-7.502868	alsabahs
-5.971389	alsace
-7.326777	alsacelorraine
-7.803898	alsadaawi
-7.326777	alsadat
-7.803898	alsadiq
-6.900808	alsadr
-7.803898	alsadrbut
-7.326777	alsadrs
-7.803898	alsahati
-7.803898	alsalih
-7.803898	alsalim
-7.803898	alsamadi
-7.803898	alsamarrai
-7.326777	alsamoud
-7.803898	alsane
-7.803898	alsanosi
-6.849656	alsatian
-7.326777	alsatians
-6.502868	alsaud
-6.849656	alsauds
-7.803898	alshaabi
-6.298748	alshabaab
-6.762505	alshabaabs
-7.025747	alshabab
-7.502868	alshaer
-7.803898	alshaik
-7.803898	alshakarchi
-7.803898	alshaludi
-7.803898	alshaludis
-7.803898	alsham
-7.803898	alshara
-7.201838	alsharia
-7.326777	alshariah
-7.803898	alshariahs
-7.803898	alsharias
-7.104928	alsharif
-7.803898	alsharq
-7.803898	alsharqiya
-7.803898	alshater
-7.326777	alsheikh
-7.803898	alsherif
-7.803898	alshihri
-7.803898	alshoura
-7.803898	alsiddiq
-7.803898	alsina
-7.803898	alsisi
-7.502868	alsistani
-7.803898	alsmede
-2.523408	also
-7.502868	alsoand
-7.803898	alsoin
-7.803898	alsonbsppushed
-7.502868	alsonosi
-7.803898	alsoon
-7.025747	alsoran
-7.025747	alsorans
-7.803898	alsothe
-6.849656	alsthom
-5.854508	alstom
-7.803898	alstoma
-6.689955	alstoms
-6.900808	alston
-7.803898	alsunnah
-7.502868	alsuri
-7.326777	alta
-7.803898	altadis
-7.803898	altafaj
-7.803898	altahtawi
-7.803898	altai
-7.803898	altaner
-5.613566	altar
-7.803898	altarpieces
-7.326777	altars
-7.803898	altas
-7.803898	altavista
-7.803898	alte
-7.803898	altea
-7.803898	altenburg
-5.485835	altener
-7.803898	altenkirchen
-4.900265	alter
-7.803898	altera
-7.803898	alterable
-5.799577	alteration
-5.812672	alterations
-7.326777	altercation
-7.104928	altercations
-5.145886	altered
-7.803898	altereu
-7.502868	altereuropeanism
-7.502868	alterglobalisation
-7.326777	alterglobalists
-5.475518	altering
-6.04047	alternate
-6.724717	alternated
-6.849656	alternately
-6.900808	alternates
-7.803898	alternatiba
-7.201838	alternatif
-7.803898	alternatifnya
-7.803898	alternatifs
-6.3415	alternating
-7.803898	alternatingly
-6.44217	alternation
-7.803898	alternations
-7.201838	alternativas
-4.034521	alternative
-7.803898	alternativea
-7.803898	alternativeand
-6.900808	alternativeenergy
-7.502868	alternativefuel
-5.548625	alternatively
-7.803898	alternativerenewable
-4.546219	alternatives
-7.803898	alternativestyle
-7.803898	alternativeto
-7.803898	alternativevote
-7.803898	alternativo
-7.025747	alterner
-7.803898	alterospinelli
-7.803898	alterovitch
-5.965049	alters
-7.502868	altgeld
-7.803898	althani
-6.079622	althea
-7.201838	althing
-7.502868	althingi
-3.546267	although
-5.965049	altiero
-7.803898	altieromatteoli
-7.803898	altieros
-6.900808	altierospinelli
-7.502868	altierospinellis
-7.803898	altijd
-7.326777	altikriti
-7.803898	altiplano
-6.3415	altitude
-6.9588	altitudes
-7.201838	altmaier
-7.502868	altman
-6.3415	altmark
-7.803898	altmeier
-6.201838	alto
-4.861394	altogether
-7.803898	altourabi
-7.803898	altri
-7.803898	altro
-5.990984	altruism
-7.502868	altruist
-6.113702	altruistic
-7.025747	altruistically
-7.502868	altruists
-7.326777	altuhami
-7.502868	alturabi
-6.900808	alturk
-7.803898	altvater
-7.803898	altyn
-7.326777	altynbek
-7.803898	alu
-7.803898	aluko
-7.025747	alumina
-6.079622	aluminium
-6.423687	aluminum
-7.803898	alumma
-6.627807	alumni
-7.326777	alumnia
-7.803898	alumnus
-7.803898	alunalun
-7.502868	alure
-7.502868	alvanoss
-7.502868	alvar
-7.326777	alvarado
-6.191114	alvarez
-7.502868	alvarezs
-5.75082	alvaro
-7.104928	alvaros
-7.803898	alvear
-7.803898	alveoli
-6.849656	alves
-7.803898	alvess
-6.900808	alvin
-7.803898	alvis
-7.326777	alvoet
-7.803898	alvoets
-7.803898	alwahad
-7.803898	alwala
-7.803898	alwalaa
-7.803898	alwalid
-7.201838	alwasat
-3.526151	always
-7.803898	alwayserratic
-7.803898	alwaysfascinating
-7.803898	alwaysfinicky
-7.803898	alwaystense
-7.502868	alwifaq
-7.326777	alyaksandr
-7.803898	alyssa
-5.854508	alyssandrakis
-7.326777	alyssandrakiss
-7.502868	alytaus
-7.502868	alytus
-7.326777	alzahar
-7.803898	alzahawy
-7.803898	alzahra
-7.502868	alzamora
-7.803898	alzano
-7.803898	alzanoun
-6.762505	alzawahiri
-7.502868	alzawahiris
-7.803898	alzawahri
-7.502868	alzayt
-6.298748	alzheimer
-5.082912	alzheimers
-7.803898	alzintan
-2.953595	am
-7.502868	ama
-7.025747	amach
-6.405958	amadeo
-7.803898	amadeos
-7.803898	amadeu
-6.900808	amadeus
-7.803898	amadi
-6.461475	amado
-7.104928	amadora
-7.025747	amadou
-7.502868	amajor
-6.900808	amal
-6.180649	amalgam
-6.525145	amalgamate
-6.762505	amalgamated
-7.803898	amalgamates
-6.724717	amalgamating
-6.235696	amalgamation
-7.104928	amalgamations
-7.803898	amalgamfree
-6.762505	amalgams
-6.803898	amalia
-7.201838	amalrik
-6.762505	aman
-7.803898	amanat
-7.803898	amancio
-7.803898	amand
-7.104928	amanda
-7.502868	amandas
-7.502868	amani
-7.803898	amanif
-7.803898	amann
-7.803898	amano
-7.803898	amanula
-7.502868	amara
-7.803898	amarathan
-7.104928	amari
-7.803898	amarket
-7.803898	amarone
-6.3415	amartya
-7.502868	amaru
-6.44217	amass
-6.079622	amassed
-7.803898	amasses
-6.372534	amassing
-7.803898	amat
-5.670359	amateur
-6.481678	amateurish
-7.803898	amateurishly
-7.803898	amateurishness
-6.9588	amateurism
-6.35674	amateurs
-7.803898	amathematical
-6.191114	amato
-7.502868	amatokennedy
-7.803898	amatter
-6.502868	amaze
-5.372534	amazed
-5.895413	amazement
-6.423687	amazes
-7.326777	amazigh
-5.392278	amazing
-6.04047	amazingly
-5.710476	amazon
-6.9588	amazonas
-7.025747	amazoncom
-7.803898	amazonde
-6.627807	amazonia
-6.849656	amazonian
-6.803898	amazons
-7.803898	ambalaj
-7.104928	ambang
-7.803898	ambasador
-4.98304	ambassador
-7.502868	ambassadorenvoy
-6.900808	ambassadorial
-5.319598	ambassadors
-7.803898	ambassadorspermanent
-7.803898	ambassadorwoschnagg
-6.224114	amber
-7.803898	amberes
-7.803898	amberlitpol
-7.803898	ambiance
-7.326777	ambience
-5.683324	ambient
-7.803898	ambientassisted
-7.502868	ambientcarbon
-7.502868	ambientccs
-7.803898	ambiente
-5.479616	ambiguities
-5.15946	ambiguity
-7.803898	ambiguityavoiding
-7.803898	ambiguityseeking
-5.116369	ambiguous
-6.803898	ambiguously
-7.803898	ambil
-7.104928	ambisi
-6.900808	ambisius
-6.048023	ambit
-4.504173	ambition
-7.803898	ambitionless
-4.561854	ambitions
-7.803898	ambitionsthe
-4.030917	ambitious
-6.201838	ambitiously
-7.326777	ambitiousness
-6.033046	ambivalence
-5.849656	ambivalent
-7.803898	ambizione
-7.803898	amboina
-7.803898	amboise
-6.525145	ambon
-7.502868	ambrogio
-7.502868	ambroise
-7.502868	ambrose
-7.803898	ambrosius
-7.803898	ambroziski
-7.803898	ambruk
-7.803898	ambruknya
-7.803898	ambrus
-7.803898	ambruster
-6.160445	ambulance
-7.803898	ambulancechasers
-6.525145	ambulances
-7.502868	ambulatory
-6.423687	ambush
-7.502868	ambushed
-7.104928	ambushes
-7.803898	ambushing
-7.104928	amc
-7.502868	amd
-7.803898	amde
-7.201838	amdo
-7.803898	ame
-7.803898	ameans
-7.803898	amechanical
-7.803898	amedication
-7.803898	amediumsized
-7.803898	ameircas
-7.803898	amelia
-6.004558	ameliorate
-6.627807	ameliorated
-7.502868	ameliorates
-6.627807	ameliorating
-7.201838	amelioration
-7.803898	ameliorative
-7.803898	ameliorist
-7.803898	amelios
-7.201838	amember
-6.762505	amen
-7.326777	amenability
-5.890084	amenable
-7.803898	amenaza
-4.560364	amend
-7.025747	amendable
-4.389426	amended
-4.328517	amending
-7.803898	amendingbbudget
-7.803898	amendmen
-3.402911	amendment
-7.803898	amendmentcalls
-7.502868	amendmentexplanatory
-6.312536	amendmentno
-7.803898	amendmentproof
-3.321739	amendments
-7.803898	amendmentsas
-7.803898	amendmentsford
-7.803898	amendmentsnbspformer
-7.104928	amendmentsnos
-7.803898	amendmentsthat
-7.803898	amendmentsthose
-7.803898	amendmentswhich
-7.803898	amendola
-5.686626	amends
-7.803898	ameneh
-6.25983	amenities
-7.104928	amenity
-7.803898	amer
-7.803898	amerca
-7.803898	amere
-3.913198	america
-7.803898	americaafrica
-7.502868	americaand
-7.803898	americaarab
-7.502868	americabashing
-7.803898	americacan
-6.803898	americacaribbean
-7.803898	americaextremism
-7.803898	americafirst
-7.803898	americafocused
-7.326777	americain
