
\data\
ngram 1=80367

\1-grams:
-3.918829	#
-6.834756	#absurape
-6.834756	#aluu
-6.834756	#andgoodbye
-6.357635	#bringbackourgirls
-6.834756	#childnotbride
-6.834756	#circumcision
-6.834756	#explosion
-6.834756	#griesafault
-6.834756	#hope
-6.834756	#inequalityforevah
-6.834756	#killallmoslems
-6.834756	#nfpguesses
-6.834756	#occupynigeria
-6.834756	#opendoor
-6.834756	#porteouverte
-5.372358	*
-6.135786	***
-6.834756	***we
-6.834756	**defined**
-6.834756	**sifi
-6.834756	*account*
-6.533726	*another*
-6.834756	*appear*
-6.834756	*artificial
-6.834756	*between*
-6.834756	*campfire*
-6.834756	*chaos*
-6.834756	*china
-6.834756	*comments
-6.834756	*created*
-6.834756	*crisis*
-6.834756	*development*
-6.834756	*direct*
-6.834756	*does*
-6.834756	*drama*
-6.834756	*economic
-6.834756	*eurogroup
-6.834756	*except*
-6.834756	*falsify*
-6.834756	*free*
-6.834756	*good*
-6.834756	*honesty
-6.834756	*how*
-6.834756	*i
-6.834756	*imaginary*
-6.834756	*impersonal*
-6.834756	*inclusive*
-6.834756	*institutions
-6.834756	*let
-6.834756	*liberal*
-6.834756	*madrid*
-6.834756	*make*
-6.834756	*matters
-6.533726	*me*
-6.834756	*normal*
-6.834756	*not*
-6.533726	*objective*
-6.834756	*participatory*
-6.834756	*poor
-6.834756	*procedural
-6.834756	*reality*
-6.834756	*risk*
-6.834756	*science*
-6.834756	*sequencing*
-6.834756	*severe*
-6.834756	*shadow*
-6.834756	*spanish
-6.834756	*subjectively*american
-6.834756	*the
-6.834756	*tonality*
-6.834756	*why
-1.358407	</s>
-99	<s>
-6.533726	@
-6.232696	@ap
-6.834756	@bp_america
-6.834756	@econtalk
-6.232696	@ft
-6.834756	@juantigar
-6.834756	@pontifex
-5.989658	@steven_strauss
-6.056605	[
-6.834756	[]
-6.357635	[a
-6.357635	[a]
-6.834756	[a]dvisers
-6.533726	[a]ll
-6.834756	[a]lmost
-6.834756	[about
-6.834756	[academic]
-6.834756	[affordable]
-6.834756	[african]
-6.834756	[ahmed]
-6.834756	[america]
-6.834756	[americans]
-6.834756	[an
-5.989658	[and]
-6.834756	[antizionist]
-6.834756	[apparently
-6.834756	[are
-6.834756	[as
-6.834756	[assange]
-6.834756	[assanges]
-6.834756	[at
-6.834756	[b]oth
-6.834756	[bank
-6.834756	[become]
-6.834756	[being
-6.834756	[being]
-6.834756	[belgrade]
-6.834756	[brazil
-6.834756	[bush]
-6.834756	[business
-6.533726	[but
-6.533726	[but]
-6.834756	[by
-6.834756	[by]
-6.834756	[c]onsumer
-6.834756	[cameron]
-6.834756	[capital]
-6.834756	[carlos
-6.834756	[carried
-6.834756	[channels]
-6.834756	[charles]
-6.533726	[china
-6.834756	[china]
-6.834756	[chinas]
-6.834756	[chinese]
-6.357635	[click
-6.533726	[confidence]
-6.834756	[conseil
-6.834756	[cooke
-6.834756	[corn]
-6.834756	[could]
-6.533726	[cronyism]
-6.834756	[crowley]
-6.834756	[currentaccount]
-6.834756	[d]eregulation
-6.834756	[d]evelop
-6.834756	[daesh]
-6.834756	[did
-6.834756	[director
-6.834756	[dispossessed]
-6.834756	[doesnt]
-6.834756	[durban]
-6.834756	[econometric
-6.834756	[economic
-6.834756	[efsf]
-6.834756	[england]
-6.834756	[entitlements]
-6.834756	[face]
-6.834756	[fda]
-6.232696	[for
-6.834756	[for]
-6.834756	[from
-6.834756	[ft
-6.834756	[genetically
-6.834756	[germany]
-6.834756	[global
-6.834756	[going
-6.834756	[governmentsponsored]
-6.834756	[greeces
-6.834756	[h]istory
-6.834756	[h]ouseholds
-6.834756	[h]uge
-6.834756	[hanseatic
-6.533726	[have]
-6.834756	[high
-6.533726	[his]
-6.834756	[homosexuals]
-6.232696	[html
-6.834756	[humaninduced]
-6.834756	[hyman]
-6.834756	[i]
-6.834756	[i]nflation
-6.834756	[i]t
-6.834756	[ie
-6.834756	[if]
-5.880514	[in
-6.834756	[income]
-6.834756	[india
-6.834756	[initially]
-6.533726	[international
-6.533726	[iran]
-6.834756	[irans]
-6.834756	[is]
-6.834756	[it
-6.232696	[it]
-6.135786	[its]
-6.834756	[jewish
-6.834756	[joseph
-6.834756	[jpm]
-6.834756	[keynes]
-6.834756	[khan]
-6.834756	[ladder]
-6.834756	[lama]
-6.533726	[m]ajor
-6.533726	[m]any
-6.834756	[making]
-6.834756	[malaria
-6.834756	[malaria]
-6.834756	[malthuss]
-6.834756	[micro]
-6.834756	[middle
-6.834756	[military
-6.834756	[military]
-6.834756	[minister
-6.834756	[monetary]
-6.834756	[musharraf]
-6.834756	[must]
-6.834756	[n]ow
-6.834756	[national]
-6.834756	[nato
-6.834756	[niels
-6.834756	[nonroma]
-6.834756	[note
-6.834756	[nothing]
-6.834756	[notwithstanding
-6.834756	[o]pen
-6.834756	[oceanward]
-5.931666	[of
-6.834756	[of]
-6.834756	[olmert]
-6.834756	[on
-6.834756	[ones
-6.834756	[only]
-6.834756	[opposition]
-6.357635	[p
-6.834756	[p]eople
-6.834756	[pakistan]
-6.834756	[parliamentary]
-6.834756	[piketty]
-6.834756	[policy]
-6.834756	[president]
-6.834756	[previous
-6.834756	[princeton]
-6.834756	[prisoners]
-6.834756	[private
-6.834756	[prod
-6.834756	[purged
-6.834756	[putin]
-6.834756	[quiet
-6.834756	[receding]
-6.834756	[rectora
-6.834756	[region]
-6.834756	[religions]
-6.834756	[risks]
-6.834756	[road]
-6.834756	[russians]
-6.834756	[saddam
-6.834756	[said]
-6.834756	[saudi
-6.834756	[say
-6.834756	[see
-6.533726	[should]
-6.834756	[sic]
-6.834756	[so]
-6.834756	[started]
-6.834756	[state]
-6.834756	[such
-6.834756	[supplementary
-6.834756	[t]hat
-5.688628	[t]he
-6.357635	[t]here
-6.533726	[t]his
-6.834756	[tax]
-6.834756	[teknologi
-6.834756	[television]
-6.533726	[that
-6.533726	[that]
-5.579484	[the
-6.135786	[the]
-6.533726	[their
-6.533726	[their]
-6.834756	[them]
-6.834756	[them]selves
-6.834756	[themselves]
-6.834756	[then
-6.834756	[therefore]
-6.533726	[they]
-6.834756	[this]
-6.834756	[thus]
-5.793364	[to
-6.834756	[to]
-6.834756	[towards
-6.834756	[traits]
-6.834756	[tv
-6.834756	[twentieth]
-6.834756	[u]nchecked
-6.834756	[un
-6.834756	[unhealthy]
-6.834756	[unique]
-6.834756	[us]
-6.135786	[w]e
-6.834756	[w]hen
-6.834756	[w]ith
-6.834756	[wa
-6.834756	[walter]
-6.834756	[was]
-6.357635	[we]
-6.533726	[were]healthy
-6.834756	[weve]
-6.533726	[what
-6.834756	[when
-6.834756	[which]
-6.834756	[who
-6.834756	[will
-6.834756	[wind
-6.834756	[with
-6.834756	[would
-6.834756	[would]
-6.834756	[y]ou
-5.556003	]
-6.834756	]#
-6.533726	_
-6.834756	______
-6.533726	_______
-6.834756	______________________________________________________________
-6.834756	__________________________________________________nbsp*
-6.834756	``
-6.834756	``[t]he
-6.533726	``a
-6.834756	``abbreviated
-6.834756	``acts
-6.834756	``adhering
-6.834756	``america
-6.533726	``americanization
-6.834756	``americanize
-6.834756	``americanized
-6.834756	``americas
-6.834756	``anchoring
-6.834756	``and
-6.834756	``annual
-6.834756	``antioligarch
-6.834756	``anything
-6.834756	``area
-6.834756	``as
-6.834756	``assembly
-6.834756	``astonishing
-6.834756	``asymmetrical
-6.834756	``asymmetries
-6.834756	``asymmetry
-6.834756	``automatic
-6.834756	``autonomous
-6.533726	``axis
-6.533726	``back
-6.834756	``beyond
-6.533726	``big
-6.834756	``bleached
-6.533726	``blood
-6.834756	``brain
-6.834756	``british
-6.533726	``buildup
-6.834756	``business
-6.834756	``but
-6.834756	``by
-6.834756	``centerless
-6.834756	``china
-6.533726	``clash
-6.834756	``clean
-6.834756	``closedeconomy
-6.357635	``collective
-6.834756	``common
-6.834756	``compassing
-6.834756	``confrontation
-6.834756	``conservatism
-6.834756	``conservatives
-6.834756	``consider
-6.834756	``constitutional
-6.834756	``consultations
-6.834756	``cornerstone
-6.834756	``creation
-6.533726	``crisis
-6.834756	``crusade
-6.834756	``cultural
-6.533726	``curse
-6.834756	``dechristianizationpolish
-6.834756	``defined
-6.834756	``demand
-6.834756	``democratic
-6.834756	``develop
-6.834756	``dialogue
-6.834756	``diaspora
-6.357635	``dictatorship
-6.834756	``dutch
-6.834756	``earn
-6.834756	``eastern
-6.834756	``economical
-6.834756	``economization
-6.834756	``enabling
-6.533726	``enemies
-6.834756	``enemy
-6.834756	``entertainment
-6.834756	``entitlement
-6.834756	``equilibrium
-6.834756	``establish
-6.834756	``establishment
-6.834756	``eternal
-6.834756	``ethnic
-6.834756	``europe
-6.834756	``europhobe
-6.834756	``externalities
-6.834756	``face
-6.834756	``failed
-6.834756	``federalist
-6.834756	``finance
-6.533726	``for
-6.834756	``foreign
-6.834756	``france
-6.533726	``free
-6.834756	``freedom
-6.834756	``george
-6.533726	``global
-6.834756	``globalizers
-6.834756	``good
-6.834756	``governance
-6.834756	``governmental
-6.834756	``great
-6.834756	``greater
-6.834756	``guideline
-6.834756	``hard
-6.834756	``has
-6.834756	``havenots
-6.834756	``haves
-6.834756	``heres
-6.834756	``highdevelopmentlevel
-6.834756	``hightech
-6.834756	``house
-6.834756	``human
-6.533726	``humanitarian
-6.533726	``humanness
-6.834756	``hysteria
-6.834756	``i
-6.357635	``if
-6.834756	``in
-6.834756	``incompetent
-6.834756	``independent
-6.834756	``inhouse
-6.834756	``intended
-6.834756	``international
-6.834756	``islamic
-6.357635	``it
-6.834756	``ive
-6.834756	``japan
-6.834756	``japans
-6.834756	``jihad
-6.834756	``joke
-6.834756	``juridification
-6.834756	``just
-6.834756	``kamikaze
-6.834756	``learned
-6.834756	``less
-6.834756	``lies
-6.834756	``lifting
-6.834756	``limited
-6.834756	``local
-6.357635	``market
-6.834756	``martyrs
-6.834756	``mass
-6.834756	``messiah
-6.834756	``military
-6.834756	``miracle
-6.834756	``money
-6.834756	``mood
-6.834756	``more
-6.834756	``national
-6.533726	``neither
-5.989658	``new
-6.533726	``no
-6.533726	``normal
-6.834756	``notake
-6.834756	``odious
-6.357635	``old
-6.232696	``one
-6.834756	``open
-6.834756	``other
-6.834756	``our
-6.834756	``overblown
-6.834756	``pacified
-6.533726	``peace
-6.834756	``peaceful
-6.533726	``pearl
-6.834756	``people
-6.834756	``plan
-6.834756	``popular
-6.834756	``populism
-6.357635	``power
-6.834756	``preventive
-6.834756	``principles
-6.834756	``prison
-6.834756	``progressives
-6.834756	``proof
-6.834756	``provided
-6.834756	``public
-6.834756	``punishment
-6.834756	``quiet
-6.834756	``race
-6.834756	``reform
-6.834756	``reformers
-6.834756	``rejoining
-6.834756	``resilience
-6.834756	``revolting
-6.834756	``revolution
-6.533726	``rightist
-6.834756	``rr
-6.834756	``rules
-6.834756	``ruthless
-6.834756	``second
-6.834756	``secondclass
-6.834756	``secular
-6.834756	``sedentary
-6.834756	``selfcriticism
-6.056605	``selfdefense
-6.834756	``selfhealing
-6.834756	``sexed
-6.834756	``simply
-6.834756	``slow
-6.834756	``small
-6.834756	``smart
-6.533726	``social
-6.834756	``solidarity
-6.834756	``special
-6.834756	``spillover
-6.834756	``spiritual
-6.834756	``stagnoeurope
-6.834756	``state
-6.533726	``strike
-6.834756	``structural
-6.834756	``subsidiarity
-6.834756	``successful
-6.834756	``target
-6.834756	``that
-5.688628	``the
-6.232696	``third
-6.533726	``this
-6.834756	``those
-6.834756	``threestrikesandyoure
-6.834756	``tiger
-6.834756	``to
-6.834756	``too
-6.834756	``total
-6.533726	``traditional
-6.834756	``trojan
-6.834756	``trust
-6.834756	``unconditional
-6.834756	``understandable
-6.834756	``universal
-6.834756	``unjustified
-6.834756	``unlawful
-6.834756	``uyghuristan
-6.834756	``vigorous
-6.834756	``violent
-6.357635	``war
-6.533726	``we
-6.533726	``western
-6.834756	``what
-6.533726	``when
-6.834756	``whether
-6.834756	``will
-6.357635	``within
-6.834756	``witnesses
-6.834756	``wmds
-6.834756	``working
-6.834756	``x
-6.834756	``yellow
-6.533726	``yes
-6.834756	`addiction
-6.834756	`blowing
-6.834756	`but
-6.533726	`conflict
-6.834756	`country
-6.834756	`inalienable
-6.834756	`its
-6.834756	`just
-6.834756	`market
-6.834756	`metabolic
-6.834756	`mildish
-6.834756	`minorities
-6.834756	`noninstrumental
-6.834756	`our
-6.834756	`overshooting
-6.834756	`party
-6.834756	`pesofication
-6.834756	`proprietary
-6.533726	`public
-6.834756	`publish
-6.834756	`receptor
-6.834756	`regime
-6.834756	`safe
-6.834756	`solutions
-6.834756	`to
-6.834756	`union
-6.834756	`united
-6.834756	`useless
-6.834756	`vertical
-1.732772	a
-6.834756	a#
-6.056605	aa
-5.266554	aaa
-6.834756	aaagh
-5.834756	aaarated
-6.357635	aaas
-6.834756	aachen
-6.232696	aadmi
-6.533726	aakash
-6.357635	aalto
-6.232696	aam
-6.834756	aane
-6.834756	aarne
-6.533726	aaron
-6.834756	aart
-6.834756	aastha
-6.533726	ab
-5.232696	ababa
-6.533726	abacc
-6.135786	abacha
-6.135786	abachas
-5.880514	aback
-6.834756	abaclat
-5.579484	abad
-6.834756	abadan
-6.357635	abadi
-6.834756	abaga
-6.533726	abai
-4.398593	abandon
-4.440305	abandoned
-6.834756	abandoned#
-4.667439	abandoning
-5.419783	abandonment
-5.688628	abandons
-6.834756	abarrel
-6.834756	abasement
-5.793364	abate
-5.834756	abated
-6.135786	abatement
-6.834756	abatements
-6.056605	abates
-5.931666	abating
-6.834756	abattlefield
-6.834756	abattoir
-6.834756	abattoirs
-6.533726	abb
-6.135786	abba
-4.52726	abbas
-6.232696	abbasid
-6.834756	abbasids
-6.834756	abbasled
-5.102363	abbass
-6.533726	abbey
-6.834756	abbots
-5.579484	abbott
-6.056605	abbottabad
-5.880514	abbotts
-6.357635	abbreviation
-6.533726	abbreviations
-6.357635	abc
-5.579484	abd
-6.834756	abdallah
-6.834756	abdallahs
-5.419783	abdel
-6.135786	abdelaziz
-6.834756	abdelilah
-6.533726	abdelillah
-5.880514	abdeljalil
-6.834756	abdelmajid
-6.533726	abdelnassers
-6.533726	abdelrahman
-5.931666	abdicate
-6.135786	abdicated
-6.533726	abdicates
-6.357635	abdicating
-5.658665	abdication
-6.834756	abdications
-6.834756	abdin
-6.834756	abdolkarim
-6.357635	abdomen
-5.989658	abdominal
-6.834756	abdou
-6.834756	abdoul
-5.880514	abdoulaye
-6.834756	abdrabbu
-6.357635	abduct
-5.232696	abducted
-6.834756	abductees
-5.931666	abducting
-5.243691	abduction
-5.880514	abductions
-6.533726	abductive
-6.834756	abductors
-6.533726	abduh
-6.533726	abduhs
-5.290688	abdul
-6.232696	abdulazeez
-6.834756	abdulazeezs
-6.357635	abdulaziz
-6.834756	abdulfattah
-6.533726	abdulhamid
-6.533726	abdulla
-4.79733	abdullah
-5.403392	abdullahs
-6.834756	abdullaj
-6.834756	abdulqadir
-6.834756	abdulrahman
-6.834756	abdulwahab
-6.834756	abdur
-6.834756	abdurajak
-6.834756	abdurazakov
-6.232696	abdurrahman
-4.354749	abe
-6.834756	abecedarian
-6.834756	abein
-6.834756	abengoa
-4.777852	abenomics
-6.834756	abenomicss
-6.135786	aberdare
-6.135786	aberdares
-6.834756	aberdeen
-6.357635	aberrant
-6.834756	aberrantly
-5.604307	aberration
-6.834756	aberrational
-6.056605	aberrations
-4.622569	abes
-6.834756	abet
-5.473028	abetted
-5.989658	abetting
-6.232696	abeyance
-6.834756	abeyancethe
-6.357635	abf
-6.834756	abhijit
-5.755575	abhisit
-6.232696	abhisits
-6.834756	abhiyan
-5.880514	abhor
-6.357635	abhorred
-6.056605	abhorrence
-5.880514	abhorrent
-6.135786	abhors
-6.357635	abi
-5.056605	abide
-6.232696	abided
-6.135786	abides
-6.834756	abidin
-5.755575	abidine
-5.658665	abiding
-6.834756	abidingly
-6.135786	abidjan
-5.153515	abilities
-6.834756	abilitiesorganized
-3.749823	ability
-6.834756	abilityand
-6.834756	abitibibowater
-6.834756	abizaid
-5.436816	abject
-6.232696	abjectly
-6.834756	abjure
-6.834756	abjured
-6.834756	abjuring
-6.834756	abkazian
-6.834756	abkhasia
-6.834756	abkhaz
-4.995907	abkhazia
-6.533726	abkhazian
-6.357635	abkhazians
-6.834756	abkhazias
-5.834756	ablaze
-3.611001	able
-6.056605	ablebodied
-6.533726	ablest
-6.834756	ableto
-6.357635	ably
-5.492333	abm
-6.357635	abmtreaty
-6.357635	abn
-6.834756	abnamro
-6.834756	abnegation
-5.254972	abnormal
-5.793364	abnormalities
-6.357635	abnormality
-5.688628	abnormally
-5.533726	aboard
-6.357635	abode
-6.533726	abolhassan
-5.221972	abolish
-5.056605	abolished
-6.533726	abolishes
-5.278454	abolishing
-5.201288	abolition
-6.533726	abolitionists
-6.533726	abomb
-6.232696	abominable
-6.135786	abomination
-5.931666	aboriginal
-6.834756	aboriginals
-6.834756	aborigines
-6.834756	aborning
-6.135786	abort
-5.658665	aborted
-5.232696	abortion
-5.512537	abortions
-5.834756	abortive
-6.357635	aboul
-4.965525	abound
-5.989658	abounded
-5.793364	abounds
-2.812575	about
-6.834756	about[t]his
-5.931666	aboutface
-6.533726	aboutfaces
-6.834756	aboutnot
-6.834756	aboutthe
-3.802541	above
-5.989658	aboveaverage
-6.834756	aboveboard
-6.834756	abovecited
-6.834756	aboveground
-6.533726	abovemarket
-6.533726	abovementioned
-6.533726	abovepotential
-6.834756	aboverelatively
-6.533726	abovescale
-5.931666	abovetarget
-6.357635	abovetrend
-6.533726	abracadabra
-5.329606	abraham
-6.357635	abrahamic
-6.834756	abramovich
-6.357635	abramovitz
-6.533726	abrams
-6.056605	abramson
-6.834756	abramsons
-6.533726	abrasive
-6.232696	abreast
-6.834756	abridge
-6.232696	abridged
-6.834756	abridgement
-6.834756	abridging
-6.357635	abridgment
-4.002247	abroad
-6.834756	abroadmust
-6.834756	abroadsuicide
-5.880514	abrogate
-5.989658	abrogated
-6.834756	abrogates
-6.357635	abrogating
-6.232696	abrogation
-6.834756	abromovictch
-5.11048	abrupt
-5.102363	abruptly
-6.834756	abruptness
-6.834756	abscess
-6.232696	absconded
-4.040268	absence
-6.533726	absences
-4.604307	absent
-6.834756	absented
-5.989658	absentee
-6.135786	absenteeism
-6.357635	absentia
-6.834756	absentminded
-6.834756	absentmindedness
-6.834756	absolut
-4.393847	absolute
-4.774058	absolutely
-6.056605	absolution
-6.135786	absolutism
-5.604307	absolutist
-6.232696	absolutists
-6.056605	absolve
-5.931666	absolved
-6.834756	absolving
-4.614648	absorb
-5.015213	absorbed
-6.834756	absorbency
-6.056605	absorber
-6.056605	absorbers
-5.191304	absorbing
-5.755575	absorbs
-5.436816	absorption
-6.056605	absorptive
-6.533726	abss
-5.755575	abstain
-5.604307	abstained
-6.834756	abstainers
-6.135786	abstaining
-6.533726	abstemious
-5.556003	abstention
-6.357635	abstentions
-6.232696	abstinence
-4.942662	abstract
-6.232696	abstracted
-6.834756	abstracting
-6.056605	abstraction
-5.931666	abstractions
-6.533726	abstracts
-6.135786	abstruse
-4.813567	absurd
-6.533726	absurdities
-5.688628	absurdity
-5.658665	absurdly
-6.834756	absurdum
-4.821919	abu
-5.880514	abubakar
-6.834756	abububar
-6.834756	abububars
-6.834756	abuelas
-5.579484	abuja
-6.533726	abul
-6.834756	abulqasim
-6.533726	abulughod
-4.995907	abundance
-4.857033	abundant
-5.372358	abundantly
-6.834756	abunimah
-6.834756	abunimahs
-6.834756	abus
-6.834756	abusable
-4.480648	abuse
-5.127186	abused
-6.834756	abuseof
-5.720813	abusers
-4.551455	abuses
-5.492333	abusing
-5.473028	abusive
-6.834756	abut
-6.357635	abuts
-5.931666	abuzz
-5.533726	abyei
-6.834756	abyeis
-5.556003	abysmal
-5.931666	abysmally
-5.11048	abyss
-6.834756	abyssal
-6.357635	abyssinia
-6.834756	abzesolar
-6.135786	ac
-5.880514	aca
-5.153515	academia
-6.834756	academias
-4.438557	academic
-6.834756	academically
-6.834756	academician
-4.785538	academics
-6.834756	academicsnot
-6.232696	academies
-5.021843	academy
-6.357635	academys
-6.834756	acadia
-6.533726	acandidate
-6.834756	acapulco
-6.834756	acara
-6.357635	acas
-6.834756	accademia
-5.755575	accede
-5.630636	acceded
-6.834756	accedes
-5.834756	acceding
-6.834756	accelerant
-4.494312	accelerate
-4.658665	accelerated
-6.834756	accelerated#
-5.357635	accelerates
-4.667439	accelerating
-5.049427	acceleration
-6.834756	accelerations
-5.755575	accelerator
-6.533726	accelerators
-5.989658	accent
-6.834756	accented
-6.357635	accents
-5.755575	accentuate
-5.604307	accentuated
-6.357635	accentuates
-6.357635	accentuating
-3.84709	accept
-6.357635	acceptability
-4.418116	acceptable
-6.834756	acceptably
-4.553723	acceptance
-6.533726	acceptances
-4.179618	accepted
-4.572305	accepting
-4.989658	accepts
-3.627391	access
-6.135786	accessed
-5.793364	accessibility
-4.847984	accessible
-6.834756	accessibly
-5.688628	accessing
-4.431636	accession
-6.834756	accessiondriven
-6.533726	accessions
-6.834756	accessionthey
-6.357635	accessories
-6.834756	accessory
-4.614648	accident
-5.419783	accidental
-5.533726	accidentally
-6.834756	accidentplagued
-4.875715	accidents
-6.834756	accin
-5.533726	acclaim
-5.630636	acclaimed
-6.533726	acclaiming
-6.533726	acclamation
-6.834756	acclerated
-6.834756	acclimation
-6.533726	accolade
-6.232696	accolades
-4.766571	accommodate
-5.512537	accommodated
-5.931666	accommodates
-5.035416	accommodating
-4.971433	accommodation
-6.834756	accommodationrental
-5.931666	accommodations
-5.436816	accommodative
-6.834756	accommodator
-6.834756	accomodation
-4.294427	accompanied
-5.473028	accompanies
-6.357635	accompaniment
-5.135786	accompany
-5.102363	accompanying
-5.604307	accompli
-6.135786	accomplice
-6.834756	accomplicereminds
-5.793364	accomplices
-6.533726	accomplis
-4.717485	accomplish
-4.630636	accomplished
-6.056605	accomplishes
-5.688628	accomplishing
-5.290688	accomplishment
-6.834756	accomplishmentgiven
-5.035416	accomplishments
-4.644424	accord
-5.042365	accordance
-5.436816	accorded
-6.834756	accordin
-3.594457	according
-4.704422	accordingly
-6.834756	accordinglynbspnbsp
-6.834756	accordion
-6.834756	accordions
-4.942662	accords
-6.834756	accost
-6.533726	accosted
-3.833889	account
-4.318882	accountability
-4.461844	accountable
-6.533726	accountably
-6.357635	accountancy
-5.931666	accountant
-5.473028	accountants
-4.61204	accounted
-6.834756	accountholders
-4.265382	accounting
-4.072078	accounts
-6.834756	accountsreceivable
-6.834756	accountsrepayment
-5.604307	accra
-6.834756	accredit
-6.357635	accreditation
-5.931666	accredited
-6.533726	accretions
-5.419783	accrue
-5.604307	accrued
-5.931666	accrues
-6.056605	accruing
-6.834756	acculturating
-4.79733	accumulate
-4.714182	accumulated
-5.931666	accumulates
-5.127186	accumulating
-4.625241	accumulation
-5.834756	accumulations
-6.834756	accumulators
-5.290688	accuracy
-4.591718	accurate
-4.920942	accurately
-6.834756	accuratelyampnbsp
-5.419783	accusation
-4.905337	accusations
-6.056605	accusatorial
-6.357635	accusatory
-5.201288	accuse
-4.409874	accused
-6.357635	accuser
-6.357635	accusers
-5.512537	accuses
-5.191304	accusing
-6.834756	accustom
-4.885366	accustomed
-6.135786	acd
-6.834756	acds
-6.232696	ace
-5.630636	aceh
-6.834756	acehnese
-6.834756	acelor
-5.658665	acemoglu
-6.834756	acemoglurobinson
-6.533726	acemoglus
-6.834756	acerbic
-6.533726	acerbically
-6.834756	acetate
-6.834756	achangin
-5.989658	acheson
-6.834756	achesons
-6.834756	achhe
-6.533726	achievability
-5.042365	achievable
-3.753049	achieve
-3.983498	achieved
-4.473028	achievement
-4.523002	achievements
-6.834756	achievers
-5.403392	achieves
-4.188353	achieving
-5.419783	achilles
-6.533726	achingly
-6.834756	achiote
-6.834756	achmadinejad
-5.329606	acid
-6.834756	acidbase
-6.834756	aciddipped
-6.232696	acidic
-5.931666	acidification
-6.533726	acidifying
-6.533726	acidity
-6.834756	acidly
-5.793364	acids
-5.989658	acio
-6.533726	ackermann
-4.463688	acknowledge
-4.594207	acknowledged
-5.372358	acknowledgement
-5.201288	acknowledges
-4.870968	acknowledging
-5.720813	acknowledgment
-6.834756	aclash
-6.834756	aclass
-6.834756	aclasta
-6.834756	aclu
-6.834756	acme
-6.533726	acmecs
-6.232696	acn
-6.357635	acne
-6.834756	acnled
-6.533726	acolyte
-5.720813	acolytes
-6.834756	acommunityof
-6.834756	aconcerted
-6.533726	acorns
-6.834756	acp
-6.834756	acquacultures
-6.232696	acquaintance
-5.931666	acquaintances
-5.720813	acquainted
-5.579484	acquiesce
-5.720813	acquiesced
-5.512537	acquiescence
-6.533726	acquiescent
-6.357635	acquiesces
-5.720813	acquiescing
-4.617272	acquire
-4.691741	acquired
-6.834756	acquiredrights
-6.533726	acquirer
-5.834756	acquires
-5.002247	acquiring
-5.436816	acquis
-5.078881	acquisition
-5.221972	acquisitions
-6.834756	acquisitive
-6.834756	acquisitiveness
-6.533726	acquit
-5.931666	acquittal
-6.533726	acquittals
-5.755575	acquitted
-6.533726	acquitting
-6.056605	acre
-6.056605	acreage
-5.720813	acres
-5.834756	acrimonious
-6.834756	acrimoniously
-5.880514	acrimony
-6.533726	acrobatics
-6.834756	acrobats
-5.579484	acronym
-6.834756	acronymic
-6.135786	acronyms
-6.533726	acropolis
-3.625778	across
-5.436816	acrosstheboard
-6.533726	acrs
-6.533726	acs
-6.834756	acse
-6.834756	acss
-3.688318	act
-5.931666	acta
-4.676394	acted
-4.381438	acting
-3.58752	action
-6.834756	action#
-6.834756	actiona
-6.533726	actionable
-6.834756	actionand
-6.834756	actioncomedy
-6.533726	actionnbsp
-6.533726	actionoriented
-6.834756	actionpacked
-3.955087	actions
-6.834756	actionsstifled
-5.834756	activate
-5.533726	activated
-5.989658	activates
-5.658665	activating
-5.720813	activation
-6.834756	activations
-4.177701	active
-6.834756	activeage
-6.834756	activeand
-6.834756	activeduty
-4.504343	actively
-4.870968	activism
-4.766571	activist
-6.834756	activistdominated
-4.381438	activists
-3.946577	activities
-6.834756	activitiesbut
-6.834756	activitiesit
-4.088901	activity
-6.834756	activity#
-6.834756	activitynbsp
-6.533726	activitys
-6.834756	actnbspthe
-6.834756	actons
-4.817723	actor
-4.240364	actors
-6.834756	actos
-5.755575	actress
-6.533726	actresses
-4.349035	acts
-4.328251	actual
-6.533726	actualization
-6.834756	actualize
-3.830435	actually
-6.834756	actuallywe
-6.533726	actuarial
-6.533726	actuarially
-6.533726	actuaries
-6.834756	actus
-6.834756	actvities
-5.793364	acumen
-6.533726	acupuncture
-4.604307	acute
-5.387598	acutely
-4.751971	ad
-4.989658	ada
-5.492333	adage
-5.989658	adair
-4.734385	adalah
-6.834756	adalbert
-6.533726	adalberts
-4.977424	adam
-5.372358	adamant
-6.834756	adamantine
-5.658665	adamantly
-6.834756	adamawa
-6.232696	adams
-6.533726	adamss
-6.834756	adamu
-5.387598	adanya
-4.44915	adapt
-5.533726	adaptability
-5.579484	adaptable
-5.880514	adaptasi
-4.638856	adaptation
-5.720813	adaptations
-4.948266	adapted
-6.834756	adapter
-6.834756	adapters
-4.920942	adapting
-6.357635	adaption
-5.232696	adaptive
-6.834756	adaptively
-6.357635	adapts
-5.755575	adat
-6.533726	aday
-5.254972	adb
-6.834756	adb#
-5.834756	adbs
-4.171999	add
-6.834756	addax
-4.257265	added
-6.533726	addendum
-6.357635	addict
-5.473028	addicted
-5.049427	addiction
-6.056605	addictions
-5.357635	addictive
-6.834756	addictively
-5.880514	addicts
-4.520889	adding
-5.181544	addis
-4.063169	addition
-3.896236	additional
-5.834756	additionally
-6.357635	additions
-6.533726	additive
-5.989658	additives
-6.834756	addled
-6.357635	addon
-6.533726	addons
-3.704744	address
-4.243691	addressed
-6.834756	addressedbut
-6.834756	addressednbsp
-6.834756	addressedthe
-4.839121	addresses
-6.834756	addresshttpwwwkhatamicom
-4.189334	addressing
-4.890274	adds
-6.834756	addu
-6.834756	adduce
-6.533726	adduced
-6.834756	adduces
-6.834756	adel
-6.834756	adelaide
-6.834756	adelie
-6.834756	adelson
-6.056605	aden
-5.357635	adenauer
-6.357635	adenauers
-6.834756	adenovirus
-5.343395	adept
-6.834756	adeptness
-5.303277	adequacy
-4.30073	adequate
-4.759209	adequately
-6.533726	adevarul
-6.834756	adfs
-4.852485	adhere
-5.473028	adhered
-5.049427	adherence
-6.834756	adherent
-5.181544	adherents
-5.579484	adheres
-5.343395	adhering
-6.834756	adhesion
-6.834756	adhesive
-6.533726	adhoc
-6.357635	adidas
-6.834756	adiktif
-6.135786	adil
-5.755575	adiz
-6.834756	adjacency
-5.387598	adjacent
-6.834756	adjective
-5.880514	adjectives
-6.834756	adjoin
-5.931666	adjoining
-6.533726	adjourn
-6.232696	adjourned
-6.533726	adjournment
-6.056605	adjournments
-6.834756	adjourns
-5.720813	adjudicate
-6.834756	adjudicated
-6.357635	adjudicating
-5.880514	adjudication
-6.834756	adjudicative
-6.232696	adjunct
-4.533726	adjust
-6.056605	adjustable
-5.989658	adjustablerate
-4.766571	adjusted
-5.021843	adjusting
-6.834756	adjustingampnbsp
-4.119589	adjustment
-4.551455	adjustments
-5.793364	adjusts
-6.834756	adjutant
-6.135786	adjuvant
-6.834756	adkins
-6.533726	adlai
-6.834756	adli
-6.834756	adly
-5.834756	admati
-6.834756	admatis
-5.357635	administer
-5.008681	administered
-5.512537	administering
-6.232696	administers
-3.65463	administration
-6.834756	administrationis
-4.314928	administrations
-6.834756	administrationsrepublican
-6.834756	administrationsthey
-4.4963	administrative
-6.232696	administratively
-5.512537	administrator
-5.372358	administrators
-5.357635	admirable
-5.834756	admirably
-5.512537	admiral
-6.357635	admirals
-6.834756	admiralty
-5.14456	admiration
-5.290688	admire
-5.181544	admired
-5.931666	admirer
-5.720813	admirers
-6.533726	admires
-6.232696	admiring
-6.834756	admissibility
-6.834756	admissible
-4.84353	admission
-5.604307	admissions
-4.553723	admit
-5.357635	admits
-4.770298	admitted
-4.895237	admittedly
-5.171999	admitting
-6.834756	admonish
-6.135786	admonished
-6.834756	admonishes
-6.533726	admonishing
-6.834756	admonishment
-6.834756	admonishments
-6.135786	admonition
-6.056605	admonitions
-6.834756	admonitory
-6.533726	adn
-6.834756	adnan
-6.834756	ado
-6.834756	adobe
-6.357635	adolescence
-5.755575	adolescent
-5.630636	adolescents
-5.419783	adolf
-6.232696	adolfo
-6.834756	adolph
-6.834756	adolphe
-4.23053	adopt
-4.022511	adopted
-6.834756	adopter
-6.056605	adopters
-4.44559	adopting
-4.518786	adoption
-6.232696	adoptions
-6.834756	adoptive
-6.834756	adoptoften
-5.533726	adopts
-6.834756	adorable
-6.135786	adoration
-6.232696	adore
-6.135786	adored
-6.834756	adores
-5.989658	adoring
-6.357635	adorn
-6.056605	adorned
-6.834756	adornments
-6.834756	adorns
-6.834756	adp
-6.533726	adrelated
-6.834756	adrenal
-6.357635	adrenalin
-6.357635	adrenaline
-6.357635	adrian
-6.357635	adriatic
-5.688628	adrift
-6.357635	adroit
-6.834756	adroitly
-6.533726	adroitness
-6.056605	adrs
-5.492333	ads
-6.135786	adulation
-4.880514	adult
-6.533726	adultderived
-6.834756	adulte
-6.834756	adulterants
-6.135786	adulterated
-6.834756	adulterers
-6.533726	adulterous
-5.880514	adultery
-5.579484	adulthood
-6.834756	adultmale
-4.730953	adults
-6.232696	adulyadej
-6.834756	adulyadejs
-6.834756	adumim
-4.173891	advance
-3.702817	advanced
-4.989658	advancedcountry
-5.556003	advancedeconomy
-6.834756	advancedincome
-4.959695	advancement
-6.834756	advancements
-4.367888	advances
-4.724166	advancing
-6.533726	advani
-3.954515	advantage
-6.357635	advantaged
-5.303277	advantageous
-6.533726	advantageously
-4.409874	advantages
-6.834756	advantageseconomic
-6.834756	advantagesis
-6.834756	advantagesnbsp
-4.995907	advent
-5.181544	adventure
-6.357635	adventurer
-6.232696	adventurers
-5.266554	adventures
-6.056605	adventuresome
-6.834756	adventuring
-5.556003	adventurism
-5.834756	adventurous
-6.834756	adventurousness
-5.880514	adversarial
-4.971433	adversaries
-6.834756	adversariesegypts
-5.162658	adversary
-6.357635	adversarys
-4.431636	adverse
-5.303277	adversely
-6.834756	adversities
-5.512537	adversity
-5.989658	advertise
-5.556003	advertised
-5.579484	advertisement
-5.492333	advertisements
-6.533726	advertiser
-5.403392	advertisers
-6.834756	advertises
-4.813567	advertising
-6.834756	advertisingbased
-6.834756	advertisingmarketing
-6.834756	advertisings
-4.359085	advice
-6.533726	advisability
-5.755575	advisable
-5.316242	advise
-4.937129	advised
-4.698036	adviser
-4.655779	advisers
-6.834756	advisersnbspwere
-5.720813	advises
-5.512537	advising
-5.454545	advisor
-6.834756	advisories
-5.357635	advisors
-4.953943	advisory
-5.056605	advocacy
-6.834756	advocacyfocused
-4.617272	advocate
-4.777852	advocated
-4.423137	advocates
-4.953943	advocating
-6.533726	advokasi
-6.533726	adware
-6.834756	adzhar
-6.834756	adzharia
-6.357635	aec
-6.834756	aecom
-6.834756	aed
-5.755575	aegean
-5.834756	aegis
-6.834756	aere
-5.329606	aerial
-6.834756	aerodynamically
-6.834756	aeronautic
-6.533726	aeronautical
-6.232696	aeronautics
-6.357635	aerosol
-6.232696	aerosols
-5.492333	aerospace
-6.834756	aes
-6.533726	aesops
-6.834756	aess
-5.688628	aesthetic
-6.533726	aesthetically
-6.135786	aesthetics
-6.834756	afak
-6.834756	afanasievich
-5.688628	afar
-6.232696	afc
-6.834756	afcled
-5.989658	afd
-5.755575	afdb
-6.834756	afewerki
-6.834756	affable
-4.777852	affair
-6.834756	affaire
-6.135786	affaires
-4.035416	affairs
-6.834756	affairsand
-6.834756	affari
-4.245924	affect
-6.834756	affectation
-4.266554	affected
-6.834756	affectednbsp
-4.617272	affecting
-5.755575	affection
-6.357635	affectionate
-6.357635	affectionately
-6.834756	affections
-6.357635	affective
-6.834756	affectivemotivational
-4.694877	affects
-6.232696	affidavit
-6.357635	affidavits
-6.135786	affiliate
-5.473028	affiliated
-5.372358	affiliates
-6.834756	affiliating
-5.372358	affiliation
-5.630636	affiliations
-5.720813	affinities
-5.630636	affinity
-5.436816	affirm
-5.579484	affirmation
-6.533726	affirmations
-5.162658	affirmative
-6.232696	affirmativeaction
-6.834756	affirmatively
-5.473028	affirmed
-5.630636	affirming
-5.931666	affirms
-6.533726	affixed
-6.834756	affixing
-5.630636	afflict
-5.232696	afflicted
-5.604307	afflicting
-6.357635	affliction
-6.533726	afflictions
-5.630636	afflicts
-5.473028	affluence
-4.971433	affluent
-6.357635	affluents
-4.11377	afford
-5.604307	affordability
-4.551455	affordable
-6.834756	affordablecare
-6.533726	affordablehousing
-6.533726	affordably
-5.266554	afforded
-6.232696	affording
-5.793364	affords
-5.579484	affront
-6.834756	affronts
-4.351882	afghan
-6.834756	afghanaid
-6.357635	afghani
-6.834756	afghaninternational
-6.533726	afghanis
-3.754852	afghanistan
-5.989658	afghanistanpakistan
-4.741334	afghanistans
-6.834756	afghanistanstyle
-6.834756	afghanization
-6.232696	afghanled
-6.834756	afghanlike
-6.135786	afghanpakistan
-6.834756	afghanpakistani
-5.118753	afghans
-6.533726	afi
-6.533726	aficionado
-5.989658	afield
-6.834756	afifi
-6.834756	afis
-6.533726	afjp
-6.533726	afjps
-6.232696	aflame
-6.834756	aflatoxin
-6.834756	aflatoxins
-6.834756	aflcio
-5.232696	afloat
-6.834756	afonso
-5.604307	afoot
-6.357635	aforementioned
-5.720813	afoul
-6.232696	afpak
-4.755575	afraid
-6.135786	afresh
-3.489187	africa
-6.834756	africa]
-6.834756	africaa
-6.834756	africaare
-6.834756	africacentric
-6.834756	africachina
-6.834756	africaindeed
-3.808223	african
-6.232696	africana
-6.834756	africanallocated
-5.387598	africanamerican
-5.579484	africanamericans
-6.533726	africanbased
-6.834756	africanbrazilian
-6.834756	africanbrazilians
-6.533726	africaneuropean
-4.551455	africans
-6.834756	africansand
-4.100757	africas
-5.880514	africau
-6.357635	africawide
-6.357635	africom
-6.834756	afridi
-5.512537	afrika
-6.834756	afrikaans
-6.357635	afrikaner
-6.834756	afrikaners
-6.834756	afroamerican
-6.834756	afrobarometer
-6.834756	afrobrazilian
-6.834756	afrocaribbean
-6.834756	afrocaribbeans
-6.834756	afshin
-2.9966	after
-6.834756	aftera
-6.834756	afteraction
-6.135786	aftereffects
-6.357635	afterglow
-6.834756	aftergood
-6.834756	afterimage
-6.135786	afterlife
-4.37839	aftermath
-6.834756	afternbspsatyarthinbsprescued
-5.556003	afternoon
-6.834756	aftersale
-6.357635	afterschool
-6.834756	aftershock
-5.793364	aftershocks
-6.533726	aftertaste
-5.343395	aftertax
-6.533726	afterthefact
-5.720813	afterthought
-5.556003	afterward
-5.201288	afterwards
-6.834756	aftonbladet
-6.834756	afula
-6.834756	afwerkis
-6.357635	ag
-6.834756	agadir
-3.547179	again
-6.834756	againfor
-6.834756	againmay
-6.834756	againnbsp
-3.099477	against
-5.793364	agama
-6.533726	agamben
-5.243691	agar
-3.870968	age
-6.834756	ageand
-6.834756	ageappropriate
-6.357635	agecc
-4.910477	aged
-6.834756	agegroups
-5.931666	ageing
-6.834756	agen
-6.533726	agence
-4.099957	agencies
-6.834756	agenciesnbspnot
-4.17484	agency
-6.834756	agencyenergy
-5.387598	agencys
-6.834756	agencythe
-3.765088	agenda
-6.834756	agendadriven
-6.834756	agendaincluding
-4.847984	agendas
-6.834756	agendasby
-6.834756	agendasetter
-6.056605	agendasetting
-6.834756	agendashaping
-6.834756	agendathe
-5.008681	agent
-6.834756	agentbanking
-6.834756	agentbased
-4.682468	agents
-5.512537	ageold
-5.989658	agerelated
-4.847984	ages
-6.834756	agesincrease
-6.834756	agespecific
-6.834756	agestandardized
-6.834756	agestyle
-6.357635	agf
-6.232696	agfs
-6.834756	aggiornamento
-6.232696	agglomeration
-6.357635	agglomerations
-6.834756	aggrandized
-6.834756	aggrandizement
-6.834756	aggrandizer
-6.834756	aggrandizing
-5.243691	aggravate
-5.102363	aggravated
-5.880514	aggravates
-5.343395	aggravating
-6.834756	aggravations
-4.285753	aggregate
-6.357635	aggregated
-6.056605	aggregatedemand
-6.834756	aggregateoutput
-5.880514	aggregates
-6.357635	aggregating
-5.880514	aggregation
-6.533726	aggregations
-6.357635	aggregators
-4.584336	aggression
-6.533726	aggressions
-4.258415	aggressive
-4.770298	aggressively
-5.880514	aggressiveness
-5.630636	aggressor
-5.720813	aggressors
-5.793364	aggrieved
-6.533726	agha
-6.533726	aghast
-6.834756	aghion
-5.658665	agile
-6.834756	agilely
-5.880514	agility
-6.834756	agim
-4.340601	aging
-6.834756	agingrelated
-6.834756	agings
-6.834756	agip
-6.834756	agir
-6.056605	agitate
-5.688628	agitated
-6.834756	agitates
-5.931666	agitating
-5.931666	agitation
-6.834756	agitationas
-6.533726	agitations
-6.834756	agitator
-6.834756	agitators
-6.834756	agitprop
-6.834756	agius
-6.834756	aglow
-6.834756	agnelli
-6.834756	agnew
-5.720813	agnostic
-6.357635	agnosticism
-6.135786	agnostics
-6.533726	agnostik
-3.451659	ago
-6.834756	ago]
-5.931666	agoa
-6.533726	agoas
-6.834756	agofor
-6.834756	agomay
-6.834756	agonies
-6.834756	agonist
-6.357635	agonistes
-6.357635	agonize
-6.056605	agonized
-6.533726	agonizes
-5.688628	agonizing
-6.135786	agonizingly
-5.329606	agony
-6.357635	agora
-6.533726	agov
-6.834756	agovs
-6.834756	agowill
-6.533726	agpl
-6.533726	agra
-5.533726	agrarian
-6.834756	agrarianbased
-6.834756	agrariandevelopment
-4.006741	agree
-5.931666	agreeable
-3.924132	agreed
-5.931666	agreedupon
-4.839121	agreeing
-3.511917	agreement
-6.834756	agreementconstitutes
-4.065379	agreements
-6.834756	agreenbsp
-4.885366	agrees
-6.834756	agreing
-6.533726	agresif
-5.512537	agribusiness
-6.834756	agribusinessbreeding
-6.533726	agribusinesses
-6.834756	agrichemical
-6.834756	agricole
-4.07736	agricultural
-6.834756	agriculturalbased
-6.834756	agriculturaleconomic
-6.533726	agriculturalextension
-6.834756	agriculturalists
-6.834756	agriculturalsupport
-4.11377	agriculture
-6.834756	agriculturedependent
-6.834756	agriculturedriven
-6.834756	agriculturefood
-6.232696	agricultureled
-6.135786	agricultures
-6.834756	agriculturists
-6.834756	agro
-6.834756	agrobiotechnology
-6.232696	agrobusiness
-6.533726	agrobusinesses
-6.834756	agrochemicals
-6.834756	agrodealer
-6.834756	agrodealers
-6.533726	agroecological
-6.533726	agroecology
-6.232696	agroforestry
-6.135786	agroindustrial
-6.834756	agroindustries
-6.834756	agronomical
-6.834756	agronomist
-6.533726	agropastoralists
-6.834756	agropecuria
-6.357635	agroprocessing
-5.931666	aground
-6.834756	aguiar
-6.834756	aguirre
-6.357635	agung
-6.834756	agustn
-6.834756	agustus
-6.834756	agway
-6.232696	ah
-6.834756	ahamad
-6.834756	aharon
-3.930041	ahead
-6.232696	ahistorical
-6.834756	ahistoricism
-6.834756	ahl
-6.834756	ahlehadith
-6.232696	ahli
-6.533726	ahluwalia
-5.473028	ahmad
-6.834756	ahmadian
-4.638856	ahmadinejad
-4.995907	ahmadinejads
-6.533726	ahmadinejhad
-6.834756	ahmadiyya
-6.834756	ahmadiyyas
-6.533726	ahmads
-5.329606	ahmed
-6.533726	ahmedabad
-5.232696	ahmedinejad
-5.658665	ahmedinejads
-5.931666	ahmet
-5.512537	ahn
-6.232696	ahns
-5.658665	ahtisaari
-5.880514	ahtisaaris
-6.834756	ahtissari
-6.834756	ahwaz
-5.579484	ai
-6.533726	aichi
-3.730611	aid
-6.533726	aida
-6.834756	aidan
-6.834756	aidandtrade
-6.834756	aiddelivery
-6.834756	aiddependence
-6.357635	aiddependency
-6.232696	aiddependent
-5.755575	aide
-5.063904	aided
-6.834756	aider
-5.243691	aides
-6.834756	aidfinanced
-6.834756	aidfortrade
-5.454545	aiding
-6.834756	aidit
-6.834756	aidless
-6.834756	aidmore
-6.834756	aidos
-6.834756	aidproperty
-6.834756	aidrecipient
-4.533726	aids
-6.533726	aidsrelated
-6.533726	aidsupported
-6.834756	aidthis
-6.834756	aidtogdp
-5.102363	aig
-6.834756	aiglike
-6.533726	aigs
-6.533726	aihrc
-4.730953	aiib
-6.834756	aiibfinanced
-5.604307	aiibs
-6.834756	ailac
-6.533726	ailacs
-5.162658	ailing
-5.880514	ailment
-5.604307	ailments
-5.834756	ails
-4.175791	aim
-6.834756	aimai
-3.900258	aimed
-5.102363	aiming
-6.533726	aimless
-4.447366	aims
-6.834756	ain
-6.834756	ainak
-6.533726	ainsi
-6.533726	aint
-6.834756	ainu
-5.604307	aipac
-6.232696	aipacs
-6.357635	aipmc
-3.974418	air
-6.834756	airbags
-6.056605	airbase
-6.834756	airbases
-5.556003	airbnb
-6.357635	airbnbs
-6.834756	airbnbtype
-5.793364	airborne
-6.834756	airborne*
-6.357635	airbrushed
-5.579484	airbus
-6.834756	airc
-6.834756	aircombat
-6.533726	airconditioned
-6.533726	airconditioning
-6.533726	aircontrol
-4.638856	aircraft
-6.834756	aircraftcarrier
-6.056605	aircrafts
-5.720813	airdefense
-6.533726	airdrops
-5.880514	aired
-5.035416	aires
-6.834756	airessantiago
-6.834756	aireswashington
-6.834756	airfield
-6.533726	airfields
-6.834756	airforce
-6.834756	airground
-6.834756	airily
-6.232696	airing
-6.834756	airlanded
-6.135786	airlift
-6.533726	airlifted
-5.243691	airline
-5.834756	airliner
-6.533726	airliners
-4.942662	airlines
-6.533726	airmen
-5.290688	airplane
-5.343395	airplanes
-6.357635	airpocalypse
-6.357635	airpollution
-4.983498	airport
-5.028576	airports
-6.834756	airportss
-6.056605	airpower
-6.056605	airquality
-6.834756	airraiding
-6.834756	airraidtype
-6.834756	airsea
-6.834756	airships
-5.303277	airspace
-6.834756	airstrike
-5.232696	airstrikes
-6.533726	airstrip
-6.533726	airstrips
-6.834756	airtel
-6.834756	airtex
-5.989658	airtight
-6.135786	airtime
-6.533726	airtoair
-6.834756	airtours
-6.533726	airtoursfirst
-6.834756	airtrain
-6.834756	airtransport
-5.931666	airwaves
-6.834756	airways
-6.834756	airy
-6.834756	aise
-6.834756	aish
-6.834756	aisha
-6.232696	aisle
-6.834756	aisles
-6.834756	aisyiyah
-6.357635	ait
-6.834756	aix
-6.056605	aja
-6.834756	ajanta
-6.533726	ajaran
-6.834756	ajas
-6.357635	ajax
-6.533726	ajp
-6.834756	ajri
-6.834756	ajume
-5.989658	ak
-6.533726	aka
-6.232696	akademi
-6.834756	akademik
-6.834756	akademisi
-6.834756	akagi
-6.834756	akal
-6.834756	akali
-6.533726	akamatsu
-4.221972	akan
-6.357635	akar
-6.834756	akarnya
-6.834756	akayev
-5.556003	akbar
-5.720813	akerlof
-6.357635	akerlofs
-6.834756	akerson
-6.834756	akessons
-5.512537	akhir
-5.989658	akhirakhir
-5.436816	akhirnya
-6.533726	akhmad
-6.834756	akhmat
-6.533726	akhmatova
-6.533726	akhmetov
-6.834756	akhter
-5.232696	akibat
-5.755575	akibatnya
-6.533726	akihito
-6.056605	akihitos
-4.852485	akin
-6.232696	akinci
-6.834756	akincis
-6.232696	akio
-6.834756	akit
-6.533726	akkadian
-4.834756	akp
-6.834756	akpinitiated
-5.357635	akps
-6.834756	akrilimida
-6.834756	akroum
-6.533726	aksai
-6.834756	aksara
-6.834756	aksenenko
-5.533726	akses
-5.604307	aksi
-6.533726	aksyonov
-6.533726	akt
-6.135786	aktif
-6.232696	aktivis
-6.834756	aktivisakvitis
-5.880514	aktivitas
-6.834756	aktor
-6.834756	aktush
-6.834756	akui
-6.834756	akuifer
-6.533726	akula
-6.834756	akuntabel
-6.533726	akuntabilitas
-6.834756	akuntasi
-6.357635	akurat
-6.834756	akut
-6.834756	akyol
-4.115425	al
-6.357635	ala
-6.834756	alaaalaswany
-6.834756	alaali
-6.533726	alabadi
-5.880514	alabama
-6.533726	alabidine
-6.135786	alacrity
-6.834756	aladawiyya
-6.834756	aladdins
-6.232696	aladly
-6.533726	aladlys
-6.357635	alafghani
-6.834756	alahad
-6.533726	alahmad
-6.834756	alahmar
-5.755575	alain
-6.834756	alaksa
-6.834756	alaldys
-6.533726	alalqami
-6.834756	alalqamis
-5.473028	alam
-6.834756	alamdaar
-5.989658	alami
-6.834756	alamiah
-6.834756	alaminya
-6.533726	alamma
-6.834756	alamn
-6.357635	alamos
-4.789433	alan
-6.834756	alandalus
-6.834756	alaqima
-6.357635	alaqsa
-6.834756	alarabiyeh
-4.937129	alarm
-5.290688	alarmed
-4.704422	alarming
-5.372358	alarmingly
-6.056605	alarmism
-5.720813	alarmist
-5.989658	alarmists
-5.658665	alarms
-4.965525	alas
-6.834756	alasala
-5.556003	alasan
-6.533726	alasanalasan
-6.533726	alasannya
-6.834756	alasdair
-5.658665	alaska
-6.834756	alaskan
-6.834756	alaskans
-6.533726	alaskariyya
-6.834756	alaskas
-4.852485	alassad
-4.861629	alassads
-6.834756	alassal
-6.533726	alassane
-6.533726	alastair
-6.834756	alaswany
-5.931666	alat
-6.834756	alawi
-5.254972	alawite
-6.834756	alawitedominated
-6.834756	alawiteled
-6.834756	alawiteminority
-6.834756	alawiteruled
-5.556003	alawites
-6.834756	alawites#
-6.533726	alawiteshia
-6.533726	alawlaki
-6.834756	alawlakis
-6.834756	alawsat
-6.357635	alazhar
-6.834756	alazhary
-6.834756	alaziz
-6.533726	alaziziya
-6.834756	alazm
-6.834756	alazms
-5.579484	alba
-6.834756	albadeel
-6.834756	albadr
-6.834756	albadri
-5.931666	albaghdadi
-4.989658	albania
-5.118753	albanian
-6.357635	albanianmajority
-6.834756	albanianpopulated
-5.254972	albanians
-5.931666	albanias
-6.834756	albanna
-6.533726	albany
-6.834756	albar
-6.834756	albara
-6.834756	albardawil
-6.834756	albas
-5.343395	albashir
-6.357635	albashirs
-6.834756	albastawisy
-6.533726	albatross
-6.834756	albatrosses
-4.469268	albeit
-5.343395	albert
-5.989658	alberta
-6.834756	albertas
-5.533726	alberto
-6.834756	albrecht
-5.688628	albright
-6.834756	albu
-6.357635	album
-6.533726	albuquerque
-6.834756	alcatel
-5.931666	alcatraz
-6.834756	alchemist
-6.135786	alchemists
-5.755575	alchemy
-6.834756	alchuk
-6.533726	alcide
-6.834756	alckmin
-6.533726	alcoa
-5.11048	alcohol
-5.989658	alcoholic
-6.533726	alcoholics
-5.755575	alcoholism
-6.533726	alcohols
-6.834756	alcoholuse
-6.834756	aldam
-6.834756	aldawa
-6.232696	aldin
-6.834756	aldins
-6.533726	aldous
-6.533726	ale
-6.533726	alec
-6.834756	aleh
-5.989658	alejandro
-6.533726	alekhina
-5.688628	aleksander
-6.357635	aleksandr
-6.834756	aleksandra
-6.357635	aleksanyan
-6.533726	aleksei
-6.834756	aleksey
-5.989658	alemn
-6.357635	alencar
-5.419783	aleppo
-6.533726	aleppos
-5.211507	alert
-5.989658	alerted
-6.135786	alerting
-6.056605	alerts
-5.720813	alesina
-6.135786	alesinas
-6.834756	alessandra
-6.834756	alessandria
-6.834756	alevi
-6.357635	alevis
-5.630636	alex
-6.533726	alexa
-6.834756	alexandar
-4.910477	alexander
-6.834756	alexandra
-6.834756	alexandre
-5.989658	alexandria
-6.834756	alexanyan
-6.834756	alexe
-5.473028	alexei
-6.533726	alexey
-6.232696	alexi
-6.834756	alexia
-5.793364	alexievich
-6.135786	alexievichs
-5.232696	alexis
-6.232696	alexy
-6.834756	alf
-6.357635	alfa
-6.533726	alfaisal
-6.357635	alfanek
-6.834756	alfano
-6.834756	alfaruqi
-6.533726	alfatah
-6.834756	alfattah
-6.533726	alfonsin
-6.232696	alfonsn
-6.357635	alfonso
-6.834756	alford
-5.834756	alfred
-6.357635	alfredo
-6.834756	alfurqan
-6.834756	algaddafi
-6.135786	algae
-6.533726	algal
-6.834756	algamaa
-6.834756	alganzouri
-6.834756	algebra
-4.781678	algeria
-5.201288	algerian
-6.834756	algerianborn
-6.533726	algerianmoroccan
-5.579484	algerians
-5.630636	algerias
-6.834756	alghani
-6.834756	alghannouchi
-6.834756	alghannushi
-6.834756	algheriani
-6.533726	alghuneim
-5.630636	algiers
-5.658665	algorithm
-6.533726	algorithmic
-5.688628	algorithms
-6.834756	alhabbash
-6.533726	alhakim
-6.232696	alhariri
-6.834756	alhashids
-6.834756	alhashimi
-6.834756	alhaving
-6.834756	alhayat
-6.834756	alhomayed
-6.834756	alhomsi
-6.834756	alhough
-6.834756	alhouthi
-6.357635	alhusseini
-4.586783	ali
-6.357635	alia
-6.357635	aliansi
-6.357635	alianza
-6.533726	alias
-6.834756	aliased
-6.834756	aliases
-5.387598	alibaba
-6.834756	alibabas
-6.056605	alibi
-6.357635	alibis
-5.436816	alice
-6.834756	alices
-5.181544	alien
-5.512537	alienate
-4.977424	alienated
-6.135786	alienates
-5.473028	alienating
-5.201288	alienation
-5.688628	aliens
-6.834756	alifrazier
-5.989658	alight
-6.533726	alighted
-6.834756	alighting
-4.915678	align
-4.959695	aligned
-5.357635	aligning
-5.290688	alignment
-6.135786	alignments
-5.834756	aligns
-6.357635	alih
-6.357635	alihalih
-6.834756	alija
-4.314928	alike
-6.834756	alikefirmly
-6.834756	alikehave
-6.834756	aliko
-6.834756	alimam
-6.834756	alimentarius
-6.834756	alintifada
-6.834756	alioune
-5.579484	aliran
-5.755575	alis
-5.630636	alislam
-6.834756	alislamiyya
-6.533726	alislams
-6.834756	alison
-6.834756	alissawi
-6.135786	alistair
-6.834756	alistikhbarat
-6.357635	alitalia
-6.834756	alito
-4.560598	alive
-5.793364	aliyev
-6.834756	aliyu
-6.834756	alization
-6.834756	aljabari
-6.834756	aljawf
-6.533726	aljazair
-6.357635	aljazeera
-6.533726	aljihad
-6.834756	aljorashi
-6.135786	aljubeir
-6.834756	aljuwali
-6.834756	alkabir
-6.834756	alkader
-6.834756	alkali
-6.533726	alkaline
-6.834756	alkaloids
-6.834756	alkatiri
-6.834756	alkaukji
-6.533726	alkhalifa
-6.533726	alkhalifas
-6.834756	alkhaliq
-6.834756	alkhanovs
-6.834756	alkhas
-6.357635	alkhatib
-6.834756	alkhatibs
-2.687791	all
-6.834756	all#
-6.834756	alla
-6.834756	allafi
-6.834756	allagainstall
-5.512537	allah
-6.533726	allahs
-6.834756	allahu
-6.834756	allaire
-6.834756	allaluminum
-6.834756	allama
-6.533726	allamerican
-6.135786	allan
-6.357635	allarab
-6.834756	allare
-6.834756	allat
-6.834756	allatif
-6.232696	allawi
-6.834756	allawis
-5.533726	allay
-6.232696	allayed
-6.232696	allaying
-6.834756	allbattery
-6.834756	allbutinevitable
-6.834756	allbutjobless
-6.834756	allclear
-6.533726	allconsuming
-6.834756	allcovering
-6.834756	alldevouring
-6.834756	alleanza
-5.834756	allegation
-4.821919	allegations
-5.688628	allege
-4.591718	alleged
-4.777852	allegedly
-6.834756	alleges
-5.094394	allegiance
-5.688628	allegiances
-5.834756	alleging
-6.834756	allegorical
-6.533726	allegory
-6.357635	allele
-6.834756	allelected
-6.834756	alleleor
-6.135786	allembracing
-5.834756	allen
-5.688628	allencompassing
-6.056605	allende
-6.357635	allendes
-6.834756	allengulfing
-6.834756	allenlookalike
-6.533726	allens
-6.834756	allergens
-5.658665	allergic
-6.533726	allergies
-6.135786	allergy
-6.533726	alleuropean
-6.834756	alleuropeancoalition
-4.983498	alleviate
-5.931666	alleviated
-6.232696	alleviates
-5.316242	alleviating
-5.658665	alleviation
-5.755575	alley
-6.135786	alleys
-6.533726	alleyway
-6.533726	alleyways
-6.834756	allfemale
-6.834756	allgemeine
-6.834756	allgemeines
-6.834756	allgirl
-6.834756	allhazard
-3.930041	alliance
-6.533726	alliancebuilding
-6.834756	alliancefirst
-6.834756	alliancein
-6.834756	alliancemaking
-6.834756	alliancerelated
-4.452739	alliances
-6.834756	alliancesthe
-6.834756	alliancetesting
-6.533726	alliancetype
-6.533726	alliancewide
-6.357635	allianz
-6.834756	allibi
-4.79733	allied
-6.834756	alliedapproved
-3.891262	allies
-6.834756	allies]
-6.834756	alligatorfilled
-5.688628	allimportant
-6.533726	allinclusive
-6.834756	alliotmarie
-6.834756	allison
-6.834756	allliance
-6.834756	allmale
-6.834756	allmuslim
-6.834756	allnews
-6.834756	allngos
-6.533726	allnight
-6.834756	allnighters
-6.834756	allnuclear
-4.885366	allocate
-4.701217	allocated
-5.755575	allocates
-5.11048	allocating
-4.647235	allocation
-6.834756	allocational
-5.316242	allocations
-6.834756	allocationseven
-5.989658	allocative
-5.989658	allornothing
-6.834756	allotment
-6.533726	allots
-5.793364	allotted
-5.243691	allout
-3.752689	allow
-6.232696	allowable
-5.688628	allowance
-5.303277	allowances
-3.865807	allowed
-4.101559	allowing
-4.288214	allows
-6.834756	alloy
-6.834756	alloys
-6.357635	allparty
-6.135786	allpervasive
-6.834756	allpoliticians
-5.403392	allpowerful
-6.533726	allpurpose
-6.834756	allround
-6.834756	allrounders
-6.533726	alls
-6.834756	allstar
-5.056605	alltime
-6.834756	alltoo
-6.834756	alltoobrief
-6.232696	alltoocommon
-6.533726	alltoofamiliar
-6.357635	alltoofrequent
-6.834756	alltoohuman
-6.834756	alltooobvious
-6.834756	alltoooften
-6.834756	alltooreal
-6.834756	alltoowelldocumented
-6.357635	allude
-6.533726	alluded
-6.834756	alludes
-6.357635	alluding
-6.834756	allunion
-5.357635	allure
-6.834756	allurement
-5.931666	alluring
-5.834756	allusion
-6.533726	allusions
-6.357635	allvolunteer
-6.056605	allweather
-4.387598	ally
-5.989658	allying
-6.357635	allys
-6.834756	allywhile
-6.834756	alma
-6.834756	almahir
-6.533726	almajid
-5.492333	almaliki
-5.880514	almalikis
-6.834756	almanqous
-6.834756	almaqsud
-6.834756	almara
-6.834756	almashaaer
-6.533726	almaty
-6.834756	almegrahi
-5.931666	almighty
-3.424148	almost
-6.834756	almostcertain
-6.834756	almostcomplete
-6.834756	almostforgotten
-6.834756	almosthalfthelabor
-6.533726	alms
-6.834756	almuasher
-6.834756	almugadassah
-6.834756	almukhabarat
-6.135786	almunia
-6.834756	almustasim
-6.834756	almustasims
-6.834756	alnaga
-6.533726	alnasir
-6.834756	alnawa
-6.533726	alnimeiry
-6.834756	alnimeirys
-5.989658	alnour
-6.135786	alnusra
-6.834756	alobeidi
-6.135786	aloft
-6.834756	alon
-3.730953	alone
-6.834756	alonesome
-3.825305	along
-4.480648	alongside
-5.579484	aloof
-6.056605	aloofness
-6.834756	alors
-5.658665	aloud
-6.834756	alowlevel
-6.056605	alp
-5.755575	alpha
-6.834756	alpha#
-5.834756	alphabet
-6.834756	alphabetical
-6.834756	alphabets
-6.834756	alphandry
-6.834756	alphareductase
-6.834756	alphonse
-6.135786	alpine
-5.989658	alps
-6.056605	alqaddafi
-6.834756	alqaddafis
-6.834756	alqadr
-4.79733	alqaeda
-6.834756	alqaedainspired
-5.604307	alqaedas
-6.357635	alqaedastyle
-6.834756	alqaeida
-5.755575	alqaida
-6.834756	alqaidas
-6.834756	alqami
-6.834756	alqardawi
-6.834756	alqassam
-6.834756	alquds
-6.834756	alqudwa
-6.533726	alquran
-6.357635	alrahman
-6.834756	alrai
-6.834756	alrashid
-6.834756	alrayyaniya
-3.340602	already
-6.834756	alreadybeleaguered
-6.834756	alreadycomplicated
-6.834756	alreadyconsiderable
-6.834756	alreadycontentious
-6.834756	alreadydangerous
-6.232696	alreadydelicate
-6.834756	alreadydepressed
-6.834756	alreadydifficult
-6.834756	alreadydisturbing
-6.834756	alreadyemployed
-6.834756	alreadyescalating
-6.834756	alreadyexcessive
-6.533726	alreadyexisting
-6.135786	alreadyfragile
-6.834756	alreadyfraught
-6.834756	alreadyfunctioning
-6.834756	alreadyhazy
-6.135786	alreadyhigh
-6.834756	alreadyhot
-6.834756	alreadyindebted
-6.834756	alreadyindustrialized
-6.056605	alreadylarge
-6.834756	alreadylimited
-6.834756	alreadylost
-6.533726	alreadylow
-6.533726	alreadymassive
-6.533726	alreadyminimal
-6.834756	alreadymodest
-6.834756	alreadymoribund
-6.834756	alreadymuddy
-6.834756	alreadynbsp
-6.834756	alreadyoverheating
-6.834756	alreadyprivatized
-6.834756	alreadyprudent
-6.834756	alreadyrich
-6.834756	alreadysaturated
-6.834756	alreadyscarce
-6.834756	alreadysignificant
-6.834756	alreadysizeable
-6.834756	alreadyskewed
-6.834756	alreadyslow
-6.357635	alreadystrained
-6.834756	alreadystressed
-6.533726	alreadystretched
-6.834756	alreadystrict
-6.834756	alreadysubstantial
-6.232696	alreadyunstable
-6.834756	alreadyunsustainable
-6.834756	alreadyvisible
-6.135786	alreadyweak
-6.834756	alreadyweakening
-6.533726	alreadywide
-6.834756	alright
-6.834756	alrishawi
-5.720813	als
-6.357635	alsaadi
-6.533726	alsabah
-6.533726	alsabahs
-6.834756	alsacelorraine
-6.834756	alsadat
-6.834756	alsadiq
-5.989658	alsadr
-6.834756	alsadrbut
-6.533726	alsadrs
-6.834756	alsahati
-6.834756	alsalih
-6.834756	alsamadi
-6.834756	alsamarrai
-6.834756	alsanosi
-6.834756	alsatian
-5.533726	alsaud
-5.880514	alsauds
-6.834756	alshaabi
-5.329606	alshabaab
-5.793364	alshabaabs
-6.135786	alshabab
-6.834756	alshaer
-6.834756	alshakarchi
-6.834756	alshaludi
-6.834756	alshaludis
-6.232696	alsharia
-6.357635	alshariah
-6.834756	alshariahs
-6.834756	alsharias
-6.533726	alsharif
-6.834756	alsharq
-6.834756	alsharqiya
-6.834756	alshater
-6.834756	alsheikh
-6.834756	alsisi
-6.834756	alsistani
-2.80704	also
-6.834756	alsonbsppushed
-6.533726	alsonosi
-6.135786	alsoran
-6.232696	alsorans
-6.834756	alsothe
-5.834756	alstom
-6.834756	alstoma
-6.834756	alsunnah
-6.533726	alsuri
-6.533726	alta
-6.834756	altahtawi
-5.720813	altar
-6.834756	altars
-6.834756	altavista
-4.755575	alter
-6.056605	alteration
-6.232696	alterations
-6.533726	altercation
-5.102363	altered
-6.533726	altereuropeanism
-5.191304	altering
-5.556003	alternate
-6.056605	alternated
-6.357635	alternately
-6.533726	alternates
-6.232696	alternatif
-6.834756	alternatifnya
-5.989658	alternating
-6.834756	alternatingly
-6.056605	alternation
-6.834756	alternations
-3.84132	alternative
-6.834756	alternativea
-5.931666	alternativeenergy
-5.221972	alternatively
-6.834756	alternativerenewable
-4.375364	alternatives
-6.834756	alternativeto
-6.834756	alternativevote
-6.834756	alternativo
-5.880514	alters
-6.533726	altgeld
-6.834756	althea
-3.630365	although
-6.834756	altiero
-6.834756	altiplano
-6.232696	altitude
-6.533726	altitudes
-6.533726	altman
-5.387598	alto
-4.62793	altogether
-5.181544	altruism
-6.533726	altruist
-5.533726	altruistic
-6.533726	altruistically
-6.533726	altruists
-6.357635	altuhami
-6.834756	alu
-6.834756	aluko
-6.533726	aluminium
-5.454545	aluminum
-6.834756	alumma
-5.834756	alumni
-6.834756	alumnus
-6.834756	alunalun
-6.834756	alvarado
-6.533726	alvarez
-5.658665	alvaro
-6.056605	alvin
-6.834756	alwahad
-6.834756	alwala
-6.834756	alwalaa
-6.834756	alwalid
-6.232696	alwasat
-3.606869	always
-6.834756	alwayserratic
-6.834756	alwaysfascinating
-6.834756	alwaysfinicky
-6.834756	alwaystense
-6.533726	alwifaq
-6.533726	alyaksandr
-6.834756	alyssa
-6.533726	alzahar
-6.834756	alzahawy
-6.834756	alzanoun
-5.793364	alzawahiri
-6.533726	alzawahiris
-6.834756	alzawahri
-6.834756	alzheimer
-5.316242	alzheimers
-6.834756	alzintan
-4.091247	am
-6.533726	amadeo
-6.533726	amadou
-6.135786	amal
-5.989658	amalgam
-6.834756	amalgamate
-6.357635	amalgamation
-6.533726	amalgamations
-6.357635	amalrik
-5.834756	aman
-6.834756	amanat
-6.135786	amanda
-6.834756	amandas
-6.834756	amanif
-6.533726	amara
-6.834756	amarathan
-6.834756	amarket
-5.512537	amartya
-5.880514	amass
-5.579484	amassed
-5.720813	amassing
-6.834756	amat
-5.834756	amateur
-6.056605	amateurish
-6.232696	amateurs
-6.834756	amaze
-5.834756	amazed
-6.232696	amazement
-6.357635	amazes
-5.171999	amazing
-5.473028	amazingly
-4.989658	amazon
-6.232696	amazoncom
-6.135786	amazonia
-6.135786	amazonian
-5.931666	amazons
-6.834756	ambalaj
-6.135786	ambang
-4.707652	ambassador
-6.834756	ambassadorial
-5.171999	ambassadors
-6.834756	ambiance
-5.931666	ambient
-6.533726	ambientcarbon
-6.533726	ambientccs
-5.630636	ambiguities
-5.002247	ambiguity
-6.834756	ambiguityavoiding
-6.834756	ambiguityseeking
-4.965525	ambiguous
-6.834756	ambil
-6.135786	ambisi
-5.931666	ambisius
-6.357635	ambit
-4.641632	ambition
-4.340601	ambitions
-4.235966	ambitious
-6.834756	ambitiously
-5.436816	ambivalence
-5.303277	ambivalent
-6.834756	ambruk
-6.834756	ambruknya
-6.834756	ambulance
-6.834756	ambulatory
-6.357635	ambush
-6.834756	ambushed
-6.357635	ambushes
-6.834756	ambushing
-6.834756	ame
-6.834756	amechanical
-6.834756	ameircas
-6.834756	amelia
-5.181544	ameliorate
-5.880514	ameliorated
-6.533726	ameliorates
-5.989658	ameliorating
-6.533726	amelioration
-6.834756	ameliorist
-6.834756	amen
-6.834756	amenability
-5.316242	amenable
-5.171999	amend
-5.232696	amended
-5.630636	amending
-4.857033	amendment
-6.834756	amendmentproof
-5.127186	amendments
-6.834756	amendmentsnbspformer
-6.834756	amendola
-5.931666	amends
-5.989658	amenities
-6.834756	amerca
-3.31756	america
-6.834756	americaafrica
-6.533726	americaand
-6.834756	americaarab
-6.533726	americabashing
-6.834756	americacan
-6.834756	americaextremism
-6.834756	americafocused
-6.357635	americain
-6.834756	americairanisrael
-6.834756	americamoreover
-3.232154	american
-5.436816	americana
-6.834756	americanamerican
-6.834756	americanapproved
-6.834756	americanasian
-6.834756	americanbacked
-6.834756	americanborn
-6.834756	americanbritish
-6.834756	americanbsp
-6.834756	americanbspon
-6.533726	americanbuilt
-6.834756	americancuban
-6.834756	americandefined
-6.834756	americandrafted
-6.533726	americaneuropean
-6.834756	americaneye
-6.834756	americanheld
-6.834756	americanhire
-6.834756	americanimposed
-6.533726	americaninspired
-6.533726	americaniranian
-5.556003	americanization
-6.135786	americanized
-6.834756	americanizing
-6.834756	americanjapanese
-5.630636	americanled
-6.135786	americanmade
-6.533726	americanness
-6.834756	americanowned
-3.679724	americans
-6.834756	americans]
-6.834756	americansand
-6.834756	americansfind
-5.329606	americanstyle
-6.533726	americantrained
-6.834756	americantribunal
-6.533726	americanwritten
-6.834756	americaphobic
-6.834756	americarevolution
-6.834756	americaroughly
-3.320607	americas
-6.834756	americathrough
-5.512537	americau
-6.834756	americavenezuela
-6.834756	americawide
-6.834756	americawith
-4.931666	amerika
-6.533726	amerindian
-6.834756	amerindians
-6.834756	ameriquest
-6.834756	ames
-6.533726	amex
-6.834756	amfm
-6.834756	amhara
-6.834756	amhars
-6.533726	amherst
-6.357635	amia
-6.357635	amiable
-5.989658	amicable
-6.232696	amicably
-4.633359	amid
-5.372358	amidst
-6.357635	amien
-6.834756	amigos
-5.931666	amin
-6.834756	amini
-6.056605	amino
-6.834756	aminorg
-6.533726	amins
-5.834756	amir
-6.834756	amirulmomineen
-6.834756	amis
-6.533726	amish
-5.989658	amiss
-6.834756	amit
-6.834756	amitabh
-5.931666	amity
-6.834756	amjames
-6.834756	amliorant
-6.834756	amliorer
-6.533726	amm
-6.834756	amma
-6.834756	ammachi
-6.834756	ammamnetnet
-5.604307	amman
-6.533726	ammannet
-6.357635	ammar
-6.056605	ammonia
-5.094394	ammunition
-6.834756	ammunitions
-6.533726	amn
-5.834756	amnesia
-6.533726	amnesiac
-6.533726	amnestied
-5.755575	amnesties
-4.948266	amnesty
-6.834756	amnestys
-6.533726	amniocentesis
-6.533726	amniotic
-5.793364	amok
-3.32744	among
-5.419783	amongst
-5.989658	amoral
-6.533726	amorality
-6.834756	amorous
-5.579484	amorphous
-6.834756	amorphousnationalist
-6.135786	amortization
-6.357635	amortize
-6.834756	amortized
-6.834756	amortizing
-6.056605	amos
-3.949395	amount
-4.766571	amounted
-4.977424	amounting
-4.150809	amounts
-4.910477	amp
-5.630636	amp#
-6.357635	ampamp
-6.834756	ampex
-6.232696	amphetamine
-6.357635	amphetamines
-6.533726	amphetaminetype
-6.533726	amphibians
-6.357635	amphibious
-6.834756	amphorae
-4.737846	ample
-6.357635	amplification
-5.243691	amplified
-5.720813	amplifies
-5.512537	amplify
-5.755575	amplifying
-6.232696	amplio
-6.834756	amplitude
-5.357635	amply
-6.834756	ampnbsp
-6.834756	ampnbsphave
-6.834756	ampnbspincluding
-6.834756	ampnbspmarkets
-6.834756	ampnbspthe
-6.834756	ampquottransitionampquot
-6.834756	ampuh
-6.533726	amputate
-6.834756	amputated
-5.989658	amputation
-6.533726	amputations
-6.834756	amputees
-5.688628	amr
-6.834756	amricain
-6.834756	amricaine
-6.834756	amricains
-6.834756	amrita
-6.834756	amritanandamayi
-6.834756	amritas
-6.533726	amritsar
-5.931666	amro
-6.834756	amros
-5.063904	amsterdam
-6.533726	amsterdams
-6.834756	amu
-6.834756	amuck
-6.834756	amuda
-6.533726	amundsen
-6.357635	amur
-6.533726	amuse
-5.931666	amused
-5.688628	amusement
-6.834756	amusementpark
-5.793364	amusing
-6.533726	amy
-5.755575	amygdala
-6.357635	amyloid
-6.533726	amyloidbeta
-6.357635	amyotrophic
-2.466135	an
-6.834756	ana
-5.720813	anachronism
-6.834756	anachronisms
-5.372358	anachronistic
-6.834756	anachronistically
-6.834756	anaesthetized
-6.834756	anaesthetizes
-6.834756	anak
-6.056605	anakanak
-6.834756	anakanaknya
-6.834756	analects
-6.533726	analgesic
-6.834756	analis
-6.357635	analisa
-6.834756	analitis
-6.357635	analog
-6.533726	analogical
-5.316242	analogies
-6.834756	analogizes
-6.834756	analogizing
-5.021843	analogous
-5.989658	analogue
-6.533726	analogues
-4.931666	analogy
-6.834756	analyse
-6.533726	analysed
-4.977424	analyses
-6.834756	analysing
-4.167303	analysis
-6.834756	analysis#
-5.372358	analyst
-4.463688	analysts
-6.834756	analystsmindlessly
-6.357635	analytic
-5.118753	analytical
-5.931666	analytically
-5.316242	analytics
-5.021843	analyze
-5.211507	analyzed
-5.834756	analyzes
-5.191304	analyzing
-6.135786	anand
-6.834756	anaplastic
-6.056605	anarchic
-6.533726	anarchism
-5.931666	anarchist
-6.834756	anarchistjournalist
-5.989658	anarchists
-5.232696	anarchy
-6.834756	anarchypreachers
-6.834756	anastas
-5.931666	anastasiades
-6.533726	anastasiadess
-6.834756	anastasio
-6.834756	anasuya
-5.989658	anat
-5.357635	anathema
-6.834756	anathematized
-6.056605	anatole
-6.357635	anatoli
-6.135786	anatolia
-5.880514	anatoly
-6.834756	anatomical
-6.135786	anatomically
-5.604307	anatomy
-6.834756	anbal
-5.880514	anbar
-6.834756	anbspdouble
-6.834756	anbspgenocidairenbspmust
-6.834756	anbspgroundbreaking
-6.834756	anbsppetition
-6.834756	anbsprecent
-6.834756	anbsprecord
-6.834756	anbspstudy
-6.834756	anbspsubstantial
-6.834756	anbspus
-5.688628	anc
-6.834756	ancaligned
-5.492333	ancaman
-6.232696	ancamanancaman
-6.834756	ancel
-5.834756	ancestor
-5.232696	ancestors
-5.630636	ancestral
-5.834756	ancestry
-4.781678	anchor
-6.533726	anchorage
-5.14456	anchored
-5.533726	anchoring
-6.834756	anchorless
-6.357635	anchormen
-5.793364	anchors
-6.834756	anchorwoman
-6.834756	anchorwomen
-6.834756	anchovies
-5.834756	ancien
-4.486451	ancient
-6.357635	ancients
-6.533726	ancillary
-6.232696	ancs
-1.584502	and
-6.834756	and#
-6.357635	anda
-6.834756	andahalfyear
-6.834756	andaluca
-6.834756	andalusia
-6.834756	andalusians
-6.232696	andaman
-6.834756	andamans
-6.834756	andare
-6.834756	andaround
-6.834756	andbrutally
-6.834756	andcounterterrorism
-6.533726	ande
-5.419783	andean
-6.834756	andensure
-5.688628	anders
-6.357635	andersen
-5.793364	anderson
-6.834756	andersonstyle
-5.533726	andes
-6.834756	andfree
-6.834756	andhellipdemands
-6.834756	andhigh
-5.630636	andhra
-6.834756	andijon
-6.834756	andimplemented
-6.834756	andin
-6.834756	andino
-6.834756	andlanguage
-5.492333	andme
-6.533726	andme]
-6.834756	andmecom
-6.834756	andmediumsize
-6.357635	andmes
-6.834756	andnbspinseads
-6.533726	ando
-6.533726	andolan
-6.834756	andolder
-4.688628	andor
-6.056605	andr
-6.834756	andraw
-6.834756	andre
-6.135786	andrea
-6.357635	andreas
-6.834756	andreea
-6.834756	andreescu
-6.834756	andreessen
-5.512537	andrei
-6.834756	andreotti
-6.533726	andres
-5.171999	andrew
-6.533726	andrews
-6.135786	andrey
-6.834756	andrii
-6.834756	andris
-6.834756	andrising
-6.834756	andriy
-5.834756	android
-6.834756	androidbased
-6.834756	androids
-6.232696	andropov
-6.834756	andropovs
-5.556003	andrs
-6.135786	andrzej
-6.834756	andshellingsoterrorized
-6.834756	andthe
-6.834756	andtherecent
-6.834756	andto
-6.834756	andunicefsupported
-6.834756	andwe
-6.834756	andwill
-6.834756	andwith
-6.834756	andworks
-5.755575	andy
-5.630636	anecdotal
-6.533726	anecdotally
-6.056605	anecdote
-5.989658	anecdotes
-6.834756	anel
-5.989658	anemia
-4.744851	anemic
-6.834756	anemically
-6.834756	anesthesia
-6.357635	anesthetic
-6.834756	anette
-5.243691	anew
-6.232696	anfal
-6.834756	angang
-6.533726	angarsk
-5.630636	angel
-4.414801	angela
-6.533726	angelei
-6.834756	angeleis
-5.042365	angeles
-6.834756	angelic
-6.533726	angelica
-5.931666	angelina
-6.834756	angelino
-6.357635	angell
-6.533726	angelo
-6.834756	angeloni
-5.931666	angels
-4.52726	anger
-5.720813	angered
-5.989658	angering
-6.533726	angers
-6.834756	angervisible
-6.834756	angevin
-5.658665	anggaran
-5.454545	anggota
-6.834756	anggotanya
-6.834756	angies
-5.419783	angin
-6.834756	angioplasty
-5.604307	angka
-6.834756	angkaangka
-6.834756	angkanya
-6.834756	angkatan
-6.056605	angle
-6.834756	angled
-6.135786	angles
-6.533726	anglia
-6.533726	anglican
-6.834756	anglicized
-6.533726	angling
-6.135786	anglo
-5.403392	angloamerican
-6.834756	anglocanadian
-6.834756	anglochinese
-6.533726	anglofrench
-6.834756	angloindian
-6.834756	angloiranian
-6.834756	angloirish
-6.834756	anglojapanese
-6.834756	anglojewry
-6.232696	anglophile
-6.533726	anglophobia
-6.056605	anglophone
-6.834756	anglophones
-5.035416	anglosaxon
-6.056605	anglosaxons
-6.357635	anglosaxonstyle
-6.357635	anglosphere
-5.191304	angola
-6.232696	angolan
-6.232696	angolas
-6.533726	angrier
-5.834756	angrily
-4.701217	angry
-5.512537	angst
-6.834756	angstridden
-5.556003	anguish
-6.135786	anguished
-5.989658	angus
-6.834756	anh
-6.533726	anhui
-6.232696	anil
-6.834756	anilewitz
-6.834756	anima
-4.560598	animal
-6.834756	animalcentered
-6.834756	animalcruelty
-6.834756	animalhusbandry
-6.834756	animalistic
-6.834756	animalliberation
-6.834756	animalprotection
-6.834756	animalrearing
-6.533726	animalrights
-4.458179	animals
-5.931666	animalwelfare
-6.135786	animate
-5.357635	animated
-5.931666	animates
-5.834756	animating
-5.755575	animation
-6.533726	animations
-6.834756	animators
-6.834756	animaux
-6.533726	animist
-6.834756	animists
-5.579484	animosities
-5.372358	animosity
-5.834756	animus
-6.834756	anisotropic
-6.834756	anisotropy
-6.357635	anita
-6.533726	ankang
-5.303277	ankara
-6.834756	ankaras
-6.834756	anke
-6.357635	ankle
-6.357635	ankles
-6.834756	ankur
-5.793364	ann
-5.303277	anna
-6.533726	annadurdy
-6.533726	annals
-6.834756	annam
-4.847984	annan
-5.556003	annans
-5.372358	annapolis
-6.834756	annapolisinspired
-6.834756	annas
-6.834756	annatto
-6.834756	annbspassociation
-5.688628	anne
-6.834756	annegarn
-6.834756	anneli
-6.357635	annemarie
-6.834756	annenberg
-6.533726	annes
-6.834756	annette
-5.419783	annex
-4.770298	annexation
-6.357635	annexationist
-5.436816	annexed
-6.232696	annexes
-6.834756	annexi
-5.688628	annexing
-6.834756	anni
-6.834756	annie
-6.056605	annihilate
-5.834756	annihilated
-6.533726	annihilating
-5.436816	annihilation
-5.688628	anniversaries
-4.401787	anniversary
-6.834756	anno
-4.890274	announce
-4.038182	announced
-4.54029	announcement
-5.254972	announcements
-6.834756	announcers
-5.604307	announces
-5.035416	announcing
-5.880514	annoy
-6.056605	annoyance
-6.056605	annoyed
-5.755575	annoying
-6.834756	annoys
-3.702176	annual
-6.834756	annualgrowth
-6.533726	annualize
-5.454545	annualized
-4.197267	annually
-6.834756	annuallythe
-6.834756	annuals
-6.834756	annuel
-6.834756	annuelle
-5.989658	annuities
-6.357635	annuity
-6.056605	annul
-5.931666	annulled
-6.135786	annulment
-5.755575	annum
-6.834756	annumcould
-6.232696	annus
-6.135786	anodyne
-6.357635	anoint
-5.658665	anointed
-6.533726	anointing
-6.232696	anointment
-5.720813	anomalies
-5.880514	anomalous
-5.357635	anomaly
-6.357635	anomie
-5.604307	anonymity
-6.533726	anonymized
-6.834756	anonymizing
-5.181544	anonymous
-5.755575	anonymously
-6.834756	anoparticipation
-6.357635	anopheles
-6.357635	anorexia
-6.834756	anorexic
-3.281845	another
-6.834756	anotherampnbsp
-6.834756	anotherand
-6.834756	anothercreation
-5.191304	anothers
-6.834756	anp
-5.931666	anpp
-6.834756	ans
-5.720813	ansar
-6.232696	ansari
-6.232696	anschluss
-6.834756	ansel
-6.834756	anshan
-6.834756	anshor
-6.834756	anshun
-6.834756	anson
-6.834756	ansor
-3.890767	answer
-6.056605	answerable
-4.959695	answered
-5.316242	answering
-4.589243	answers
-6.834756	answersor
-6.834756	anta
-5.127186	antagonism
-5.989658	antagonisms
-6.834756	antagonismthe
-6.135786	antagonist
-5.556003	antagonistic
-5.793364	antagonists
-5.720813	antagonize
-5.793364	antagonized
-6.533726	antagonizes
-5.579484	antagonizing
-6.834756	antal
-6.834756	antals
-5.834756	antalya
-6.533726	antanas
-5.931666	antar
-5.303277	antara
-6.834756	antaranya
-5.387598	antarctic
-5.579484	antarctica
-6.056605	antarcticas
-6.834756	antarpemerintah
-6.533726	antartika
-5.343395	ante
-6.834756	anteceded
-6.357635	antecedent
-6.232696	antecedents
-6.834756	antechamber
-6.533726	antediluvian
-6.834756	antelope
-6.834756	antenatal
-6.834756	antenna
-6.357635	antennae
-6.533726	antennas
-6.834756	anterior
-5.658665	anthem
-5.931666	anthems
-6.834756	anthemsinging
-6.834756	anthills
-6.834756	antholis
-6.834756	anthology
-5.793364	anthony
-6.232696	anthrax
-5.436816	anthropocene
-5.793364	anthropogenic
-6.135786	anthropological
-6.056605	anthropologist
-5.880514	anthropologists
-5.989658	anthropology
-6.834756	anthropos
-6.533726	anthropozoic
-6.232696	anti
-6.834756	antiabortion
-6.533726	antiabortionists
-6.834756	antiaccessareadenial
-5.989658	antiaging
-6.834756	antiahmadinejad
-6.834756	antiaid
-6.232696	antiaids
-5.834756	antiaircraft
-6.834756	antialawite
-6.834756	antiamerica
-4.977424	antiamerican
-5.102363	antiamericanism
-6.834756	antiamericans
-6.056605	antiapartheid
-6.834756	antiappeasement
-6.533726	antiarab
-6.357635	antiarrhythmic
-6.232696	antiassad
-6.533726	antiatrocity
-6.834756	antiausterian
-6.834756	antiausterians
-5.419783	antiausterity
-6.056605	antiauthoritarian
-6.834756	antiauthoritarianism
-6.834756	antibailout
-5.793364	antiballistic
-5.793364	antibiotic
-6.834756	antibioticresistant
-5.056605	antibiotics
-6.533726	antiblasphemy
-5.793364	antibodies
-6.232696	antibody
-6.834756	antibodyproducing
-6.834756	antibourgeois
-6.834756	antibrazil
-6.357635	antibritish
-6.834756	antibrussels
-6.834756	antibubble
-6.834756	antibureaucratic
-6.533726	antibush
-6.533726	antibusiness
-6.357635	antic
-6.834756	anticameron
-6.056605	anticancer
-6.357635	anticapitalism
-5.931666	anticapitalist
-6.533726	anticapitalists
-6.834756	anticatholic
-6.834756	anticcp
-6.834756	anticds
-6.533726	anticensorship
-6.533726	antichaebol
-5.989658	antichina
-5.658665	antichinese
-6.834756	anticholesteremic
-6.135786	antichristian
-6.834756	antichrists
-6.834756	antichvez
-4.931666	anticipate
-6.834756	anticipatea
-4.748396	anticipated
-6.834756	anticipatedoften
-5.793364	anticipates
-5.266554	anticipating
-5.201288	anticipation
-6.834756	anticipations
-6.135786	anticipatory
-6.834756	anticivilian
-6.357635	anticlerical
-6.834756	anticlericals
-6.834756	anticlimactic
-6.834756	anticnncom
-6.834756	anticollectivism
-5.793364	anticolonial
-6.357635	anticolonialism
-6.533726	anticolonialist
-6.834756	anticommodification
-5.931666	anticommunism
-5.343395	anticommunist
-6.357635	anticommunists
-5.579484	anticompetitive
-6.834756	anticonvulsant
-4.737846	anticorruption
-6.533726	anticounterfeiting
-6.834756	anticoup
-6.834756	anticrime
-6.834756	anticriminal
-5.931666	anticrisis
-6.834756	anticrusade
-6.056605	antics
-6.834756	anticyclical
-6.834756	antidam
-6.834756	antideath
-6.533726	antidefamation
-6.834756	antideflation
-6.533726	antideforestation
-6.533726	antidemocracy
-5.278454	antidemocratic
-6.533726	antidemocrats
-5.556003	antidepressant
-5.512537	antidepressants
-6.834756	antidepressantsglobal
-6.834756	antidepressive
-6.834756	antidevelopment
-6.834756	antidictatorship
-5.880514	antidiscrimination
-6.834756	antidoctrine
-5.931666	antidoping
-5.436816	antidote
-6.834756	antidotes
-5.436816	antidrug
-5.329606	antidumping
-6.834756	antidutch
-6.834756	antieducation
-6.834756	antielite
-6.834756	antielitist
-6.357635	antienlightenment
-6.834756	antienvironmental
-6.834756	antienvironmentalists
-5.604307	antiestablishment
-6.834756	antiestablishmentarian
-6.533726	antiestrogen
-6.834756	antiethic
-5.473028	antieu
-5.630636	antieuro
-6.834756	antieuroeu
-5.989658	antieurope
-5.153515	antieuropean
-6.533726	antieuropeanism
-5.793364	antieuropeans
-6.834756	antiexit
-6.533726	antiextremism
-6.834756	antiextremist
-6.834756	antifalun
-6.834756	antifascism
-6.135786	antifascist
-6.834756	antifemicide
-6.533726	antifeminist
-6.533726	antiflu
-6.232696	antiforeign
-6.533726	antiforeigner
-6.533726	antiforeignism
-6.834756	antifracking
-5.688628	antifragile
-5.688628	antifragility
-6.834756	antifragilitys
-6.834756	antifraud
-6.533726	antifreeze
-6.834756	antifrench
-6.834756	antifundamentalism
-5.931666	antigay
-6.357635	antigen
-6.834756	antigeorgian
-6.056605	antigerman
-6.357635	antiglobal
-6.232696	antiglobalists
-5.403392	antiglobalization
-6.834756	antiglobalizers
-6.357635	antigm
-5.512537	antigovernment
-6.232696	antigraft
-6.056605	antigrowth
-6.834756	antigua
-6.834756	antiguerrilla
-6.834756	antihamas
-6.834756	antihavels
-6.834756	antihegemon
-6.834756	antihegemonic
-6.834756	antiher
-6.834756	antihero
-6.834756	antihindu
-6.533726	antihistorical
-6.834756	antihistory
-6.834756	antihiv
-6.834756	antihivaids
-6.533726	antihomosexuality
-6.834756	antihormone
-6.834756	antihuman
-6.834756	antihumanist
-6.834756	antihunger
-6.834756	antihypertensive
-6.834756	antiideological
-6.834756	antiideology
-5.221972	antiimmigrant
-5.579484	antiimmigration
-6.357635	antiimperialism
-5.880514	antiimperialist
-6.834756	antiincumbency
-6.834756	antiincumbent
-6.834756	antiindependence
-6.533726	antiindia
-6.533726	antiindian
-6.834756	antiindividual
-6.834756	antiinflammatory
-5.533726	antiinflation
-5.793364	antiinflationary
-6.834756	antiinflationists
-6.834756	antiinnovation
-6.834756	antiinsurgency
-6.533726	antiintellectual
-6.135786	antiintellectualism
-6.834756	antiintervention
-6.834756	antiinterventionist
-6.834756	antiinversion
-6.834756	antiinvestment
-6.135786	antiiran
-6.056605	antiiranian
-6.533726	antiiraq
-6.357635	antiislam
-5.880514	antiislamic
-6.533726	antiislamist
-6.533726	antiislamists
-5.579484	antiisrael
-6.135786	antiisraeli
-6.232696	antijapan
-5.357635	antijapanese
-5.834756	antijewish
-6.834756	antikeynesian
-6.834756	antikim
-6.834756	antikremlin
-6.834756	antikurdish
-6.834756	antilabor
-6.834756	antildp
-6.834756	antileft
-5.931666	antiliberal
-6.533726	antiliberalism
-6.834756	antilock
-6.834756	antimafia
-6.834756	antimahathir
-5.720813	antimalaria
-5.931666	antimalarial
-6.533726	antimalarials
-6.834756	antimanipulation
-5.989658	antimarket
-5.181544	antimicrobial
-6.232696	antimicrobials
-6.834756	antimigraine
-6.056605	antimigrant
-6.834756	antimilitancy
-6.533726	antimilitary
-6.834756	antimilitia
-5.512537	antimissile
-6.834756	antimodel
-6.533726	antimodern
-6.834756	antimodernism
-6.834756	antimodernist
-6.834756	antimodernity
-6.533726	antimonarchist
-6.834756	antimonarchists
-6.834756	antimonarchy
-6.533726	antimoneylaundering
-6.232696	antimonopoly
-6.232696	antimorsi
-6.357635	antimubarak
-6.533726	antimusharraf
-5.454545	antimuslim
-6.834756	antinarcotics
-6.834756	antinato
-6.357635	antinazi
-6.834756	antinori
-5.989658	antinuclear
-6.834756	antiobama
-6.834756	antiobesity
-6.533726	antioccupation
-6.834756	antioil
-6.533726	antioligarch
-6.834756	antioligarchic
-6.533726	antioligarchy
-6.533726	antioquia
-5.658665	antioxidant
-5.880514	antioxidants
-6.834756	antiozawa
-6.834756	antipad
-6.834756	antipark
-6.834756	antipathetic
-6.533726	antipathies
-5.604307	antipathy
-6.232696	antipersonnel
-6.834756	antipesticide
-5.989658	antipiracy
-6.834756	antipluralist
-6.834756	antipolis
-6.232696	antipolitical
-6.834756	antipoliticians
-6.834756	antipoppy
-6.056605	antipornography
-5.419783	antipoverty
-6.834756	antipresident
-6.834756	antiprofit
-6.533726	antiproliferation
-6.834756	antiprostitution
-6.834756	antiprotectionism
-6.834756	antiprotectionist
-6.533726	antiprotest
-6.834756	antipsychiatric
-6.056605	antipsychotic
-6.533726	antiputin
-6.834756	antiqaddafi
-5.454545	antiquated
-6.533726	antique
-6.135786	antiques
-6.834756	antiquities
-6.135786	antiquity
-6.533726	antiracism
-6.533726	antiracist
-6.834756	antirealism
-6.834756	antirecession
-6.056605	antireform
-6.834756	antirefugee
-6.357635	antiregime
-6.834756	antiregulation
-5.403392	antiretroviral
-6.533726	antiretrovirals
-6.834756	antirightist
-6.834756	antirisk
-6.357635	antiroma
-6.357635	antirussia
-5.793364	antirussian
-6.834756	antirussians
-6.834756	antisaddam
-6.357635	antisandinista
-6.834756	antisarkozy
-6.357635	antisatellite
-6.357635	antisaudi
-6.357635	antiscience
-5.880514	antiscientific
-5.931666	antisecession
-6.834756	antisecularand
-6.056605	antisemite
-5.931666	antisemites
-5.056605	antisemitic
-4.910477	antisemitism
-6.834756	antiseptic
-6.834756	antiserb
-6.533726	antiserbian
-6.834756	antishah
-6.056605	antishia
-6.357635	antiship
-6.834756	antislav
-6.533726	antislavery
-6.533726	antismoking
-6.834756	antismuggling
-6.834756	antismut
-6.135786	antisocial
-6.834756	antisonia
-5.755575	antisoviet
-6.834756	antisovietism
-6.834756	antispeculation
-6.533726	antispyware
-6.834756	antistalin
-6.533726	antistalinist
-6.834756	antistate
-6.834756	antistatism
-6.834756	antistatist
-6.533726	antistatus
-6.357635	antisubmarine
-6.232696	antisubversion
-6.834756	antisubversive
-6.834756	antisummit
-6.834756	antisunni
-6.834756	antisweatshop
-6.232696	antisyrian
-6.834756	antisystem
-6.834756	antisystemic
-5.880514	antitakeover
-6.834756	antitaliban
-6.056605	antitank
-6.533726	antitax
-6.533726	antitechnology
-5.720813	antiterror
-5.454545	antiterrorism
-5.473028	antiterrorist
-5.834756	antithaksin
-6.834756	antitheocracy
-5.834756	antithesis
-6.232696	antithetical
-6.834756	antithird
-6.834756	antitobacco
-6.533726	antitorture
-6.834756	antitotalitarian
-6.834756	antitourism
-6.834756	antitrade
-6.533726	antitrafficking
-5.002247	antitrust
-6.834756	antitudjman
-6.834756	antiturkish
-6.834756	antiudi
-6.834756	antiuk
-6.533726	antiumno
-6.533726	antiun
-6.357635	antiunion
-5.931666	antius
-6.834756	antiutopian
-6.834756	antivaccination
-6.834756	antivaccine
-6.834756	antivietnamese
-6.834756	antiviolence
-6.357635	antiviral
-6.834756	antivirus
-5.834756	antiwar
-6.834756	antiwest
-5.094394	antiwestern
-6.834756	antiwhaling
-6.834756	antiwomen
-6.533726	antiworker
-6.834756	antiworld
-6.834756	antiyanqui
-6.834756	antiyanukovych
-6.232696	antizionism
-6.056605	antizionist
-6.533726	antizionists
-6.834756	antn
-6.533726	antnio
-6.357635	antoine
-6.357635	anton
-6.834756	antonescu
-6.834756	antonin
-5.579484	antonio
-5.931666	antonis
-6.834756	antonius
-6.834756	antony
-6.834756	antonym
-6.834756	antonys
-6.834756	antrussian
-6.533726	ants
-6.533726	antyufeyev
-6.533726	anu
-6.533726	anugerah
-6.357635	anus
-6.834756	anvil
-5.071328	anwar
-6.357635	anwars
-5.221972	anxieties
-4.553723	anxiety
-6.834756	anxietyridden
-4.900258	anxious
-6.135786	anxiously
-3.080178	any
-5.181544	anybody
-5.989658	anybodys
-6.834756	anyhow
-4.965525	anymore
-4.037489	anyone
-5.473028	anyones
-6.834756	anyplace
-3.987184	anything
-6.834756	anything[because]
-6.834756	anythingbutchina
-4.959695	anytime
-4.890274	anyway
-4.544722	anywhere
-6.834756	anzus
-6.533726	aol
-6.834756	aols
-6.533726	aorta
-6.056605	aoun
-6.834756	aouns
-6.135786	ap
-5.579484	apa
-6.834756	apaapa
-5.658665	apabila
-5.755575	apace
-6.357635	apache
-5.658665	apakah
-6.357635	apalagi
-5.403392	apapun
-6.834756	aparna
-4.359085	apart
-6.834756	apart#
-6.834756	apartand
-5.002247	apartheid
-6.834756	apartheidand
-6.232696	apartheidera
-6.533726	apartheidlike
-6.533726	apartheids
-6.834756	apartheidstyle
-5.094394	apartment
-6.834756	apartmentrental
-5.720813	apartments
-6.357635	apartmentsharing
-6.834756	aparty
-6.834756	apas
-5.931666	apathetic
-5.135786	apathy
-6.834756	apathy[and]
-5.880514	apc
-6.135786	ape
-5.278454	apec
-6.232696	apecs
-6.834756	aperiodic
-6.834756	apertura
-6.834756	aperture
-5.387598	apes
-5.931666	apex
-6.834756	apga
-5.989658	aphorism
-6.533726	aphorisms
-6.834756	aphrodisiac
-6.135786	aphrodite
-6.232696	api
-6.834756	apichatpong
-6.834756	apiece
-6.232696	aping
-6.834756	aplasmid
-6.533726	aplenty
-6.533726	aplikasi
-6.533726	apln
-6.834756	aplomb
-5.579484	apocalypse
-5.221972	apocalyptic
-6.056605	apocryphal
-6.834756	apocryphally
-6.533726	apoe
-6.135786	apogee
-5.473028	apolitical
-6.834756	apolitically
-5.473028	apollo
-6.834756	apollonian
-6.834756	apolloscale
-6.056605	apologetic
-6.834756	apologia
-5.303277	apologies
-6.834756	apologise
-6.232696	apologist
-5.604307	apologists
-5.191304	apologize
-5.419783	apologized
-6.834756	apologizes
-5.755575	apologizing
-5.008681	apology
-6.834756	apoptosis
-6.533726	apostasy
-6.834756	apostate
-5.880514	apostates
-6.533726	apostle
-5.931666	apostles
-6.232696	apostolic
-6.834756	apothekes
-6.232696	apotheosis
-5.266554	app
-6.834756	appall
-5.533726	appalled
-5.086568	appalling
-5.931666	appallingly
-6.834756	appalls
-6.834756	apparat
-5.931666	apparatchik
-5.688628	apparatchiks
-4.861629	apparatus
-6.056605	apparatuses
-5.755575	apparel
-4.237061	apparent
-4.38297	apparently
-6.834756	appcup
-4.30584	appeal
-6.834756	appeal#
-5.171999	appealed
-4.720813	appealing
-4.866273	appeals
-4.023852	appear
-4.870968	appearance
-5.357635	appearances
-4.344798	appeared
-6.834756	appearedfocused
-5.127186	appearing
-3.911512	appears
-5.266554	appease
-5.834756	appeased
-5.056605	appeasement
-6.834756	appeaser
-6.533726	appeasers
-6.533726	appeases
-5.604307	appeasing
-6.834756	appeconomy
-6.357635	appelbaum
-6.834756	appellant
-6.232696	appellate
-6.834756	appellation
-6.232696	appendage
-6.834756	appendages
-6.834756	appended
-6.232696	appendix
-6.834756	appendix]
-6.834756	appert
-6.834756	apperts
-4.79733	appetite
-5.834756	appetites
-6.533726	appetizers
-6.533726	appetizing
-6.834756	appetizingly
-6.533726	appiah
-5.604307	applaud
-5.419783	applauded
-6.834756	applaudednbsp
-6.533726	applauding
-6.533726	applauds
-5.387598	applause
-4.959695	apple
-6.533726	applecart
-6.834756	applemail
-5.232696	apples
-6.232696	appliance
-5.372358	appliances
-5.931666	applicability
-5.232696	applicable
-5.579484	applicant
-5.329606	applicants
-4.66157	application
-4.710905	applications
-6.834756	applicationsoftware
-4.324211	applied
-4.584336	applies
-6.834756	appling
-4.304556	apply
-4.785538	applying
-4.989658	appoint
-4.574685	appointed
-6.834756	appointed#
-5.931666	appointee
-5.436816	appointees
-5.343395	appointing
-4.839121	appointment
-6.834756	appointmentbased
-5.254972	appointments
-5.834756	appoints
-6.834756	apport
-6.834756	apporte
-6.533726	apportioned
-6.533726	apportioning
-6.533726	apportionment
-6.834756	apposite
-5.989658	appraisal
-6.232696	appraisals
-6.834756	appraise
-6.533726	appraised
-6.834756	appraisers
-6.357635	appraising
-6.232696	appreciable
-6.357635	appreciably
-4.512537	appreciate
-4.880514	appreciated
-6.834756	appreciatein
-5.630636	appreciates
-5.232696	appreciating
-4.290688	appreciation
-5.989658	appreciations
-6.357635	appreciative
-6.834756	appreciatively
-6.533726	apprehend
-6.056605	apprehended
-6.834756	apprehending
-5.473028	apprehension
-6.533726	apprehensions
-6.232696	apprehensive
-5.880514	apprentice
-5.989658	apprentices
-5.688628	apprenticeship
-5.755575	apprenticeships
-6.834756	apprise
-6.533726	apprised
-3.483927	approach
-6.834756	approachable
-5.211507	approached
-4.328251	approaches
-6.834756	approachesalthough
-6.834756	approachesgiven
-4.688628	approaching
-6.056605	approbation
-4.106402	appropriate
-5.793364	appropriated
-5.135786	appropriately
-5.989658	appropriateness
-6.533726	appropriates
-5.989658	appropriating
-5.880514	appropriation
-5.931666	appropriations
-4.406621	approval
-6.834756	approvalbased
-5.834756	approvals
-4.915678	approve
-4.476821	approved
-5.720813	approves
-5.454545	approving
-6.135786	approvingly
-5.755575	approximate
-4.707652	approximately
-6.533726	approximates
-6.533726	approximating
-5.880514	approximation
-6.357635	approximations
-5.243691	apps
-6.834756	appstore
-6.834756	appurtenances
-6.533726	apr
-6.834756	apra
-6.834756	apres
-6.834756	apresiasi
-6.834756	apricot
-4.27009	april
-6.533726	apriljune
-6.533726	aprilmay
-5.931666	aprils
-6.232696	apropos
-6.834756	aprs
-6.533726	aps
-5.419783	apt
-6.533726	aptitude
-5.556003	aptly
-6.834756	apulia
-6.232696	aq
-6.834756	aqaba
-6.834756	aqap
-6.533726	aqi
-6.357635	aqim
-6.357635	aqr
-6.533726	aqsa
-5.755575	aquaculture
-6.834756	aquafed
-6.834756	aquarium
-6.834756	aquascutum
-6.357635	aquatic
-6.834756	aquatics
-6.135786	aqueduct
-6.834756	aqueducts
-6.533726	aquifer
-5.989658	aquifers
-6.533726	aquina
-6.533726	aquinas
-6.834756	aquinass
-5.630636	aquino
-6.135786	aquinos
-6.834756	ara
-3.561987	arab
-6.834756	arabamericans
-6.834756	arabbacked
-6.834756	arabcontrolled
-6.834756	arabdominated
-4.083477	arabia
-5.343395	arabian
-6.834756	arabianstyle
-4.826156	arabias
-5.266554	arabic
-6.834756	arabicislamic
-6.834756	arabicspeaking
-6.834756	arabislamic
-6.834756	arabisrael
-4.948266	arabisraeli
-6.834756	arabisreli
-6.834756	arabist
-6.834756	arabiya
-6.834756	arabization
-6.834756	arabize
-6.135786	arabized
-6.834756	arabjewishisraeli
-5.492333	arable
-6.533726	arabled
-6.533726	arabmajority
-6.232696	arabmuslim
-6.834756	arabnationalist
-6.834756	arabness
-6.834756	arabpalestinian
-6.533726	arabpersian
-4.450941	arabs
-6.834756	arabstyle
-6.834756	arabwestern
-6.834756	arachnophobe
-6.834756	arad
-6.834756	araf
-4.805372	arafat
-5.201288	arafats
-6.834756	arafatu
-6.834756	araguaia
-5.755575	arah
-6.232696	arahan
-5.755575	arak
-6.357635	arakan
-6.533726	aral
-6.533726	aramaic
-6.357635	aramco
-6.232696	arap
-6.834756	arata
-6.834756	aratings
-6.834756	arauca
-6.834756	araucania
-6.357635	aravind
-6.834756	arbatachar
-6.834756	arbeit
-6.834756	arbil
-5.473028	arbiter
-6.056605	arbiters
-5.254972	arbitrage
-6.834756	arbitragebased
-6.834756	arbitragers
-6.834756	arbitrageurs
-6.834756	arbitraging
-5.473028	arbitrarily
-5.989658	arbitrariness
-4.734385	arbitrary
-6.533726	arbitrate
-6.834756	arbitrated
-6.834756	arbitrating
-5.303277	arbitration
-6.834756	arbitrations
-6.834756	arbitrator
-6.834756	arbitrators
-6.056605	arbor
-6.834756	arbors
-6.834756	arbour
-6.533726	arbuckle
-6.834756	arbuckles
-5.266554	arc
-6.834756	arcadian
-6.834756	arcana
-5.658665	arcane
-5.755575	arcelor
-6.533726	arcelors
-6.135786	arch
-6.834756	archadvocate
-6.357635	archaea
-6.834756	archaean
-6.135786	archaeological
-6.232696	archaeologists
-6.357635	archaeology
-5.556003	archaic
-5.793364	archbishop
-6.834756	archbishops
-6.533726	archconservative
-6.834756	archconservatives
-6.834756	archcriminals
-5.755575	archduke
-6.834756	archdukes
-6.232696	archenemy
-6.357635	archeological
-6.834756	archeologist
-6.357635	archeologists
-6.834756	archer
-6.834756	archers
-5.880514	archetypal
-5.989658	archetype
-6.357635	archetypes
-6.834756	archfavorite
-6.834756	archfederalist
-6.834756	archheresy
-6.834756	archibald
-6.834756	archimedean
-6.533726	archimedes
-5.604307	archipelago
-6.357635	archipelagos
-5.191304	architect
-5.021843	architects
-5.755575	architectural
-4.630636	architecture
-6.834756	architectures
-6.834756	architrave
-6.533726	archival
-6.357635	archive
-6.834756	archived
-5.604307	archives
-6.834756	archnationalist
-6.834756	archopponent
-6.834756	archpopulist
-6.834756	archpriest
-6.357635	archrival
-6.533726	archrivals
-6.834756	archvillain
-4.942662	arctic
-6.533726	arctics
-6.357635	ardagna
-5.473028	ardent
-6.056605	ardently
-6.834756	ardian
-6.834756	ardor
-6.834756	arduino
-5.630636	arduous
-6.834756	arduously
-2.248676	are
-6.834756	are#
-3.911512	area
-6.533726	areaand
-6.834756	areaefficient
-6.834756	areaformal
-3.669512	areas
-6.834756	areasand
-6.834756	areawide
-6.834756	aref
-6.834756	areinstead
-4.948266	arena
-5.658665	arenas
-6.834756	arenbspsimply
-6.056605	arendt
-6.834756	arenot
-4.937129	arent
-6.834756	arenu
-6.533726	areopagitica
-6.834756	arequipa
-6.834756	aretightly
-6.533726	areva
-5.720813	arf
-6.834756	arfs
-5.512537	argan
-3.996537	argentina
-4.389152	argentinas
-6.533726	argentinau
-4.647235	argentine
-5.793364	argentinean
-6.357635	argentineans
-6.834756	argentinebrazilian
-5.290688	argentines
-6.533726	argentinestyle
-6.834756	argentinians
-6.834756	argoud
-6.056605	arguable
-4.652913	arguably
-3.9295	argue
-4.040966	argued
-6.834756	arguemnts
-4.419783	argues
-4.52726	arguing
-6.834756	argumen
-3.997799	argument
-6.834756	argumentasi
-6.533726	argumentative
-4.340601	arguments
-6.834756	arguments#
-6.834756	aria
-6.834756	arianna
-6.357635	arias
-6.834756	ariass
-6.834756	arich
-5.720813	arid
-6.834756	arieh
-5.343395	ariel
-6.533726	ariell
-6.533726	ariely
-6.834756	arifaj
-6.834756	arihant
-6.834756	arinc
-4.52726	arise
-5.303277	arisen
-6.834756	arisenight
-4.847984	arises
-4.937129	arising
-6.834756	arisotle
-5.793364	aristide
-6.533726	aristides
-5.720813	aristocracy
-6.533726	aristocrat
-5.931666	aristocratic
-5.931666	aristocrats
-6.834756	aristoteles
-6.834756	aristotelians
-5.755575	aristotle
-6.135786	aristotles
-5.266554	arithmetic
-6.533726	arithmetical
-6.232696	arithmetically
-6.834756	aritomo
-6.834756	aritomos
-5.454545	arizona
-5.880514	ark
-6.533726	arkady
-6.834756	arkan
-6.232696	arkansas
-6.834756	arkawalnya
-6.834756	arktik
-6.834756	arlen
-6.533726	arlington
-4.989658	arm
-6.135786	armada
-6.834756	armadanya
-6.834756	armadas
-6.834756	armadillo
-5.630636	armageddon
-6.232696	armament
-6.834756	armamentproduction
-5.473028	armaments
-6.533726	armata
-6.834756	armatures
-6.834756	armatya
-6.834756	armauer
-6.232696	armchair
-4.069833	armed
-6.834756	armedforce
-4.948266	armenia
-5.316242	armenian
-6.834756	armenianazerbaijani
-5.266554	armenians
-5.688628	armenias
-6.533726	armeniaturkey
-6.834756	armeniaturkeyazerbaijan
-6.834756	armeys
-4.900258	armies
-6.834756	arminarm
-5.454545	arming
-6.357635	arminio
-5.688628	armistice
-6.232696	armitage
-6.834756	armnio
-6.834756	armonizacin
-6.834756	armonk
-6.232696	armor
-5.658665	armored
-6.533726	armory
-4.109662	arms
-6.834756	armsberbank
-5.387598	armscontrol
-6.357635	armsexport
-6.533726	armsexporting
-6.834756	armsforhostages
-6.533726	armsforland
-5.989658	armslength
-5.880514	armsreduction
-6.834756	armssupply
-5.492333	armstrong
-5.989658	armstrongs
-6.834756	armtwister
-6.135786	armtwisting
-3.90996	army
-6.834756	armybrokered
-6.834756	armyinstalled
-6.834756	armyled
-4.866273	armys
-6.834756	arno
-5.688628	arnold
-6.533726	arnoldo
-6.834756	arnon
-6.834756	arogue
-6.135786	arogya
-6.834756	arole
-6.834756	aroma
-6.834756	aromatic
-6.533726	aron
-6.533726	aronson
-4.948266	arose
-3.387288	around
-6.834756	arounda
-6.533726	aroundtheclock
-6.533726	arousal
-5.720813	arouse
-5.387598	aroused
-6.232696	arouses
-5.931666	arousing
-6.834756	arpae
-6.834756	arpanet
-6.834756	arquilla
-6.834756	arrabiyeh
-5.658665	arrange
-5.419783	arranged
-4.594207	arrangement
-6.834756	arrangementmay
-4.223033	arrangements
-6.834756	arrangements]
-6.357635	arranges
-5.931666	arranging
-4.834756	array
-6.056605	arrayed
-5.658665	arrears
-4.469268	arrest
-6.834756	arrestampnbsp
-4.553723	arrested
-5.290688	arresting
-6.834756	arrestingly
-5.162658	arrests
-6.834756	arrhenius
-6.533726	arrhythmias
-6.834756	arrire
-4.905337	arrival
-5.556003	arrivals
-4.866273	arrive
-4.609447	arrived
-5.316242	arrives
-5.243691	arriving
-5.153515	arrogance
-5.127186	arrogant
-6.135786	arrogantly
-6.834756	arrogates
-6.834756	arrogating
-6.834756	arrondissment
-5.153515	arrow
-6.232696	arrowdebreu
-6.834756	arrowhead
-5.181544	arrows
-6.357635	arroyo
-6.533726	arroyos
-6.232696	arsal
-4.785538	arsenal
-5.153515	arsenals
-6.834756	arsenalsrecognize
-6.357635	arsenic
-6.834756	arsenide
-6.232696	arseniy
-6.834756	arsitektur
-5.755575	arson
-6.357635	arsonist
-6.834756	arsonists
-4.461844	art
-6.834756	artcollecting
-6.834756	arte
-6.357635	artemis
-6.533726	artemisinin
-6.834756	artemisinins
-6.834756	arterial
-5.931666	arteries
-6.834756	artery
-6.533726	artest
-6.834756	artesunate
-6.834756	artful
-6.357635	artfully
-6.834756	arthashastra
-6.357635	arthritic
-5.989658	arthritis
-5.303277	arthur
-6.533726	artic
-4.335069	article
-4.847984	articles
-6.834756	articlewho
-5.127186	articulate
-5.221972	articulated
-6.834756	articulateness
-5.931666	articulates
-5.880514	articulating
-6.232696	articulation
-6.533726	artifact
-5.604307	artifacts
-6.533726	artifice
-6.834756	artificers
-6.834756	artifices
-4.650065	artificial
-6.357635	artificialintelligence
-6.834756	artificiality
-5.028576	artificially
-5.720813	artik
-5.303277	artillery
-5.989658	artisan
-6.533726	artisanal
-6.232696	artisans
-5.454545	artist
-6.834756	artistes
-5.454545	artistic
-4.942662	artists
-5.002247	arts
-6.834756	artsimovich
-6.834756	artur
-6.533726	arturo
-6.533726	artwork
-6.834756	artworks
-6.834756	aruar
-6.357635	arun
-5.419783	arunachal
-6.834756	arunchal
-6.834756	arup
-6.357635	arus
-6.834756	arusha
-6.834756	arusnya
-6.135786	arv
-5.755575	arvind
-6.533726	aryan
-6.834756	aryeh
-2.181872	as
-6.533726	asa
-6.357635	asahi
-6.357635	asal
-6.533726	asala
-6.533726	asalusul
-6.533726	asam
-6.834756	asante
-6.834756	asap
-6.533726	asar
-6.834756	asari
-6.135786	asasi
-6.834756	asat
-6.056605	asb
-6.135786	asbestos
-6.834756	asbm
-6.533726	asce
-6.834756	ascend
-6.135786	ascendance
-5.454545	ascendancy
-5.688628	ascendant
-6.357635	ascended
-6.533726	ascendency
-5.880514	ascending
-5.834756	ascension
-5.492333	ascent
-5.834756	ascertain
-6.834756	ascertaining
-6.232696	ascetic
-6.834756	aschenbach
-6.834756	ascorbic
-5.755575	ascribe
-5.989658	ascribed
-6.834756	ascribes
-6.834756	ascribing
-6.834756	ascriptive
-4.423137	asean
-6.834756	aseanchina
-6.834756	aseanproposed
-5.254972	aseans
-6.232696	asef
-6.533726	asem
-5.989658	aset
-6.232696	asetaset
-6.533726	asfari
-5.658665	ash
-5.755575	ashamed
-6.834756	ashare
-6.533726	ashares
-6.357635	ashcroft
-5.989658	ashdown
-6.834756	ashenfelter
-5.492333	ashes
-6.056605	ashfaq
-6.533726	ashis
-6.834756	ashish
-6.834756	ashkelon
-6.834756	ashkenazi
-6.357635	ashley
-6.357635	ashninka
-6.533726	ashok
-6.135786	ashoka
-6.533726	ashore
-5.931666	ashraf
-6.834756	ashrafs
-6.834756	ashram
-6.834756	ashrawi
-6.834756	ashsmeared
-5.303277	ashton
-6.232696	ashtons
-6.834756	ashura
-6.834756	ashutosh
-6.834756	ashwini
-3.46852	asia
-6.834756	asia#
-6.834756	asiaare
-6.834756	asiacapable
-6.357635	asiaeurope
-6.533726	asiafocused
-6.834756	asiain
-6.834756	asialiterate
-3.681551	asian
-6.533726	asianamerican
-5.931666	asianamericans
-6.834756	asianbased
-6.834756	asianbsp
-6.834756	asiandesigned
-6.834756	asianfocused
-6.834756	asianlike
-6.533726	asianorth
-6.135786	asianpacific
-4.688628	asians
-6.533726	asianstyle
-4.617272	asiapacific
-6.056605	asiapacifica
-6.834756	asiapacificas
-6.834756	asiarelated
-4.043066	asias
-6.834756	asiashould
-6.357635	asiatic
-5.989658	asiau
-6.834756	asiawide
-4.304556	aside
-5.604307	asif
-5.658665	asing
-6.834756	asinine
-6.533726	asir
-4.08194	ask
-6.357635	askance
-6.834756	askar
-6.834756	askariya
-4.00998	asked
-6.834756	askedor
-6.834756	askedto
-6.834756	askelon
-4.4963	asking
-5.028576	asks
-6.232696	aslan
-6.533726	asleep
-6.357635	asma
-6.056605	asmussen
-6.834756	asmussens
-5.931666	aso
-6.834756	asociacin
-6.834756	asoka
-6.834756	asor
-6.834756	asos
-6.834756	aspasiannbspwomen
-6.834756	aspe
-4.520889	aspect
-4.476821	aspects
-6.357635	aspek
-5.989658	aspen
-6.533726	aspergers
-6.834756	aspersions
-6.232696	asphalt
-6.834756	aspheres
-6.834756	asphyxiated
-6.834756	asphyxiating
-6.533726	asphyxiation
-6.357635	aspirant
-5.989658	aspirants
-6.834756	aspirasi
-5.201288	aspiration
-5.604307	aspirational
-4.562915	aspirations
-5.094394	aspire
-5.630636	aspired
-5.303277	aspires
-5.834756	aspirin
-5.266554	aspiring
-6.834756	aspirins
-6.834756	asqa
-6.232696	ass
-4.38297	assad
-6.834756	assadpre
-4.714182	assads
-6.357635	assail
-6.533726	assailant
-6.533726	assailants
-6.135786	assailed
-6.533726	assailing
-6.834756	assails
-6.533726	assam
-4.971433	assange
-5.720813	assanges
-6.834756	assanussi
-6.834756	assasinated
-5.989658	assassin
-5.688628	assassinate
-5.191304	assassinated
-6.056605	assassinating
-4.762874	assassination
-5.329606	assassinations
-5.834756	assassins
-4.744851	assault
-5.454545	assaulted
-6.232696	assaulting
-5.221972	assaults
-6.834756	assayliyah
-6.834756	asselborn
-6.834756	assemb
-6.357635	assemblage
-5.492333	assemble
-5.063904	assembled
-5.880514	assemblers
-6.533726	assembles
-5.880514	assemblies
-5.579484	assembling
-4.294427	assembly
-6.834756	assemblybased
-6.834756	assemblychinas
-6.357635	assemblyline
-6.834756	assemblyman
-5.604307	assemblys
-6.834756	assen
-5.533726	assent
-6.834756	assented
-6.834756	assenting
-4.770298	assert
-5.078881	asserted
-5.002247	asserting
-5.002247	assertion
-5.266554	assertions
-4.821919	assertive
-6.135786	assertively
-5.056605	assertiveness
-5.419783	asserts
-4.538091	assess
-6.834756	assessable
-5.071328	assessed
-5.658665	assesses
-4.801332	assessing
-4.413152	assessment
-4.890274	assessments
-6.533726	assessors
-3.94155	asset
-6.834756	assetallocation
-5.556003	assetbacked
-6.834756	assetbacking
-6.232696	assetbased
-6.834756	assetbubble
-6.834756	assetbuilding
-6.056605	assetdependent
-6.834756	assetdiversification
-6.834756	assetholders
-6.834756	assetliability
-6.056605	assetmanagement
-6.533726	assetmarket
-4.915678	assetprice
-6.834756	assetprices
-6.834756	assetprovision
-5.834756	assetpurchase
-6.834756	assetpurchasing
-5.989658	assetquality
-3.723158	assets
-6.834756	assetseg
-6.834756	assetstripping
-6.834756	assez
-6.834756	assholes
-6.533726	assiduous
-5.793364	assiduously
-5.604307	assign
-6.834756	assignat
-6.834756	assignation
-5.094394	assigned
-5.793364	assigning
-5.793364	assignment
-5.989658	assignments
-5.989658	assigns
-6.834756	assimi
-5.880514	assimilate
-6.135786	assimilated
-6.834756	assimilates
-6.232696	assimilating
-5.604307	assimilation
-6.834756	assises
-6.357635	assisi
-4.801332	assist
-3.919884	assistance
-5.387598	assistant
-5.793364	assistants
-5.329606	assisted
-6.533726	assistedgrowth
-5.181544	assisting
-6.232696	assists
-6.533726	assn
-5.232696	associate
-4.103168	associated
-5.211507	associates
-6.135786	associating
-4.284528	association
-4.79733	associations
-6.834756	assortative
-6.056605	assorted
-5.834756	assortment
-5.387598	assuage
-6.232696	assuaged
-6.135786	assuaging
-4.228375	assume
