
\data\
ngram 1=40
ngram 2=1049
ngram 3=15281

\1-grams:
-5.350497	#	-1.753765
-6.20044	*	-0.6007587
-8.004352	<	-0.01025306
-2.082237	</s>
-99	<s>	-3.439333
-7.578383	>	-0.2537919
-6.838021	@	-0.7834535
-5.121828	[	-1.45621
-5.131419	]	-0.3047419
-6.04531	_	-0.3928779
-5.643254	`	0.4931537
-1.121747	a	0
-1.862136	b	0
-1.482069	c	0
-1.50133	d	0
-0.8989342	e	0
-1.67252	f	0
-1.763252	g	0
-1.348397	h	0
-1.10079	i	0
-2.908562	j	-2.644283
-2.298789	k	-0.02502532
-1.420515	l	0
-1.564334	m	0
-1.127874	n	0
-1.0934	o	0
-1.625537	p	0
-2.992705	q	-2.562786
-1.20013	r	0
-1.198058	s	0
-1.013229	t	0
-1.536193	u	-0.02767498
-1.957254	v	-0.6805996
-1.792506	w	0
-2.714858	x	-0.2249831
-1.846995	y	0
-2.722654	z	-0.5375519
-8.481473	{	-0.07514302
-8.481473	}	-0.08354148
-8.481473	~	-0.05063147

\2-grams:
-2.653855	# a
-2.653855	# b	-0.5885515
-2.829947	# c
-3.871339	# d
-3.871339	# e
-0.7176769	# f	-2.306429
-3.871339	# g
-3.871339	# h
-3.871339	# i
-3.871339	# k
-3.871339	# n
-0.185016	# o	-2.541561
-3.871339	# p
-2.653855	# t	-0.2779362
-0.8499433	# x	-2.275544
-0.9008221	* *	-0.6290662
-1.00228	* </s>
-3.021396	* @
-1.050584	* a	-0.635692
-1.326791	* b	-0.1883929
-1.16709	* c	-1.795596
-1.377943	* d	-0.467271
-1.435935	* e	-0.304938
-1.435935	* f	-0.4240788
-3.021396	* g
-1.803912	* h	-0.4015436
-1.050584	* i	-0.4987735
-1.803912	* l
-1.502882	* m	-1.532194
-1.980003	* n	-1.254179
-1.281033	* o	-0.3006404
-1.803912	* p
-1.582063	* r	-0.2640687
-1.16709	* s	-0.1130116
-1.16709	* t	-0.9170835
-1.326791	* w	-0.7272653
-3.021396	* y
-1.217484	< s
-1.217484	< t
-1.217484	< z
-4.765769	<s> #	-1.173665
-4.746025	<s> *	-0.530697
-7.1396	<s> >
-4.043212	<s> [	-0.8444612
-6.098208	<s> _	-1.012407
-5.797178	<s> `	-0.4218521
-1.138883	<s> a	-0.127631
-1.546569	<s> b	-2.865251
-1.78709	<s> c	-2.610975
-1.956257	<s> d	-2.841199
-1.805099	<s> e	-2.776645
-1.458433	<s> f	-3.52604
-2.310747	<s> g	-2.366132
-1.560496	<s> h	-2.460479
-0.6375159	<s> i	-2.987144
-2.741322	<s> j	-1.253778
-3.110765	<s> k	-2.06236
-1.851882	<s> l	-2.768447
-1.21207	<s> m	-3.181341
-1.785724	<s> n	-3.29141
-1.495161	<s> o	-2.618038
-1.787546	<s> p	-1.955089
-2.811751	<s> q	-1.914364
-2.047673	<s> r	-3.634401
-1.485535	<s> s	-3.687629
-0.5892911	<s> t	-3.732772
-2.194521	<s> u	-2.565666
-2.740845	<s> v	-1.490008
-1.012124	<s> w	-3.699984
-4.501611	<s> x	-1.656891
-2.034893	<s> y	-5.142882
-3.898179	<s> z	-0.4009898
-7.1396	<s> {
-1.643453	> </s>
-0.60206	> o
-1.643453	> q
-1.643453	> r
-0.60206	> t
-1.643453	> w
-1.041393	@ a	-0.689435
-2.383815	@ b
-1.041393	@ e	-0.2209569
-1.041393	@ f	-0.6254906
-1.342423	@ j	-1.115685
-1.342423	@ l	-1.215889
-1.342423	@ m
-0.60206	@ o	-0.975812
-2.383815	@ p
-2.383815	@ r
-0.60206	@ s	-0.9297056
-2.383815	@ y
-1.259275	[ ]	-0.4429971
-1.080892	[ a	-0.8542268
-1.928282	[ b	-0.6852279
-0.4625688	[ c	-2.554806
-1.944672	[ d	-0.8988022
-1.687548	[ e	-0.6999309
-1.746862	[ f	-0.8307308
-2.245703	[ g	-0.5025941
-1.841132	[ h	-0.4042149
-1.514548	[ i	-1.129183
-2.660676	[ j	-0.2482437
-3.058616	[ k
-2.155526	[ l	-0.4212547
-1.828167	[ m	-0.9279041
-1.726177	[ n	-1.438679
-1.078612	[ o	-1.277966
-1.716193	[ p	-0.3860878
-4.100008	[ q
-2.104373	[ r	-0.2469484
-1.410256	[ s	-2.418027
-0.7565014	[ t	-1.837559
-2.405403	[ u	-0.5909656
-3.058616	[ v
-1.66945	[ w	-0.768413
-2.882524	[ y	-0.3809743
-2.058616	[ z	-0.4708479
-4.090417	] #
-4.090417	] *
-0.2612095	] </s>
-2.571903	] [	-0.1478017
-4.090417	] ]
-1.055588	] a	-0.8439708
-2.027835	] b	-0.5760837
-1.642484	] c	-0.8163425
-1.410535	] d	-0.544969
-1.818575	] e	-0.5375615
-1.969843	] f	-0.5021254
-2.308661	] g	-0.4265032
-1.61766	] h	-0.742186
-1.557662	] i	-0.8563612
-2.504956	] j	-0.5437649
-2.872933	] k
-2.071301	] l	-0.8580112
-1.969843	] m	-1.878076
-2.071301	] n	-0.4126874
-1.586626	] o	-0.9820514
-1.952114	] p	-0.5578865
-1.415556	] r	-2.348225
-1.511205	] s	-0.8792408
-1.372331	] t	-1.802709
-2.504956	] u	-0.3398575
-2.872933	] v	-0.5183423
-1.716586	] w	-0.7129078
-2.872933	] y	-0.5485812
-4.090417	] z
-1.834103	_ </s>
-0.3289527	_ _	-1.519236
-1.737193	_ a	-0.1534687
-1.322219	_ b	-0.6801035
-1.834103	_ c	-0.153708
-2.135133	_ d
-1.658011	_ e	-0.7271901
-1.834103	_ f	-0.4951889
-2.135133	_ g
-3.176525	_ h
-2.135133	_ i
-3.176525	_ j
-1.834103	_ l	-0.5273779
-1.959041	_ m	-0.3703243
-1.834103	_ n
-1.591065	_ o	-0.4988322
-1.39477	_ p	-0.3342623
-1.322219	_ r	-1.896761
-1.18089	_ s	-0.6286757
-0.9046837	_ t	-1.215396
-2.135133	_ u
-3.176525	_ v
-2.135133	_ w	-1.191253
-2.135133	_ z	-0.4358307
-3.578582	` </s>
-3.578582	` [
-0.3263358	` `	-1.579052
-1.375821	` a	-0.8169485
-1.60777	` b	-0.6409621
-1.375821	` c	-1.113904
-1.796826	` d	-0.8544687
-1.582947	` e	-0.5957571
-1.796826	` f	-0.5200124
-1.838219	` g	-0.5708459
-1.692091	` h	-0.4732269
-1.582947	` i	-0.450786
-1.993121	` j	-0.3036439
-3.578582	` k
-2.060068	` l	-0.5746964
-1.662128	` m	-1.728696
-1.60777	` n	-2.1039
-1.692091	` o	-0.4480104
-1.406855	` p	-0.8050168
-3.578582	` q
-1.692091	` r	-0.5996897
-1.30674	` s	-0.7218186
-1.294151	` t	-0.9838277
-1.883977	` u	-0.5909656
-2.361098	` v	-0.3507355
-1.582947	` w	-0.4106108
-3.578582	` x
-2.361098	` y	-0.5744722
-5.944753	a #	0.4208592
-6.660756	a *	-0.1838005
-2.656255	a </s>
-8.100089	a >
-5.451241	a [	-0.3244432
-5.882605	a ]	-0.02904931
-7.058696	a _
-5.961786	a `	-0.5187622
-2.510111	a a	0.2817395
-1.603799	a b	-0.02593073
-1.345978	a c	-0.6217774
-1.491338	a d	-1.082405
-2.671227	a e	-0.01403256
-1.924071	a f	-0.5777133
-1.616202	a g	-1.334843
-2.603509	a h	0.3587867
-1.52144	a i	0
-2.692573	a j	-1.814579
-1.825925	a k	-1.737916
-0.9344852	a l	0
-1.440091	a m	-0.1815677
-0.7030874	a n	-0.006257204
-2.750399	a o	0.1217642
-1.663223	a p	-0.9370189
-3.03598	a q	0.9062722
-0.9524578	a r	0
-1.088659	a s	-0.153597
-0.7654724	a t	0
-1.955623	a u	-0.2750167
-1.57325	a v	-0.9197094
-2.133849	a w	0.2761599
-2.824331	a x	-1.2601
-1.75893	a y	-0.12711
-3.104382	a z	-2.180689
-6.142216	b #	-0.3420966
-7.3597	b *
-3.229109	b </s>
-6.017277	b [	-0.2415388
-5.841186	b ]	-0.06394745
-7.3597	b _
-1.037081	b a	-2.283245
-2.649688	b b	-1.449384
-2.928698	b c	-1.761718
-3.245506	b d	-1.720941
-0.4303461	b e	-0.6786717
-2.946316	b f	-2.405287
-3.417394	b g	-2.034219
-3.268314	b h	-1.460657
-1.277049	b i	-2.532408
-1.820721	b j	-3.223121
-3.688897	b k	-1.32184
-0.8740748	b l	-4.303626
-2.589264	b m	-0.8845474
-3.440072	b n	-1.071284
-1.103349	b o	-2.029629
-3.292796	b p	-0.2513235
-4.826945	b q	0.06989291
-1.513912	b r	-2.733292
-1.612157	b s	-1.161074
-2.046129	b t	-1.239948
-1.014595	b u	-2.260893
-2.515841	b v	-1.216242
-2.991357	b w	-2.186247
-6.318307	b x
-1.089296	b y	-0.8122445
-4.895061	b z	-1.180732
-5.958011	c #	-0.1753414
-7.739767	c *
-2.950302	c </s>
-5.26701	c [	-0.6015206
-5.059885	c ]	-1.195977
-6.522283	c `	-0.3249421
-0.9714829	c a	0
-2.962336	c b	0
-1.621722	c c	-1.761609
-2.715334	c d	-1.372641
-0.856038	c e	0
-2.756564	c f	-2.539615
-2.884026	c g	-3.597512
-0.9738039	c h	0
-1.050419	c i	0
-3.986145	c j	-0.2442516
-1.80214	c k	-0.5623503
-1.476406	c l	-4.345689
-2.909887	c m	-1.426513
-3.147656	c n	-1.828183
-0.6004876	c o	0
-2.437266	c p	-0.7515272
-3.133175	c q	-0.7429482
-1.396977	c r	-2.834325
-2.211384	c s	-0.6584114
-0.9622236	c t	0
-1.37879	c u	-0.1714969
-3.470487	c v	-0.3901692
-3.109486	c w	-1.810556
-6.221252	c x	-0.137333
-1.651444	c y	-0.1751098
-3.308057	c z	-1.499596
-5.216715	d #	0.08137086
-6.077053	d *	-0.08691651
-1.710068	d </s>
-7.720506	d >
-7.720506	d @
-5.030753	d [	-0.2453037
-4.347685	d ]	-0.8137656
-6.679113	d _
-5.33669	d `	-1.065305
-1.052914	d a	0
-1.460063	d b	-2.70559
-1.689903	d c	-0.4269592
-1.727996	d d	-1.484427
-0.6923452	d e	-0.4402329
-1.690761	d f	-2.275553
-1.775998	d g	-2.080161
-1.908508	d h	-2.058565
-0.8336229	d i	-0.4837902
-2.59561	d j	-1.501213
-2.91103	d k	-2.769943
-1.676338	d l	-3.309788
-1.621827	d m	-1.590088
-1.880397	d n	-2.775557
-1.130014	d o	-0.5596193
-1.737398	d p	-0.3684158
-2.99964	d q	-1.804758
-1.586699	d r	-2.023907
-1.292442	d s	-0.006546856
-0.9826246	d t	-2.186912
-1.388703	d u	-0.1643507
-2.18493	d v	-1.179945
-1.613324	d w	-3.84904
-3.981884	d x	-2.684544
-1.977441	d y	-0.4437059
-3.743102	d z	-0.7756307
-5.205962	e #	-0.04803022
-6.220811	e *	-0.1987157
-8.322902	e <
-1.967666	e </s>
-7.105418	e >
-6.883569	e @	-0.5537843
-5.078748	e [	-0.08199735
-5.43332	e ]	-0.3389121
-6.35209	e _	-0.4821223
-5.790147	e `	-1.005183
-1.095708	e a	0
-1.88841	e b	-0.4877668
-1.195553	e c	0
-1.197604	e d	0
-1.332661	e e	0
-1.580009	e f	-0.5437426
-1.761092	e g	-2.379905
-1.987761	e h	-1.892487
-1.476982	e i	-0.5382616
-2.823794	e j	-1.09425
-2.669107	e k	-1.420315
-1.473031	e l	-0.1902317
-1.368603	e m	-1.00299
-0.9557762	e n	-0.02591064
-1.570886	e o	-0.7677482
-1.539084	e p	-0.8638862
-2.363613	e q	-2.198819
-0.9015303	e r	0
-0.96895	e s	0.02646853
-1.195495	e t	-0.1697384
-1.637239	e u	-0.0892501
-1.667505	e v	-0.2470781
-1.657583	e w	0
-1.926668	e x	-0.8007047
-2.159721	e y	-0.8665687
-2.642242	e z	0.3413441
-5.963855	f #	-1.144339
-6.507923	f *
-2.775892	f </s>
-6.331832	f @
-5.37759	f [	0.06833409
-5.69501	f ]	-0.394967
-6.206893	f _
-5.277474	f `	-0.7772398
-1.095337	f a	0
-2.24943	f b	-2.881227
-1.634678	f c	-3.100348
-2.074049	f d	-3.028616
-1.094518	f e	-0.5641007
-1.223976	f f	-1.59201
-2.175626	f g	-2.76832
-2.146186	f h	-3.166481
-0.8734507	f i	-0.48994
-2.675702	f j	-1.369421
-3.070728	f k	-2.396394
-1.676412	f l	-3.092081
-1.908821	f m	-1.585967
-2.237571	f n	-3.421176
-0.6612644	f o	-2.732598
-1.760768	f p	-1.143219
-3.212246	f q	-1.873681
-1.164829	f r	-3.581138
-1.758551	f s	-0.4987052
-0.8078405	f t	-0.7191278
-1.301193	f u	-2.714894
-2.438588	f v	-0.8718787
-1.89291	f w	-2.938556
-4.537112	f x	-1.50289
-2.180524	f y	-1.342563
-3.777141	f z	-1.45516
-5.439468	g #	-0.2030364
-5.940071	g *	-0.1245407
-1.942298	g </s>
-6.116162	g @	-0.5740313
-5.138438	g [	-0.1342041
-5.286858	g ]	-0.6124962
-5.940071	g _	-0.4193565
-5.604278	g `	-0.3597043
-0.9646387	g a	-0.3219646
-2.102735	g b	-1.878672
-1.83043	g c	-2.80489
-2.00846	g d	-2.720371
-0.8030789	g e	0
-1.840488	g f	-2.455957
-2.016714	g g	-2.359535
-1.006687	g h	-0.127468
-1.032996	g i	-2.87464
-3.13096	g j	-1.057885
-3.091573	g k	-2.315276
-1.641167	g l	-2.801316
-1.93322	g m	-1.555879
-1.540561	g n	-1.991941
-1.098318	g o	-0.5448935
-1.785357	g p	-1.182907
-3.193696	g q	-1.447829
-0.9413383	g r	-4.097152
-1.537219	g s	-0.7716027
-1.035247	g t	-3.078785
-1.356124	g u	-2.763259
-2.781959	g v	-0.7855105
-1.854239	g w	-3.229746
-4.138438	g x	-1.529035
-1.748629	g y	-0.4269454
-4.05358	g z	-0.6895106
-5.854323	h #	0.6161373
-2.609981	h </s>
-5.735137	h [	-0.1635144
-5.752865	h ]	0.01756299
-6.434106	h _	-0.1975039
-6.655955	h `	-0.3249421
-0.693457	h a	-0.3504146
-2.599699	h b	-2.043226
-2.272661	h c	-2.771001
-2.603672	h d	-3.055323
-0.3329565	h e	0
-2.605898	h f	-3.111706
-2.848375	h g	-3.005848
-2.452406	h h	-2.199841
-0.891697	h i	-2.945717
-3.680371	h j	-0.9284716
-3.295614	h k	-2.481874
-2.45275	h l	-2.478576
-2.28362	h m	-1.379969
-2.327223	h n	-0.1672439
-1.136813	h o	-0.8328704
-2.33799	h p	-1.044491
-3.409211	h q	-1.319855
-1.737511	h r	-2.24365
-2.200791	h s	-0.8034904
-1.350258	h t	0
-1.996553	h u	0.2693247
-3.331948	h v	-0.6342202
-2.163256	h w	-3.76065
-5.685918	h x	-0.7878684
-2.2665	h y	-0.0242948
-3.815431	h z	-0.8957241
-6.33929	i #	-1.851794
-3.67619	i </s>
-6.426441	i [	0.007463279
-5.013327	i ]	-1.260959
-6.681713	i _	-0.185966
-7.079653	i `
-1.397724	i a	0
-1.945451	i b	-0.8878631
-1.145976	i c	0
-1.513565	i d	-1.566043
-1.438703	i e	-0.7860224
-1.791376	i f	-0.2278951
-1.627923	i g	-1.42631
-2.534773	i h	-1.739663
-3.190436	i i	-1.772571
-3.46634	i j	-0.4060809
-2.189543	i k	-2.115803
-1.359906	i l	-0.2909017
-1.51351	i m	-0.9190544
-0.6291127	i n	-0.1671572
-0.9608729	i o	-0.8279977
-2.20156	i p	-0.5404456
-3.450958	i q	-1.036229
-1.569624	i r	-0.1593563
-0.8548974	i s	0.03982254
-0.9154627	i t	-0.6586005
-2.953181	i u	-0.2071052
-1.499248	i v	-0.6575567
-2.230191	i w	-3.022032
-2.510139	i x	0.6344085
-4.311385	i y	-1.924882
-2.336269	i z	-2.219193
-8.121046	i }
-3.703679	j </s>
-6.313274	j [
-1.160064	j a	-0.2680804
-3.949662	j b	-0.9774533
-3.156271	j c	-0.9889189
-3.139942	j d	-0.769076
-0.5352735	j e	-2.965148
-3.709588	j f	-1.518297
-3.746836	j g	-0.9396833
-3.278445	j h	-1.342229
-1.885382	j i	-1.225804
-3.802059	j j	-1.205338
-2.761336	j k	-1.062223
-3.680816	j l	-0.7104279
-3.439372	j m	-0.5815495
-2.87481	j n	-0.7442225
-0.5478593	j o	-2.192147
-2.925528	j p	0.377791
-6.313274	j q
-2.747485	j r	-1.296873
-2.573781	j s	-0.5919901
-2.651225	j t	-1.385629
-0.486416	j u	-2.734653
-2.919698	j v	-1.417921
-3.010618	j w	-1.545302
-4.004709	j y	-1.063231
-3.817036	j z	-0.6578495
-5.068742	k #	-0.3051859
-6.923048	k *
-1.777305	k </s>
-6.923048	k @
-4.860466	k [	-0.1899888
-5.279595	k ]	-0.02359051
-1.210006	k a	0.1574878
-2.136385	k b	-2.043761
-2.193413	k c	-1.93814
-2.202363	k d	-2.677844
-0.4066555	k e	-0.1980515
-1.837449	k f	-3.54603
-2.401792	k g	-1.87328
-1.973519	k h	-0.9201696
-0.8051311	k i	-2.825326
-3.327772	k j	-0.5099729
-3.167325	k k	-1.225847
-1.768297	k l	-3.038311
-1.971484	k m	-1.331061
-1.315949	k n	-3.196903
-1.246262	k o	-1.148009
-1.929129	k p	-1.542662
-3.284509	k q	-1.323615
-1.940218	k r	-2.285374
-1.172215	k s	0.4516562
-1.239864	k t	-3.182561
-2.227864	k u	-1.787281
-3.080938	k v	-0.04933973
-1.794158	k w	-2.387901
-3.538246	k x	-0.9531131
-1.740597	k y	-1.127873
-4.458409	k z	0.3002782
-5.583837	l #	0.4177694
-6.21586	l *	-0.2594346
-2.188959	l </s>
-7.801321	l @
-5.42749	l [	-0.4379806
-5.856838	l ]	0.1958649
-6.106716	l _	-0.1582299
-6.157868	l `	-0.6259722
-0.9562422	l a	0
-1.866483	l b	-3.458807
-1.783594	l c	-2.067706
-1.205572	l d	-1.38522
-0.8013738	l e	0
-1.780799	l f	-1.246051
-2.372227	l g	-2.823909
-2.274796	l h	-2.536069
-0.8197811	l i	-0.4994311
-3.286295	l j	-0.2229049
-2.41885	l k	-1.192198
-0.9253074	l l	0
-1.997723	l m	0.06559767
-2.250208	l n	-2.863643
-1.165224	l o	-0.7325984
-1.764037	l p	-0.7187911
-3.165204	l q	-1.435999
-1.888788	l r	-3.406993
-1.352226	l s	-0.02582894
-1.362514	l t	-0.5795123
-1.591503	l u	-1.248497
-2.071526	l v	-1.339624
-2.070886	l w	-2.956772
-5.2097	l x	-0.9717066
-1.063565	l y	-0.06352714
-3.583258	l z	-1.066796
-5.713019	m #	-0.3953626
-7.657502	m *
-2.146707	m </s>
-7.657502	m @
-5.555411	m [	-0.282322
-5.638385	m ]	-0.01587819
-6.440018	m `	-0.1573353
-0.8624009	m a	-0.1325612
-1.385534	m b	-0.7270351
-2.45734	m c	-2.324298
-2.753858	m d	-2.739039
-0.5578967	m e	0
-2.435109	m f	-0.8044654
-2.888161	m g	-1.77156
-2.737013	m h	-1.656408
-0.9049226	m i	-0.425328
-3.685669	m j	-0.6727657
-3.744244	m k	-1.392939
-2.709936	m l	-2.465403
-1.124502	m m	-2.627577
-2.507291	m n	-1.856091
-1.031558	m o	-0.7185227
-1.081425	m p	-0.1209008
-3.88091	m q	-1.349056
-1.496611	m r	-0.1679904
-1.542607	m s	-0.5551347
-1.728528	m t	-2.751611
-1.360126	m u	-0.2693991
-2.960634	m v	-0.0888528
-2.377386	m w	-2.578024
-4.519199	m x	-1.681434
-1.785761	m y	-0.1132297
-4.46689	m z	-0.3002644
-5.380473	n #	-0.1255012
-6.508502	n *	-0.2025539
-1.937791	n </s>
-8.093963	n >
-6.876479	n @	-0.5606673
-4.982533	n [	-0.5884049
-5.597725	n ]	-0.5457308
-6.011178	n _	-0.472501
-5.835086	n `	-1.241396
-1.15978	n a	0
-2.007905	n b	-2.355757
-1.218284	n c	-99
-0.8869882	n d	0
-1.064667	n e	0
-1.758153	n f	-2.650147
-1.025043	n g	0
-2.200356	n h	-1.592022
-1.174591	n i	0
-2.87276	n j	-1.61779
-2.116831	n k	-0.4691613
-1.989633	n l	-3.041723
-1.870076	n m	-2.337756
-1.995424	n n	-0.7387982
-1.135371	n o	-0.7635494
-1.841619	n p	-0.8939553
-3.244258	n q	-1.738633
-2.10338	n r	-3.284943
-1.135764	n s	-0.04678402
-0.7175393	n t	0
-1.862268	n u	-1.271597
-2.058568	n v	-1.048207
-1.907915	n w	-3.824789
-4.108335	n x	-1.64378
-2.053943	n y	-0.5188403
-3.256413	n z	-1.366319
-4.807148	o #	-1.772167
-7.087043	o *
-2.698586	o </s>
-8.128436	o >
-8.128436	o @
-5.561998	o [	-0.3239797
-5.882923	o ]	-0.2863168
-6.910952	o _
-6.211981	o `	-0.267571
-1.802036	o a	-0.1528423
-1.689781	o b	0.03470768
-1.629032	o c	-0.6664377
-1.708184	o d	-1.43407
-2.031994	o e	-0.6822534
-1.004723	o f	0
-1.972949	o g	-2.316041
-2.269626	o h	-1.635148
-1.83835	o i	-0.543479
-2.796241	o j	-0.6664959
-2.492396	o k	-1.078307
-1.474423	o l	-0.4982303
-1.164662	o m	0
-0.674053	o n	-0.04690029
-1.714777	o o	-0.682624
-1.255735	o p	-0.8188254
-3.516092	o q	-1.809674
-0.8960497	o r	0
-1.421986	o s	-0.8675619
-1.194263	o t	0
-1.030418	o u	-0.3869662
-1.724478	o v	-0.1167205
-1.528519	o w	0.01350496
-3.329761	o x	-3.293429
-2.4218	o y	-0.8836597
-1.94001	o z	-2.285437
-8.128436	o ~
-5.378815	p #	0.3608609
-6.253876	p *
-2.583538	p </s>
-5.457996	p [	-0.07043333
-4.795238	p ]	-0.5383359
-7.596299	p _
-0.9632983	p a	-0.001079223
-2.684356	p b	-1.904771
-2.797511	p c	-1.721756
-2.929183	p d	-1.857693
-0.706204	p e	0
-2.686556	p f	-2.835788
-3.296269	p g	-2.464904
-1.935886	p h	-0.7821062
-1.549158	p i	-0.2980145
-4.002847	p j	-0.2629022
-3.892149	p k	-1.618848
-1.052017	p l	-3.224393
-1.96052	p m	-0.6704113
-3.177327	p n	-2.092416
-0.7200105	p o	-0.7494753
-1.235487	p p	-1.609974
-4.233722	p q	-1.10471
-0.6677803	p r	-2.520236
-1.907015	p s	-0.6059049
-1.454214	p t	0.1016289
-1.54907	p u	-2.932184
-3.739994	p v	0.01295124
-2.546796	p w	-2.647307
-5.651816	p x	-0.3726788
-2.790058	p y	-0.4792247
-4.931657	p z	-0.2146769
-2.269707	q </s>
-6.22913	q ]
-5.187738	q `	-1.010084
-1.996427	q a	-2.129805
-2.997406	q b	-1.88766
-3.068812	q c	-1.570022
-3.416886	q d	-2.361375
-2.861402	q e	-0.737832
-3.134659	q f	-1.254896
-4.011647	q g	-0.9770147
-2.948438	q h	-1.581704
-1.962299	q i	-0.9751567
-4.258319	q j	-0.6947201
-3.983618	q k	-1.271503
-3.559349	q l	-1.161247
-3.158354	q m	-1.770559
-3.554269	q n	-1.773829
-3.057404	q o	-1.114262
-3.409587	q p	-1.31091
-3.886708	q q	0.3681062
-3.395346	q r	-1.686712
-2.556802	q s	-0.001974126
-2.661399	q t	-2.054332
-0.01935673	q u	-4.536434
-3.287371	q v	-1.050019
-2.535008	q w	-2.02322
-4.34264	q y	-1.061313
-6.22913	q z
-5.628131	r #	-0.9662811
-6.378253	r *	-0.07704575
-2.240381	r </s>
-6.679284	r @	-0.1542334
-5.043298	r [	-0.5382109
-5.776194	r ]	-0.0855416
-6.202162	r _	-0.3225729
-6.077224	r `	-0.9533311
-1.037607	r a	0
-2.219684	r b	0.6929141
-1.732679	r c	-0.697265
-1.591714	r d	-0.1463145
-0.5763145	r e	0
-2.116607	r f	-2.037288
-1.811868	r g	-1.731983
-2.257404	r h	-2.54373
-1.041828	r i	-0.4963672
-3.19165	r j	-1.055076
-1.801219	r k	-1.946389
-1.69461	r l	-2.108148
-1.596972	r m	-0.04970506
-1.672929	r n	-1.263863
-0.8438194	r o	0
-1.784809	r p	-0.8798135
-3.402879	r q	-1.483049
-1.757426	r r	-2.073298
-1.24544	r s	-0.08268691
-1.055121	r t	0
-1.771474	r u	-1.287048
-2.130161	r v	-1.340247
-2.036901	r w	-3.409504
-4.578913	r x	-0.4194541
-1.560152	r y	0
-3.011621	r z	-1.556567
-5.047888	s #	-0.08227579
-5.982387	s *	-0.1997005
-8.02378	s <
-1.49683	s </s>
-8.02378	s @
-4.638978	s [	-0.6978427
-4.455402	s ]	-0.5104607
-6.283417	s _	-0.07781572
-5.519989	s `	-0.7449931
-1.032723	s a	0
-1.791504	s b	-1.771302
-1.589696	s c	-1.450763
-2.018894	s d	-2.332696
-0.950907	s e	0
-1.756093	s f	-2.273884
-2.406691	s g	-2.675835
-1.403208	s h	0
-0.8997198	s i	-0.5087101
-2.952293	s j	-1.271088
-2.249925	s k	-0.9373377
-1.968596	s l	-2.950477
-1.741881	s m	-0.7563922
-1.858517	s n	-3.435
-1.080358	s o	-0.04714808
-1.417717	s p	-0.6355627
-2.934645	s q	-1.934918
-1.84927	s r	-3.642534
-1.120168	s s	-0.2731433
-0.7465867	s t	0
-1.341111	s u	-2.426465
-2.535826	s v	-0.2165141
-1.542138	s w	-3.405596
-5.128081	s x	-0.9467253
-2.18777	s y	-1.332867
-4.008336	s z	0.09813657
-5.727881	t #	0.1118605
-6.565154	t *	-0.2129826
-8.208608	t <
-2.041983	t </s>
-6.623146	t @	-1.650216
-5.171579	t [	-0.1764246
-5.451211	t ]	-0.4270844
-6.053271	t _	-0.5848323
-6.070304	t `	-1.044683
-1.151086	t a	0
-2.039984	t b	-1.80121
-2.028604	t c	-2.476616
-2.325711	t d	-1.291448
-1.027067	t e	0
-2.124869	t f	-2.509515
-2.687337	t g	-2.859202
-0.5191337	t h	0
-0.8215343	t i	-0.5316481
-3.084124	t j	-1.585246
-3.360729	t k	-2.373189
-1.98912	t l	-2.459389
-2.055668	t m	-2.549827
-2.330536	t n	-2.81054
-0.9695563	t o	0
-2.148526	t p	-1.264973
-3.495532	t q	-1.689012
-1.402312	t r	-3.396473
-1.398648	t s	-0.1306592
-1.296549	t t	-0.9059076
-1.687755	t u	-1.257555
-3.026219	t v	-0.2125476
-1.55037	t w	-3.865358
-4.89887	t x	-1.701648
-1.691336	t y	0
-3.358801	t z	-1.896533
-5.565071	u #	-1.013037
-7.685645	u *
-2.824018	u </s>
-5.903889	u @	-0.9542425
-6.343222	u [
-7.685645	u ]
-1.436456	u a	-0.01112057
-1.677174	u b	0
-1.300479	u c	-2.25262
-1.655764	u d	-1.311233
-1.37246	u e	-0.3217264
-2.30256	u f	-2.62387
-1.64922	u g	-2.181893
-2.624845	u h	-2.21401
-1.679177	u i	-0.2559745
-3.675769	u j	-0.4642788
-2.563932	u k	-0.6308163
-0.9495546	u l	-0.7179694
-1.451251	u m	-0.7348174
-0.874418	u n	-0.7328602
-2.589447	u o	-1.059092
-1.423715	u p	0
-4.277829	u q	-0.9348747
-0.6791372	u r	0
-0.8897575	u s	-0.1113561
-0.9678276	u t	0
-3.510873	u u	-1.967103
-3.1869	u v	-0.7294286
-2.607743	u w	-2.701588
-3.192926	u x	-1.548993
-3.123637	u y	-0.5361348
-3.480196	u z	-0.5486826
-3.788621	v </s>
-6.22319	v [
-1.197135	v a	-0.15436
-4.170112	v b	-0.2360976
-3.423505	v c	-1.390234
-3.944437	v d	-0.909292
-0.1598509	v e	0
-4.070902	v f	-0.8810427
-4.094468	v g	-1.796514
-3.973992	v h	-1.285313
-0.7561538	v i	-2.026716
-5.032858	v j	0.07764372
-4.356903	v k	-1.232067
-3.504689	v l	-1.765594
-3.53477	v m	-1.171886
-4.089652	v n	-1.375054
-1.207361	v o	-0.6290586
-3.446489	v p	-0.9886389
-5.52422	v q	0.3605948
-3.115302	v r	-1.664531
-3.240467	v s	-0.396439
-3.482828	v t	-1.565908
-2.827689	v u	-1.599869
-3.926525	v v	0.6082264
-3.588713	v w	-1.215837
-5.746069	v x	-0.2987854
-2.849084	v y	-0.9280792
-5.032858	v z	0.1867799
-6.086907	w #	-0.4784446
-6.387937	w *
-2.368821	w </s>
-5.609786	w [	-0.1612169
-5.458518	w ]	-0.1344447
-6.387937	w _
-6.211846	w `	-0.3249421
-0.9636658	w a	-0.2956971
-2.458697	w b	-2.196082
-2.280456	w c	-2.652664
-2.473197	w d	-1.80497
-0.642561	w e	-0.4011207
-2.492902	w f	-3.008896
-2.918189	w g	-2.108199
-0.7464105	w h	-4.254076
-0.7028335	w i	-0.5315337
-3.338331	w j	-1.237671
-3.515489	w k	-1.135903
-2.278933	w l	-3.040787
-2.130019	w m	-3.612112
-1.677612	w n	-0.02132471
-0.7729909	w o	0
-2.393334	w p	-1.385975
-3.78642	w q	-1.126681
-2.053031	w r	-3.601707
-1.893755	w s	-0.3358567
-1.598311	w t	-3.767677
-2.663825	w u	-2.022535
-3.289986	w v	-0.5176693
-2.221167	w w	-2.077492
-5.910816	w x	-0.6534919
-2.642082	w y	-2.659891
-4.053483	w z	-1.20999
-1.927012	x </s>
-4.444396	x [	-0.4495415
-5.164556	x ]
-4.725223	x _	-0.983628
-6.506979	x `
-0.9204396	x a	-1.745141
-2.157555	x b	-1.580509
-1.001902	x c	-2.745181
-2.555228	x d	-2.036906
-1.209205	x e	-2.162263
-1.981927	x f	-2.563301
-3.289495	x g	-1.136375
-2.157342	x h	-1.709309
-0.9575479	x i	-1.425562
-3.006948	x j	-0.7484545
-3.576284	x k	-1.091907
-2.836686	x l	-1.712379
-1.942425	x m	-1.967551
-2.287761	x n	-2.762388
-1.741884	x o	-2.556896
-0.6303837	x p	-3.205634
-3.858131	x q	-1.520132
-2.283457	x r	-2.557158
-1.942295	x s	-2.226951
-0.6150253	x t	-1.341606
-2.016648	x u	-1.95346
-3.064185	x v	0.3973249
-2.252068	x w	-2.248937
-3.213948	x x	-1.387566
-2.47725	x y	-0.7805965
-1.751969	x z	-2.778244
-4.918475	y #	0.1279469
-5.48835	y *	-0.1068771
-1.300995	y </s>
-4.48219	y [	-0.4230133
-5.00101	y ]	-0.1158744
-5.935509	y _
-5.634479	y `	-0.4218521
-0.9828655	y a	0.08191478
-1.473377	y b	-2.831645
-1.354253	y c	-2.073976
-1.627961	y d	-3.226094
-1.210789	y e	-0.7455392
-1.500525	y f	-3.453164
-1.943459	y g	-2.906106
-1.659337	y h	-3.153816
-1.060613	y i	-2.763164
-2.749627	y j	-1.178939
-2.78463	y k	-1.477124
-1.792706	y l	-1.699956
-1.361001	y m	-2.501759
-1.817416	y n	-2.511165
-0.9360676	y o	-1.911635
-1.425769	y p	-2.939108
-2.726691	y q	-2.159114
-1.597347	y r	-3.095694
-1.090474	y s	-0.9306704
-0.9028779	y t	-3.841174
-2.056264	y u	-1.475422
-2.241677	y v	-1.04985
-1.320795	y w	-3.601765
-4.675437	y x	-1.258416
-2.488289	y y	-3.37449
-3.361246	y z	-0.9408664
-2.974203	z </s>
-6.499183	z [
-1.311755	z a	0.0008078365
-2.484894	z b	-3.047293
-3.129411	z c	-1.773951
-2.786155	z d	-2.47185
-0.06590999	z e	-0.7170646
-2.861193	z f	-1.363814
-3.237682	z g	-2.037816
-2.503307	z h	-3.237061
-1.549252	z i	-1.788909
-3.628487	z j	-1.340304
-3.237682	z k	-1.266429
-2.466343	z l	-2.271554
-2.884919	z m	-1.740774
-2.826347	z n	-1.792322
-1.606196	z o	-1.9406
-3.028038	z p	-0.7020484
-3.202518	z q	-1.196912
-2.797874	z r	-2.189534
-2.514543	z s	-0.685151
-2.965729	z t	-1.218579
-2.384439	z u	-1.071576
-3.668915	z v	-0.7640243
-2.820301	z w	-1.651035
-6.499183	z x
-2.402412	z y	0.7680761
-2.510847	z z	-0.6276621
-0.7403627	{ m
-0.7403627	} </s>
-0.7403627	~ o

\3-grams:
-0.01021917	<s> # o
-0.4771213	a # f
-0.3174204	a # o
-0.8293038	a # x
-0.1991078	b # f
-0.3424227	c # f
-0.4393327	c # o
-0.7633792	c # x
-0.925754	d # f
-0.2145495	d # o
-0.5947608	d # x
-2.098563	e # a
-2.098563	e # c
-0.2335622	e # f
-0.5253186	e # o
-1.034154	e # x
-0.146128	f # o
-0.5670846	f # x
-1.00074	g # b
-0.1648103	g # o
-0.6766936	h # f
-0.1995724	h # o
-1.00074	h # x
-0.7633792	i # f
-0.08715018	i # x
-0.2108534	k # f
-0.5118834	k # o
-1.199108	l # f
-0.1760913	l # o
-0.6320232	l # x
-0.7269987	m # f
-0.1249387	m # o
-0.6159958	n # f
-0.4462447	n # o
-0.4095219	n # x
-1.881955	o # f
-0.006893708	o # o
-0.3452336	p # f
-0.4121805	p # o
-0.8893017	p # x
-0.1346986	r # o
-0.6118198	r # x
-0.9133092	s # f
-0.1636464	s # o
-0.7441667	s # x
-1.263241	t # f
-0.1605791	t # o
-0.6264194	t # x
-0.03778856	u # x
-0.3240465	w # f
-0.3240465	w # o
-0.8211859	y # f
-0.1679734	y # o
-0.8211859	y # x
-0.3802112	* * *
-0.4771213	* * </s>
-1.102198	* * b
-0.6532125	<s> * *
-0.9542425	<s> * a
-0.9542425	<s> * c
-1.176091	<s> * e
-1.176091	<s> * f
-1.375199	<s> * i
-1.375199	<s> * r
-1.051152	<s> * s
-0.8750613	<s> * t
-0.4209565	a * o
-0.6250765	d * s
-1.083714	e * b
-1.083714	e * c
-0.8846066	e * d
-1.083714	e * e
-1.083714	e * m
-1.083714	e * o
-0.5001377	g * a
-0.5670846	l * </s>
-0.5670846	l * c
-0.3679768	n * i
-0.6250765	r * i
-1.023017	s * *
-0.8239087	s * </s>
-0.8239087	s * a
-1.023017	s * s
-0.8239087	s * w
-0.6250765	t * i
-0.6250765	t * o
-0.8681145	y * </s>
-0.8681145	y * i
-0.8681145	y * o
-0.4209565	e @ a
-0.4209565	e @ l
-0.09691001	g @ s
-0.1249387	n @ e
-0.3240465	r @ s
-0.5670846	t @ a
-0.146128	t @ s
-0.03778856	u @ o
-1.510928	<s> [ a
-0.3783022	<s> [ c
-2.078012	<s> [ d
-1.878905	<s> [ e
-1.510928	<s> [ f
-1.657056	<s> [ h
-1.577875	<s> [ i
-2.078012	<s> [ l
-1.577875	<s> [ m
-1.401783	<s> [ n
-1.125577	<s> [ o
-1.657056	<s> [ p
-1.401783	<s> [ s
-0.7028133	<s> [ t
-1.577875	<s> [ w
-0.5001377	] [ s
-1.306425	a [ a
-0.3287014	a [ c
-1.431364	a [ d
-1.630472	a [ e
-1.630472	a [ h
-1.431364	a [ i
-1.630472	a [ m
-1.630472	a [ n
-1.630472	a [ o
-1.630472	a [ p
-0.7945417	a [ t
-1.630472	a [ z
-0.3240465	b [ a
-1.033424	c [ a
-0.4101745	c [ c
-1.45438	c [ e
-1.45438	c [ f
-1.255273	c [ n
-0.7323937	c [ o
-1.033424	c [ p
-1.255273	c [ t
-0.8354467	d [ ]
-1.0463	d [ a
-1.34733	d [ b
-0.6271707	d [ c
-1.34733	d [ e
-1.34733	d [ i
-1.671377	d [ j
-1.671377	d [ m
-1.34733	d [ o
-1.671377	d [ p
-1.671377	d [ r
-1.671377	d [ s
-0.7732987	d [ t
-1.671377	d [ w
-1.181571	e [ ]
-1.299671	e [ a
-1.658693	e [ b
-0.5037907	e [ c
-2.02667	e [ d
-1.804821	e [ e
-1.600701	e [ f
-1.804821	e [ h
-1.503791	e [ i
-2.02667	e [ l
-1.901731	e [ m
-1.804821	e [ n
-0.9597226	e [ o
-1.600701	e [ p
-1.901731	e [ r
-1.462398	e [ s
-0.7329386	e [ t
-2.02667	e [ u
-1.901731	e [ w
-1.804821	e [ z
-0.7323937	f [ ]
-1.15335	f [ a
-0.7323937	f [ c
-0.9542425	f [ i
-1.15335	f [ o
-0.9542425	f [ t
-1.30177	g [ ]
-1.30177	g [ b
-0.7346855	g [ c
-1.30177	g [ f
-1.30177	g [ h
-1.30177	g [ i
-1.30177	g [ o
-1.30177	g [ p
-1.30177	g [ s
-0.5797836	g [ t
-1.119927	h [ ]
-0.9208187	h [ a
-0.6197888	h [ c
-1.119927	h [ i
-1.119927	h [ s
-0.9208187	h [ t
-0.9208187	h [ w
-0.4771213	i [ c
-0.4191293	k [ c
-1.044206	k [ f
-1.044206	k [ m
-1.044206	k [ o
-1.355455	l [ ]
-0.9344984	l [ a
-0.3324385	l [ c
-1.355455	l [ o
-1.031408	l [ s
-0.9344984	l [ t
-1.355455	l [ z
-1.083714	m [ a
-0.6627578	m [ c
-1.083714	m [ n
-0.7596679	m [ o
-1.083714	m [ p
-0.6627578	m [ t
-1.329675	n [ ]
-1.416825	n [ a
-2.093054	n [ b
-0.4120265	n [ c
-1.893947	n [ d
-1.672098	n [ e
-2.093054	n [ f
-1.769008	n [ h
-1.467978	n [ i
-2.093054	n [ l
-2.093054	n [ m
-1.893947	n [ n
-0.8797061	n [ o
-1.467978	n [ s
-0.7375994	n [ t
-2.093054	n [ v
-1.769008	n [ w
-1.893947	n [ z
-1.224015	o [ ]
-1.548061	o [ b
-0.4836521	o [ c
-1.224015	o [ e
-1.548061	o [ f
-1.548061	o [ o
-1.348954	o [ p
-1.548061	o [ s
-0.5473212	o [ t
-0.9208187	p [ a
-0.552842	p [ c
-1.119927	p [ p
-1.119927	p [ s
-0.79588	p [ t
-1.960033	r [ ]
-0.3629848	r [ a
-0.7065672	r [ c
-1.960033	r [ e
-1.760925	r [ i
-1.238046	r [ o
-1.960033	r [ p
-1.635986	r [ s
-0.7195322	r [ t
-1.960033	r [ w
-1.264227	s [ ]
-1.282711	s [ a
-2.042379	s [ b
-0.354404	s [ c
-2.167317	s [ d
-1.690196	s [ e
-1.799341	s [ f
-1.945469	s [ g
-2.366425	s [ h
-1.565257	s [ i
-1.799341	s [ n
-0.9816808	s [ o
-1.945469	s [ p
-2.167317	s [ r
-1.530495	s [ s
-0.8119297	s [ t
-2.366425	s [ u
-1.644439	s [ w
-1.066216	t [ ]
-1.120574	t [ a
-2.018652	t [ b
-0.7168816	t [ c
-1.819544	t [ d
-1.694605	t [ e
-1.518514	t [ f
-1.597695	t [ h
-1.296665	t [ i
-1.819544	t [ l
-1.597695	t [ m
-1.694605	t [ n
-1.342423	t [ o
-2.018652	t [ p
-1.217484	t [ s
-0.5976952	t [ t
-1.342423	t [ w
-0.3802112	w [ c
-0.8011678	w [ s
-0.2808266	x [ c
-1.044206	x [ d
-0.845098	x [ s
-1.044206	x [ t
-0.8970158	y [ ]
-1.374137	y [ a
-0.4119256	y [ c
-1.874275	y [ d
-1.550228	y [ h
-1.550228	y [ i
-1.874275	y [ m
-1.550228	y [ n
-1.110896	y [ o
-1.874275	y [ p
-1.30719	y [ s
-0.9481683	y [ t
-1.550228	y [ w
-1.675167	y [ z
-0.7386427	[ ] </s>
-1.822357	[ ] [
-0.8216169	[ ] a
-1.498311	[ ] b
-1.322219	[ ] c
-1.822357	[ ] d
-1.623249	[ ] e
-1.822357	[ ] f
-1.822357	[ ] h
-1.021189	[ ] i
-1.822357	[ ] l
-1.623249	[ ] m
-1.623249	[ ] n
-1.498311	[ ] o
-1.498311	[ ] p
-0.9542425	[ ] s
-0.8962505	[ ] t
-1.623249	[ ] w
-1.199108	a ] </s>
-1	a ] a
-1.199108	a ] b
-1.199108	a ] c
-0.7781513	a ] l
-1.199108	a ] n
-1	a ] p
-1.199108	a ] s
-1.199108	a ] y
-0.5001377	b ] </s>
-0.5001377	b ] o
-0.1070103	c ] </s>
-1.661506	c ] [
-1.462398	c ] a
-1.462398	c ] c
-1.661506	c ] m
-1.661506	c ] n
-1.337459	c ] o
-1.661506	c ] r
-0.1884125	d ] </s>
-1.201094	d ] a
-2.155336	d ] b
-1.787359	d ] c
-1.933487	d ] e
-2.354444	d ] f
-2.354444	d ] h
-2.030397	d ] i
-2.155336	d ] l
-2.354444	d ] m
-1.729367	d ] o
-2.030397	d ] p
-0.8063825	d ] r
-2.354444	d ] s
-2.030397	d ] t
-1.787359	d ] w
-0.3568274	e ] </s>
-1.035276	e ] a
-1.246129	e ] c
-1.547159	e ] d
-1.672098	e ] e
-1.547159	e ] f
-1.871206	e ] g
-1.547159	e ] h
-1.450249	e ] i
-1.871206	e ] m
-1.450249	e ] n
-1.871206	e ] o
-1.304121	e ] s
-1.107826	e ] t
-1.547159	e ] w
-0.6368221	f ] a
-0.8359299	f ] d
-0.8359299	f ] h
-0.8359299	f ] o
-0.5282738	g ] </s>
-1.15335	g ] a
-0.8293038	g ] i
-0.9542425	g ] o
-1.15335	g ] r
-1.15335	g ] s
-0.7323937	g ] t
-0.60206	h ] </s>
-1.102198	h ] c
-1.102198	h ] i
-1.102198	h ] m
-1.102198	h ] s
-1.102198	h ] w
-0.1218433	i ] </s>
-0.7338875	i ] a
-1.890235	i ] n
-1.522258	i ] t
-0.4259687	k ] </s>
-0.6250765	k ] t
-0.9261065	l ] </s>
-0.9261065	l ] f
-0.9261065	l ] s
-0.6766936	m ] </s>
-0.4336556	m ] a
-1.00074	m ] s
-0.6097468	n ] </s>
-0.8016323	n ] a
-1.477861	n ] b
-1.153815	n ] c
-1.477861	n ] d
-1.278754	n ] f
-1.278754	n ] i
-1.477861	n ] m
-1.278754	n ] o
-1.278754	n ] r
-1.477861	n ] s
-0.9777236	n ] t
-1.278754	n ] w
-0.3290587	o ] </s>
-0.90309	o ] a
-1.227136	o ] p
-1.227136	o ] s
-1.028029	o ] t
-1.227136	o ] w
-1.458638	p ] </s>
-1.458638	p ] a
-0.2155998	p ] d
-1.282547	p ] j
-1.583577	p ] l
-0.9145698	p ] s
-1.282547	p ] t
-0.5509075	r ] </s>
-1.028029	r ] a
-1.227136	r ] b
-1.227136	r ] c
-1.028029	r ] e
-0.7269987	r ] t
-0.1078558	s ] </s>
-1.236951	s ] a
-2.225955	s ] b
-1.873773	s ] c
-2.550002	s ] d
-2.225955	s ] e
-2.350894	s ] f
-2.350894	s ] g
-2.129045	s ] h
-1.748834	s ] i
-2.550002	s ] k
-2.350894	s ] m
-1.526985	s ] o
-2.550002	s ] p
-2.225955	s ] r
-1.982917	s ] s
-1.623895	s ] t
-1.982917	s ] w
-0.90309	t ] </s>
-1.062791	t ] a
-1.73902	t ] b
-1.318063	t ] c
-1.73902	t ] f
-0.4855544	t ] h
-1.113943	t ] i
-1.539912	t ] m
-1.73902	t ] p
-1.73902	t ] r
-1.414973	t ] s
-1.414973	t ] t
-1.539912	t ] u
-1.062791	t ] w
-0.7533277	w ] </s>
-0.3853509	w ] e
-0.9524354	w ] i
-0.7883704	y ] </s>
-0.9344984	y ] a
-1.355455	y ] c
-1.156347	y ] e
-1.156347	y ] f
-1.156347	y ] i
-1.156347	y ] o
-1.156347	y ] p
-1.031408	y ] s
-1.355455	y ] t
-1.156347	y ] w
-0.02301652	<s> _ _
-1.50515	_ _ </s>
-0.02085014	_ _ _
-0.9524354	e _ a
-0.7533277	e _ l
-0.9524354	e _ o
-0.7533277	e _ s
-0.7533277	e _ t
-0.1760913	g _ t
-0.4209565	h _ e
-0.4209565	i _ r
-0.4771213	l _ p
-0.3424227	n _ s
-0.5642715	n _ t
-0.8011678	r _ b
-0.8011678	r _ r
-0.8011678	r _ t
-0.8011678	r _ z
-0.39794	s _ _
-0.7219865	s _ p
-0.5118834	t _ b
-1.13696	t _ o
-0.6368221	t _ r
-0.7160034	t _ t
-0.04139268	x _ t
-0.09691001	<s> ` `
-1.08052	` ` a
-1.335792	` ` b
-1.113943	` ` c
-1.470491	` ` d
-1.256611	` ` e
-1.470491	` ` f
-1.511883	` ` g
-1.365755	` ` h
-1.335792	` ` i
-1.733732	` ` j
-1.733732	` ` l
-1.470491	` ` m
-1.335792	` ` n
-1.432702	` ` o
-1.189664	` ` p
-1.432702	` ` r
-1.034762	` ` s
-0.9933694	` ` t
-1.733732	` ` u
-2.23387	` ` v
-1.256611	` ` w
-2.034762	` ` y
-0.07572071	a ` `
-0.1249387	c ` `
-0.02020339	d ` `
-0.03651683	e ` `
-1.514378	e ` m
-0.04011722	f ` `
-0.1139434	g ` `
-0.1249387	h ` `
-0.05799195	l ` `
-0.1991078	m ` `
-0.01336396	n ` `
-0.2218488	o ` `
-0.8980778	o ` m
-0.02301652	q ` `
-0.02632894	r ` `
-0.05585782	s ` `
-1.485415	s ` p
-0.05551733	t ` `
-1.119927	t ` p
-0.1249387	w ` `
-0.09691001	y ` `
-0.9524354	* a c
-0.9524354	* a m
-0.5314789	* a n
-0.9524354	* a p
-0.6283889	* a r
-4.783237	<s> a </s>
-4.306115	<s> a a
-1.796315	<s> a b
-1.281128	<s> a c
-1.718778	<s> a d
-2.557066	<s> a e
-1.247478	<s> a f
-1.648528	<s> a g
-2.497679	<s> a h
-2.402422	<s> a i
-3.149768	<s> a j
-2.803992	<s> a k
-0.9058266	<s> a l
-1.448314	<s> a m
-0.7534469	<s> a n
-3.397035	<s> a o
-1.325153	<s> a p
-3.022311	<s> a q
-1.486717	<s> a r
-0.5602773	<s> a s
-0.9584383	<s> a t
-2.069466	<s> a u
-2.443454	<s> a v
-2.352946	<s> a w
-4.658298	<s> a x
-2.827388	<s> a y
-3.391126	<s> a z
-0.09691001	@ a p
-1.16481	[ a ]
-2.00074	[ a b
-1.801632	[ a c
-1.801632	[ a d
-1.801632	[ a f
-2.00074	[ a g
-1.801632	[ a l
-0.2373609	[ a m
-0.8985423	[ a n
-1.433656	[ a p
-1.237361	[ a r
-1.676694	[ a s
-2.00074	[ a t
-1.595496	] a c
-1.817345	] a d
-1.516315	] a f
-2.016453	] a g
-2.016453	] a i
-2.016453	] a j
-1.692406	] a l
-1.449368	] a m
-0.4311434	] a n
-1.692406	] a p
-1.118375	] a r
-0.4749223	] a s
-1.595496	] a t
-0.4209565	_ a l
-1.184384	` a b
-1.184384	` a c
-1.184384	` a d
-0.6842467	` a m
-0.763428	` a n
-0.6842467	` a s
-1.184384	` a u
-1.184384	` a x
-3.527403	a a </s>
-2.766837	a a a
-1.968237	a a b
-1.722842	a a c
-1.833843	a a d
-3.101434	a a e
-1.950897	a a f
-1.750978	a a g
-2.745818	a a h
-2.369615	a a i
-3.59435	a a j
-2.055832	a a k
-1.526164	a a l
-1.983335	a a m
-0.2107436	a a n
-3.469411	a a o
-1.979804	a a p
-3.735679	a a q
-1.052008	a a r
-0.966813	a a s
-1.469773	a a t
-2.478554	a a u
-2.484134	a a v
-2.759717	a a w
-3.946532	a a x
-2.998364	a a y
-2.685269	a a z
-2.796926	b a </s>
-2.698027	b a a
-1.578364	b a b
-1.045331	b a c
-1.712848	b a d
-3.618468	b a e
-3.205678	b a f
-2.349259	b a g
-2.396997	b a h
-2.07521	b a i
-3.613772	b a j
-2.559827	b a k
-0.7446544	b a l
-2.019012	b a m
-0.7848148	b a n
-3.007068	b a o
-3.344209	b a p
-4.326983	b a q
-1.15451	b a r
-0.7117286	b a s
-0.6692156	b a t
-2.771351	b a u
-3.061117	b a v
-3.024748	b a w
-2.648262	b a y
-3.455151	b a z
-5.550799	c a #
-2.470293	c a </s>
-5.328951	c a [
-5.550799	c a ]
-2.391232	c a a
-2.172765	c a b
-2.23427	c a c
-1.967752	c a d
-3.301193	c a e
-2.903416	c a f
-2.799263	c a g
-3.058971	c a h
-2.443363	c a i
-4.073678	c a j
-3.609619	c a k
-0.6008339	c a l
-1.669586	c a m
-0.5712965	c a n
-2.900816	c a o
-1.394967	c a p
-4.772648	c a q
-1.176925	c a r
-1.136132	c a s
-0.8938391	c a t
-0.9636985	c a u
-3.141994	c a v
-2.71216	c a w
-4.580763	c a x
-3.522771	c a y
-4.337725	c a z
-2.294063	d a </s>
-5.149077	d a [
-5.325169	d a `
-2.365889	d a a
-1.467203	d a b
-1.445413	d a c
-1.68966	d a d
-2.677786	d a e
-1.819985	d a f
-1.555072	d a g
-2.248528	d a h
-1.899471	d a i
-3.137648	d a j
-2.777086	d a k
-1.098324	d a l
-0.9954251	d a m
-0.7135568	d a n
-2.620804	d a o
-1.494388	d a p
-3.033467	d a q
-1.095359	d a r
-1.102186	d a s
-0.8727726	d a t
-2.240682	d a u
-2.139202	d a v
-2.14254	d a w
-4.202953	d a x
-0.9556931	d a y
-3.256983	d a z
-2.472352	e a </s>
-5.532588	e a [
-6.009709	e a `
-2.626014	e a a
-1.674392	e a b
-1.252541	e a c
-1.181828	e a d
-2.938318	e a e
-1.999891	e a f
-1.514948	e a g
-2.724753	e a h
-2.092887	e a i
-3.542842	e a j
-1.82643	e a k
-1.039845	e a l
-1.700385	e a m
-0.6220256	e a n
-2.274723	e a o
-1.668038	e a p
-3.404046	e a q
-0.7767236	e a r
-0.9032025	e a s
-1.051506	e a t
-2.049747	e a u
-1.948886	e a v
-2.247306	e a w
-4.253835	e a x
-3.607735	e a y
-3.545319	e a z
-4.014646	f a </s>
-5.111556	f a [
-5.435602	f a `
-3.283863	f a a
-1.96815	f a b
-0.5809814	f a c
-1.743967	f a d
-2.136929	f a e
-1.844032	f a f
-1.770864	f a g
-2.484446	f a h
-0.9017324	f a i
-2.921224	f a j
-2.978017	f a k
-1.040558	f a l
-1.222114	f a m
-1.126781	f a n
-2.95698	f a o
-1.675274	f a p
-3.127028	f a q
-0.8858588	f a r
-1.339766	f a s
-1.590319	f a t
-1.722478	f a u
-1.190884	f a v
-2.468844	f a w
-3.50679	f a x
-3.026087	f a y
-3.34626	f a z
-3.613705	g a </s>
-2.946049	g a a
-1.417905	g a b
-1.563168	g a c
-1.830392	g a d
-2.440983	g a e
-2.052534	g a f
-1.478872	g a g
-2.352183	g a h
-0.7707927	g a i
-3.192482	g a j
-3.063388	g a k
-0.9316775	g a l
-1.691642	g a m
-0.6917771	g a n
-3.197281	g a o
-1.639774	g a p
-3.265033	g a q
-0.8221158	g a r
-1.252333	g a s
-1.016025	g a t
-2.231662	g a u
-1.971972	g a v
-2.228539	g a w
-4.850494	g a x
-2.982732	g a y
-2.228539	g a z
-4.138591	h a </s>
-3.517414	h a a
-2.455904	h a b
-2.36807	h a c
-1.652465	h a d
-3.237132	h a e
-2.549871	h a f
-2.411212	h a g
-3.155416	h a h
-2.228473	h a i
-4.006651	h a j
-3.181463	h a k
-1.464492	h a l
-2.125269	h a m
-0.9620162	h a n
-3.297544	h a o
-1.687626	h a p
-3.880912	h a q
-1.36028	h a r
-0.8877524	h a s
-0.3542241	h a t
-2.625506	h a u
-0.7889888	h a v
-2.897418	h a w
-5.077893	h a x
-3.977223	h a y
-2.986914	h a z
-5.204806	i a #
-1.761674	i a </s>
-4.585017	i a [
-5.380898	i a ]
-1.547065	i a a
-1.73093	i a b
-2.262881	i a c
-2.462605	i a d
-2.670992	i a e
-2.323421	i a f
-1.928651	i a g
-2.205893	i a h
-1.886256	i a i
-3.317376	i a j
-3.317376	i a k
-0.4860762	i a l
-0.6300921	i a m
-0.9242733	i a n
-2.302169	i a o
-2.268879	i a p
-4.170044	i a q
-1.767664	i a r
-1.608374	i a s
-0.8411065	i a t
-2.857151	i a u
-3.343471	i a v
-2.028329	i a w
-4.941565	i a x
-3.472412	i a y
-3.996186	i a z
-2.696843	j a </s>
-2.276126	j a a
-2.23387	j a b
-1.115524	j a c
-1.529185	j a d
-2.769394	j a e
-2.439719	j a f
-2.627517	j a g
-2.105351	j a h
-1.621156	j a i
-3.157574	j a j
-1.764487	j a k
-2.004607	j a l
-1.390418	j a m
-0.458556	j a n
-3.032635	j a o
-0.4786009	j a p
-4.134833	j a q
-1.324711	j a r
-2.088564	j a s
-2.51522	j a t
-2.421621	j a u
-1.860179	j a v
-2.058738	j a w
-3.509757	j a x
-2.656972	j a y
-2.37542	j a z
-2.365224	k a </s>
-2.153136	k a a
-0.9157365	k a b
-1.719826	k a c
-1.749443	k a d
-2.648397	k a e
-1.852435	k a f
-0.834756	k a g
-2.12326	k a h
-1.97442	k a i
-3.27371	k a j
-2.339211	k a k
-1.280714	k a l
-1.910474	k a m
-0.5398865	k a n
-2.638226	k a o
-1.956064	k a p
-2.779555	k a q
-1.267158	k a r
-1.150446	k a s
-0.938051	k a t
-1.989053	k a u
-2.477135	k a v
-2.103448	k a w
-4.273709	k a x
-2.250046	k a y
-2.04173	k a z
-5.826702	l a #
-3.087265	l a </s>
-5.502656	l a [
-2.915226	l a a
-1.42848	l a b
-1.134783	l a c
-1.44557	l a d
-2.975348	l a e
-1.957256	l a f
-1.753074	l a g
-2.606267	l a h
-1.540523	l a i
-3.686414	l a j
-3.001254	l a k
-1.772924	l a l
-1.756314	l a m
-0.7264796	l a n
-3.005726	l a o
-1.978584	l a p
-3.908816	l a q
-0.7956181	l a r
-1.114635	l a s
-0.6594791	l a t
-1.612976	l a u
-2.20413	l a v
-1.441835	l a w
-2.914664	l a x
-1.506725	l a y
-3.327289	l a z
-5.577618	m a #
-2.849264	m a </s>
-5.776726	m a ]
-2.363127	m a a
-2.454529	m a b
-1.759964	m a c
-1.07778	m a d
-3.117221	m a e
-2.505245	m a f
-1.701477	m a g
-2.783362	m a h
-1.213498	m a i
-1.483974	m a j
-1.01326	m a k
-1.210281	m a l
-2.409612	m a m
-0.5737109	m a n
-2.97052	m a o
-2.265088	m a p
-4.041902	m a q
-0.912287	m a r
-1.617956	m a s
-0.8675399	m a t
-2.842019	m a u
-3.166559	m a v
-2.670206	m a w
-2.383381	m a x
-1.368765	m a y
-2.969092	m a z
-5.59176	n a #
-2.576401	n a </s>
-5.348722	n a [
-5.59176	n a ]
-2.37924	n a a
-1.369486	n a b
-1.413842	n a c
-1.550802	n a d
-2.735485	n a e
-1.824159	n a f
-1.33565	n a g
-2.523111	n a h
-2.01018	n a i
-3.252309	n a j
-2.983769	n a k
-0.6304698	n a l
-1.462103	n a m
-0.6610239	n a n
-2.860776	n a o
-1.694752	n a p
-3.319919	n a q
-1.361529	n a r
-1.302171	n a s
-0.745923	n a t
-2.066133	n a u
-2.140051	n a v
-2.181236	n a w
-4.069969	n a x
-2.977391	n a y
-3.009413	n a z
-3.392913	o a </s>
-3.272171	o a a
-1.688576	o a b
-0.682259	o a c
-0.8359385	o a d
-2.706369	o a e
-1.848527	o a f
-1.571769	o a g
-2.264854	o a h
-2.313268	o a i
-3.243615	o a j
-2.902991	o a k
-0.9803989	o a l
-1.560568	o a m
-0.8859142	o a n
-3.300481	o a o
-1.380536	o a p
-2.833221	o a q
-1.042119	o a r
-0.9928737	o a s
-1.407032	o a t
-2.294669	o a u
-1.698589	o a v
-2.20061	o a w
-3.66696	o a x
-3.230012	o a y
-3.672224	o a z
-3.659644	p a </s>
-5.29058	p a [
-3.137528	p a a
-2.015845	p a b
-1.161599	p a c
-2.58966	p a d
-2.841487	p a e
-2.986844	p a f
-2.104613	p a g
-3.353564	p a h
-1.475717	p a i
-3.799218	p a j
-2.185581	p a k
-1.593896	p a l
-2.863662	p a m
-1.035778	p a n
-3.654594	p a o
-1.769409	p a p
-3.471036	p a q
-0.2416528	p a r
-1.291972	p a s
-1.195297	p a t
-2.711368	p a u
-2.741577	p a v
-2.964244	p a w
-4.023408	p a x
-1.427465	p a y
-3.978826	p a z
-2.890281	q a </s>
-2.793371	q a a
-2.130613	q a b
-2.213588	q a c
-0.9738273	q a d
-0.6794279	q a e
-1.635009	q a f
-2.31625	q a g
-3.214328	q a h
-1.405981	q a i
-1.693001	q a l
-2.191311	q a m
-0.4415749	q a n
-2.31625	q a p
-1.51007	q a r
-1.299217	q a s
-0.950762	q a t
-2.793371	q a u
-2.538099	q a w
-2.890281	q a y
-2.11213	q a z
-5.965723	r a #
-3.108286	r a </s>
-5.965723	r a [
-2.955935	r a a
-1.547975	r a b
-1.171781	r a c
-1.302101	r a d
-1.97984	r a e
-1.653184	r a f
-1.423627	r a g
-2.802042	r a h
-1.397467	r a i
-3.055934	r a j
-2.819182	r a k
-0.8807981	r a l
-1.246442	r a m
-0.7892118	r a n
-2.611989	r a o
-1.346571	r a p
-2.202818	r a q
-1.638615	r a r
-1.446344	r a s
-0.6208565	r a t
-2.256562	r a u
-2.078463	r a v
-1.771521	r a w
-4.107016	r a x
-2.708949	r a y
-2.574606	r a z
-3.22253	s a </s>
-5.773573	s a [
-5.551724	s a `
-2.865267	s a a
-1.570177	s a b
-1.447394	s a c
-1.662983	s a d
-2.853798	s a e
-1.465208	s a f
-1.43734	s a g
-2.322298	s a h
-1.537615	s a i
-3.265268	s a j
-2.475739	s a k
-0.9510104	s a l
-1.341234	s a m
-0.5221903	s a n
-3.400661	s a o
-1.574769	s a p
-2.896778	s a q
-0.9232453	s a r
-1.222542	s a s
-1.160771	s a t
-2.288846	s a u
-1.844324	s a v
-1.963654	s a w
-3.757934	s a x
-1.412128	s a y
-4.140104	s a z
-6.039145	t a #
-2.963819	t a </s>
-5.47206	t a [
-5.840037	t a `
-2.77396	t a a
-1.193382	t a b
-1.430746	t a c
-1.989207	t a d
-2.860792	t a e
-1.896773	t a f
-1.517742	t a g
-2.736005	t a h
-1.15135	t a i
-3.240882	t a j
-1.134116	t a k
-0.9149242	t a l
-1.924356	t a m
-0.6544701	t a n
-2.922882	t a o
-1.819703	t a p
-3.116855	t a q
-1.095064	t a r
-1.339919	t a s
-0.7614869	t a t
-2.485352	t a u
-2.622728	t a v
-2.533898	t a w
-1.890631	t a x
-2.702894	t a y
-4.05948	t a z
-3.559437	u a </s>
-5.230814	u a [
-3.050945	u a a
-1.896255	u a b
-2.010517	u a c
-1.975564	u a d
-2.908944	u a e
-2.73945	u a f
-1.443771	u a g
-3.43328	u a h
-2.581457	u a i
-4.362699	u a j
-2.356539	u a k
-0.3752085	u a l
-2.996944	u a m
-1.149656	u a n
-4.003677	u a o
-2.814222	u a p
-3.657569	u a q
-0.7419387	u a r
-1.890361	u a s
-0.6455758	u a t
-3.275831	u a u
-3.036071	u a v
-3.148992	u a w
-5.230814	u a x
-2.778853	u a y
-4.128616	u a z
-2.556972	v a </s>
-2.374295	v a a
-2.052698	v a b
-1.554619	v a c
-2.127881	v a d
-3.628117	v a e
-3.14811	v a f
-1.985257	v a g
-3.057574	v a h
-1.025753	v a i
-3.664329	v a j
-1.799071	v a k
-0.5931038	v a l
-2.869205	v a m
-0.7519685	v a n
-2.994648	v a o
-2.771993	v a p
-5.049074	v a q
-0.9130836	v a r
-1.448968	v a s
-0.6405044	v a t
-2.939697	v a u
-3.984664	v a v
-2.751899	v a w
-3.835725	v a x
-3.770785	v a y
-3.929147	v a z
-4.072091	w a </s>
-3.552117	w a a
-1.861742	w a b
-2.425578	w a c
-2.295228	w a d
-3.86198	w a e
-2.798446	w a f
-1.85001	w a g
-3.138716	w a h
-1.704693	w a i
-3.833208	w a j
-2.407449	w a k
-1.656783	w a l
-2.582288	w a m
-0.8394501	w a n
-4.248182	w a o
-2.334898	w a p
-3.939973	w a q
-0.6717329	w a r
-0.5225968	w a s
-1.327641	w a t
-3.17876	w a u
-2.307665	w a v
-3.136471	w a w
-3.969428	w a x
-0.7084451	w a y
-3.642518	w a z
-4.001078	x a </s>
-3.891934	x a a
-2.588498	x a b
-0.9512513	x a c
-2.42622	x a d
-3.523957	x a e
-2.69084	x a f
-1.840138	x a g
-3.943086	x a h
-3.113782	x a i
-4.147206	x a j
-4.147206	x a k
-2.339671	x a l
-0.1669301	x a m
-1.090988	x a n
-3.212708	x a o
-2.277975	x a p
-4.369055	x a q
-2.236582	x a r
-1.952415	x a s
-1.153946	x a t
-2.684808	x a u
-2.770629	x a v
-3.732233	x a w
-4.369055	x a x
-3.804784	x a y
-2.598151	y a </s>
-2.580837	y a a
-1.606525	y a b
-1.312838	y a c
-1.543082	y a d
-2.831412	y a e
-1.479711	y a f
-1.49789	y a g
-2.309981	y a h
-2.029399	y a i
-3.175942	y a j
-2.694006	y a k
-1.266508	y a l
-1.578665	y a m
-0.3974182	y a n
-3.171606	y a o
-1.503999	y a p
-2.765687	y a q
-0.9184321	y a r
-0.9981982	y a s
-1.358229	y a t
-1.972458	y a u
-2.080137	y a v
-2.009446	y a w
-3.952643	y a x
-3.096519	y a y
-3.727334	y a z
-1.766729	z a </s>
-1.649105	z a a
-1.858233	z a b
-2.168311	z a c
-2.326491	z a d
-2.784307	z a e
-2.378879	z a f
-2.182247	z a g
-2.172907	z a h
-1.480454	z a i
-3.300937	z a j
-1.471633	z a k
-1.883584	z a l
-1.615835	z a m
-1.195914	z a n
-2.421759	z a o
-1.713868	z a p
-4.169052	z a q
-0.9636203	z a r
-1.618405	z a s
-0.242294	z a t
-2.834281	z a u
-2.316731	z a v
-1.925927	z a w
-4.169052	z a x
-3.242945	z a y
-3.333122	z a z
-0.1249387	# b r
-0.6762291	* b e
-0.3521825	* b u
-4.574656	<s> b </s>
-1.482897	<s> b a
-4.153699	<s> b c
-4.153699	<s> b d
-0.8272812	<s> b e
-1.644497	<s> b f
-2.258276	<s> b g
-3.551639	<s> b h
-1.978767	<s> b i
-2.426158	<s> b l
-4.074518	<s> b m
-3.852669	<s> b n
-1.341053	<s> b o
-3.738726	<s> b p
-1.624525	<s> b r
-2.960574	<s> b s
-3.773488	<s> b t
-0.2126947	<s> b u
-1.038288	<s> b y
-0.8293038	[ b a
-0.3899711	[ b e
-0.5862657	[ b u
-0.9542425	[ b y
-0.845098	] b a
-0.3222193	] b e
-0.845098	] b u
-0.845098	] b y
-0.1597008	_ b a
-0.8359299	_ b l
-0.9524354	` b a
-0.9524354	` b i
-0.6283889	` b l
-0.9524354	` b r
-0.5314789	` b u
-3.847443	a b </s>
-1.475851	a b a
-2.570386	a b b
-2.956588	a b c
-2.577815	a b d
-1.47617	a b e
-3.013989	a b f
-4.074687	a b g
-3.187726	a b h
-0.9560227	a b i
-3.568408	a b j
-3.030834	a b k
-0.332838	a b l
-3.354528	a b m
-3.224449	a b n
-0.6037866	a b o
-3.315019	a b p
-5.278807	a b q
-1.694174	a b r
-1.388088	a b s
-3.551808	a b t
-1.570103	a b u
-4.641985	a b v
-2.297744	a b w
-2.358336	a b y
-4.641985	a b z
-2.522491	b b </s>
-1.10991	b b a
-3.191498	b b b
-1.621344	b b c
-2.890468	b b d
-0.6621528	b b e
-2.589437	b b f
-3.015406	b b h
-0.8685895	b b i
-0.7682517	b b l
-3.191498	b b m
-3.691635	b b n
-1.238867	b b o
-2.928256	b b p
-3.691635	b b q
-1.510256	b b r
-2.326196	b b s
-2.425581	b b t
-1.629205	b b u
-3.492527	b b v
-2.627226	b b w
-0.6190132	b b y
-3.759006	c b #
-1.600857	c b </s>
-0.7890464	c b a
-2.123206	c b b
-1.744763	c b c
-2.045794	c b d
-0.8117104	c b e
-1.923076	c b f
-2.258868	c b g
-1.600857	c b h
-1.299827	c b i
-3.33805	c b j
-3.559898	c b k
-1.651413	c b l
-1.923076	c b m
-2.468818	c b n
-1.060211	c b o
-1.822176	c b p
-3.759006	c b q
-1.29351	c b r
-1.062969	c b s
-1.542865	c b t
-0.778143	c b u
-3.13393	c b v
-1.49669	c b w
-1.610508	c b y
-3.559898	c b z
-4.01493	d b </s>
-1.389007	d b a
-4.241326	d b b
-4.31596	d b c
-4.674982	d b d
-0.3837462	d b e
-3.551597	d b f
-4.61699	d b g
-4.088716	d b h
-2.040073	d b i
-5.042959	d b j
-3.474757	d b k
-2.298927	d b l
-4.343988	d b m
-4.241326	d b n
-1.644498	d b o
-4.139869	d b p
-4.91802	d b q
-1.678533	d b r
-3.383359	d b s
-3.674982	d b t
-1.207057	d b u
-4.01493	d b w
-0.3724777	d b y
-3.463681	e b </s>
-0.5928155	e b a
-2.940546	e b b
-3.390933	e b c
-3.802035	e b d
-0.4662093	e b e
-3.202768	e b f
-3.607769	e b g
-3.063702	e b h
-1.493334	e b i
-3.785644	e b j
-4.652737	e b k
-1.841406	e b l
-3.76471	e b m
-3.326773	e b n
-1.275861	e b o
-3.479285	e b p
-1.225398	e b r
-2.278822	e b s
-1.618291	e b t
-0.8897241	e b u
-4.849031	e b v
-3.749647	e b w
-1.094869	e b y
-4.915978	e b z
-0.8865027	f b a
-4.082402	f b b
-4.082402	f b c
-0.6026351	f b e
-3.957464	f b f
-3.04101	f b h
-0.9382434	f b i
-1.499582	f b l
-3.957464	f b m
-3.480342	f b n
-0.8090923	f b o
-3.605281	f b p
-1.03734	f b r
-1.935241	f b s
-3.656434	f b t
-0.7233894	f b u
-1.624016	f b y
-3.293268	g b </s>
-0.8704904	g b a
-3.536306	g b b
-3.314457	g b c
-0.532989	g b e
-3.235276	g b f
-2.875124	g b g
-3.336734	g b h
-1.4033	g b i
-4.337474	g b j
-1.549907	g b l
-3.124125	g b m
-4.138366	g b n
-0.9733195	g b o
-2.052006	g b p
-1.357569	g b r
-2.536306	g b s
-2.562409	g b t
-0.6360753	g b u
-3.916517	g b w
-0.9836376	g b y
-4.255364	h b </s>
-1.167703	h b a
-4.056257	h b b
-4.255364	h b c
-0.6408382	h b e
-3.931318	h b f
-3.278105	h b h
-1.48184	h b i
-4.056257	h b j
-1.879201	h b l
-4.056257	h b m
-2.354401	h b n
-0.4316309	h b o
-4.056257	h b p
-1.238912	h b r
-2.588895	h b s
-3.755227	h b t
-0.9311009	h b u
-4.255364	h b w
-0.9837617	h b y
-3.259143	i b </s>
-1.936235	i b a
-2.434366	i b b
-3.505815	i b c
-3.988076	i b d
-0.6007944	i b e
-3.476193	i b f
-4.113015	i b g
-2.986528	i b h
-0.6922186	i b i
-5.157221	i b j
-4.532144	i b k
-0.4491929	i b l
-3.374536	i b m
-3.671806	i b n
-2.694871	i b o
-3.571911	i b p
-1.946825	i b r
-2.93969	i b s
-3.345329	i b t
-0.8338479	i b u
-4.657083	i b v
-3.462106	i b w
-1.993225	i b y
-0.544068	j b a
-0.6232493	j b e
-1.021189	j b o
-0.7781513	j b r
-0.845098	j b u
-1.345236	j b y
-0.9627974	k b a
-3.44424	k b c
-0.4031436	k b e
-3.34733	k b f
-2.092057	k b i
-2.330297	k b l
-3.44424	k b n
-0.93336	k b o
-3.004907	k b p
-1.493632	k b r
-3.768286	k b t
-0.7696085	k b u
-0.7915103	k b y
-4.194476	l b </s>
-0.800567	l b a
-4.194476	l b b
-4.194476	l b c
-4.592415	l b d
-0.189428	l b e
-3.133778	l b f
-4.717354	l b g
-4.240233	l b h
-2.210849	l b i
-2.210849	l b l
-4.194476	l b m
-4.717354	l b n
-1.331272	l b o
-4.416324	l b p
-1.651153	l b r
-3.006955	l b s
-4.080532	l b t
-1.073573	l b u
-4.080532	l b w
-1.565168	l b y
-3.205271	m b </s>
-1.121555	m b a
-3.791244	m b b
-4.084449	m b c
-3.674274	m b d
-0.1281584	m b e
-3.514573	m b f
-4.301157	m b g
-3.868849	m b h
-1.178191	m b i
-4.832637	m b j
-4.753455	m b k
-1.631403	m b l
-3.850365	m b m
-4.230577	m b n
-1.490095	m b o
-3.768179	m b p
-1.790376	m b r
-2.470531	m b s
-3.078288	m b t
-1.539009	m b u
-5.054485	m b v
-3.63398	m b w
-2.197958	m b y
-3.983967	n b </s>
-1.233593	n b a
-4.090423	n b b
-4.066942	n b c
-4.442605	n b d
-0.3125852	n b e
-2.634732	n b f
-4.743635	n b g
-3.270148	n b h
-1.699978	n b i
-5.067682	n b j
-2.021619	n b l
-4.199567	n b m
-4.023476	n b n
-1.14583	n b o
-4.304303	n b p
-1.259941	n b r
-2.109158	n b s
-3.743635	n b t
-0.8221698	n b u
-3.930722	n b w
-0.8641522	n b y
-5.067682	n b z
-2.639868	o b </s>
-0.9446264	o b a
-2.164395	o b b
-2.364846	o b c
-3.295173	o b d
-0.4080966	o b e
-3.212572	o b f
-3.66891	o b g
-3.401628	o b h
-1.386116	o b i
-1.148849	o b j
-4.619112	o b k
-0.7710415	o b l
-3.018866	o b m
-3.604872	o b n
-1.656546	o b o
-3.314478	o b p
-4.166815	o b q
-1.56075	o b r
-1.168774	o b s
-1.806366	o b t
-1.594729	o b u
-1.606767	o b v
-3.08551	o b w
-1.879672	o b y
-4.467845	o b z
-3.893567	p b </s>
-1.149565	p b a
-2.47261	p b b
-2.694459	p b c
-0.391479	p b e
-2.242161	p b f
-2.916308	p b g
-3.47261	p b h
-2.110882	p b i
-2.198452	p b l
-3.47261	p b m
-1.398525	p b o
-1.456413	p b r
-2.724422	p b s
-3.025452	p b t
-0.7524509	p b u
-3.694459	p b v
-3.47261	p b w
-0.6186687	p b y
-1.214007	q b a
-0.5842754	q b e
-1.714609	q b f
-1.316669	q b o
-2.015639	q b r
-0.4028553	q b u
-0.6934198	q b y
-3.290808	r b </s>
-0.7050794	r b a
-3.448876	r b b
-3.05306	r b c
-3.493458	r b d
-0.5979907	r b e
-3.102618	r b f
-2.26163	r b g
-2.912441	r b h
-0.9703798	r b i
-3.153175	r b j
-4.783646	r b k
-1.690962	r b l
-3.028236	r b m
-2.571701	r b n
-0.8871639	r b o
-3.097872	r b p
-4.584538	r b q
-1.314481	r b r
-1.88499	r b s
-2.309611	r b t
-0.871076	r b u
-4.020267	r b v
-3.137381	r b w
-1.114766	r b y
-4.584538	r b z
-4.093975	s b </s>
-1.178976	s b a
-4.588825	s b b
-3.960436	s b c
-4.450522	s b d
-0.2958353	s b e
-3.054164	s b f
-4.412734	s b g
-3.784344	s b h
-1.977101	s b i
-3.330547	s b j
-2.111161	s b l
-4.190885	s b m
-4.450522	s b n
-0.8998824	s b o
-4.044757	s b p
-5.213901	s b q
-1.544726	s b r
-3.099218	s b s
-3.66584	s b t
-0.7822632	s b u
-4.713763	s b v
-4.261466	s b w
-1.061372	s b y
-4.889855	s b z
-3.62208	t b </s>
-1.135406	t b a
-4.12723	t b b
-3.884192	t b c
-4.428259	t b d
-0.2204637	t b e
-3.334838	t b f
-4.583161	t b g
-3.936898	t b h
-1.908957	t b i
-4.12723	t b j
-2.172505	t b l
-4.386867	t b m
-3.909746	t b n
-1.402299	t b o
-3.981102	t b p
-1.496446	t b r
-2.956968	t b s
-3.294721	t b t
-0.9774871	t b u
-4.197811	t b v
-3.720689	t b w
-0.9006168	t b y
-3.109742	u b </s>
-4.990091	u b ]
-1.533385	u b a
-1.875584	u b b
-2.237101	u b c
-2.945885	u b d
-1.658084	u b e
-3.276879	u b f
-3.404782	u b g
-3.181745	u b h
-2.111253	u b i
-0.8379007	u b j
-4.121977	u b k
-0.3823988	u b l
-1.296319	u b m
-3.333606	u b n
-2.091724	u b o
-2.547945	u b p
-4.268105	u b q
-2.340734	u b r
-0.7308904	u b s
-1.070797	u b t
-1.764723	u b u
-2.846501	u b v
-3.285834	u b w
-2.696396	u b y
-4.790984	u b z
-1.354108	v b a
-0.6217147	v b e
-1.752048	v b g
-1.876987	v b i
-1.876987	v b l
-0.9738972	v b o
-0.6820106	v b r
-1.876987	v b s
-0.6639124	v b u
-0.9738972	v b y
-1.058251	w b a
-0.2672382	w b e
-3.62821	w b f
-3.753149	w b g
-1.676387	w b i
-2.169572	w b l
-1.245293	w b o
-1.415357	w b r
-3.276027	w b s
-0.7404522	w b u
-1.180277	w b y
-2.705971	x b </s>
-0.9118312	x b a
-3.131939	x b b
-2.830909	x b c
-0.9994661	x b e
-2.654818	x b f
-3.331047	x b g
-0.8015255	x b i
-3.007	x b l
-3.331047	x b m
-2.495117	x b n
-1.739829	x b o
-1.386344	x b r
-1.860873	x b s
-0.5916098	x b u
-0.5559821	x b y
-4.382953	y b </s>
-1.165776	y b a
-4.683983	y b b
-3.729741	y b c
-3.838885	y b d
-0.2642476	y b e
-3.081923	y b f
-4.883091	y b g
-3.956984	y b h
-1.677374	y b i
-3.799376	y b j
-2.982127	y b k
-1.967701	y b l
-3.818682	y b n
-1.190246	y b o
-4.047161	y b p
-1.358878	y b r
-3.060734	y b s
-4.119712	y b t
-0.8481658	y b u
-4.883091	y b w
-0.9920474	y b y
-1.510499	z b a
-0.4082307	z b e
-2.370837	z b f
-1.842563	z b h
-1.640458	z b i
-2.995913	z b l
-0.3399336	z b o
-2.574957	z b r
-1.156655	z b u
-2.194746	z b y
-0.8359299	* c a
-0.5118834	* c h
-0.5118834	* c o
-0.6368221	* c r
-0.937838	<s> c a
-3.289928	<s> c c
-3.913178	<s> c d
-1.333623	<s> c e
-3.135027	<s> c f
-4.010088	<s> c g
-0.9873503	<s> c h
-1.682218	<s> c i
-1.087752	<s> c l
-3.913178	<s> c m
-3.833997	<s> c n
-0.2748284	<s> c o
-4.010088	<s> c p
-1.435478	<s> c r
-1.703663	<s> c s
-3.333394	<s> c t
-1.422096	<s> c u
-2.352077	<s> c y
-3.231937	<s> c z
-2.419956	[ c ]
-2.198107	[ c a
-0.9994499	[ c f
-1.993987	[ c h
-2.295017	[ c l
-0.07885111	[ c o
-2.419956	[ c r
-1.449919	[ c s
-0.6283889	] c a
-0.1760913	] c o
-0.3240465	_ c o
-1.184384	` c e
-0.860338	` c l
-0.2863067	` c o
-0.860338	` c r
-0.9852768	` c u
-3.846432	a c </s>
-1.863515	a c a
-4.221358	a c b
-0.8307161	a c c
-3.960671	a c d
-0.9315172	a c e
-3.913379	a c f
-4.809629	a c g
-0.8826412	a c h
-1.387594	a c i
-5.31478	a c j
-1.053683	a c k
-1.740147	a c l
-4.116122	a c m
-4.297746	a c n
-1.108472	a c o
-2.443791	a c p
-2.228847	a c q
-1.602534	a c r
-3.127823	a c s
-0.5392478	a c t
-2.208861	a c u
-4.972357	a c v
-3.793642	a c w
-1.470364	a c y
-3.723715	a c z
-2.243481	b c </s>
-1.216423	b c a
-2.122437	b c b
-2.435366	b c c
-2.486519	b c d
-1.934764	b c e
-2.46019	b c f
-2.912488	b c g
-1.699413	b c h
-1.85179	b c i
-2.544511	b c j
-2.787549	b c k
-2.077855	b c l
-2.486519	b c m
-2.310428	b c n
-0.4190297	b c o
-2.15916	b c p
-0.4190297	b c r
-1.447601	b c s
-1.983069	b c t
-1.686318	b c u
-2.736397	b c v
-2.009398	b c w
-3.399958	c c </s>
-1.333887	c c a
-3.979741	c c b
-3.055462	c c c
-4.2985	c c d
-0.3537708	c c e
-3.69644	c c f
-4.474591	c c g
-1.811244	c c h
-1.437963	c c i
-4.532583	c c j
-5.099668	c c k
-2.256121	c c l
-3.614253	c c m
-4.263738	c c n
-0.471988	c c o
-2.954436	c c p
-1.614928	c c r
-2.815388	c c s
-3.061711	c c t
-1.070014	c c u
-4.90056	c c v
-3.538832	c c w
-3.08988	c c y
-4.423439	c c z
-4.591269	d c #
-3.526811	d c </s>
-0.9323236	d c a
-3.947817	d c b
-3.38715	d c c
-3.470695	d c d
-1.506479	d c e
-3.299013	d c f
-4.211058	d c g
-1.140928	d c h
-1.527636	d c i
-4.114148	d c j
-4.813118	d c k
-1.282705	d c l
-3.421008	d c m
-3.843081	d c n
-0.2372187	d c o
-3.360821	d c p
-5.012226	d c q
-1.137737	d c r
-2.718531	d c s
-2.987043	d c t
-1.45139	d c u
-4.176296	d c v
-3.477326	d c w
-2.409998	d c y
-3.307968	d c z
-3.695904	e c </s>
-4.784926	e c [
-4.601656	e c ]
-1.001206	e c a
-2.79182	e c b
-3.290423	e c c
-3.123586	e c d
-1.255226	e c e
-2.917753	e c f
-4.646623	e c g
-1.291231	e c h
-1.122305	e c i
-3.935199	e c j
-2.45274	e c k
-1.680831	e c l
-3.828277	e c m
-3.04122	e c n
-0.4033166	e c o
-3.936737	e c p
-5.108232	e c q
-1.622571	e c r
-3.197215	e c s
-0.6524028	e c t
-1.37004	e c u
-4.646623	e c v
-3.926088	e c w
-2.749696	e c y
-2.880481	e c z
-4.174275	f c </s>
-1.187324	f c a
-4.132882	f c b
-3.305043	f c c
-3.561491	f c d
-1.353024	f c e
-3.106089	f c f
-4.572215	f c g
-1.089377	f c h
-1.358764	f c i
-3.873245	f c j
-1.507009	f c l
-3.187503	f c m
-4.060332	f c n
-0.2051901	f c o
-4.095094	f c p
-1.176801	f c r
-2.835819	f c s
-3.276648	f c t
-1.535886	f c u
-4.132882	f c w
-2.00372	f c y
-3.229792	f c z
-2.389481	g c </s>
-4.41067	g c [
-0.9819418	g c a
-3.10964	g c b
-2.516724	g c c
-3.163516	g c d
-1.447512	g c e
-3.131917	g c f
-4.188822	g c g
-1.138133	g c h
-1.523804	g c i
-4.41067	g c j
-1.230162	g c l
-3.01856	g c m
-3.369278	g c n
-0.2214516	g c o
-3.264542	g c p
-1.307323	g c r
-2.537544	g c s
-2.573925	g c t
-1.590907	g c u
-4.41067	g c v
-2.654796	g c w
-2.486391	g c y
-3.275008	g c z
-4.582402	h c </s>
-0.6396542	h c a
-3.957326	h c c
-3.714288	h c d
-1.254465	h c e
-2.985355	h c f
-4.582402	h c g
-1.139182	h c h
-1.504773	h c i
-4.258356	h c j
-1.405876	h c l
-4.258356	h c m
-3.957326	h c n
-0.3113267	h c o
-4.383295	h c p
-1.330857	h c r
-3.429052	h c s
-3.445442	h c t
-1.62742	h c u
-4.383295	h c w
-1.97449	h c y
-3.480205	h c z
-5.632647	i c #
-2.326007	i c </s>
-5.632647	i c [
-5.456556	i c ]
-5.757586	i c `
-0.6387181	i c a
-2.448381	i c b
-1.770411	i c c
-2.025702	i c d
-0.9965051	i c e
-2.194738	i c f
-2.136167	i c g
-0.6610057	i c h
-1.029687	i c i
-3.449377	i c j
-1.811592	i c k
-1.751647	i c l
-2.200761	i c m
-2.755131	i c n
-1.698932	i c o
-1.734388	i c p
-3.189775	i c q
-1.877382	i c r
-1.499875	i c s
-1.323112	i c t
-1.119799	i c u
-2.734745	i c v
-2.436194	i c w
-5.956694	i c x
-1.261893	i c y
-3.661835	i c z
-0.6037272	j c a
-1.717671	j c b
-2.138627	j c c
-1.513551	j c f
-1.416641	j c h
-0.4343693	j c i
-1.375248	j c l
-1.270512	j c o
-1.240549	j c p
-1.186192	j c r
-1.814581	j c s
-1.513551	j c t
-0.6106922	k c a
-3.211121	k c d
-1.801751	k c e
-2.470758	k c f
-1.159325	k c h
-1.56276	k c i
-3.711258	k c j
-1.113632	k c l
-3.711258	k c n
-0.3428681	k c o
-3.512151	k c p
-1.299076	k c r
-2.91009	k c s
-3.290302	k c t
-1.648828	k c u
-1.506398	k c y
-3.211121	k c z
-4.073246	l c </s>
-4.800245	l c [
-1.128794	l c a
-4.432268	l c b
-4.277366	l c c
-3.897155	l c d
-1.548283	l c e
-3.396553	l c f
-4.999353	l c g
-1.225519	l c h
-1.651437	l c i
-4.999353	l c j
-3.374276	l c k
-1.606379	l c l
-4.198185	l c m
-4.800245	l c n
-0.1637671	l c o
-4.131238	l c p
-1.15722	l c r
-3.337847	l c s
-3.879426	l c t
-1.502995	l c u
-3.897155	l c v
-4.578396	l c w
-2.765483	l c y
-3.862393	l c z
-3.760829	m c </s>
-0.8965557	m c a
-3.614702	m c b
-1.366028	m c c
-2.061859	m c d
-1.147411	m c e
-3.13758	m c f
-2.090584	m c g
-1.212809	m c h
-1.603675	m c i
-3.4598	m c j
-1.775852	m c k
-1.467688	m c l
-1.945252	m c m
-2.135517	m c n
-0.2888926	m c o
-4.181786	m c p
-1.389392	m c r
-2.903497	m c s
-3.229351	m c t
-1.680925	m c u
-3.012641	m c v
-3.313671	m c w
-2.455478	m c y
-2.65362	m c z
-4.512068	n c </s>
-1.554735	n c a
-4.427747	n c b
-4.402924	n c c
-4.290219	n c d
-0.4071179	n c e
-3.54873	n c f
-4.720344	n c g
-1.515577	n c h
-0.710142	n c i
-5.436347	n c j
-3.180593	n c k
-1.171671	n c l
-4.544253	n c m
-3.25737	n c n
-0.8359235	n c o
-4.755106	n c p
-5.857304	n c q
-1.26287	n c r
-3.467865	n c s
-1.77163	n c t
-2.066093	n c u
-5.093925	n c v
-4.482105	n c w
-1.225917	n c y
-3.817254	n c z
-3.491869	o c </s>
-0.9608182	o c a
-3.75044	o c b
-1.416243	o c c
-3.645097	o c d
-0.8212168	o c e
-2.83167	o c f
-4.05147	o c g
-1.541925	o c h
-0.7135258	o c i
-4.85595	o c j
-1.371117	o c k
-1.727107	o c l
-3.721614	o c m
-3.3611	o c n
-0.6930577	o c o
-3.518491	o c p
-4.267679	o c q
-0.876112	o c r
-3.09346	o c s
-1.844433	o c t
-1.203197	o c u
-4.458011	o c v
-3.588779	o c w
-3.134758	o c y
-4.311882	o c z
-2.757396	p c </s>
-0.8166306	p c a
-1.961516	p c b
-1.591558	p c c
-2.171935	p c d
-1.798355	p c e
-2.33415	p c f
-1.102738	p c h
-1.653592	p c i
-1.383565	p c l
-3.280275	p c m
-2.882335	p c n
-0.2631023	p c o
-2.854306	p c p
-1.294998	p c r
-1.815388	p c s
-2.445642	p c t
-1.76617	p c u
-3.456366	p c v
-2.553276	p c w
-3.456366	p c y
-0.7123856	q c a
-1.641804	q c h
-1.817896	q c l
-0.3825293	q c o
-0.4804365	q c r
-2.141942	q c t
-2.141942	q c u
-3.369689	r c </s>
-1.222207	r c a
-3.55744	r c b
-3.673604	r c c
-3.645576	r c d
-0.5761251	r c e
-2.974634	r c f
-3.935882	r c g
-0.7922807	r c h
-1.116482	r c i
-5.071545	r c j
-2.717436	r c k
-1.69851	r c l
-3.816272	r c m
-3.441456	r c n
-0.5000181	r c o
-4.247636	r c p
-3.604183	r c q
-1.496973	r c r
-3.122154	r c s
-2.437067	r c t
-1.259835	r c u
-4.469484	r c v
-3.645576	r c w
-5.270652	r c x
-2.479738	r c y
-3.12542	r c z
-4.060253	s c </s>
-0.7722589	s c a
-3.648399	s c b
-3.764303	s c c
-3.754202	s c d
-1.421741	s c e
-3.359268	s c f
-4.579778	s c g
-0.9495617	s c h
-1.250083	s c i
-4.652329	s c k
-1.229784	s c l
-4.060253	s c m
-4.31351	s c n
-0.4451403	s c o
-4.246563	s c p
-5.415708	s c q
-1.024498	s c r
-3.208	s c s
-3.460726	s c t
-0.9646541	s c u
-4.489602	s c v
-4.137419	s c w
-2.854244	s c y
-3.91557	s c z
-2.301972	t c </s>
-0.8047821	t c a
-3.553151	t c b
-3.558829	t c c
-3.410258	t c d
-1.489667	t c e
-2.839759	t c f
-4.536552	t c g
-0.9249749	t c h
-1.782586	t c i
-4.059431	t c j
-4.962521	t c k
-1.32141	t c l
-3.633462	t c m
-3.211756	t c n
-0.2660684	t c o
-3.895574	t c p
-1.327876	t c r
-3.072286	t c s
-3.209193	t c t
-1.6368	t c u
-3.083616	t c w
-2.317099	t c y
-3.676214	t c z
-4.414355	u c </s>
-1.178871	u c a
-4.468712	u c b
-1.150079	u c c
-4.153442	u c d
-0.9367315	u c e
-4.440684	u c f
-5.167683	u c g
-0.5189583	u c h
-1.21909	u c i
-1.985078	u c k
-1.434806	u c l
-4.22983	u c m
-4.53086	u c n
-1.663665	u c o
-4.283076	u c p
-1.888244	u c r
-3.799706	u c s
-0.5211024	u c t
-3.197646	u c u
-5.36679	u c v
-4.389531	u c w
-4.264593	u c y
-4.799706	u c z
-1.176436	v c </s>
-1.924624	v c ]
-0.9736103	v c a
-2.021534	v c b
-1.778496	v c c
-2.822702	v c d
-1.237392	v c e
-1.986772	v c f
-1.014355	v c h
-1.225654	v c i
-2.146473	v c j
-1.028833	v c l
-2.255617	v c m
-2.401745	v c n
-0.711549	v c o
-1.758292	v c p
-1.758292	v c r
-0.8265572	v c s
-1.401745	v c t
-2.197625	v c u
-1.569236	v c w
-3.63036	w c </s>
-0.6465835	w c a
-3.32933	w c c
-3.32933	w c d
-1.765059	w c e
-2.903361	w c f
-1.136205	w c h
-1.151073	w c i
-1.293234	w c l
-3.408511	w c m
-4.130498	w c n
-0.3046734	w c o
-3.806451	w c p
-1.428508	w c r
-3.294568	w c s
-3.505421	w c t
-1.668149	w c u
-3.93139	w c w
-2.479092	w c y
-3.178062	w c z
-2.228156	x c a
-4.287593	x c c
-0.3002245	x c e
-2.33335	x c f
-4.486701	x c g
-0.7115203	x c h
-1.541998	x c i
-0.7383442	x c l
-4.486701	x c m
-2.727288	x c n
-1.442081	x c o
-3.650771	x c p
-2.410606	x c r
-2.782443	x c s
-4.162654	x c t
-1.412918	x c u
-4.287593	x c w
-3.986563	x c y
-4.287593	x c z
-4.803106	y c </s>
-0.7342159	y c a
-4.325985	y c b
-3.761714	y c c
-3.937805	y c d
-1.770891	y c e
-2.996927	y c f
-5.002214	y c g
-1.077222	y c h
-1.710152	y c i
-5.002214	y c j
-4.001474	y c k
-0.9960452	y c l
-4.502077	y c m
-4.238835	y c n
-0.2765733	y c o
-4.502077	y c p
-1.331864	y c r
-3.193868	y c s
-4.001474	y c t
-1.836808	y c u
-4.581258	y c v
-4.678168	y c w
-2.752598	y c y
-3.572658	y c z
-0.6562818	z c a
-2.152288	z c e
-1.110896	z c h
-2.152288	z c i
-2.152288	z c k
-1.851258	z c l
-0.3092633	z c o
-1.588017	z c r
-2.152288	z c u
-2.351396	z c y
-0.8659816	z c z
-0.30103	* d e
-0.6250765	* d r
-1.374054	<s> d a
-3.66483	<s> d c
-3.744011	<s> d d
-0.3321895	<s> d e
-4.164968	<s> d f
-2.96586	<s> d g
-3.329038	<s> d h
-1.040032	<s> d i
-3.164227	<s> d j
-3.840921	<s> d m
-3.488739	<s> d n
-0.6340279	<s> d o
-1.398441	<s> d r
-3.329038	<s> d s
-3.96586	<s> d t
-0.9075605	<s> d u
-3.744011	<s> d w
-2.937831	<s> d y
-0.8129134	[ d ]
-0.5118834	[ d e
-0.9378521	[ d i
-0.4607309	[ d u
-0.7353992	] d a
-1.661506	] d d
-0.8981265	] d e
-1.161368	] d f
-0.6607656	] d i
-1.094421	] d o
-1.161368	] d p
-1.240549	] d s
-1.240549	] d t
-1.462398	] d u
-1.661506	] d w
-0.3424227	` d e
-0.3424227	` d i
-5.590376	a d #
-2.166562	a d </s>
-5.266329	a d [
-1.064652	a d a
-1.917149	a d b
-2.072093	a d c
-1.08805	a d d
-0.6141265	a d e
-2.282928	a d f
-2.71794	a d g
-2.126686	a d h
-0.8074876	a d i
-2.003819	a d j
-3.567359	a d k
-1.803034	a d l
-1.4142	a d m
-2.185523	a d n
-1.007178	a d o
-2.353709	a d p
-2.97741	a d q
-1.962809	a d r
-1.62342	a d s
-1.338766	a d t
-1.860983	a d u
-1.311604	a d v
-2.154899	a d w
-5.266329	a d x
-1.181021	a d y
-3.381251	a d z
-2.470741	b d </s>
-1.602979	b d a
-2.89671	b d b
-3.095818	b d d
-0.7063782	b d e
-0.7485187	b d i
-3.095818	b d m
-1.008343	b d o
-2.771771	b d p
-2.143382	b d r
-2.118559	b d s
-2.419589	b d t
-0.3285082	b d u
-2.674861	b d w
-2.771771	b d y
-2.190648	c d </s>
-1.115867	c d a
-2.836912	c d b
-1.765556	c d c
-2.046024	c d d
-0.2880836	c d e
-2.47789	c d f
-2.752591	c d g
-2.836912	c d h
-0.6970325	c d i
-3.806948	c d j
-2.88613	c d l
-2.063962	c d m
-2.922342	c d n
-1.171465	c d o
-2.740002	c d p
-1.44271	c d r
-1.74374	c d s
-2.364991	c d t
-1.761625	c d u
-4.006056	c d v
-2.611972	c d w
-2.102226	c d y
-3.076055	d d </s>
-1.382035	d d a
-3.283664	d d b
-3.138203	d d c
-3.452806	d d d
-0.489753	d d e
-2.929927	d d f
-3.02426	d d g
-2.575453	d d h
-0.596077	d d i
-3.496272	d d j
-4.473995	d d k
-1.26163	d d l
-2.414558	d d m
-3.106018	d d n
-0.9564254	d d o
-3.307664	d d p
-4.553176	d d q
-0.8886285	d d r
-2.05791	d d s
-1.681954	d d t
-1.423809	d d u
-3.026837	d d v
-3.037302	d d w
-2.312627	d d y
-4.473995	d d z
-5.004724	e d #
-6.106921	e d *
-1.300684	e d </s>
-4.986995	e d [
-5.106181	e d ]
-5.004724	e d `
-1.001073	e d a
-1.188966	e d b
-1.774807	e d c
-1.999668	e d d
-0.9971676	e d e
-1.449493	e d f
-1.954973	e d g
-2.100955	e d h
-0.8008116	e d i
-2.947819	e d j
-2.611953	e d k
-1.97683	e d l
-1.868016	e d m
-1.980837	e d n
-1.102716	e d o
-1.808709	e d p
-3.00982	e d q
-1.748587	e d r
-1.407362	e d s
-0.7898807	e d t
-1.266191	e d u
-2.374168	e d v
-1.527355	e d w
-4.816733	e d x
-2.372224	e d y
-3.904928	e d z
-4.132844	f d </s>
-1.108358	f d a
-3.530784	f d b
-3.62096	f d c
-3.530784	f d d
-0.3222417	f d e
-2.21246	f d g
-3.504455	f d h
-0.5693331	f d i
-2.956753	f d j
-4.45689	f d k
-3.392481	f d l
-3.530784	f d m
-3.044708	f d n
-1.056112	f d o
-2.889806	f d p
-1.311822	f d r
-3.889806	f d s
-3.588776	f d t
-1.619959	f d u
-3.956753	f d v
-3.229754	f d w
-2.491866	f d y
-4.431748	g d </s>
-1.297469	g d a
-4.107702	g d c
-4.107702	g d d
-0.5380937	g d e
-3.595818	g d f
-3.93161	g d g
-3.479313	g d h
-0.6703475	g d i
-4.431748	g d j
-4.431748	g d k
-4.010792	g d l
-4.107702	g d m
-3.505642	g d n
-0.586204	g d o
-0.9138122	g d p
-1.43676	g d r
-4.431748	g d s
-4.010792	g d t
-1.627695	g d u
-4.431748	g d v
-3.806672	g d w
-2.516637	g d y
-3.830435	h d </s>
-1.14847	h d a
-3.626315	h d c
-3.751253	h d d
-0.5148842	h d e
-4.251391	h d f
-2.973102	h d g
-3.383277	h d h
-0.6086555	h d i
-3.626315	h d j
-4.052283	h d l
-3.529405	h d m
-3.684307	h d n
-0.8357657	h d o
-3.052284	h d p
-0.7180308	h d r
-3.067007	h d s
-3.383277	h d t
-1.504099	h d u
-3.927345	h d v
-3.228375	h d w
-2.648591	h d y
-3.415461	h d z
-5.389998	i d #
-2.001305	i d </s>
-5.088968	i d [
-5.088968	i d `
-1.176392	i d a
-2.226936	i d b
-2.368946	i d c
-1.642534	i d d
-0.1927136	i d e
-2.112618	i d f
-2.304351	i d g
-2.448321	i d h
-1.217667	i d i
-3.071239	i d j
-3.621606	i d k
-2.114379	i d l
-2.421048	i d m
-1.672688	i d n
-1.439536	i d o
-2.303757	i d p
-3.572653	i d q
-2.327416	i d r
-1.902153	i d s
-1.394289	i d t
-1.570037	i d u
-3.229629	i d v
-2.074237	i d w
-2.521353	i d y
-4.361969	i d z
-1.228849	j d </s>
-0.8766668	j d a
-1.830909	j d b
-1.830909	j d c
-1.017996	j d e
-1.733999	j d h
-0.49345	j d i
-2.154956	j d n
-1.286841	j d o
-0.8201854	j d r
-1.830909	j d s
-1.432969	j d t
-2.154956	j d u
-1.955848	j d v
-1.654818	j d w
-1.733999	j d z
-1.353981	k d a
-0.5635147	k d e
-3.378262	k d g
-0.6458678	k d i
-3.378262	k d l
-0.4766671	k d o
-3.026079	k d p
-1.102375	k d r
-1.397123	k d u
-2.980322	k d y
-3.702308	k d z
-4.776206	l d #
-1.684188	l d </s>
-4.952298	l d [
-5.077237	l d ]
-5.577374	l d `
-1.069517	l d a
-0.8198179	l d b
-1.574991	l d c
-1.846788	l d d
-1.028232	l d e
-1.819038	l d f
-2.055221	l d g
-1.3496	l d h
-1.047758	l d i
-2.383363	l d j
-2.859314	l d k
-0.9439531	l d l
-1.748483	l d m
-1.293321	l d n
-1.367528	l d o
-1.613542	l d p
-3.152957	l d q
-1.292928	l d r
-1.287914	l d s
-1.323194	l d t
-1.910215	l d u
-2.498788	l d v
-1.599127	l d w
-2.499936	l d y
-4.323909	l d z
-2.884527	m d </s>
-1.362564	m d a
-3.049337	m d b
-2.228782	m d c
-3.385129	m d d
-0.3028828	m d e
-2.658131	m d f
-1.475752	m d g
-2.959161	m d h
-0.7223716	m d i
-3.885267	m d k
-3.686159	m d l
-3.163281	m d m
-3.209038	m d n
-0.8500464	m d o
-2.801553	m d p
-1.512973	m d r
-2.464311	m d s
-3.017153	m d t
-1.423708	m d u
-3.209038	m d v
-2.644767	m d w
-2.415093	m d y
-5.51237	n d #
-5.864552	n d *
-2.162251	n d </s>
-4.886828	n d [
-5.035248	n d ]
-5.466612	n d `
-1.046097	n d a
-1.815644	n d b
-1.434021	n d c
-1.700013	n d d
-0.8869931	n d e
-1.581539	n d f
-1.697848	n d g
-1.734661	n d h
-0.8663439	n d i
-2.496684	n d j
-2.89841	n d k
-1.748592	n d l
-1.304325	n d m
-1.875225	n d n
-1.265502	n d o
-1.507017	n d p
-2.828123	n d q
-1.563066	n d r
-1.149514	n d s
-0.8156638	n d t
-1.554725	n d u
-2.368557	n d v
-1.395415	n d w
-3.488888	n d x
-2.35394	n d y
-3.493022	n d z
-5.401875	o d #
-1.851616	o d </s>
-3.145863	o d ]
-0.8283312	o d a
-2.197444	o d b
-2.029193	o d c
-2.102742	o d d
-0.718734	o d e
-1.964136	o d f
-2.319107	o d g
-2.561955	o d h
-0.9687572	o d i
-2.827409	o d j
-3.121181	o d k
-2.492651	o d l
-2.489838	o d m
-2.275055	o d n
-0.9616035	o d o
-1.769425	o d p
-2.927841	o d q
-1.541018	o d r
-1.205848	o d s
-1.675482	o d t
-0.6914016	o d u
-3.359743	o d v
-1.970619	o d w
-1.554343	o d y
-4.337467	o d z
-2.671481	p d </s>
-0.5119476	p d a
-1.901448	p d b
-2.382686	p d c
-3.148603	p d d
-0.5270802	p d e
-2.812811	p d f
-3.324694	p d g
-1.816164	p d h
-0.9662831	p d i
-3.227784	p d k
-2.696305	p d l
-2.885361	p d m
-0.8400382	p d o
-2.063431	p d p
-1.557538	p d r
-2.19436	p d s
-1.582362	p d t
-1.548356	p d u
-3.023664	p d v
-2.780626	p d w
-2.722634	p d y
-1.793869	q d a
-1.793869	q d d
-0.4284293	q d e
-0.8414331	q d i
-0.469822	q d o
-1.594761	q d r
-1.071882	q d u
-4.911478	r d #
-1.726597	r d </s>
-5.087569	r d [
-5.212508	r d ]
-1.098264	r d a
-2.096565	r d b
-1.590329	r d c
-2.468476	r d d
-0.5655427	r d e
-1.986252	r d f
-2.7597	r d g
-2.378087	r d h
-0.7184695	r d i
-3.269674	r d j
-3.219807	r d k
-1.583404	r d l
-2.195893	r d m
-2.552592	r d n
-1.373323	r d o
-1.905869	r d p
-2.795313	r d q
-1.984707	r d r
-0.7628035	r d s
-1.09753	r d t
-1.944242	r d u
-3.091934	r d v
-1.836114	r d w
-5.212508	r d x
-2.611898	r d y
-4.098565	r d z
-4.118397	s d </s>
-1.231061	s d a
-3.787404	s d b
-3.985771	s d c
-3.849552	s d d
-0.3991013	s d e
-2.863125	s d f
-2.58419	s d g
-3.019012	s d h
-0.6148981	s d i
-4.310283	s d j
-4.662465	s d k
-4.565555	s d l
-3.641276	s d m
-3.109189	s d n
-0.7230332	s d o
-2.514789	s d p
-1.355451	s d r
-3.009253	s d s
-2.708223	s d t
-1.300313	s d u
-4.060405	s d v
-3.231101	s d w
-2.528129	s d y
-4.419427	s d z
-4.188294	t d </s>
-1.313812	t d a
-3.820317	t d b
-3.470439	t d c
-3.996408	t d d
-0.3875616	t d e
-3.841506	t d f
-3.223458	t d g
-3.820317	t d h
-0.6565455	t d i
-4.101144	t d j
-4.864523	t d k
-4.864523	t d l
-3.164813	t d m
-3.996408	t d n
-0.6162102	t d o
-3.996408	t d p
-4.665415	t d q
-1.440278	t d r
-3.887264	t d s
-3.519287	t d t
-1.446093	t d u
-4.239447	t d v
-2.933022	t d w
-2.532942	t d y
-4.665415	t d z
-2.228445	u d </s>
-4.812398	u d [
-3.874547	u d ]
-1.492183	u d a
-2.863008	u d b
-2.798158	u d c
-1.825627	u d d
-0.5455869	u d e
-2.621134	u d f
-0.5253811	u d g
-2.836201	u d h
-0.5940207	u d i
-3.252093	u d j
-3.68746	u d k
-2.695127	u d l
-2.935411	u d m
-3.403029	u d n
-1.646166	u d o
-2.8779	u d p
-5.011507	u d q
-2.444422	u d r
-1.680459	u d s
-2.06292	u d t
-2.45829	u d u
-3.842362	u d v
-2.616499	u d w
-1.457586	u d y
-4.444422	u d z
-1.977724	v d </s>
-1.237361	v d a
-1.977724	v d b
-1.46584	v d c
-1.237361	v d d
-0.8315955	v d e
-1.880814	v d g
-2.102662	v d h
-0.7224511	v d i
-1.676694	v d m
-0.9777236	v d o
-1.375664	v d p
-0.8808136	v d r
-1.117386	v d s
-1.46584	v d t
-1.500602	v d u
-1.801632	v d w
-2.30177	v d y
-2.835558	w d </s>
-0.7869872	w d a
-3.370672	w d b
-2.937016	w d c
-3.738648	w d d
-0.5295805	w d e
-2.697256	w d f
-3.61371	w d g
-3.370672	w d h
-0.6624936	w d i
-2.671702	w d l
-3.136589	w d m
-3.136589	w d n
-0.6327978	w d o
-2.800796	w d p
-1.381985	w d r
-2.042583	w d s
-3.01165	w d t
-1.717459	w d u
-3.039678	w d w
-2.098498	w d y
-2.933374	x d </s>
-1.062168	x d a
-2.734266	x d b
-0.3631984	x d e
-2.734266	x d g
-0.5238586	x d i
-1.05002	x d o
-1.558175	x d r
-2.933374	x d s
-1.266905	x d u
-2.933374	x d y
-4.728504	y d </s>
-1.17986	y d a
-4.404458	y d b
-4.728504	y d c
-3.626306	y d d
-0.457134	y d e
-3.10889	y d g
-4.529396	y d h
-0.5411048	y d i
-4.161419	y d j
-4.728504	y d k
-4.404458	y d l
-3.892574	y d m
-3.155259	y d n
-0.6947847	y d o
-3.927336	y d p
-1.295216	y d r
-2.920158	y d s
-3.705487	y d t
-1.421847	y d u
-4.006517	y d v
-3.092704	y d w
-2.652409	y d y
-1.023276	z d a
-0.09992676	z d e
-2.694652	z d f
-1.454152	z d i
-2.495544	z d k
-1.592454	z d o
-1.574726	z d r
-2.194514	z d s
-1.972666	z d u
-0.5670846	* e c
-0.5670846	* e x
-1.33718	<s> e a
-3.315385	<s> e b
-1.409163	<s> e c
-1.975045	<s> e d
-3.363689	<s> e e
-1.810235	<s> e f
-2.22307	<s> e g
-3.594138	<s> e h
-1.601143	<s> e i
-3.992078	<s> e j
-1.245055	<s> e l
-1.568014	<s> e m
-1.206393	<s> e n
-4.117017	<s> e o
-2.96067	<s> e p
-1.642315	<s> e q
-2.341285	<s> e r
-1.189305	<s> e s
-2.022429	<s> e t
-0.5956174	<s> e u
-0.5584685	<s> e v
-4.117017	<s> e w
-1.111265	<s> e x
-3.639896	<s> e y
-0.3240465	@ e r
-1.394084	[ e c
-0.2407341	[ e i
-1.070038	[ e n
-1.394084	[ e s
-0.8939466	[ e u
-0.9294189	] e c
-0.9294189	] e m
-0.7533277	] e n
-1.054358	] e s
-1.054358	] e u
-0.7533277	] e v
-1.253465	] e x
-0.07918125	_ e n
-0.977259	` e a
-0.977259	` e c
-0.4771213	` e n
-0.977259	` e s
-0.977259	` e t
-0.977259	` e u
-2.917657	a e </s>
-1.893324	a e a
-2.675672	a e b
-2.122661	a e c
-1.566621	a e d
-2.948146	a e e
-1.965053	a e f
-1.925081	a e g
-3.647116	a e h
-2.370445	a e i
-2.998313	a e j
-1.695514	a e k
-0.5001429	a e l
-1.978391	a e m
-1.809987	a e n
-2.405208	a e o
-2.774695	a e p
-3.108725	a e q
-1.603575	a e r
-1.347272	a e s
-2.15703	a e t
-0.3566565	a e u
-1.857279	a e v
-2.83725	a e w
-1.75049	a e x
-3.15703	a e y
-3.169995	a e z
-2.682487	b e </s>
-5.910978	b e ]
-5.586932	b e `
-1.133893	b e a
-2.039865	b e b
-0.9912127	b e c
-1.610422	b e d
-0.9220739	b e e
-1.46529	b e f
-1.637591	b e g
-1.475333	b e h
-1.18848	b e i
-2.860816	b e j
-2.77152	b e k
-1.187847	b e l
-1.787764	b e m
-1.57239	b e n
-2.054018	b e o
-1.657769	b e p
-3.042864	b e q
-0.6859958	b e r
-1.397919	b e s
-1.010116	b e t
-2.029335	b e u
-2.22596	b e v
-2.235522	b e w
-4.102632	b e x
-2.244016	b e y
-3.831057	b e z
-5.444396	c e #
-1.423446	c e </s>
-4.638216	c e [
-4.939245	c e ]
-5.541306	c e _
-1.182039	c e a
-1.844032	c e b
-1.981458	c e c
-1.078223	c e d
-1.779678	c e e
-1.719203	c e f
-2.631348	c e g
-2.159739	c e h
-1.222611	c e i
-3.178164	c e j
-2.993838	c e k
-1.652999	c e l
-1.683852	c e m
-1.131431	c e n
-1.146342	c e o
-1.234768	c e p
-3.272961	c e q
-0.9836567	c e r
-0.6393799	c e s
-1.186386	c e t
-2.340455	c e u
-2.626169	c e v
-1.573664	c e w
-2.805108	c e x
-2.951635	c e y
-4.680967	c e z
-2.220579	d e </s>
-5.509647	d e [
-5.810678	d e ]
-6.009785	d e _
-1.226946	d e a
-1.35203	d e b
-1.156636	d e c
-1.199939	d e d
-1.686946	d e e
-1.429448	d e f
-2.164699	d e g
-2.773916	d e h
-1.883239	d e i
-3.462373	d e j
-3.462373	d e k
-1.474405	d e l
-1.181397	d e m
-0.7413043	d e n
-1.95196	d e o
-1.561903	d e p
-2.168114	d e q
-0.7882877	d e r
-1.235166	d e s
-1.449088	d e t
-1.909201	d e u
-1.185973	d e v
-2.329809	d e w
-1.950719	d e x
-3.238969	d e y
-3.219613	d e z
-5.295635	e e #
-2.191452	e e </s>
-4.851938	e e [
-5.550908	e e ]
-1.630461	e e a
-2.524456	e e b
-1.450606	e e c
-0.8836285	e e d
-2.36024	e e e
-1.559531	e e f
-2.843678	e e g
-2.578798	e e h
-1.556864	e e i
-3.270785	e e j
-1.683381	e e k
-1.617066	e e l
-1.16834	e e m
-0.6998464	e e n
-1.491359	e e o
-1.706679	e e p
-2.39752	e e q
-2.08138	e e r
-1.475675	e e s
-1.32073	e e t
-0.7178805	e e u
-1.792056	e e v
-1.9058	e e w
-1.333224	e e x
-2.493318	e e y
-2.034478	e e z
-5.436422	f e #
-2.14052	f e </s>
-1.344923	f e a
-2.092636	f e b
-0.7801036	f e c
-1.626867	f e d
-1.337785	f e e
-2.244613	f e f
-1.841347	f e g
-2.894892	f e h
-1.926409	f e i
-4.051678	f e j
-3.951007	f e k
-1.444409	f e l
-1.709856	f e m
-1.130953	f e n
-2.425516	f e o
-2.820119	f e p
-2.24742	f e q
-0.5650192	f e r
-1.556737	f e s
-1.314848	f e t
-1.045984	f e u
-1.970377	f e v
-1.28097	f e w
-1.55547	f e x
-3.894892	f e y
-3.084008	f e z
-5.070045	g e #
-1.658064	g e </s>
-4.87375	g e [
-5.438022	g e ]
-1.50548	g e a
-2.080531	g e b
-1.808986	g e c
-1.24435	g e d
-1.820043	g e e
-1.855769	g e f
-2.637533	g e g
-2.442533	g e h
-1.529894	g e i
-3.508603	g e j
-3.700299	g e k
-1.821196	g e l
-1.220634	g e m
-0.6461321	g e n
-1.260312	g e o
-2.031651	g e p
-2.717311	g e q
-0.9852591	g e r
-0.9860816	g e s
-0.7337079	g e t
-1.882967	g e u
-2.183957	g e v
-1.935321	g e w
-2.050039	g e x
-2.663504	g e y
-4.57272	g e z
-5.845878	h e #
-5.955022	h e *
-3.989216	h e </s>
-6.522107	h e >
-6.19806	h e @
-5.337722	h e [
-5.80012	h e ]
-5.176871	h e `
-1.322801	h e a
-1.695012	h e b
-0.9580534	h e c
-1.441186	h e d
-1.086806	h e e
-1.396461	h e f
-1.799495	h e g
-1.902994	h e h
-1.249947	h e i
-2.600557	h e j
-2.548433	h e k
-1.494216	h e l
-1.281945	h e m
-1.308023	h e n
-1.633574	h e o
-1.211875	h e p
-2.385866	h e q
-0.7951894	h e r
-1.090508	h e s
-1.501623	h e t
-1.67877	h e u
-1.965134	h e v
-1.6547	h e w
-3.048225	h e x
-1.629272	h e y
-3.500177	h e z
-3.177804	i e </s>
-2.837835	i e a
-2.913409	i e b
-2.330469	i e c
-1.135576	i e d
-3.332386	i e e
-1.831458	i e f
-3.1358	i e g
-3.515469	i e h
-2.889286	i e i
-4.373778	i e j
-3.607527	i e k
-1.621709	i e l
-2.995037	i e m
-0.9910851	i e n
-3.157363	i e o
-3.466309	i e p
-4.765889	i e q
-1.45446	i e r
-0.2930448	i e s
-1.390774	i e t
-2.873794	i e u
-0.9284689	i e v
-1.177416	i e w
-2.676691	i e x
-4.479582	i e y
-4.423466	i e z
-3.736608	j e </s>
-1.972805	j e a
-3.758884	j e b
-0.0372773	j e c
-3.06451	j e d
-3.404169	j e e
-3.033316	j e f
-2.787218	j e g
-3.49357	j e h
-3.958456	j e i
-4.338667	j e j
-3.695215	j e k
-2.648472	j e l
-3.606274	j e m
-2.329217	j e n
-1.72062	j e o
-3.606274	j e p
-1.80388	j e r
-2.52309	j e s
-2.573745	j e t
-3.19254	j e u
-2.563421	j e v
-1.808981	j e w
-5.498016	k e #
-2.08984	k e </s>
-5.498016	k e [
-5.498016	k e _
-1.206012	k e a
-2.343541	k e b
-1.985463	k e c
-1.157072	k e d
-1.441013	k e e
-2.094336	k e f
-2.497276	k e g
-2.137341	k e h
-1.453769	k e i
-2.960452	k e j
-3.239471	k e k
-1.668481	k e l
-1.906563	k e m
-1.027113	k e n
-1.668955	k e o
-1.445555	k e p
-3.315132	k e q
-1.140918	k e r
-1.1824	k e s
-0.4569986	k e t
-1.892084	k e u
-2.47305	k e v
-2.128744	k e w
-2.726812	k e x
-1.258029	k e y
-3.949955	k e z
-5.055464	l e #
-1.569583	l e </s>
-5.180403	l e [
-5.113456	l e ]
-0.819926	l e a
-1.928319	l e b
-1.24727	l e c
-1.196776	l e d
-1.756775	l e e
-1.537839	l e f
-1.192963	l e g
-2.1307	l e h
-1.524736	l e i
-3.17358	l e j
-3.213479	l e k
-1.990071	l e l
-0.9734621	l e m
-1.285137	l e n
-1.381677	l e o
-1.89954	l e p
-2.92917	l e q
-1.684373	l e r
-0.9827683	l e s
-0.9921751	l e t
-2.039659	l e u
-1.402704	l e v
-1.676725	l e w
-1.749455	l e x
-2.653203	l e y
-3.292036	l e z
-5.581091	m e #
-6.081229	m e *
-1.876283	m e </s>
-5.016819	m e [
-5.213114	m e ]
-5.882121	m e `
-1.143526	m e a
-2.248787	m e b
-1.860725	m e c
-1.370242	m e d
-1.769014	m e e
-1.994148	m e f
-2.699516	m e g
-2.386392	m e h
-1.831213	m e i
-3.279699	m e j
-3.151877	m e k
-1.813614	m e l
-1.044331	m e m
-0.333178	m e n
-1.728002	m e o
-2.022342	m e p
-3.282602	m e q
-1.244298	m e r
-1.317637	m e s
-1.185855	m e t
-2.445746	m e u
-2.71896	m e v
-1.588611	m e w
-2.624443	m e x
-3.080946	m e y
-4.283695	m e z
-5.247541	n e #
-5.811812	n e *
-1.779597	n e </s>
-4.598738	n e [
-5.17499	n e ]
-1.498255	n e a
-2.110043	n e b
-1.35905	n e c
-1.119418	n e d
-1.066425	n e e
-1.366618	n e f
-1.61866	n e g
-2.192371	n e h
-1.602852	n e i
-2.626459	n e j
-3.065957	n e k
-1.929838	n e l
-1.666585	n e m
-1.125269	n e n
-1.398055	n e o
-2.174022	n e p
-2.291591	n e q
-0.9652444	n e r
-1.002711	n e s
-1.151235	n e t
-1.496843	n e u
-1.646647	n e v
-1.135201	n e w
-1.426337	n e x
-1.874044	n e y
-1.702887	n e z
-3.86472	o e </s>
-1.683983	o e a
-2.793788	o e b
-1.425387	o e c
-2.061174	o e d
-2.874639	o e e
-1.898048	o e f
-3.075048	o e g
-3.600206	o e h
-1.157974	o e i
-4.314689	o e j
-2.717592	o e k
-1.738243	o e l
-1.329385	o e m
-0.6417516	o e n
-4.033862	o e o
-2.893683	o e p
-2.343244	o e q
-2.164351	o e r
-0.5332858	o e s
-1.971549	o e t
-1.259867	o e u
-1.381109	o e v
-4.077328	o e w
-0.8602873	o e x
-3.248871	o e y
-4.754021	o e z
-5.371581	p e #
-1.785613	p e </s>
-5.246642	p e [
-5.304634	p e ]
-0.5036774	p e a
-2.567328	p e b
-0.9031767	p e c
-1.677824	p e d
-1.907489	p e e
-2.251665	p e f
-2.779034	p e g
-2.454776	p e h
-1.974162	p e i
-3.687334	p e j
-3.833762	p e k
-2.301297	p e l
-2.468762	p e m
-1.001101	p e n
-1.079968	p e o
-2.919028	p e p
-4.210213	p e q
-0.7102193	p e r
-1.712743	p e s
-1.177293	p e t
-2.825244	p e u
-3.207724	p e v
-1.982533	p e w
-3.239108	p e x
-3.220313	p e y
-3.684349	p e z
-1.037324	q e </s>
-1.151268	q e a
-1.549208	q e b
-1.452298	q e c
-1.929419	q e d
-1.549208	q e e
-2.026329	q e f
-1.783291	q e g
-1.30617	q e h
-1.00514	q e i
-1.674146	q e l
-1.373116	q e m
-1.373116	q e n
-1.628389	q e o
-1.248178	q e p
-2.151268	q e q
-1.674146	q e r
-1.151268	q e s
-0.9471477	q e t
-1.514446	q e u
-1.424269	q e v
-1.181231	q e w
-1.586996	q e x
-5.625848	r e #
-6.102969	r e *
-1.98168	r e </s>
-5.307089	r e [
-5.307089	r e ]
-6.227908	r e `
-0.8436764	r e a
-1.978326	r e b
-1.200568	r e c
-1.34754	r e d
-1.165537	r e e
-1.353175	r e f
-1.358678	r e g
-2.084248	r e h
-1.389244	r e i
-2.442033	r e j
-3.184808	r e k
-1.510063	r e l
-1.521335	r e m
-1.216758	r e n
-1.733104	r e o
-1.24524	r e p
-1.890282	r e q
-2.023137	r e r
-0.7227177	r e s
-1.257958	r e t
-2.05795	r e u
-1.694386	r e v
-1.833275	r e w
-2.092468	r e x
-2.677557	r e y
-3.640946	r e z
-5.378267	s e #
-1.783041	s e </s>
-5.253329	s e [
-5.42942	s e ]
-6.054496	s e `
-1.218036	s e a
-2.112219	s e b
-1.051561	s e c
-0.9617582	s e d
-1.301364	s e e
-1.745147	s e f
-2.258096	s e g
-2.188902	s e h
-1.391769	s e i
-3.226319	s e j
-3.143863	s e k
-1.273841	s e l
-1.730961	s e m
-1.02232	s e n
-1.401149	s e o
-1.670763	s e p
-1.911482	s e q
-1.126889	s e r
-1.091041	s e s
-1.051672	s e t
-1.970442	s e u
-1.302113	s e v
-1.556827	s e w
-1.686587	s e x
-2.751813	s e y
-3.978401	s e z
-5.538087	t e #
-1.888898	t e </s>
-5.140147	t e [
-5.663025	t e ]
-5.839117	t e _
-6.163163	t e `
-1.493449	t e a
-2.373808	t e b
-1.319748	t e c
-0.7856984	t e d
-1.410063	t e e
-1.941284	t e f
-1.587302	t e g
-2.414521	t e h
-1.704247	t e i
-3.187597	t e j
-3.765399	t e k
-1.480877	t e l
-1.304418	t e m
-1.077296	t e n
-1.720629	t e o
-1.809267	t e p
-3.038572	t e q
-0.6198061	t e r
-1.018128	t e s
-1.48718	t e t
-1.590102	t e u
-1.989805	t e v
-2.024453	t e w
-1.66001	t e x
-3.080394	t e y
-4.472694	t e z
-4.873853	u e #
-1.422128	u e </s>
-4.970763	u e ]
-1.392496	u e a
-1.882272	u e b
-1.843577	u e c
-1.430371	u e d
-2.240788	u e e
-1.826734	u e f
-2.686897	u e g
-2.190806	u e h
-1.467483	u e i
-3.049076	u e j
-3.504637	u e k
-1.476956	u e l
-1.864742	u e m
-0.9519064	u e n
-1.243588	u e o
-2.117521	u e p
-3.680728	u e q
-1.876816	u e r
-0.3888558	u e s
-0.9657648	u e t
-2.578946	u e u
-2.596932	u e v
-1.522172	u e w
-2.598772	u e x
-3.25476	u e y
-3.10744	u e z
-4.250426	v e #
-5.762309	v e *
-1.878293	v e </s>
-4.608494	v e [
-5.586218	v e ]
-5.887248	v e _
-1.189446	v e a
-1.492522	v e b
-1.799573	v e c
-1.342279	v e d
-1.917149	v e e
-1.889498	v e f
-2.288676	v e g
-1.954723	v e h
-1.585061	v e i
-2.582183	v e j
-3.274817	v e k
-1.06437	v e l
-1.511664	v e m
-0.8881711	v e n
-1.660047	v e o
-1.789366	v e p
-3.313216	v e q
-0.5872492	v e r
-1.043189	v e s
-1.053967	v e t
-2.380292	v e u
-2.564477	v e v
-1.930695	v e w
-4.260565	v e x
-2.210707	v e y
-1.966516	v e z
-3.327906	w e </s>
-5.444347	w e [
-5.569286	w e ]
-0.8731803	w e a
-1.984879	w e b
-1.274306	w e c
-1.285653	w e d
-1.069631	w e e
-2.088274	w e f
-2.338412	w e g
-1.039304	w e h
-1.883395	w e i
-3.263935	w e j
-2.112061	w e k
-1.074459	w e l
-1.283167	w e m
-1.363414	w e n
-2.297677	w e o
-2.228578	w e p
-3.529212	w e q
-0.8948506	w e r
-1.161097	w e s
-1.795353	w e t
-2.210844	w e u
-1.182841	w e v
-1.206596	w e w
-2.63227	w e x
-4.247067	w e y
-5.569286	w e z
-3.779272	x e </s>
-3.095025	x e a
-4.279409	x e b
-0.8284203	x e c
-0.9416833	x e d
-2.553102	x e e
-3.278669	x e f
-3.51603	x e g
-3.60318	x e h
-1.333408	x e i
-4.080302	x e j
-2.712325	x e l
-0.6727409	x e m
-1.286279	x e n
-3.60318	x e o
-3.654333	x e p
-3.025944	x e q
-0.6356325	x e r
-0.800863	x e s
-2.772093	x e t
-2.247793	x e u
-1.857585	x e v
-3.955363	x e w
-2.157749	x e x
-3.44348	x e y
-3.054474	y e </s>
-0.405214	y e a
-3.211502	y e b
-1.927175	y e c
-1.206416	y e d
-1.751962	y e e
-1.528875	y e f
-3.161239	y e g
-3.469447	y e h
-2.167935	y e i
-4.42369	y e j
-3.374472	y e k
-1.640716	y e l
-1.715184	y e m
-1.237355	y e n
-2.513599	y e o
-2.942247	y e p
-2.321256	y e q
-1.261155	y e r
-1.124204	y e s
-1.031732	y e t
-1.465126	y e u
-1.468339	y e v
-3.077337	y e w
-1.133321	y e x
-3.069581	y e y
-3.867387	y e z
-2.80305	z e </s>
-2.281798	z e a
-3.214346	z e b
-2.062891	z e c
-1.44913	z e d
-2.948619	z e e
-2.821339	z e f
-2.539707	z e g
-3.208612	z e h
-2.605841	z e i
-3.688591	z e j
-3.195982	z e k
-2.911875	z e l
-2.64798	z e m
-0.9517684	z e n
-2.367191	z e o
-3.153836	z e p
-4.370693	z e q
-0.09688161	z e r
-2.327611	z e s
-1.931135	z e t
-3.628454	z e u
-3.937037	z e v
-2.781222	z e w
-4.391882	z e x
-4.101848	z e y
-4.187762	z e z
-0.001680058	# f o
-0.3679768	* f i
-0.5670846	* f r
-1.562771	<s> f a
-4.095707	<s> f d
-2.055444	<s> f e
-4.162654	<s> f g
-0.4406374	<s> f i
-2.385711	<s> f l
-4.662792	<s> f m
-0.4171888	<s> f o
-3.940805	<s> f p
-0.956503	<s> f r
-4.662792	<s> f s
-4.162654	<s> f t
-0.9853581	<s> f u
-3.861624	<s> f y
-0.09691001	@ f t
-0.2325726	[ f i
-0.6127838	[ f o
-1.33477	[ f r
-1.33477	[ f u
-0.90309	] f i
-0.4259687	] f o
-0.6812412	] f r
-0.90309	] f u
-0.1249387	_ f o
-0.7633792	` f a
-0.5642715	` f o
-0.4393327	` f r
-2.855871	a f </s>
-1.307062	a f a
-3.491172	a f b
-3.170837	a f c
-3.448883	a f d
-0.7101598	a f e
-0.6490667	a f f
-1.672976	a f g
-3.280319	a f h
-1.216123	a f i
-4.180382	a f j
-3.687467	a f k
-2.100398	a f l
-3.444429	a f m
-3.60958	a f n
-1.142712	a f o
-3.54356	a f p
-5.157641	a f q
-0.9861302	a f r
-2.707301	a f s
-0.6678833	a f t
-1.358978	a f u
-4.833595	a f v
-3.037715	a f w
-3.703261	a f y
-4.093232	a f z
-2.116718	b f a
-2.468901	b f e
-0.3520442	b f i
-2.526893	b f l
-0.3041764	b f o
-1.664421	b f r
-3.1959	b f s
-3.070961	b f t
-1.686249	b f u
-3.1959	b f w
-2.941809	c f </s>
-1.000795	c f a
-3.640779	c f b
-1.987567	c f c
-3.765718	c f d
-1.602358	c f e
-3.640779	c f f
-3.765718	c f g
-3.543869	c f h
-0.5121379	c f i
-1.794133	c f l
-3.288597	c f m
-0.6392621	c f o
-1.355785	c f p
-1.004041	c f r
-1.196735	c f s
-2.535269	c f t
-1.005044	c f u
-3.24284	c f w
-3.152661	d f </s>
-1.159756	d f a
-3.626624	d f b
-3.573378	d f c
-3.533507	d f d
-1.699432	d f e
-3.247989	d f f
-4.247989	d f g
-3.826983	d f h
-0.891511	d f i
-1.840366	d f l
-3.676598	d f m
-4.247989	d f n
-0.2708891	d f o
-3.626624	d f p
-4.81226	d f q
-0.7726611	d f r
-3.19596	d f s
-3.228684	d f t
-1.232096	d f u
-5.011368	d f v
-3.42015	d f w
-3.676598	d f y
-4.590412	d f z
-2.998641	e f </s>
-1.112833	e f a
-3.467238	e f b
-3.196352	e f c
-3.245896	e f d
-1.118116	e f e
-1.004574	e f f
-4.170023	e f g
-3.829346	e f h
-0.7024628	e f i
-4.053142	e f j
-4.359079	e f k
-1.524774	e f l
-3.504221	e f m
-3.798412	e f n
-0.4846278	e f o
-3.138021	e f p
-4.151274	e f q
-1.176522	e f r
-2.719683	e f s
-1.843476	e f t
-0.9829546	e f u
-4.104905	e f v
-3.379283	e f w
-5.303562	e f x
-3.489314	e f y
-5.22438	e f z
-2.252135	f f </s>
-4.886008	f f [
-5.107856	f f ]
-1.107914	f f a
-2.544375	f f b
-2.832929	f f c
-3.021497	f f d
-0.4232893	f f e
-2.565031	f f f
-3.429642	f f g
-3.02747	f f h
-0.512419	f f i
-4.170004	f f j
-4.380857	f f k
-2.068574	f f l
-2.820055	f f m
-3.127096	f f n
-0.9225032	f f o
-2.69344	f f p
-3.547551	f f q
-1.5172	f f r
-1.832315	f f s
-1.878772	f f t
-1.55918	f f u
-3.931765	f f v
-2.469367	f f w
-3.598206	f f y
-2.933251	g f </s>
-1.175821	g f a
-3.763791	g f b
-2.77393	g f c
-3.974644	g f d
-1.7598	g f e
-2.90001	g f f
-2.882099	g f g
-3.121859	g f h
-1.026353	g f i
-1.732849	g f l
-3.44637	g f m
-4.099583	g f n
-0.304758	g f o
-3.309532	g f p
-0.6564764	g f r
-2.953455	g f s
-2.958656	g f t
-1.125993	g f u
-3.836341	g f v
-2.632221	g f w
-3.974644	g f y
-1.000839	h f a
-4.249165	h f b
-2.883726	h f c
-3.682081	h f d
-1.385729	h f e
-4.249165	h f g
-0.882937	h f i
-1.532422	h f l
-4.249165	h f m
-3.351087	h f n
-0.4047006	h f o
-3.271906	h f p
-0.7684938	h f r
-3.413235	h f s
-3.351087	h f t
-0.8856054	h f u
-3.080021	h f y
-3.731975	i f </s>
-5.311294	i f @
-1.654304	i f a
-2.715986	i f b
-2.331629	i f c
-2.763232	i f d
-1.074945	i f e
-0.7146456	i f f
-2.751719	i f g
-2.272918	i f h
-0.4788454	i f i
-3.416121	i f j
-3.572274	i f k
-2.566467	i f l
-2.35479	i f m
-1.872469	i f n
-1.603387	i f o
-2.159071	i f p
-3.917209	i f q
-2.388183	i f r
-2.059236	i f s
-0.8652198	i f t
-1.942609	i f u
-3.502947	i f v
-1.192289	i f w
-4.811156	i f x
-1.126296	i f y
-4.443179	i f z
-1.386202	j f a
-0.8219302	j f i
-0.501595	j f k
-0.3448089	j f o
-1.585309	j f r
-1.319521	k f a
-2.221385	k f e
-1.355342	k f i
-2.405717	k f l
-0.1133847	k f o
-1.106689	k f r
-3.868115	k f s
-1.309407	k f u
-3.500139	k f w
-1.557937	l f </s>
-5.002146	l f [
-5.002146	l f ]
-0.9742708	l f a
-2.017471	l f b
-1.961679	l f c
-1.950558	l f d
-1.532592	l f e
-2.089548	l f f
-2.617402	l f g
-1.947519	l f h
-0.8838031	l f i
-3.405098	l f j
-3.377069	l f k
-1.935964	l f l
-2.13094	l f m
-2.797286	l f n
-0.4022987	l f o
-2.378156	l f p
-3.547765	l f q
-1.067359	l f r
-1.899406	l f s
-1.483238	l f t
-1.124459	l f u
-3.104068	l f v
-1.702668	l f w
-2.405098	l f y
-2.105467	m f </s>
-1.119939	m f a
-2.630786	m f b
-2.417586	m f c
-2.718616	m f d
-1.763543	m f e
-2.05068	m f f
-3.019646	m f g
-2.345324	m f h
-1.074144	m f i
-4.004923	m f j
-3.783074	m f k
-1.954414	m f l
-2.465011	m f m
-2.741682	m f n
-0.3035277	m f o
-2.368101	m f p
-3.305953	m f q
-0.8961325	m f r
-1.801709	m f s
-2.122209	m f t
-0.9352549	m f u
-3.879984	m f v
-2.161898	m f w
-3.527802	m f y
-0.8551956	n f a
-4.294418	n f b
-3.905252	n f c
-3.982664	n f d
-1.194288	n f e
-4.481504	n f f
-4.391328	n f g
-4.817297	n f h
-0.9070012	n f i
-5.317434	n f j
-3.863054	n f k
-1.063854	n f l
-4.692358	n f m
-5.118327	n f n
-0.3958351	n f o
-3.839573	n f p
-0.9166108	n f r
-4.391328	n f s
-3.697821	n f t
-1.207311	n f u
-5.317434	n f v
-4.993388	n f w
-3.720387	n f y
-5.78129	o f #
-3.297346	o f </s>
-5.08232	o f [
-5.78129	o f ]
-5.78129	o f _
-4.864836	o f `
-1.091677	o f a
-1.879205	o f b
-1.226698	o f c
-1.683391	o f d
-1.296286	o f e
-1.308881	o f f
-1.831534	o f g
-1.772764	o f h
-1.233177	o f i
-2.264821	o f j
-2.677145	o f k
-1.743794	o f l
-1.50928	o f m
-1.890199	o f n
-1.314608	o f o
-1.360785	o f p
-2.821057	o f q
-1.60622	o f r
-1.399967	o f s
-0.4467548	o f t
-1.823707	o f u
-2.021339	o f v
-1.675414	o f w
-4.152901	o f x
-2.359727	o f y
-3.372203	o f z
-3.055437	p f </s>
-1.372113	p f a
-3.470411	p f b
-3.055437	p f c
-3.324282	p f d
-1.627801	p f e
-3.26629	p f f
-3.391229	p f g
-3.391229	p f h
-1.175504	p f i
-1.881579	p f l
-3.16938	p f m
-0.2539279	p f o
-2.771441	p f p
-0.9288312	p f r
-3.127988	p f s
-3.692259	p f t
-0.7672911	p f u
-3.891367	p f v
-3.215138	p f w
-3.891367	p f y
-1.451018	q f </s>
-1.031889	q f a
-1.752048	q f b
-1.655138	q f e
-2.076095	q f f
-1.752048	q f h
-0.9391351	q f i
-1.575957	q f l
-0.4298292	q f o
-0.7520484	q f r
-1.50901	q f s
-1.876987	q f t
-1.876987	q f u
-1.274927	q f w
-3.191612	r f </s>
-1.025648	r f a
-3.885986	r f b
-3.84252	r f c
-3.608437	r f d
-0.9663023	r f e
-2.859388	r f f
-4.050796	r f g
-3.551955	r f h
-0.7951525	r f i
-3.245661	r f j
-4.886726	r f k
-1.576804	r f l
-3.358559	r f m
-4.386588	r f n
-0.4658736	r f o
-3.474543	r f p
-0.8839107	r f r
-3.07838	r f s
-3.119416	r f t
-0.8812572	r f u
-4.050796	r f v
-3.256254	r f w
-3.749766	r f y
-3.694815	s f </s>
-0.9439669	s f a
-4.095961	s f b
-3.947541	s f c
-4.050203	s f d
-1.393339	s f e
-3.70125	s f f
-4.749173	s f g
-4.095961	s f h
-1.044294	s f i
-5.050203	s f j
-2.015307	s f l
-4.035963	s f m
-4.527324	s f n
-0.3019892	s f o
-3.786962	s f p
-0.7887975	s f r
-3.582842	s f s
-3.459138	s f t
-1.106857	s f u
-5.050203	s f v
-3.786962	s f w
-2.37017	s f y
-4.498277	t f </s>
-1.193141	t f a
-4.644405	t f b
-4.741315	t f c
-3.558045	t f d
-1.338323	t f e
-4.264194	t f f
-4.229432	t f g
-4.440285	t f h
-0.8828381	t f i
-4.866254	t f k
-1.961719	t f l
-4.264194	t f m
-4.866254	t f n
-0.2856025	t f o
-3.440285	t f p
-0.8144841	t f r
-3.787073	t f s
-3.226104	t f t
-1.125839	t f u
-4.866254	t f v
-4.301982	t f w
-3.866254	t f y
-3.943752	u f </s>
-0.841318	u f a
-3.642722	u f b
-3.688479	u f c
-3.412273	u f d
-2.190935	u f e
-0.214441	u f f
-4.364708	u f g
-3.797624	u f h
-1.495974	u f i
-2.316386	u f l
-2.37088	u f m
-4.1656	u f n
-0.813611	u f o
-1.869667	u f r
-3.56354	u f s
-2.76766	u f t
-1.562456	u f u
-4.1656	u f v
-3.528778	u f w
-4.364708	u f y
-2.175305	v f </s>
-1.038345	v f a
-1.976197	v f b
-0.8970158	v f e
-2.175305	v f f
-1.038345	v f i
-1.411926	v f l
-0.339375	v f o
-2.175305	v f p
-0.9761971	v f r
-1.851258	v f t
-1.976197	v f u
-2.175305	v f v
-1.851258	v f w
-3.918052	w f </s>
-0.8471768	w f a
-3.918052	w f c
-3.241823	w f d
-1.554592	w f e
-3.918052	w f h
-0.8046012	w f i
-1.7397	w f l
-3.918052	w f m
-0.4913147	w f o
-2.664587	w f p
-0.7406116	w f r
-2.677552	w f s
-3.292976	w f t
-0.8408057	w f u
-3.417914	w f w
-1.517517	x f a
-1.561972	x f e
-0.3637432	x f i
-2.830446	x f l
-3.506675	x f n
-0.4030321	x f o
-1.039614	x f r
-2.483659	x f t
-1.763499	x f u
-1.077659	y f a
-4.531894	y f b
-3.957863	y f d
-1.223116	y f e
-4.092561	y f f
-0.9822776	y f i
-4.531894	y f j
-1.695886	y f l
-4.355803	y f m
-0.3090279	y f o
-4.656833	y f p
-0.7813276	y f r
-4.230864	y f s
-4.179711	y f t
-1.122679	y f u
-4.230864	y f y
-0.7609065	z f a
-0.6801431	z f e
-1.517416	z f f
-1.058778	z f i
-1.190057	z f l
-0.4090764	z f o
-2.619614	z f p
-1.517416	z f r
-2.420506	z f t
-2.619614	z f w
-3.134248	<s> g </s>
-1.261768	<s> g a
-3.310339	<s> g b
-2.310339	<s> g d
-0.7405753	<s> g e
-2.626092	<s> g h
-0.4353745	<s> g i
-1.221023	<s> g l
-2.544422	<s> g m
-2.809737	<s> g n
-0.8629227	<s> g o
-3.611369	<s> g p
-0.8056419	<s> g r
-3.009309	<s> g s
-2.809737	<s> g t
-1.576607	<s> g u
-3.310339	<s> g y
-0.8359299	[ g a
-0.8359299	[ g e
-0.6368221	[ g o
-0.5118834	[ g r
-0.4393327	] g e
-0.4393327	] g r
-0.5228788	` g l
-0.5228788	` g o
-0.7219865	` g r
-4.965374	a g #
-3.41719	a g </s>
-0.7893746	a g a
-3.163742	a g b
-4.027522	a g c
-3.186018	a g d
-0.447877	a g e
-3.570339	a g f
-1.917386	a g g
-2.511292	a g h
-1.385667	a g i
-5.465512	a g j
-5.465512	a g k
-2.014442	a g l
-2.239055	a g m
-2.078414	a g n
-1.217794	a g o
-3.379914	a g p
-5.465512	a g q
-0.5343591	a g r
-2.53643	a g s
-3.330226	a g t
-1.378056	a g u
-4.840436	a g v
-3.576208	a g w
-3.917451	a g y
-4.965374	a g z
-1.879724	b g a
-2.724822	b g b
-1.946671	b g c
-2.298853	b g d
-0.398486	b g e
-2.423792	b g f
-2.92393	b g g
-1.201943	b g i
-1.739545	b g l
-0.8290311	b g m
-2.724822	b g n
-1.119158	b g o
-2.356845	b g p
-0.9924281	b g r
-1.375868	b g t
-0.9978231	b g u
-2.298853	b g w
-2.724822	b g y
-3.513318	c g </s>
-1.144102	c g a
-3.837364	c g c
-3.036196	c g d
-1.542506	c g e
-3.416408	c g f
-3.036196	c g h
-1.945116	c g i
-1.874828	c g l
-3.416408	c g m
-0.6369553	c g o
-3.337226	c g p
-0.2413017	c g r
-3.837364	c g s
-2.793158	c g t
-1.197872	c g u
-3.513318	c g v
-2.836624	c g y
-3.727026	d g </s>
-1.719847	d g a
-3.463784	d g b
-3.463784	d g c
-2.737279	d g d
-0.1507383	d g e
-3.479871	d g f
-4.727026	d g g
-3.033885	d g h
-1.304929	d g i
-4.425996	d g j
-4.505177	d g k
-1.818005	d g l
-1.737131	d g m
-3.488144	d g n
-1.15489	d g o
-3.602087	d g p
-1.069205	d g r
-2.407573	d g s
-3.03683	d g t
-1.622653	d g u
-3.208512	d g v
-3.602087	d g w
-2.927685	d g x
-3.30652	d g y
-3.768369	e g </s>
-5.344326	e g ]
-0.6750247	e g a
-3.742266	e g b
-3.501301	e g c
-3.036118	e g d
-1.241013	e g e
-2.778478	e g f
-2.615432	e g g
-3.133028	e g h
-0.6058494	e g i
-5.043296	e g j
-4.499228	e g k
-1.691983	e g l
-2.903417	e g m
-2.669159	e g n
-0.9111859	e g o
-3.484988	e g p
-0.7871479	e g r
-2.767601	e g s
-2.558285	e g t
-0.926351	e g u
-5.043296	e g v
-3.912962	e g w
-1.357719	e g y
-4.867205	e g z
-3.519384	f g </s>
-1.340186	f g a
-2.952086	f g b
-3.934357	f g c
-1.268214	f g d
-0.7676901	f g e
-3.271599	f g f
-0.8663197	f g h
-1.583721	f g i
-1.017798	f g l
-1.742906	f g m
-2.144776	f g n
