
\data\
ngram 1=40
ngram 2=1049
ngram 3=15281
ngram 4=134619

\1-grams:
-5.350497	#	-1.753765
-6.20044	*	-0.6007587
-8.004352	<	-0.01025306
-2.082237	</s>
-99	<s>	-3.439333
-7.578383	>	-0.2537919
-6.838021	@	-0.7834535
-5.121828	[	-1.45621
-5.131419	]	-0.3047419
-6.04531	_	-0.3928779
-5.643254	`	0.4931537
-1.121747	a	0
-1.862136	b	0
-1.482069	c	0
-1.50133	d	0
-0.8989342	e	0
-1.67252	f	0
-1.763252	g	0
-1.348397	h	0
-1.10079	i	0
-2.908562	j	-2.644283
-2.298789	k	-0.02502532
-1.420515	l	0
-1.564334	m	0
-1.127874	n	0
-1.0934	o	0
-1.625537	p	0
-2.992705	q	-2.562786
-1.20013	r	0
-1.198058	s	0
-1.013229	t	0
-1.536193	u	-0.02767498
-1.957254	v	-0.6805996
-1.792506	w	0
-2.714858	x	-0.2249831
-1.846995	y	0
-2.722654	z	-0.5375519
-8.481473	{	-0.07514302
-8.481473	}	-0.08354148
-8.481473	~	-0.05063147

\2-grams:
-2.653855	# a
-2.653855	# b	-0.5885515
-2.829947	# c
-3.871339	# d
-3.871339	# e
-0.7176769	# f	-2.306429
-3.871339	# g
-3.871339	# h
-3.871339	# i
-3.871339	# k
-3.871339	# n
-0.185016	# o	-2.541561
-3.871339	# p
-2.653855	# t	-0.2779362
-0.8499433	# x	-2.275544
-0.9008221	* *	-0.6290662
-1.00228	* </s>
-3.021396	* @
-1.050584	* a	-0.635692
-1.326791	* b	-0.1883929
-1.16709	* c	-1.795596
-1.377943	* d	-0.467271
-1.435935	* e	-0.304938
-1.435935	* f	-0.4240788
-3.021396	* g
-1.803912	* h	-0.4015436
-1.050584	* i	-0.4987735
-1.803912	* l
-1.502882	* m	-1.532194
-1.980003	* n	-1.254179
-1.281033	* o	-0.3006404
-1.803912	* p
-1.582063	* r	-0.2640687
-1.16709	* s	-0.1130116
-1.16709	* t	-0.9170835
-1.326791	* w	-0.7272653
-3.021396	* y
-1.217484	< s
-1.217484	< t
-1.217484	< z
-4.765769	<s> #	-1.173665
-4.746025	<s> *	-0.530697
-7.1396	<s> >
-4.043212	<s> [	-0.8444612
-6.098208	<s> _	-1.012407
-5.797178	<s> `	-0.4218521
-1.138883	<s> a	-0.127631
-1.546569	<s> b	-2.865251
-1.78709	<s> c	-2.610975
-1.956257	<s> d	-2.841199
-1.805099	<s> e	-2.776645
-1.458433	<s> f	-3.52604
-2.310747	<s> g	-2.366132
-1.560496	<s> h	-2.460479
-0.6375159	<s> i	-2.987144
-2.741322	<s> j	-1.253778
-3.110765	<s> k	-2.06236
-1.851882	<s> l	-2.768447
-1.21207	<s> m	-3.181341
-1.785724	<s> n	-3.29141
-1.495161	<s> o	-2.618038
-1.787546	<s> p	-1.955089
-2.811751	<s> q	-1.914364
-2.047673	<s> r	-3.634401
-1.485535	<s> s	-3.687629
-0.5892911	<s> t	-3.732772
-2.194521	<s> u	-2.565666
-2.740845	<s> v	-1.490008
-1.012124	<s> w	-3.699984
-4.501611	<s> x	-1.656891
-2.034893	<s> y	-5.142882
-3.898179	<s> z	-0.4009898
-7.1396	<s> {
-1.643453	> </s>
-0.60206	> o
-1.643453	> q
-1.643453	> r
-0.60206	> t
-1.643453	> w
-1.041393	@ a	-0.689435
-2.383815	@ b
-1.041393	@ e	-0.2209569
-1.041393	@ f	-0.6254906
-1.342423	@ j	-1.115685
-1.342423	@ l	-1.215889
-1.342423	@ m
-0.60206	@ o	-0.975812
-2.383815	@ p
-2.383815	@ r
-0.60206	@ s	-0.9297056
-2.383815	@ y
-1.259275	[ ]	-0.4429971
-1.080892	[ a	-0.8542268
-1.928282	[ b	-0.6852279
-0.4625688	[ c	-2.554806
-1.944672	[ d	-0.8988022
-1.687548	[ e	-0.6999309
-1.746862	[ f	-0.8307308
-2.245703	[ g	-0.5025941
-1.841132	[ h	-0.4042149
-1.514548	[ i	-1.129183
-2.660676	[ j	-0.2482437
-3.058616	[ k
-2.155526	[ l	-0.4212547
-1.828167	[ m	-0.9279041
-1.726177	[ n	-1.438679
-1.078612	[ o	-1.277966
-1.716193	[ p	-0.3860878
-4.100008	[ q
-2.104373	[ r	-0.2469484
-1.410256	[ s	-2.418027
-0.7565014	[ t	-1.837559
-2.405403	[ u	-0.5909656
-3.058616	[ v
-1.66945	[ w	-0.768413
-2.882524	[ y	-0.3809743
-2.058616	[ z	-0.4708479
-4.090417	] #
-4.090417	] *
-0.2612095	] </s>
-2.571903	] [	-0.1478017
-4.090417	] ]
-1.055588	] a	-0.8439708
-2.027835	] b	-0.5760837
-1.642484	] c	-0.8163425
-1.410535	] d	-0.544969
-1.818575	] e	-0.5375615
-1.969843	] f	-0.5021254
-2.308661	] g	-0.4265032
-1.61766	] h	-0.742186
-1.557662	] i	-0.8563612
-2.504956	] j	-0.5437649
-2.872933	] k
-2.071301	] l	-0.8580112
-1.969843	] m	-1.878076
-2.071301	] n	-0.4126874
-1.586626	] o	-0.9820514
-1.952114	] p	-0.5578865
-1.415556	] r	-2.348225
-1.511205	] s	-0.8792408
-1.372331	] t	-1.802709
-2.504956	] u	-0.3398575
-2.872933	] v	-0.5183423
-1.716586	] w	-0.7129078
-2.872933	] y	-0.5485812
-4.090417	] z
-1.834103	_ </s>
-0.3289527	_ _	-1.519236
-1.737193	_ a	-0.1534687
-1.322219	_ b	-0.6801035
-1.834103	_ c	-0.153708
-2.135133	_ d
-1.658011	_ e	-0.7271901
-1.834103	_ f	-0.4951889
-2.135133	_ g
-3.176525	_ h
-2.135133	_ i
-3.176525	_ j
-1.834103	_ l	-0.5273779
-1.959041	_ m	-0.3703243
-1.834103	_ n
-1.591065	_ o	-0.4988322
-1.39477	_ p	-0.3342623
-1.322219	_ r	-1.896761
-1.18089	_ s	-0.6286757
-0.9046837	_ t	-1.215396
-2.135133	_ u
-3.176525	_ v
-2.135133	_ w	-1.191253
-2.135133	_ z	-0.4358307
-3.578582	` </s>
-3.578582	` [
-0.3263358	` `	-1.579052
-1.375821	` a	-0.8169485
-1.60777	` b	-0.6409621
-1.375821	` c	-1.113904
-1.796826	` d	-0.8544687
-1.582947	` e	-0.5957571
-1.796826	` f	-0.5200124
-1.838219	` g	-0.5708459
-1.692091	` h	-0.4732269
-1.582947	` i	-0.450786
-1.993121	` j	-0.3036439
-3.578582	` k
-2.060068	` l	-0.5746964
-1.662128	` m	-1.728696
-1.60777	` n	-2.1039
-1.692091	` o	-0.4480104
-1.406855	` p	-0.8050168
-3.578582	` q
-1.692091	` r	-0.5996897
-1.30674	` s	-0.7218186
-1.294151	` t	-0.9838277
-1.883977	` u	-0.5909656
-2.361098	` v	-0.3507355
-1.582947	` w	-0.4106108
-3.578582	` x
-2.361098	` y	-0.5744722
-5.944753	a #	0.4208592
-6.660756	a *	-0.1838005
-2.656255	a </s>
-8.100089	a >
-5.451241	a [	-0.3244432
-5.882605	a ]	-0.02904931
-7.058696	a _
-5.961786	a `	-0.5187622
-2.510111	a a	0.2817395
-1.603799	a b	-0.02593073
-1.345978	a c	-0.6217774
-1.491338	a d	-1.082405
-2.671227	a e	-0.01403256
-1.924071	a f	-0.5777133
-1.616202	a g	-1.334843
-2.603509	a h	0.3587867
-1.52144	a i	0
-2.692573	a j	-1.814579
-1.825925	a k	-1.737916
-0.9344852	a l	0
-1.440091	a m	-0.1815677
-0.7030874	a n	-0.006257204
-2.750399	a o	0.1217642
-1.663223	a p	-0.9370189
-3.03598	a q	0.9062722
-0.9524578	a r	0
-1.088659	a s	-0.153597
-0.7654724	a t	0
-1.955623	a u	-0.2750167
-1.57325	a v	-0.9197094
-2.133849	a w	0.2761599
-2.824331	a x	-1.2601
-1.75893	a y	-0.12711
-3.104382	a z	-2.180689
-6.142216	b #	-0.3420966
-7.3597	b *
-3.229109	b </s>
-6.017277	b [	-0.2415388
-5.841186	b ]	-0.06394745
-7.3597	b _
-1.037081	b a	-2.283245
-2.649688	b b	-1.449384
-2.928698	b c	-1.761718
-3.245506	b d	-1.720941
-0.4303461	b e	-0.6786717
-2.946316	b f	-2.405287
-3.417394	b g	-2.034219
-3.268314	b h	-1.460657
-1.277049	b i	-2.532408
-1.820721	b j	-3.223121
-3.688897	b k	-1.32184
-0.8740748	b l	-4.303626
-2.589264	b m	-0.8845474
-3.440072	b n	-1.071284
-1.103349	b o	-2.029629
-3.292796	b p	-0.2513235
-4.826945	b q	0.06989291
-1.513912	b r	-2.733292
-1.612157	b s	-1.161074
-2.046129	b t	-1.239948
-1.014595	b u	-2.260893
-2.515841	b v	-1.216242
-2.991357	b w	-2.186247
-6.318307	b x
-1.089296	b y	-0.8122445
-4.895061	b z	-1.180732
-5.958011	c #	-0.1753414
-7.739767	c *
-2.950302	c </s>
-5.26701	c [	-0.6015206
-5.059885	c ]	-1.195977
-6.522283	c `	-0.3249421
-0.9714829	c a	0
-2.962336	c b	0
-1.621722	c c	-1.761609
-2.715334	c d	-1.372641
-0.856038	c e	0
-2.756564	c f	-2.539615
-2.884026	c g	-3.597512
-0.9738039	c h	0
-1.050419	c i	0
-3.986145	c j	-0.2442516
-1.80214	c k	-0.5623503
-1.476406	c l	-4.345689
-2.909887	c m	-1.426513
-3.147656	c n	-1.828183
-0.6004876	c o	0
-2.437266	c p	-0.7515272
-3.133175	c q	-0.7429482
-1.396977	c r	-2.834325
-2.211384	c s	-0.6584114
-0.9622236	c t	0
-1.37879	c u	-0.1714969
-3.470487	c v	-0.3901692
-3.109486	c w	-1.810556
-6.221252	c x	-0.137333
-1.651444	c y	-0.1751098
-3.308057	c z	-1.499596
-5.216715	d #	0.08137086
-6.077053	d *	-0.08691651
-1.710068	d </s>
-7.720506	d >
-7.720506	d @
-5.030753	d [	-0.2453037
-4.347685	d ]	-0.8137656
-6.679113	d _
-5.33669	d `	-1.065305
-1.052914	d a	0
-1.460063	d b	-2.70559
-1.689903	d c	-0.4269592
-1.727996	d d	-1.484427
-0.6923452	d e	-0.4402329
-1.690761	d f	-2.275553
-1.775998	d g	-2.080161
-1.908508	d h	-2.058565
-0.8336229	d i	-0.4837902
-2.59561	d j	-1.501213
-2.91103	d k	-2.769943
-1.676338	d l	-3.309788
-1.621827	d m	-1.590088
-1.880397	d n	-2.775557
-1.130014	d o	-0.5596193
-1.737398	d p	-0.3684158
-2.99964	d q	-1.804758
-1.586699	d r	-2.023907
-1.292442	d s	-0.006546856
-0.9826246	d t	-2.186912
-1.388703	d u	-0.1643507
-2.18493	d v	-1.179945
-1.613324	d w	-3.84904
-3.981884	d x	-2.684544
-1.977441	d y	-0.4437059
-3.743102	d z	-0.7756307
-5.205962	e #	-0.04803022
-6.220811	e *	-0.1987157
-8.322902	e <
-1.967666	e </s>
-7.105418	e >
-6.883569	e @	-0.5537843
-5.078748	e [	-0.08199735
-5.43332	e ]	-0.3389121
-6.35209	e _	-0.4821223
-5.790147	e `	-1.005183
-1.095708	e a	0
-1.88841	e b	-0.4877668
-1.195553	e c	0
-1.197604	e d	0
-1.332661	e e	0
-1.580009	e f	-0.5437426
-1.761092	e g	-2.379905
-1.987761	e h	-1.892487
-1.476982	e i	-0.5382616
-2.823794	e j	-1.09425
-2.669107	e k	-1.420315
-1.473031	e l	-0.1902317
-1.368603	e m	-1.00299
-0.9557762	e n	-0.02591064
-1.570886	e o	-0.7677482
-1.539084	e p	-0.8638862
-2.363613	e q	-2.198819
-0.9015303	e r	0
-0.96895	e s	0.02646853
-1.195495	e t	-0.1697384
-1.637239	e u	-0.0892501
-1.667505	e v	-0.2470781
-1.657583	e w	0
-1.926668	e x	-0.8007047
-2.159721	e y	-0.8665687
-2.642242	e z	0.3413441
-5.963855	f #	-1.144339
-6.507923	f *
-2.775892	f </s>
-6.331832	f @
-5.37759	f [	0.06833409
-5.69501	f ]	-0.394967
-6.206893	f _
-5.277474	f `	-0.7772398
-1.095337	f a	0
-2.24943	f b	-2.881227
-1.634678	f c	-3.100348
-2.074049	f d	-3.028616
-1.094518	f e	-0.5641007
-1.223976	f f	-1.59201
-2.175626	f g	-2.76832
-2.146186	f h	-3.166481
-0.8734507	f i	-0.48994
-2.675702	f j	-1.369421
-3.070728	f k	-2.396394
-1.676412	f l	-3.092081
-1.908821	f m	-1.585967
-2.237571	f n	-3.421176
-0.6612644	f o	-2.732598
-1.760768	f p	-1.143219
-3.212246	f q	-1.873681
-1.164829	f r	-3.581138
-1.758551	f s	-0.4987052
-0.8078405	f t	-0.7191278
-1.301193	f u	-2.714894
-2.438588	f v	-0.8718787
-1.89291	f w	-2.938556
-4.537112	f x	-1.50289
-2.180524	f y	-1.342563
-3.777141	f z	-1.45516
-5.439468	g #	-0.2030364
-5.940071	g *	-0.1245407
-1.942298	g </s>
-6.116162	g @	-0.5740313
-5.138438	g [	-0.1342041
-5.286858	g ]	-0.6124962
-5.940071	g _	-0.4193565
-5.604278	g `	-0.3597043
-0.9646387	g a	-0.3219646
-2.102735	g b	-1.878672
-1.83043	g c	-2.80489
-2.00846	g d	-2.720371
-0.8030789	g e	0
-1.840488	g f	-2.455957
-2.016714	g g	-2.359535
-1.006687	g h	-0.127468
-1.032996	g i	-2.87464
-3.13096	g j	-1.057885
-3.091573	g k	-2.315276
-1.641167	g l	-2.801316
-1.93322	g m	-1.555879
-1.540561	g n	-1.991941
-1.098318	g o	-0.5448935
-1.785357	g p	-1.182907
-3.193696	g q	-1.447829
-0.9413383	g r	-4.097152
-1.537219	g s	-0.7716027
-1.035247	g t	-3.078785
-1.356124	g u	-2.763259
-2.781959	g v	-0.7855105
-1.854239	g w	-3.229746
-4.138438	g x	-1.529035
-1.748629	g y	-0.4269454
-4.05358	g z	-0.6895106
-5.854323	h #	0.6161373
-2.609981	h </s>
-5.735137	h [	-0.1635144
-5.752865	h ]	0.01756299
-6.434106	h _	-0.1975039
-6.655955	h `	-0.3249421
-0.693457	h a	-0.3504146
-2.599699	h b	-2.043226
-2.272661	h c	-2.771001
-2.603672	h d	-3.055323
-0.3329565	h e	0
-2.605898	h f	-3.111706
-2.848375	h g	-3.005848
-2.452406	h h	-2.199841
-0.891697	h i	-2.945717
-3.680371	h j	-0.9284716
-3.295614	h k	-2.481874
-2.45275	h l	-2.478576
-2.28362	h m	-1.379969
-2.327223	h n	-0.1672439
-1.136813	h o	-0.8328704
-2.33799	h p	-1.044491
-3.409211	h q	-1.319855
-1.737511	h r	-2.24365
-2.200791	h s	-0.8034904
-1.350258	h t	0
-1.996553	h u	0.2693247
-3.331948	h v	-0.6342202
-2.163256	h w	-3.76065
-5.685918	h x	-0.7878684
-2.2665	h y	-0.0242948
-3.815431	h z	-0.8957241
-6.33929	i #	-1.851794
-3.67619	i </s>
-6.426441	i [	0.007463279
-5.013327	i ]	-1.260959
-6.681713	i _	-0.185966
-7.079653	i `
-1.397724	i a	0
-1.945451	i b	-0.8878631
-1.145976	i c	0
-1.513565	i d	-1.566043
-1.438703	i e	-0.7860224
-1.791376	i f	-0.2278951
-1.627923	i g	-1.42631
-2.534773	i h	-1.739663
-3.190436	i i	-1.772571
-3.46634	i j	-0.4060809
-2.189543	i k	-2.115803
-1.359906	i l	-0.2909017
-1.51351	i m	-0.9190544
-0.6291127	i n	-0.1671572
-0.9608729	i o	-0.8279977
-2.20156	i p	-0.5404456
-3.450958	i q	-1.036229
-1.569624	i r	-0.1593563
-0.8548974	i s	0.03982254
-0.9154627	i t	-0.6586005
-2.953181	i u	-0.2071052
-1.499248	i v	-0.6575567
-2.230191	i w	-3.022032
-2.510139	i x	0.6344085
-4.311385	i y	-1.924882
-2.336269	i z	-2.219193
-8.121046	i }
-3.703679	j </s>
-6.313274	j [
-1.160064	j a	-0.2680804
-3.949662	j b	-0.9774533
-3.156271	j c	-0.9889189
-3.139942	j d	-0.769076
-0.5352735	j e	-2.965148
-3.709588	j f	-1.518297
-3.746836	j g	-0.9396833
-3.278445	j h	-1.342229
-1.885382	j i	-1.225804
-3.802059	j j	-1.205338
-2.761336	j k	-1.062223
-3.680816	j l	-0.7104279
-3.439372	j m	-0.5815495
-2.87481	j n	-0.7442225
-0.5478593	j o	-2.192147
-2.925528	j p	0.377791
-6.313274	j q
-2.747485	j r	-1.296873
-2.573781	j s	-0.5919901
-2.651225	j t	-1.385629
-0.486416	j u	-2.734653
-2.919698	j v	-1.417921
-3.010618	j w	-1.545302
-4.004709	j y	-1.063231
-3.817036	j z	-0.6578495
-5.068742	k #	-0.3051859
-6.923048	k *
-1.777305	k </s>
-6.923048	k @
-4.860466	k [	-0.1899888
-5.279595	k ]	-0.02359051
-1.210006	k a	0.1574878
-2.136385	k b	-2.043761
-2.193413	k c	-1.93814
-2.202363	k d	-2.677844
-0.4066555	k e	-0.1980515
-1.837449	k f	-3.54603
-2.401792	k g	-1.87328
-1.973519	k h	-0.9201696
-0.8051311	k i	-2.825326
-3.327772	k j	-0.5099729
-3.167325	k k	-1.225847
-1.768297	k l	-3.038311
-1.971484	k m	-1.331061
-1.315949	k n	-3.196903
-1.246262	k o	-1.148009
-1.929129	k p	-1.542662
-3.284509	k q	-1.323615
-1.940218	k r	-2.285374
-1.172215	k s	0.4516562
-1.239864	k t	-3.182561
-2.227864	k u	-1.787281
-3.080938	k v	-0.04933973
-1.794158	k w	-2.387901
-3.538246	k x	-0.9531131
-1.740597	k y	-1.127873
-4.458409	k z	0.3002782
-5.583837	l #	0.4177694
-6.21586	l *	-0.2594346
-2.188959	l </s>
-7.801321	l @
-5.42749	l [	-0.4379806
-5.856838	l ]	0.1958649
-6.106716	l _	-0.1582299
-6.157868	l `	-0.6259722
-0.9562422	l a	0
-1.866483	l b	-3.458807
-1.783594	l c	-2.067706
-1.205572	l d	-1.38522
-0.8013738	l e	0
-1.780799	l f	-1.246051
-2.372227	l g	-2.823909
-2.274796	l h	-2.536069
-0.8197811	l i	-0.4994311
-3.286295	l j	-0.2229049
-2.41885	l k	-1.192198
-0.9253074	l l	0
-1.997723	l m	0.06559767
-2.250208	l n	-2.863643
-1.165224	l o	-0.7325984
-1.764037	l p	-0.7187911
-3.165204	l q	-1.435999
-1.888788	l r	-3.406993
-1.352226	l s	-0.02582894
-1.362514	l t	-0.5795123
-1.591503	l u	-1.248497
-2.071526	l v	-1.339624
-2.070886	l w	-2.956772
-5.2097	l x	-0.9717066
-1.063565	l y	-0.06352714
-3.583258	l z	-1.066796
-5.713019	m #	-0.3953626
-7.657502	m *
-2.146707	m </s>
-7.657502	m @
-5.555411	m [	-0.282322
-5.638385	m ]	-0.01587819
-6.440018	m `	-0.1573353
-0.8624009	m a	-0.1325612
-1.385534	m b	-0.7270351
-2.45734	m c	-2.324298
-2.753858	m d	-2.739039
-0.5578967	m e	0
-2.435109	m f	-0.8044654
-2.888161	m g	-1.77156
-2.737013	m h	-1.656408
-0.9049226	m i	-0.425328
-3.685669	m j	-0.6727657
-3.744244	m k	-1.392939
-2.709936	m l	-2.465403
-1.124502	m m	-2.627577
-2.507291	m n	-1.856091
-1.031558	m o	-0.7185227
-1.081425	m p	-0.1209008
-3.88091	m q	-1.349056
-1.496611	m r	-0.1679904
-1.542607	m s	-0.5551347
-1.728528	m t	-2.751611
-1.360126	m u	-0.2693991
-2.960634	m v	-0.0888528
-2.377386	m w	-2.578024
-4.519199	m x	-1.681434
-1.785761	m y	-0.1132297
-4.46689	m z	-0.3002644
-5.380473	n #	-0.1255012
-6.508502	n *	-0.2025539
-1.937791	n </s>
-8.093963	n >
-6.876479	n @	-0.5606673
-4.982533	n [	-0.5884049
-5.597725	n ]	-0.5457308
-6.011178	n _	-0.472501
-5.835086	n `	-1.241396
-1.15978	n a	0
-2.007905	n b	-2.355757
-1.218284	n c	-99
-0.8869882	n d	0
-1.064667	n e	0
-1.758153	n f	-2.650147
-1.025043	n g	0
-2.200356	n h	-1.592022
-1.174591	n i	0
-2.87276	n j	-1.61779
-2.116831	n k	-0.4691613
-1.989633	n l	-3.041723
-1.870076	n m	-2.337756
-1.995424	n n	-0.7387982
-1.135371	n o	-0.7635494
-1.841619	n p	-0.8939553
-3.244258	n q	-1.738633
-2.10338	n r	-3.284943
-1.135764	n s	-0.04678401
-0.7175393	n t	0
-1.862268	n u	-1.271597
-2.058568	n v	-1.048207
-1.907915	n w	-3.824789
-4.108335	n x	-1.64378
-2.053943	n y	-0.5188403
-3.256413	n z	-1.366319
-4.807148	o #	-1.772167
-7.087043	o *
-2.698586	o </s>
-8.128436	o >
-8.128436	o @
-5.561998	o [	-0.3239797
-5.882923	o ]	-0.2863168
-6.910952	o _
-6.211981	o `	-0.267571
-1.802036	o a	-0.1528423
-1.689781	o b	0.03470768
-1.629032	o c	-0.6664377
-1.708184	o d	-1.43407
-2.031994	o e	-0.6822534
-1.004723	o f	0
-1.972949	o g	-2.316041
-2.269626	o h	-1.635148
-1.83835	o i	-0.543479
-2.796241	o j	-0.6664959
-2.492396	o k	-1.078307
-1.474423	o l	-0.4982303
-1.164662	o m	0
-0.674053	o n	-0.04690029
-1.714777	o o	-0.682624
-1.255735	o p	-0.8188254
-3.516092	o q	-1.809674
-0.8960497	o r	0
-1.421986	o s	-0.8675619
-1.194263	o t	0
-1.030418	o u	-0.3869662
-1.724478	o v	-0.1167205
-1.528519	o w	0.01350496
-3.329761	o x	-3.293429
-2.4218	o y	-0.8836597
-1.94001	o z	-2.285437
-8.128436	o ~
-5.378815	p #	0.3608609
-6.253876	p *
-2.583538	p </s>
-5.457996	p [	-0.07043333
-4.795238	p ]	-0.5383359
-7.596299	p _
-0.9632983	p a	-0.001079223
-2.684356	p b	-1.904771
-2.797511	p c	-1.721756
-2.929183	p d	-1.857693
-0.706204	p e	0
-2.686556	p f	-2.835788
-3.296269	p g	-2.464904
-1.935886	p h	-0.7821062
-1.549158	p i	-0.2980145
-4.002847	p j	-0.2629022
-3.892149	p k	-1.618848
-1.052017	p l	-3.224393
-1.96052	p m	-0.6704113
-3.177327	p n	-2.092416
-0.7200105	p o	-0.7494753
-1.235487	p p	-1.609974
-4.233722	p q	-1.10471
-0.6677803	p r	-2.520236
-1.907015	p s	-0.6059049
-1.454214	p t	0.1016289
-1.54907	p u	-2.932184
-3.739994	p v	0.01295124
-2.546796	p w	-2.647307
-5.651816	p x	-0.3726788
-2.790058	p y	-0.4792247
-4.931657	p z	-0.2146769
-2.269707	q </s>
-6.22913	q ]
-5.187738	q `	-1.010084
-1.996427	q a	-2.129805
-2.997406	q b	-1.88766
-3.068812	q c	-1.570022
-3.416886	q d	-2.361375
-2.861402	q e	-0.737832
-3.134659	q f	-1.254896
-4.011647	q g	-0.9770147
-2.948438	q h	-1.581704
-1.962299	q i	-0.9751567
-4.258319	q j	-0.6947201
-3.983618	q k	-1.271503
-3.559349	q l	-1.161247
-3.158354	q m	-1.770559
-3.554269	q n	-1.773829
-3.057404	q o	-1.114262
-3.409587	q p	-1.31091
-3.886708	q q	0.3681062
-3.395346	q r	-1.686712
-2.556802	q s	-0.001974126
-2.661399	q t	-2.054332
-0.01935673	q u	-4.536434
-3.287371	q v	-1.050019
-2.535008	q w	-2.02322
-4.34264	q y	-1.061313
-6.22913	q z
-5.628131	r #	-0.9662811
-6.378253	r *	-0.07704575
-2.240381	r </s>
-6.679284	r @	-0.1542334
-5.043298	r [	-0.5382109
-5.776194	r ]	-0.0855416
-6.202162	r _	-0.3225729
-6.077224	r `	-0.9533311
-1.037607	r a	0
-2.219684	r b	0.6929141
-1.732679	r c	-0.697265
-1.591714	r d	-0.1463145
-0.5763145	r e	0
-2.116607	r f	-2.037288
-1.811868	r g	-1.731983
-2.257404	r h	-2.54373
-1.041828	r i	-0.4963672
-3.19165	r j	-1.055076
-1.801219	r k	-1.946389
-1.69461	r l	-2.108148
-1.596972	r m	-0.04970506
-1.672929	r n	-1.263863
-0.8438194	r o	0
-1.784809	r p	-0.8798135
-3.402879	r q	-1.483049
-1.757426	r r	-2.073298
-1.24544	r s	-0.08268691
-1.055121	r t	0
-1.771474	r u	-1.287048
-2.130161	r v	-1.340247
-2.036901	r w	-3.409504
-4.578913	r x	-0.4194541
-1.560152	r y	0
-3.011621	r z	-1.556567
-5.047888	s #	-0.08227579
-5.982387	s *	-0.1997005
-8.02378	s <
-1.49683	s </s>
-8.02378	s @
-4.638978	s [	-0.6978427
-4.455402	s ]	-0.5104607
-6.283417	s _	-0.07781572
-5.519989	s `	-0.7449931
-1.032723	s a	0
-1.791504	s b	-1.771302
-1.589696	s c	-1.450763
-2.018894	s d	-2.332696
-0.950907	s e	0
-1.756093	s f	-2.273884
-2.406691	s g	-2.675835
-1.403208	s h	0
-0.8997198	s i	-0.5087101
-2.952293	s j	-1.271088
-2.249925	s k	-0.9373377
-1.968596	s l	-2.950477
-1.741881	s m	-0.7563922
-1.858517	s n	-3.435
-1.080358	s o	-0.04714808
-1.417717	s p	-0.6355627
-2.934645	s q	-1.934918
-1.84927	s r	-3.642534
-1.120168	s s	-0.2731433
-0.7465867	s t	0
-1.341111	s u	-2.426465
-2.535826	s v	-0.2165141
-1.542138	s w	-3.405596
-5.128081	s x	-0.9467253
-2.18777	s y	-1.332867
-4.008336	s z	0.09813657
-5.727881	t #	0.1118605
-6.565154	t *	-0.2129826
-8.208608	t <
-2.041983	t </s>
-6.623146	t @	-1.650216
-5.171579	t [	-0.1764246
-5.451211	t ]	-0.4270844
-6.053271	t _	-0.5848323
-6.070304	t `	-1.044683
-1.151086	t a	0
-2.039984	t b	-1.80121
-2.028604	t c	-2.476616
-2.325711	t d	-1.291448
-1.027067	t e	0
-2.124869	t f	-2.509515
-2.687337	t g	-2.859202
-0.5191337	t h	0
-0.8215343	t i	-0.5316481
-3.084124	t j	-1.585246
-3.360729	t k	-2.373189
-1.98912	t l	-2.459389
-2.055668	t m	-2.549827
-2.330536	t n	-2.81054
-0.9695563	t o	0
-2.148526	t p	-1.264973
-3.495532	t q	-1.689012
-1.402312	t r	-3.396473
-1.398648	t s	-0.1306592
-1.296549	t t	-0.9059076
-1.687755	t u	-1.257555
-3.026219	t v	-0.2125476
-1.55037	t w	-3.865358
-4.89887	t x	-1.701648
-1.691336	t y	0
-3.358801	t z	-1.896533
-5.565071	u #	-1.013037
-7.685645	u *
-2.824018	u </s>
-5.903889	u @	-0.9542425
-6.343222	u [
-7.685645	u ]
-1.436456	u a	-0.01112057
-1.677174	u b	0
-1.300479	u c	-2.25262
-1.655764	u d	-1.311233
-1.37246	u e	-0.3217264
-2.30256	u f	-2.62387
-1.64922	u g	-2.181893
-2.624845	u h	-2.21401
-1.679177	u i	-0.2559745
-3.675769	u j	-0.4642788
-2.563932	u k	-0.6308163
-0.9495546	u l	-0.7179694
-1.451251	u m	-0.7348174
-0.874418	u n	-0.7328602
-2.589447	u o	-1.059092
-1.423715	u p	0
-4.277829	u q	-0.9348747
-0.6791372	u r	0
-0.8897575	u s	-0.1113561
-0.9678276	u t	0
-3.510873	u u	-1.967103
-3.1869	u v	-0.7294286
-2.607743	u w	-2.701588
-3.192926	u x	-1.548993
-3.123637	u y	-0.5361348
-3.480196	u z	-0.5486826
-3.788621	v </s>
-6.22319	v [
-1.197135	v a	-0.15436
-4.170112	v b	-0.2360976
-3.423505	v c	-1.390234
-3.944437	v d	-0.909292
-0.1598509	v e	0
-4.070902	v f	-0.8810427
-4.094468	v g	-1.796514
-3.973992	v h	-1.285313
-0.7561538	v i	-2.026716
-5.032858	v j	0.07764372
-4.356903	v k	-1.232067
-3.504689	v l	-1.765594
-3.53477	v m	-1.171886
-4.089652	v n	-1.375054
-1.207361	v o	-0.6290586
-3.446489	v p	-0.9886389
-5.52422	v q	0.3605948
-3.115302	v r	-1.664531
-3.240467	v s	-0.396439
-3.482828	v t	-1.565908
-2.827689	v u	-1.599869
-3.926525	v v	0.6082264
-3.588713	v w	-1.215837
-5.746069	v x	-0.2987854
-2.849084	v y	-0.9280792
-5.032858	v z	0.1867799
-6.086907	w #	-0.4784446
-6.387937	w *
-2.368821	w </s>
-5.609786	w [	-0.1612169
-5.458518	w ]	-0.1344447
-6.387937	w _
-6.211846	w `	-0.3249421
-0.9636658	w a	-0.2956971
-2.458697	w b	-2.196082
-2.280456	w c	-2.652664
-2.473197	w d	-1.80497
-0.642561	w e	-0.4011207
-2.492902	w f	-3.008896
-2.918189	w g	-2.108199
-0.7464105	w h	-4.254076
-0.7028335	w i	-0.5315337
-3.338331	w j	-1.237671
-3.515489	w k	-1.135903
-2.278933	w l	-3.040787
-2.130019	w m	-3.612112
-1.677612	w n	-0.02132471
-0.7729909	w o	0
-2.393334	w p	-1.385975
-3.78642	w q	-1.126681
-2.053031	w r	-3.601707
-1.893755	w s	-0.3358567
-1.598311	w t	-3.767677
-2.663825	w u	-2.022535
-3.289986	w v	-0.5176693
-2.221167	w w	-2.077492
-5.910816	w x	-0.6534919
-2.642082	w y	-2.659891
-4.053483	w z	-1.20999
-1.927012	x </s>
-4.444396	x [	-0.4495415
-5.164556	x ]
-4.725223	x _	-0.983628
-6.506979	x `
-0.9204396	x a	-1.745141
-2.157555	x b	-1.580509
-1.001902	x c	-2.745181
-2.555228	x d	-2.036906
-1.209205	x e	-2.162263
-1.981927	x f	-2.563301
-3.289495	x g	-1.136375
-2.157342	x h	-1.709309
-0.9575479	x i	-1.425562
-3.006948	x j	-0.7484545
-3.576284	x k	-1.091907
-2.836686	x l	-1.712379
-1.942425	x m	-1.967551
-2.287761	x n	-2.762388
-1.741884	x o	-2.556896
-0.6303837	x p	-3.205634
-3.858131	x q	-1.520132
-2.283457	x r	-2.557158
-1.942295	x s	-2.226951
-0.6150253	x t	-1.341606
-2.016648	x u	-1.95346
-3.064185	x v	0.3973249
-2.252068	x w	-2.248937
-3.213948	x x	-1.387566
-2.47725	x y	-0.7805965
-1.751969	x z	-2.778244
-4.918475	y #	0.1279469
-5.48835	y *	-0.1068771
-1.300995	y </s>
-4.48219	y [	-0.4230133
-5.00101	y ]	-0.1158744
-5.935509	y _
-5.634479	y `	-0.4218521
-0.9828655	y a	0.08191478
-1.473377	y b	-2.831645
-1.354253	y c	-2.073976
-1.627961	y d	-3.226094
-1.210789	y e	-0.7455392
-1.500525	y f	-3.453164
-1.943459	y g	-2.906106
-1.659337	y h	-3.153816
-1.060613	y i	-2.763164
-2.749627	y j	-1.178939
-2.78463	y k	-1.477124
-1.792706	y l	-1.699956
-1.361001	y m	-2.501759
-1.817416	y n	-2.511165
-0.9360676	y o	-1.911635
-1.425769	y p	-2.939108
-2.726691	y q	-2.159114
-1.597347	y r	-3.095694
-1.090474	y s	-0.9306704
-0.9028779	y t	-3.841174
-2.056264	y u	-1.475422
-2.241677	y v	-1.04985
-1.320795	y w	-3.601765
-4.675437	y x	-1.258416
-2.488289	y y	-3.37449
-3.361246	y z	-0.9408664
-2.974203	z </s>
-6.499183	z [
-1.311755	z a	0.0008078365
-2.484894	z b	-3.047293
-3.129411	z c	-1.773951
-2.786155	z d	-2.47185
-0.06590999	z e	-0.7170646
-2.861193	z f	-1.363814
-3.237682	z g	-2.037816
-2.503307	z h	-3.237061
-1.549252	z i	-1.788909
-3.628487	z j	-1.340304
-3.237682	z k	-1.266429
-2.466343	z l	-2.271554
-2.884919	z m	-1.740774
-2.826347	z n	-1.792322
-1.606196	z o	-1.9406
-3.028038	z p	-0.7020484
-3.202518	z q	-1.196912
-2.797874	z r	-2.189534
-2.514543	z s	-0.685151
-2.965729	z t	-1.218579
-2.384439	z u	-1.071576
-3.668915	z v	-0.7640243
-2.820301	z w	-1.651035
-6.499183	z x
-2.402412	z y	0.7680761
-2.510847	z z	-0.6276621
-0.7403627	{ m
-0.7403627	} </s>
-0.7403627	~ o

\3-grams:
-0.01021917	<s> # o	1.011462
-0.4771213	a # f	1.4133
-0.3174204	a # o	1.498803
-0.8293038	a # x	1.497214
-0.1991078	b # f	1.800666
-0.3424227	c # f	1.388802
-0.4393327	c # o	1.858844
-0.7633792	c # x	1.670668
-0.925754	d # f	1.463299
-0.2145495	d # o	1.088628
-0.5947608	d # x	1.079181
-2.098563	e # a
-2.098563	e # c
-0.2335622	e # f	0.2671717
-0.5253186	e # o	0.7875982
-1.034154	e # x	0.9215734
-0.146128	f # o	1.620433
-0.5670846	f # x	1.670668
-1.00074	g # b	-0.01057357
-0.1648103	g # o	1.530987
-0.6766936	h # f	1.627213
-0.1995724	h # o	1.530987
-1.00074	h # x	1.670668
-0.7633792	i # f	1.800666
-0.08715018	i # x	1.283301
-0.2108534	k # f	1.459057
-0.5118834	k # o	1.858844
-1.199108	l # f	1.800666
-0.1760913	l # o	1.322711
-0.6320232	l # x	1.3333
-0.7269987	m # f	1.635528
-0.1249387	m # o	1.530987
-0.6159958	n # f	1.033089
-0.4462447	n # o	1.100863
-0.4095219	n # x	0.7035176
-1.881955	o # f	1.933022
-0.006893708	o # o	0.06974284
-0.3452336	p # f	1.237208
-0.4121805	p # o	1.530987
-0.8893017	p # x	1.497214
-0.1346986	r # o	1.113452
-0.6118198	r # x	1.20412
-0.9133092	s # f	1.070877
-0.1636464	s # o	0.5693837
-0.7441667	s # x	0.7781513
-1.263241	t # f	1.635528
-0.1605791	t # o	1.053866
-0.6264194	t # x	1.137173
-0.03778856	u # x	0.9215734
-0.3240465	w # f	1.800666
-0.3240465	w # o	2.032297
-0.8211859	y # f	1.459057
-0.1679734	y # o	1.076729
-0.8211859	y # x	1.329059
-0.3802112	* * *	-0.5228788
-0.4771213	* * </s>
-1.102198	* * b
-0.6532125	<s> * *	-0.7659168
-0.9542425	<s> * a	-0.03989123
-0.9542425	<s> * c	0.003304037
-1.176091	<s> * e
-1.176091	<s> * f	-0.06148795
-1.375199	<s> * i	-0.2272827
-1.375199	<s> * r
-1.051152	<s> * s	-0.04651337
-0.8750613	<s> * t	-0.8476169
-0.4209565	a * o	-0.521292
-0.6250765	d * s
-1.083714	e * b	-0.357361
-1.083714	e * c
-0.8846066	e * d
-1.083714	e * e
-1.083714	e * m	-0.1355123
-1.083714	e * o
-0.5001377	g * a
-0.5670846	l * </s>
-0.5670846	l * c
-0.3679768	n * i	0.0808249
-0.6250765	r * i
-1.023017	s * *
-0.8239087	s * </s>
-0.8239087	s * a	-0.2531471
-1.023017	s * s
-0.8239087	s * w
-0.6250765	t * i
-0.6250765	t * o	-0.4577316
-0.8681145	y * </s>
-0.8681145	y * i
-0.8681145	y * o
-0.4209565	e @ a	0.08633643
-0.4209565	e @ l	0.6745685
-0.09691001	g @ s	-0.6099957
-0.1249387	n @ e	-0.02535386
-0.3240465	r @ s	-0.2324223
-0.5670846	t @ a	0.08633643
-0.146128	t @ s	-0.6442866
-0.03778856	u @ o	0
-1.510928	<s> [ a	-0.168301
-0.3783022	<s> [ c	-0.8903622
-2.078012	<s> [ d
-1.878905	<s> [ e	0.06654186
-1.510928	<s> [ f	-0.01481793
-1.657056	<s> [ h	-0.4089223
-1.577875	<s> [ i	-0.1132068
-2.078012	<s> [ l	-0.5578324
-1.577875	<s> [ m	-0.02598578
-1.401783	<s> [ n	0.06200039
-1.125577	<s> [ o	-0.4213972
-1.657056	<s> [ p	-0.8124089
-1.401783	<s> [ s	-0.3575058
-0.7028133	<s> [ t	0.1370188
-1.577875	<s> [ w	0.01423278
-0.5001377	] [ s
-1.306425	a [ a	-0.1899117
-0.3287014	a [ c	-0.8112589
-1.431364	a [ d	-0.1448252
-1.630472	a [ e
-1.630472	a [ h
-1.431364	a [ i
-1.630472	a [ m
-1.630472	a [ n
-1.630472	a [ o	0.2212418
-1.630472	a [ p
-0.7945417	a [ t	-0.09828708
-1.630472	a [ z	0.7095857
-0.3240465	b [ a
-1.033424	c [ a	-0.6488342
-0.4101745	c [ c	0.07754621
-1.45438	c [ e
-1.45438	c [ f	-0.2302986
-1.255273	c [ n	-0.5060311
-0.7323937	c [ o	-0.2075174
-1.033424	c [ p	-0.8124089
-1.255273	c [ t	-0.3593188
-0.8354467	d [ ]	-0.1005087
-1.0463	d [ a	0.1404556
-1.34733	d [ b	-0.4117188
-0.6271707	d [ c	-0.562617
-1.34733	d [ e
-1.34733	d [ i
-1.671377	d [ j	-0.2146936
-1.671377	d [ m
-1.34733	d [ o	0.6683997
-1.671377	d [ p
-1.671377	d [ r
-1.671377	d [ s
-0.7732987	d [ t	0.2542061
-1.671377	d [ w	-0.5264474
-1.181571	e [ ]	0.01345737
-1.299671	e [ a	0.2290122
-1.658693	e [ b	-0.05501493
-0.5037907	e [ c	0.02787736
-2.02667	e [ d	-0.2319753
-1.804821	e [ e	0.2146711
-1.600701	e [ f	0.3418436
-1.804821	e [ h	-0.1150041
-1.503791	e [ i	-0.1565724
-2.02667	e [ l
-1.901731	e [ m
-1.804821	e [ n	0.1163305
-0.9597226	e [ o	0.130115
-1.600701	e [ p	-0.2447876
-1.901731	e [ r	-0.1705697
-1.462398	e [ s	0.1839509
-0.7329386	e [ t	-0.3315993
-2.02667	e [ u	-0.1245592
-1.901731	e [ w	-0.2831747
-1.804821	e [ z	0.2977214
-0.7323937	f [ ]
-1.15335	f [ a
-0.7323937	f [ c	0.3866724
-0.9542425	f [ i
-1.15335	f [ o	0.2212418
-0.9542425	f [ t	-0.6687819
-1.30177	g [ ]
-1.30177	g [ b	-0.3853898
-0.7346855	g [ c	0.3184956
-1.30177	g [ f	-0.2302986
-1.30177	g [ h
-1.30177	g [ i
-1.30177	g [ o	0.2212418
-1.30177	g [ p
-1.30177	g [ s	-0.5383048
-0.5797836	g [ t	-0.8323108
-1.119927	h [ ]
-0.9208187	h [ a
-0.6197888	h [ c	0.1697323
-1.119927	h [ i	-0.3473191
-1.119927	h [ s	-0.296712
-0.9208187	h [ t	-0.1955362
-0.9208187	h [ w
-0.4771213	i [ c
-0.4191293	k [ c	0.3949867
-1.044206	k [ f
-1.044206	k [ m	-0.5877035
-1.044206	k [ o
-1.355455	l [ ]
-0.9344984	l [ a	-0.3649903
-0.3324385	l [ c	0.2758895
-1.355455	l [ o	0.2212418
-1.031408	l [ s	0.1097073
-0.9344984	l [ t	-0.0618252
-1.355455	l [ z	0.7095857
-1.083714	m [ a	-0.2369699
-0.6627578	m [ c	0.4788516
-1.083714	m [ n	-0.340893
-0.7596679	m [ o	0.6276611
-1.083714	m [ p
-0.6627578	m [ t	-0.0618252
-1.329675	n [ ]	-0.0556851
-1.416825	n [ a	0.1738227
-2.093054	n [ b
-0.4120265	n [ c	-0.08550266
-1.893947	n [ d	-0.1448252
-1.672098	n [ e	-0.1092103
-2.093054	n [ f	-0.2302986
-1.769008	n [ h
-1.467978	n [ i	-0.08783324
-2.093054	n [ l
-2.093054	n [ m	-0.5725163
-1.893947	n [ n	-0.03278538
-0.8797061	n [ o	-0.1156889
-1.467978	n [ s	-0.638321
-0.7375994	n [ t	-0.860442
-2.093054	n [ v
-1.769008	n [ w	-0.3066558
-1.893947	n [ z	0.5444476
-1.224015	o [ ]	-0.3668643
-1.548061	o [ b	-0.5429977
-0.4836521	o [ c	0.01124623
-1.224015	o [ e
-1.548061	o [ f
-1.548061	o [ o	0.2212418
-1.348954	o [ p	-0.2173758
-1.548061	o [ s	-0.296712
-0.5473212	o [ t	-0.3137111
-0.9208187	p [ a	0.07113763
-0.552842	p [ c	0.02934704
-1.119927	p [ p
-1.119927	p [ s
-0.79588	p [ t	-0.09722443
-1.960033	r [ ]
-0.3629848	r [ a	-0.9486499
-0.7065672	r [ c	0.3834028
-1.960033	r [ e
-1.760925	r [ i	-0.1837038
-1.238046	r [ o	-0.4472646
-1.960033	r [ p	-0.4005446
-1.635986	r [ s	0.1097073
-0.7195322	r [ t	-0.3283997
-1.960033	r [ w
-1.264227	s [ ]	0.03334462
-1.282711	s [ a	-0.01115839
-2.042379	s [ b	-0.1985984
-0.354404	s [ c	-0.3773229
-2.167317	s [ d	-0.1448252
-1.690196	s [ e	-0.5831746
-1.799341	s [ f	-0.3681237
-1.945469	s [ g	-0.04245345
-2.366425	s [ h
-1.565257	s [ i	0.04984433
-1.799341	s [ n	0.183691
-0.9816808	s [ o	-0.5278525
-1.945469	s [ p	0.05569212
-2.167317	s [ r
-1.530495	s [ s	-0.3017991
-0.8119297	s [ t	-0.6541252
-2.366425	s [ u
-1.644439	s [ w	-0.1615194
-1.066216	t [ ]	-0.04555538
-1.120574	t [ a	-0.1605731
-2.018652	t [ b
-0.7168816	t [ c	0.2545448
-1.819544	t [ d
-1.694605	t [ e	-0.05477433
-1.518514	t [ f	0.148306
-1.597695	t [ h	-0.0850409
-1.296665	t [ i	-0.1809059
-1.819544	t [ l	-0.2143494
-1.597695	t [ m	-0.1020391
-1.694605	t [ n	-0.3108877
-1.342423	t [ o	0.3906443
-2.018652	t [ p
-1.217484	t [ s	-0.01886283
-0.5976952	t [ t	-0.6143395
-1.342423	t [ w	-0.3403771
-0.3802112	w [ c	0.4788516
-0.8011678	w [ s
-0.2808266	x [ c	-0.2993755
-1.044206	x [ d	-0.4281091
-0.845098	x [ s	-0.4618502
-1.044206	x [ t
-0.8970158	y [ ]	-0.03226559
-1.374137	y [ a	-0.1753834
-0.4119256	y [ c	-0.8708927
-1.874275	y [ d	-0.4281091
-1.550228	y [ h	-0.1026736
-1.550228	y [ i	-0.146446
-1.874275	y [ m	-0.5435526
-1.550228	y [ n	0.0655264
-1.110896	y [ o	-0.07196293
-1.874275	y [ p
-1.30719	y [ s	0.1157075
-0.9481683	y [ t	0.2291971
-1.550228	y [ w
-1.675167	y [ z	0.5444476
-0.7386427	[ ] </s>
-1.822357	[ ] [
-0.8216169	[ ] a	-0.01695597
-1.498311	[ ] b	-0.1392674
-1.322219	[ ] c	0.5289551
-1.822357	[ ] d	-0.5762043
-1.623249	[ ] e	-0.2202051
-1.822357	[ ] f
-1.822357	[ ] h	-0.4600234
-1.021189	[ ] i	-0.01729743
-1.822357	[ ] l
-1.623249	[ ] m
-1.623249	[ ] n	-0.5404108
-1.498311	[ ] o	-0.3436554
-1.498311	[ ] p	-0.1418455
-0.9542425	[ ] s	-0.2960994
-0.8962505	[ ] t	0.08380653
-1.623249	[ ] w	-0.1925522
-1.199108	a ] </s>
-1	a ] a	-0.1034815
-1.199108	a ] b
-1.199108	a ] c	-0.1355123
-0.7781513	a ] l	-0.2263204
-1.199108	a ] n
-1	a ] p	-0.02052933
-1.199108	a ] s
-1.199108	a ] y	-0.01057357
-0.5001377	b ] </s>
-0.5001377	b ] o
-0.1070103	c ] </s>
-1.661506	c ] [
-1.462398	c ] a
-1.462398	c ] c	-0.3006505
-1.661506	c ] m
-1.661506	c ] n
-1.337459	c ] o	-0.1537759
-1.661506	c ] r	0.04311127
-0.1884125	d ] </s>
-1.201094	d ] a	-0.3473306
-2.155336	d ] b	-0.02369937
-1.787359	d ] c	0.1460222
-1.933487	d ] e	-0.07207591
-2.354444	d ] f	-0.5111759
-2.354444	d ] h	-0.4600234
-2.030397	d ] i	0.05469857
-2.155336	d ] l	-0.6129615
-2.354444	d ] m
-1.729367	d ] o	-0.09037186
-2.030397	d ] p	-0.1418455
-0.8063825	d ] r	-0.7942868
-2.354444	d ] s	-0.5141472
-2.030397	d ] t	-0.399428
-1.787359	d ] w	-0.5841272
-0.3568274	e ] </s>
-1.035276	e ] a	0.2985649
-1.246129	e ] c	0.5827579
-1.547159	e ] d	-0.09920387
-1.672098	e ] e
-1.547159	e ] f
-1.871206	e ] g
-1.547159	e ] h	0.1644517
-1.450249	e ] i	-0.1669133
-1.871206	e ] m
-1.450249	e ] n	-0.2429172
-1.871206	e ] o
-1.304121	e ] s	-0.3380719
-1.107826	e ] t	0.1442533
-1.547159	e ] w	-0.09424046
-0.6368221	f ] a	-0.2910931
-0.8359299	f ] d
-0.8359299	f ] h
-0.8359299	f ] o
-0.5282738	g ] </s>
-1.15335	g ] a
-0.8293038	g ] i	0.05469857
-0.9542425	g ] o
-1.15335	g ] r
-1.15335	g ] s
-0.7323937	g ] t	-0.6378388
-0.60206	h ] </s>
-1.102198	h ] c
-1.102198	h ] i
-1.102198	h ] m
-1.102198	h ] s
-1.102198	h ] w
-0.1218433	i ] </s>
-0.7338875	i ] a	-0.9343525
-1.890235	i ] n
-1.522258	i ] t	0.06031105
-0.4259687	k ] </s>
-0.6250765	k ] t
-0.9261065	l ] </s>
-0.9261065	l ] f	-0.4085136
-0.9261065	l ] s
-0.6766936	m ] </s>
-0.4336556	m ] a	-0.6548389
-1.00074	m ] s
-0.6097468	n ] </s>
-0.8016323	n ] a	-0.07760555
-1.477861	n ] b
-1.153815	n ] c	0.05127909
-1.477861	n ] d
-1.278754	n ] f
-1.278754	n ] i	-0.04361321
-1.477861	n ] m
-1.278754	n ] o
-1.278754	n ] r
-1.477861	n ] s
-0.9777236	n ] t	-1.005026
-1.278754	n ] w
-0.3290587	o ] </s>
-0.90309	o ] a	-0.005169673
-1.227136	o ] p
-1.227136	o ] s	-0.5372125
-1.028029	o ] t
-1.227136	o ] w	-0.4876949
-1.458638	p ] </s>
-1.458638	p ] a	-0.1718194
-0.2155998	p ] d	-0.08157016
-1.282547	p ] j	-0.06600531
-1.583577	p ] l	-0.2588507
-0.9145698	p ] s	-0.5860326
-1.282547	p ] t	-0.2339068
-0.5509075	r ] </s>
-1.028029	r ] a	-0.1034815
-1.227136	r ] b
-1.227136	r ] c
-1.028029	r ] e
-0.7269987	r ] t	-0.03049699
-0.1078558	s ] </s>
-1.236951	s ] a	-0.01025734
-2.225955	s ] b	0.07461241
-1.873773	s ] c	-0.5228787
-2.550002	s ] d	-0.5539279
-2.225955	s ] e	-0.1218933
-2.350894	s ] f	-0.100406
-2.350894	s ] g	-0.1082314
-2.129045	s ] h	-0.327668
-1.748834	s ] i	-0.07995208
-2.550002	s ] k
-2.350894	s ] m
-1.526985	s ] o	-0.5889142
-2.550002	s ] p
-2.225955	s ] r	-0.3426021
-1.982917	s ] s	-0.08638087
-1.623895	s ] t	0.1178673
-1.982917	s ] w	0.03606739
-0.90309	t ] </s>
-1.062791	t ] a	-0.03736104
-1.73902	t ] b	-0.331807
-1.318063	t ] c	0.3045677
-1.73902	t ] f	-0.4085136
-0.4855544	t ] h	0.2011048
-1.113943	t ] i	0.330905
-1.539912	t ] m
-1.73902	t ] p
-1.73902	t ] r
-1.414973	t ] s	-0.12324
-1.414973	t ] t	-0.03918318
-1.539912	t ] u	-0.06148795
-1.062791	t ] w	0.1309659
-0.7533277	w ] </s>
-0.3853509	w ] e	-0.0655688
-0.9524354	w ] i	-0.5684299
-0.7883704	y ] </s>
-0.9344984	y ] a	0.04464774
-1.355455	y ] c
-1.156347	y ] e
-1.156347	y ] f	-0.246534
-1.156347	y ] i	-0.04361321
-1.156347	y ] o	-0.2571014
-1.156347	y ] p
-1.031408	y ] s	-0.1077278
-1.355455	y ] t	-0.2259746
-1.156347	y ] w
-0.02301652	<s> _ _	0.7164252
-1.50515	_ _ </s>
-0.02085014	_ _ _	-0.06148794
-0.9524354	e _ a	-0.4054783
-0.7533277	e _ l	-0.1757117
-0.9524354	e _ o	-0.06856551
-0.7533277	e _ s	-0.5224992
-0.7533277	e _ t	-0.3602362
-0.1760913	g _ t	-0.6348193
-0.4209565	h _ e	0.1655177
-0.4209565	i _ r	-0.3437883
-0.4771213	l _ p	0.1348067
-0.3424227	n _ s	-0.2080071
-0.5642715	n _ t	-0.9741494
-0.8011678	r _ b
-0.8011678	r _ r	-0.3437883
-0.8011678	r _ t	-0.195098
-0.8011678	r _ z	0.6745685
-0.39794	s _ _	0.9032165
-0.7219865	s _ p
-0.5118834	t _ b	-0.2478466
-1.13696	t _ o
-0.6368221	t _ r	-0.1432995
-0.7160034	t _ t	-0.8732302
-0.04139268	x _ t	-0.6238571
-0.09691001	<s> ` `
-1.08052	` ` a	0.0775147
-1.335792	` ` b	0.3553446
-1.113943	` ` c	0.1682192
-1.470491	` ` d	0.2889536
-1.256611	` ` e	0.2698155
-1.470491	` ` f	0.2385721
-1.511883	` ` g	0.2197942
-1.365755	` ` h	0.1723708
-1.335792	` ` i	0.1049331
-1.733732	` ` j	0.2176842
-1.733732	` ` l	0.255838
-1.470491	` ` m	0.2247779
-1.335792	` ` n	-0.07859439
-1.432702	` ` o	0.01107914
-1.189664	` ` p	0.1695292
-1.432702	` ` r	0.2310276
-1.034762	` ` s	-0.01388447
-0.9933694	` ` t	0.223528
-1.733732	` ` u	0.04313913
-2.23387	` ` v	-0.1781804
-1.256611	` ` w	0.3306375
-2.034762	` ` y	-0.1757117
-0.07572071	a ` `	-0.1248261
-0.1249387	c ` `
-0.02020339	d ` `	-0.112333
-0.03651683	e ` `	-0.02977926
-1.514378	e ` m	-0.477935
-0.04011722	f ` `	-0.1289363
-0.1139434	g ` `	-0.1532848
-0.1249387	h ` `
-0.05799195	l ` `	-0.08516435
-0.1991078	m ` `
-0.01336396	n ` `	-0.215867
-0.2218488	o ` `	-0.1253449
-0.8980778	o ` m
-0.02301652	q ` `
-0.02632894	r ` `	-0.1316983
-0.05585782	s ` `	-0.003482122
-1.485415	s ` p
-0.05551733	t ` `	-0.1297861
-1.119927	t ` p
-0.1249387	w ` `
-0.09691001	y ` `	-0.1728973
-0.9524354	* a c
-0.9524354	* a m	-0.3261634
-0.5314789	* a n	-0.4400934
-0.9524354	* a p	-0.3531567
-0.6283889	* a r	-0.3662823
-4.783237	<s> a </s>
-4.306115	<s> a a	0.03914103
-1.796315	<s> a b	-0.878722
-1.281128	<s> a c	-0.6340626
-1.718778	<s> a d	-2.209347
-2.557066	<s> a e	-1.46871
-1.247478	<s> a f	-1.895101
-1.648528	<s> a g	-1.272416
-2.497679	<s> a h	-0.7178738
-2.402422	<s> a i	-0.8028478
-3.149768	<s> a j	0.2811185
-2.803992	<s> a k	-0.338177
-0.9058266	<s> a l	-2.093977
-1.448314	<s> a m	-2.290443
-0.7534469	<s> a n	-2.837795
-3.397035	<s> a o	-1.366332
-1.325153	<s> a p	-2.326238
-3.022311	<s> a q	-1.943358
-1.486717	<s> a r	-2.395875
-0.5602773	<s> a s	-2.025959
-0.9584383	<s> a t	-1.643288
-2.069466	<s> a u	-1.062311
-2.443454	<s> a v	-0.4463465
-2.352946	<s> a w	-1.871074
-4.658298	<s> a x	-0.3293529
-2.827388	<s> a y	-2.081131
-3.391126	<s> a z	-0.8920391
-0.09691001	@ a p	-0.4146498
-1.16481	[ a ]	-0.1578513
-2.00074	[ a b
-1.801632	[ a c
-1.801632	[ a d
-1.801632	[ a f
-2.00074	[ a g	-0.5356626
-1.801632	[ a l	-0.1887623
-0.2373609	[ a m	-1.478464
-0.8985423	[ a n	-0.5302103
-1.433656	[ a p	-0.02278188
-1.237361	[ a r	-0.9580533
-1.676694	[ a s	-0.1644878
-2.00074	[ a t	-0.5486673
-1.595496	] a c	-0.3322069
-1.817345	] a d
-1.516315	] a f	-0.1289867
-2.016453	] a g
-2.016453	] a i
-2.016453	] a j	0.3432195
-1.692406	] a l
-1.449368	] a m	-0.6635306
-0.4311434	] a n	-2.200022
-1.692406	] a p	-0.1626678
-1.118375	] a r	-0.7714824
-0.4749223	] a s	-1.037413
-1.595496	] a t	-0.4163119
-0.4209565	_ a l	-0.4968699
-1.184384	` a b
-1.184384	` a c
-1.184384	` a d
-0.6842467	` a m	-1.105215
-0.763428	` a n
-0.6842467	` a s	-0.2268369
-1.184384	` a u	-0.5073994
-1.184384	` a x	-0.5161443
-3.527403	a a </s>
-2.766837	a a a	-0.09199601
-1.968237	a a b	-0.08713065
-1.722842	a a c	-1.008562
-1.833843	a a d	-1.513707
-3.101434	a a e	-0.3983779
-1.950897	a a f	-0.5904788
-1.750978	a a g	-0.5480333
-2.745818	a a h	-0.5052297
-2.369615	a a i	-0.9204726
-3.59435	a a j	0.2021056
-2.055832	a a k	-0.226393
-1.526164	a a l	-0.9662071
-1.983335	a a m	-1.017813
-0.2107436	a a n	-1.35937
-3.469411	a a o	0.013455
-1.979804	a a p	-0.9669775
-3.735679	a a q	-0.5182253
-1.052008	a a r	-1.906335
-0.966813	a a s	-0.003848062
-1.469773	a a t	0.1892327
-2.478554	a a u	-0.495546
-2.484134	a a v	0.3417169
-2.759717	a a w	-1.547624
-3.946532	a a x	-0.5548624
-2.998364	a a y	-0.3858952
-2.685269	a a z	-1.186935
-2.796926	b a </s>
-2.698027	b a a	-0.687831
-1.578364	b a b	-0.5455488
-1.045331	b a c	-1.923832
-1.712848	b a d	-0.2051326
-3.618468	b a e	-0.6029431
-3.205678	b a f	-0.1119962
-2.349259	b a g	1.189897
-2.396997	b a h	-0.2912177
-2.07521	b a i	-0.9629256
-3.613772	b a j	0.5444072
-2.559827	b a k	-0.3277293
-0.7446544	b a l	-0.4451806
-2.019012	b a m	-1.393759
-0.7848148	b a n	-0.8984305
-3.007068	b a o	0.418618
-3.344209	b a p	-0.9553493
-4.326983	b a q	-0.6159472
-1.15451	b a r	-1.158283
-0.7117286	b a s	-2.039901
-0.6692156	b a t	-1.693342
-2.771351	b a u	-0.9002451
-3.061117	b a v	-0.2433988
-3.024748	b a w	-1.588319
-2.648262	b a y	-0.5104095
-3.455151	b a z	-0.7684344
-5.550799	c a #	-0.2348901
-2.470293	c a </s>
-5.328951	c a [	-0.224978
-5.550799	c a ]	-0.2587685
-2.391232	c a a	-0.7924075
-2.172765	c a b	-1.018828
-2.23427	c a c	0.3010689
-1.967752	c a d	-2.183569
-3.301193	c a e	-0.627563
-2.903416	c a f	0.5082123
-2.799263	c a g	-1.205413
-3.058971	c a h	-0.933735
-2.443363	c a i	-0.243586
-4.073678	c a j	0.1268503
-3.609619	c a k	-0.1831861
-0.6008339	c a l	-0.02678623
-1.669586	c a m	-1.909288
-0.5712965	c a n	-0.1221583
-2.900816	c a o	-1.393754
-1.394967	c a p	-0.7659717
-4.772648	c a q	-0.9605845
-1.176925	c a r	-2.131214
-1.136132	c a s	-0.267351
-0.8938391	c a t	-2.221922
-0.9636985	c a u	-2.093157
-3.141994	c a v	-0.372642
-2.71216	c a w	-1.489864
-4.580763	c a x	-1.267209
-3.522771	c a y	-0.2616068
-4.337725	c a z	-0.2856576
-2.294063	d a </s>
-5.149077	d a [	0.1268378
-5.325169	d a `	0.009793061
-2.365889	d a a	-0.4855516
-1.467203	d a b	-1.72858
-1.445413	d a c	-0.3290477
-1.68966	d a d	-0.6211125
-2.677786	d a e	-0.1860798
-1.819985	d a f	-1.251523
-1.555072	d a g	-0.544547
-2.248528	d a h	-1.108065
-1.899471	d a i	-0.2227658
-3.137648	d a j	-0.5525881
-2.777086	d a k	-0.3393154
-1.098324	d a l	-0.278239
-0.9954251	d a m	-0.04741797
-0.7135568	d a n	-0.3555358
-2.620804	d a o	-0.8495876
-1.494388	d a p	-1.45234
-3.033467	d a q	-0.785299
-1.095359	d a r	-1.104342
-1.102186	d a s	-0.01640533
-0.8727726	d a t	-0.6300586
-2.240682	d a u	-1.15229
-2.139202	d a v	-1.026721
-2.14254	d a w	-2.189374
-4.202953	d a x	-0.6144156
-0.9556931	d a y	0.9204292
-3.256983	d a z	-0.6632515
-2.472352	e a </s>
-5.532588	e a [	-0.02866817
-6.009709	e a `	0.0181083
-2.626014	e a a	-0.6193254
-1.674392	e a b	-2.071664
-1.252541	e a c	-0.2169985
-1.181828	e a d	-0.1488589
-2.938318	e a e	-1.89665
-1.999891	e a f	-0.7792076
-1.514948	e a g	-1.771642
-2.724753	e a h	-1.956102
-2.092887	e a i	-1.359407
-3.542842	e a j	-0.3099287
-1.82643	e a k	0.7478733
-1.039845	e a l	-0.8228897
-1.700385	e a m	-0.4702585
-0.6220256	e a n	-0.1369865
-2.274723	e a o	-2.130313
-1.668038	e a p	0.5592744
-3.404046	e a q	-2.242062
-0.7767236	e a r	0
-0.9032025	e a s	-1.21502
-1.051506	e a t	-0.3603324
-2.049747	e a u	-0.4876512
-1.948886	e a v	-0.8953988
-2.247306	e a w	-2.383016
-4.253835	e a x	-2.033741
-3.607735	e a y	-1.76534
-3.545319	e a z	-0.9432074
-4.014646	f a </s>
-5.111556	f a [	-0.1302381
-5.435602	f a `	0.1832464
-3.283863	f a a	0.008888444
-1.96815	f a b	-1.102508
-0.5809814	f a c	-1.139429
-1.743967	f a d	-1.064325
-2.136929	f a e	-2.030572
-1.844032	f a f	-1.449911
-1.770864	f a g	-1.193682
-2.484446	f a h	-0.8906068
-0.9017324	f a i	-2.149816
-2.921224	f a j	0.1382593
-2.978017	f a k	-0.4370246
-1.040558	f a l	-1.872468
-1.222114	f a m	-1.234907
-1.126781	f a n	-1.035678
-2.95698	f a o	-0.6941813
-1.675274	f a p	-1.370723
-3.127028	f a q	-1.651944
-0.8858588	f a r	-1.044254
-1.339766	f a s	-0.466203
-1.590319	f a t	-0.7482087
-1.722478	f a u	-1.799161
-1.190884	f a v	-1.905951
-2.468844	f a w	-1.94805
-3.50679	f a x	-0.5909375
-3.026087	f a y	-2.094405
-3.34626	f a z	-0.6184039
-3.613705	g a </s>
-2.946049	g a a	0.06552745
-1.417905	g a b	-1.469823
-1.563168	g a c	-0.4917837
-1.830392	g a d	-1.788287
-2.440983	g a e	-0.9245585
-2.052534	g a f	-0.6678997
-1.478872	g a g	-0.5429046
-2.352183	g a h	-0.9126608
-0.7707927	g a i	-2.537334
-3.192482	g a j	-0.4999516
-3.063388	g a k	-0.5364562
-0.9316775	g a l	-0.4304523
-1.691642	g a m	-1.266695
-0.6917771	g a n	0.0965265
-3.197281	g a o	-0.2369592
-1.639774	g a p	-0.4400885
-3.265033	g a q	-2.193863
-0.8221158	g a r	0.2252734
-1.252333	g a s	0.3267745
-1.016025	g a t	-0.4190306
-2.231662	g a u	-0.08772389
-1.971972	g a v	-1.051408
-2.228539	g a w	-2.40709
-4.850494	g a x	-0.5741861
-2.982732	g a y	-0.4796819
-2.228539	g a z	-1.414833
-4.138591	h a </s>
-3.517414	h a a	0.07228898
-2.455904	h a b	-0.6438367
-2.36807	h a c	-0.2461309
-1.652465	h a d	-0.03224637
-3.237132	h a e	-1.113962
-2.549871	h a f	-1.968217
-2.411212	h a g	-0.4772148
-3.155416	h a h	-0.6729413
-2.228473	h a i	0.7487367
-4.006651	h a j	0.2882852
-3.181463	h a k	-0.5257646
-1.464492	h a l	-0.7662868
-2.125269	h a m	-0.3147581
-0.9620162	h a n	-0.05752648
-3.297544	h a o	-0.195323
-1.687626	h a p	-1.492719
-3.880912	h a q	-1.407579
-1.36028	h a r	-1.248027
-0.8877524	h a s	0.4644525
-0.3542241	h a t	0
-2.625506	h a u	-0.4227935
-0.7889888	h a v	-2.931999
-2.897418	h a w	-1.756904
-5.077893	h a x	-1.271441
-3.977223	h a y	-0.8451697
-2.986914	h a z	-1.164946
-5.204806	i a #	0.2527486
-1.761674	i a </s>
-4.585017	i a [	-0.5707304
-5.380898	i a ]	-0.1778493
-1.547065	i a a	-1.553584
-1.73093	i a b	-1.858343
-2.262881	i a c	-0.7881308
-2.462605	i a d	-0.05006701
-2.670992	i a e	-0.9226342
-2.323421	i a f	-0.6378615
-1.928651	i a g	-0.555792
-2.205893	i a h	-1.395758
-1.886256	i a i	-0.07146243
-3.317376	i a j	-0.4102879
-3.317376	i a k	-0.06872396
-0.4860762	i a l	-0.5062512
-0.6300921	i a m	-1.023792
-0.9242733	i a n	0.2036872
-2.302169	i a o	-0.9711366
-2.268879	i a p	-0.7530959
-4.170044	i a q	-1.450778
-1.767664	i a r	-1.178778
-1.608374	i a s	-0.04320372
-0.8411065	i a t	-2.110109
-2.857151	i a u	-1.012807
-3.343471	i a v	0.1835611
-2.028329	i a w	-2.981317
-4.941565	i a x	-0.2138632
-3.472412	i a y	-1.593176
-3.996186	i a z	-0.3384057
-2.696843	j a </s>
-2.276126	j a a	0.07081898
-2.23387	j a b	-0.8789802
-1.115524	j a c	-2.257789
-1.529185	j a d	-0.9649985
-2.769394	j a e	-1.223837
-2.439719	j a f	0.2653835
-2.627517	j a g	-0.552984
-2.105351	j a h	-0.3016036
-1.621156	j a i	-0.2147312
-3.157574	j a j	0.5041412
-1.764487	j a k	-0.004361892
-2.004607	j a l	-1.249823
-1.390418	j a m	-0.6687468
-0.458556	j a n	-0.7406161
-3.032635	j a o	-0.557505
-0.4786009	j a p	-3.573275
-4.134833	j a q	-0.3179455
-1.324711	j a r	-1.397948
-2.088564	j a s	-0.3822296
-2.51522	j a t	-0.345843
-2.421621	j a u	-1.001966
-1.860179	j a v	-0.9625078
-2.058738	j a w	-0.8130579
-3.509757	j a x	-0.2531062
-2.656972	j a y	-0.6741692
-2.37542	j a z	-0.3474317
-2.365224	k a </s>
-2.153136	k a a	0.111763
-0.9157365	k a b	-1.899862
-1.719826	k a c	-1.494197
-1.749443	k a d	-1.524161
-2.648397	k a e	-0.3250168
-1.852435	k a f	-0.6414521
-0.834756	k a g	-2.085151
-2.12326	k a h	-0.9260172
-1.97442	k a i	-0.3972301
-3.27371	k a j	0.4164399
-2.339211	k a k	-0.8482233
-1.280714	k a l	-0.7335993
-1.910474	k a m	-0.8979495
-0.5398865	k a n	0.6635177
-2.638226	k a o	-0.3111052
-1.956064	k a p	-0.2343771
-2.779555	k a q	-1.901212
-1.267158	k a r	-1.110838
-1.150446	k a s	0.5092512
-0.938051	k a t	0.7766933
-1.989053	k a u	-0.6913935
-2.477135	k a v	-0.1255518
-2.103448	k a w	-2.118837
-4.273709	k a x	-0.9473323
-2.250046	k a y	-0.5749686
-2.04173	k a z	-1.351444
-5.826702	l a #	-0.4365423
-3.087265	l a </s>
-5.502656	l a [	0.06880234
-2.915226	l a a	0.3597544
-1.42848	l a b	-1.0411
-1.134783	l a c	-0.8603875
-1.44557	l a d	-1.338214
-2.975348	l a e	-0.8982881
-1.957256	l a f	-0.2338152
-1.753074	l a g	0.5637124
-2.606267	l a h	0.84783
-1.540523	l a i	0.1331171
-3.686414	l a j	0.7653503
-3.001254	l a k	0.6485177
-1.772924	l a l	-1.440873
-1.756314	l a m	0.1527426
-0.7264796	l a n	0.1164386
-3.005726	l a o	-0.6151347
-1.978584	l a p	-0.837836
-3.908816	l a q	-1.140747
-0.7956181	l a r	-0.2739125
-1.114635	l a s	-0.1591484
-0.6594791	l a t	-1.821272
-1.612976	l a u	-2.095313
-2.20413	l a v	-1.189853
-1.441835	l a w	-0.2807459
-2.914664	l a x	-0.01615829
-1.506725	l a y	-0.2166808
-3.327289	l a z	-0.9085807
-5.577618	m a #	-0.01929028
-2.849264	m a </s>
-5.776726	m a ]
-2.363127	m a a	-0.2529254
-2.454529	m a b	-0.9988878
-1.759964	m a c	-0.2334748
-1.07778	m a d	-1.935074
-3.117221	m a e	-0.4090631
-2.505245	m a f	-1.431717
-1.701477	m a g	-1.559098
-2.783362	m a h	-0.7347623
-1.213498	m a i	0.1533149
-1.483974	m a j	-1.738754
-1.01326	m a k	-2.522047
-1.210281	m a l	-0.1512604
-2.409612	m a m	-1.629485
-0.5737109	m a n	-0.1032271
-2.97052	m a o	-0.16164
-2.265088	m a p	0.9590747
-4.041902	m a q	-1.417119
-0.912287	m a r	-0.2807035
-1.617956	m a s	0.3934582
-0.8675399	m a t	-0.6009387
-2.842019	m a u	-0.1645183
-3.166559	m a v	-0.6862388
-2.670206	m a w	-1.940732
-2.383381	m a x	-1.866299
-1.368765	m a y	-0.8168907
-2.969092	m a z	-1.02805
-5.59176	n a #	-0.1406065
-2.576401	n a </s>
-5.348722	n a [	-0.007242163
-5.59176	n a ]
-2.37924	n a a	0.2306133
-1.369486	n a b	-1.397949
-1.413842	n a c	-0.5408053
-1.550802	n a d	-2.31501
-2.735485	n a e	-0.09623341
-1.824159	n a f	-1.4841
-1.33565	n a g	-1.963833
-2.523111	n a h	-0.4240786
-2.01018	n a i	-0.7396635
-3.252309	n a j	0.3811275
-2.983769	n a k	-0.1740827
-0.6304698	n a l	-0.4176762
-1.462103	n a m	-1.443357
-0.6610239	n a n	-1.731388
-2.860776	n a o	-0.5239945
-1.694752	n a p	0.7318923
-3.319919	n a q	-2.227022
-1.361529	n a r	-1.506599
-1.302171	n a s	0.4803702
-0.745923	n a t	-0.8462544
-2.066133	n a u	-0.8592899
-2.140051	n a v	-0.2635442
-2.181236	n a w	-3.089129
-4.069969	n a x	-2.115928
-2.977391	n a y	-1.327723
-3.009413	n a z	-1.004177
-3.392913	o a </s>
-3.272171	o a a	-0.2184641
-1.688576	o a b	-1.375065
-0.682259	o a c	-1.456881
-0.8359385	o a d	-0.8087889
-2.706369	o a e	-1.666178
-1.848527	o a f	-0.9081611
-1.571769	o a g	-1.404798
-2.264854	o a h	-1.320021
-2.313268	o a i	-0.4343661
-3.243615	o a j	-0.105432
-2.902991	o a k	0.09296998
-0.9803989	o a l	-0.2135852
-1.560568	o a m	-0.7119226
-0.8859142	o a n	-1.539405
-3.300481	o a o	-0.7999559
-1.380536	o a p	-1.22445
-2.833221	o a q	-2.157098
-1.042119	o a r	-1.841974
-0.9928737	o a s	-1.379831
-1.407032	o a t	-0.6876848
-2.294669	o a u	-1.087078
-1.698589	o a v	-1.480056
-2.20061	o a w	-2.327978
-3.66696	o a x	-0.4462797
-3.230012	o a y	-1.742532
-3.672224	o a z	-0.8753254
-3.659644	p a </s>
-5.29058	p a [	0.06880234
-3.137528	p a a	-0.4452859
-2.015845	p a b	-1.413858
-1.161599	p a c	-0.669621
-2.58966	p a d	0.3671117
-2.841487	p a e	-1.709895
-2.986844	p a f	-0.7885521
-2.104613	p a g	-1.392915
-3.353564	p a h	-0.4913121
-1.475717	p a i	-1.548448
-3.799218	p a j	-0.3354164
-2.185581	p a k	-1.229693
-1.593896	p a l	-0.9512561
-2.863662	p a m	-0.7989401
-1.035778	p a n	-0.2978916
-3.654594	p a o	-0.3393938
-1.769409	p a p	-1.293552
-3.471036	p a q	-2.128558
-0.2416528	p a r	-2.24297
-1.291972	p a s	-0.7739299
-1.195297	p a t	-1.074453
-2.711368	p a u	-1.433662
-2.741577	p a v	-0.5630578
-2.964244	p a w	-1.907176
-4.023408	p a x	-0.4661934
-1.427465	p a y	0.2692623
-3.978826	p a z	0.1007718
-2.890281	q a </s>
-2.793371	q a a	0.1141949
-2.130613	q a b	-0.4665893
-2.213588	q a c	-0.2726723
-0.9738273	q a d	-1.464625
-0.6794279	q a e	-2.323849
-1.635009	q a f	-1.063205
-2.31625	q a g	-0.7447379
-3.214328	q a h	-0.5559599
-1.405981	q a i	-2.029248
-1.693001	q a l	-0.4121055
-2.191311	q a m	-0.1722115
-0.4415749	q a n	-2.042421
-2.31625	q a p	-0.4256358
-1.51007	q a r	-1.015595
-1.299217	q a s	-0.4691398
-0.950762	q a t	-1.25721
-2.793371	q a u
-2.538099	q a w	-0.816577
-2.890281	q a y	-0.4008083
-2.11213	q a z	-0.8841942
-5.965723	r a #	-0.3273979
-3.108286	r a </s>
-5.965723	r a [
-2.955935	r a a	0.103988
-1.547975	r a b	0.4500455
-1.171781	r a c	0.693598
-1.302101	r a d	-0.1870103
-1.97984	r a e	-1.395931
-1.653184	r a f	0.2192587
-1.423627	r a g	0.05888287
-2.802042	r a h	0.2323591
-1.397467	r a i	-1.433685
-3.055934	r a j	0.3816577
-2.819182	r a k	0.463344
-0.8807981	r a l	-0.07679707
-1.246442	r a m	-1.437482
-0.7892118	r a n	-0.3493968
-2.611989	r a o	-1.334372
-1.346571	r a p	0.02439469
-2.202818	r a q	0.4128163
-1.638615	r a r	-1.903149
-1.446344	r a s	-0.3755557
-0.6208565	r a t	-0.155619
-2.256562	r a u	-0.4973628
-2.078463	r a v	-0.07994003
-1.771521	r a w	-0.3709824
-4.107016	r a x	-0.2628055
-2.708949	r a y	-0.09530321
-2.574606	r a z	-0.8789089
-3.22253	s a </s>
-5.773573	s a [
-5.551724	s a `	0.3156019
-2.865267	s a a	-0.7783224
-1.570177	s a b	-1.692894
-1.447394	s a c	0.1296834
-1.662983	s a d	-1.325121
-2.853798	s a e	-1.223024
-1.465208	s a f	-1.053607
-1.43734	s a g	-1.269915
-2.322298	s a h	-1.509097
-1.537615	s a i	-1.564458
-3.265268	s a j	-0.4565795
-2.475739	s a k	-0.6588943
-0.9510104	s a l	-0.7026174
-1.341234	s a m	-2.122604
-0.5221903	s a n	-1.801888
-3.400661	s a o	-0.9739768
-1.574769	s a p	-1.417422
-2.896778	s a q	-3.059228
-0.9232453	s a r	-1.837135
-1.222542	s a s	-0.7605118
-1.160771	s a t	-0.66624
-2.288846	s a u	-0.7416259
-1.844324	s a v	-1.750147
-1.963654	s a w	0.220506
-3.757934	s a x	-2.557522
-1.412128	s a y	-0.3838685
-4.140104	s a z	-0.4442763
-6.039145	t a #
-2.963819	t a </s>
-5.47206	t a [
-5.840037	t a `	0.0181083
-2.77396	t a a	-0.3966065
-1.193382	t a b	-1.291865
-1.430746	t a c	0.07881418
-1.989207	t a d	-1.578571
-2.860792	t a e	-0.5153943
-1.896773	t a f	-1.495927
-1.517742	t a g	0.1611414
-2.736005	t a h	-0.5547001
-1.15135	t a i	-2.216808
-3.240882	t a j	-0.3986467
-1.134116	t a k	-2.684084
-0.9149242	t a l	-0.0009846786
-1.924356	t a m	-1.451586
-0.6544701	t a n	-0.2409834
-2.922882	t a o	-0.3423302
-1.819703	t a p	-0.3866673
-3.116855	t a q	-2.184758
-1.095064	t a r	-1.214774
-1.339919	t a s	-0.4783701
-0.7614869	t a t	-0.8313439
-2.485352	t a u	-0.7807385
-2.622728	t a v	-0.5322896
-2.533898	t a w	-2.474682
-1.890631	t a x	0.4162196
-2.702894	t a y	-1.098089
-4.05948	t a z	-0.5338219
-3.559437	u a </s>
-5.230814	u a [
-3.050945	u a a	-0.2614333
-1.896255	u a b	-1.182927
-2.010517	u a c	-2.272005
-1.975564	u a d	-1.837216
-2.908944	u a e	-0.5641088
-2.73945	u a f	-0.5889871
-1.443771	u a g	-2.110009
-3.43328	u a h	-0.0725468
-2.581457	u a i	-0.6374589
-4.362699	u a j	0.3937874
-2.356539	u a k	-0.9307712
-0.3752085	u a l	-0.3252218
-2.996944	u a m	-0.9082001
-1.149656	u a n	0.6597415
-4.003677	u a o	-0.3129083
-2.814222	u a p	-1.210055
-3.657569	u a q	-1.562644
-0.7419387	u a r	-1.874273
-1.890361	u a s	0.02452518
-0.6455758	u a t	-2.321748
-3.275831	u a u	-0.7003123
-3.036071	u a v	0.2912572
-3.148992	u a w	-2.086262
-5.230814	u a x
-2.778853	u a y	-0.4356115
-4.128616	u a z	-0.780341
-2.556972	v a </s>
-2.374295	v a a	-0.3403755
-2.052698	v a b	-1.806422
-1.554619	v a c	-2.01302
-2.127881	v a d	-1.847095
-3.628117	v a e	-0.2842284
-3.14811	v a f	-0.2105314
-1.985257	v a g	-1.378578
-3.057574	v a h	-0.6365658
-1.025753	v a i	-1.75928
-3.664329	v a j	0.364891
-1.799071	v a k	-0.2620643
-0.5931038	v a l	-2.44331
-2.869205	v a m	-0.8096895
-0.7519685	v a n	-1.268484
-2.994648	v a o	-1.045739
-2.771993	v a p	-1.05544
-5.049074	v a q
-0.9130836	v a r	-0.882936
-1.448968	v a s	-0.9641365
-0.6405044	v a t	-1.225304
-2.939697	v a u	-1.537375
-3.984664	v a v	0.2264009
-2.751899	v a w	-2.032909
-3.835725	v a x	-1.492016
-3.770785	v a y	-0.1649634
-3.929147	v a z	-0.5773242
-4.072091	w a </s>
-3.552117	w a a	0.1280035
-1.861742	w a b	-0.3755809
-2.425578	w a c	-0.2859735
-2.295228	w a d	-1.843227
-3.86198	w a e	-0.1749314
-2.798446	w a f	-0.557319
-1.85001	w a g	-1.303865
-3.138716	w a h	-0.464581
-1.704693	w a i	-1.555766
-3.833208	w a j	0.3246231
-2.407449	w a k	-1.07349
-1.656783	w a l	-0.7277786
-2.582288	w a m	-1.366064
-0.8394501	w a n	0.2651266
-4.248182	w a o	0.01813134
-2.334898	w a p	0.1373896
-3.939973	w a q	-1.189612
-0.6717329	w a r	-0.7510273
-0.5225968	w a s	-0.4138474
-1.327641	w a t	-0.4030336
-3.17876	w a u	-1.228951
-2.307665	w a v	-1.01147
-3.136471	w a w	-1.399634
-3.969428	w a x	-0.364348
-0.7084451	w a y	-0.5462564
-3.642518	w a z	-0.1872522
-4.001078	x a </s>
-3.891934	x a a	-0.2910073
-2.588498	x a b	-0.1145488
-0.9512513	x a c	-2.459181
-2.42622	x a d	-1.051311
-3.523957	x a e	-1.383842
-2.69084	x a f	0.3455536
-1.840138	x a g	-2.25343
-3.943086	x a h	-0.3249884
-3.113782	x a i	-0.9691131
-4.147206	x a j	0.4755749
-4.147206	x a k	-0.296773
-2.339671	x a l	-0.9761748
-0.1669301	x a m	-2.408193
-1.090988	x a n	-1.782111
-3.212708	x a o	-0.958829
-2.277975	x a p	-1.209355
-4.369055	x a q	-0.4830837
-2.236582	x a r	-1.464146
-1.952415	x a s	0.1531651
-1.153946	x a t	-1.618144
-2.684808	x a u	-1.965565
-2.770629	x a v	-0.06301092
-3.732233	x a w	-0.1286308
-4.369055	x a x	-0.2080367
-3.804784	x a y	-1.052987
-2.598151	y a </s>
-2.580837	y a a	-0.2358006
-1.606525	y a b	-1.708876
-1.312838	y a c	-0.8797235
-1.543082	y a d	-1.774358
-2.831412	y a e	-1.473344
-1.479711	y a f	-1.173802
-1.49789	y a g	-1.097762
-2.309981	y a h	-0.9818802
-2.029399	y a i	-0.6856241
-3.175942	y a j	-0.5197996
-2.694006	y a k	0.4529362
-1.266508	y a l	0.06446666
-1.578665	y a m	-0.506606
-0.3974182	y a n	-1.923052
-3.171606	y a o	-0.5614198
-1.503999	y a p	-1.522303
-2.765687	y a q	-2.417626
-0.9184321	y a r	-2.941943
-0.9981982	y a s	0.07375965
-1.358229	y a t	-0.4827365
-1.972458	y a u	-1.165571
-2.080137	y a v	-0.7713078
-2.009446	y a w	-3.208251
-3.952643	y a x	-1.512381
-3.096519	y a y	-1.979511
-3.727334	y a z	-0.393966
-1.766729	z a </s>
-1.649105	z a a	-0.3755805
-1.858233	z a b	-0.6309143
-2.168311	z a c	-0.2468136
-2.326491	z a d	-0.6261415
-2.784307	z a e	0.1104125
-2.378879	z a f	-0.401482
-2.182247	z a g	-1.065353
-2.172907	z a h	-0.4912362
-1.480454	z a i	-1.251906
-3.300937	z a j	0.541495
-1.471633	z a k	-0.2383264
-1.883584	z a l	-1.067785
-1.615835	z a m	-0.9648635
-1.195914	z a n	-1.002072
-2.421759	z a o	-0.4300048
-1.713868	z a p	-1.131574
-4.169052	z a q
-0.9636203	z a r	-1.694754
-1.618405	z a s	-0.5917205
-0.242294	z a t	-2.155135
-2.834281	z a u	-0.3648978
-2.316731	z a v	0.2689108
-1.925927	z a w	-2.27804
-4.169052	z a x	-0.5161443
-3.242945	z a y	-0.5585411
-3.333122	z a z	-0.1970056
-0.1249387	# b r	-0.5642576
-0.6762291	* b e
-0.3521825	* b u	-0.01412441
-4.574656	<s> b </s>
-1.482897	<s> b a	-0.2953946
-4.153699	<s> b c
-4.153699	<s> b d	-0.297636
-0.8272812	<s> b e	-1.422509
-1.644497	<s> b f	-1.979465
-2.258276	<s> b g	-1.033077
-3.551639	<s> b h	-1.469514
-1.978767	<s> b i	-0.1628593
-2.426158	<s> b l	-1.773588
-4.074518	<s> b m	-0.3512253
-3.852669	<s> b n	-0.9755672
-1.341053	<s> b o	-0.3206745
-3.738726	<s> b p	-0.2773495
-1.624525	<s> b r	-1.120542
-2.960574	<s> b s	-1.444871
-3.773488	<s> b t	-0.5794348
-0.2126947	<s> b u	-2.067908
-1.038288	<s> b y	-0.8784587
-0.8293038	[ b a	-0.1124361
-0.3899711	[ b e	-0.3282257
-0.5862657	[ b u	0.01097808
-0.9542425	[ b y
-0.845098	] b a
-0.3222193	] b e	-0.3229258
-0.845098	] b u	0.1071918
-0.845098	] b y
-0.1597008	_ b a	-0.9062219
-0.8359299	_ b l	-0.6043468
-0.9524354	` b a	-0.5716327
-0.9524354	` b i	-0.5866406
-0.6283889	` b l	-0.4160838
-0.9524354	` b r
-0.5314789	` b u	0.07013739
-3.847443	a b </s>
-1.475851	a b a	-0.01993528
-2.570386	a b b	-0.3907635
-2.956588	a b c	-0.8440222
-2.577815	a b d	-0.9859379
-1.47617	a b e	1.223728
-3.013989	a b f	-0.06022345
-4.074687	a b g	-0.5568319
-3.187726	a b h	-0.885566
-0.9560227	a b i	-1.704265
-3.568408	a b j	1.008821
-3.030834	a b k	-1.829322
-0.332838	a b l	-1.549586
-3.354528	a b m	0.6724698
-3.224449	a b n	-1.518811
-0.6037866	a b o	-1.678607
-3.315019	a b p	-0.9129422
-5.278807	a b q	0.446473
-1.694174	a b r	-1.42594
-1.388088	a b s	-0.9635509
-3.551808	a b t	-1.098989
-1.570103	a b u	0.5712863
-4.641985	a b v	0.9994779
-2.297744	a b w	-0.6188947
-2.358336	a b y	1.288746
-4.641985	a b z	-0.0911691
-2.522491	b b </s>
-1.10991	b b a	-0.6006698
-3.191498	b b b	-0.184665
-1.621344	b b c	-0.1783588
-2.890468	b b d	-0.5086592
-0.6621528	b b e	-1.149543
-2.589437	b b f	-0.8951384
-3.015406	b b h	-0.6864036
-0.8685895	b b i	-1.194043
-0.7682517	b b l	-0.913715
-3.191498	b b m	-0.4371487
-3.691635	b b n	-0.4917951
-1.238867	b b o	-0.8506283
-2.928256	b b p	-0.3862599
-3.691635	b b q
-1.510256	b b r	-0.5622482
-2.326196	b b s	-0.4078941
-2.425581	b b t	-1.03097
-1.629205	b b u	0.171177
-3.492527	b b v	-0.7748876
-2.627226	b b w	-0.9766794
-0.6190132	b b y	-0.5203639
-3.759006	c b #	-0.1781804
-1.600857	c b </s>
-0.7890464	c b a	-0.457577
-2.123206	c b b	-1.245338
-1.744763	c b c	-0.2724459
-2.045794	c b d	0.3236408
-0.8117104	c b e	-0.9523973
-1.923076	c b f	0.1773486
-2.258868	c b g	-0.6807562
-1.600857	c b h	-1.836419
-1.299827	c b i	0.004743326
-3.33805	c b j	1.927119
-3.559898	c b k	-0.7721281
-1.651413	c b l	-1.120923
-1.923076	c b m	-0.143675
-2.468818	c b n	-0.8294157
-1.060211	c b o	0.3245193
-1.822176	c b p	-0.9229276
-3.759006	c b q	0.1383654
-1.29351	c b r	0.04987493
-1.062969	c b s	2.022802
-1.542865	c b t	-1.69916
-0.778143	c b u	-0.4790601
-3.13393	c b v	1.409468
-1.49669	c b w	0.2412961
-1.610508	c b y	-0.08974077
-3.559898	c b z	-0.5849748
-4.01493	d b </s>
-1.389007	d b a	-1.19865
-4.241326	d b b	-0.5963354
-4.31596	d b c	-0.6497733
-4.674982	d b d	0.2305466
-0.3837462	d b e	-1.072791
-3.551597	d b f	-0.7395064
-4.61699	d b g	-0.3306823
-4.088716	d b h	-0.07521681
-2.040073	d b i	-0.8875471
-5.042959	d b j	1.923547
-3.474757	d b k	-0.3854882
-2.298927	d b l	-1.653659
-4.343988	d b m	-0.5990762
-4.241326	d b n	-0.2841979
-1.644498	d b o	-0.7395119
-4.139869	d b p	0.1437194
-4.91802	d b q	0.3251568
-1.678533	d b r	-2.007764
-3.383359	d b s	0.2378148
-3.674982	d b t	-0.8298668
-1.207057	d b u	-0.9177794
-4.01493	d b w	-0.59511
-0.3724777	d b y	0.1605943
-3.463681	e b </s>
-0.5928155	e b a	-1.77695
-2.940546	e b b	-0.6981478
-3.390933	e b c	-0.3019121
-3.802035	e b d	-0.01704265
-0.4662093	e b e	-1.165569
-3.202768	e b f	0.2997017
-3.607769	e b g	-0.9893644
-3.063702	e b h	-0.9984226
-1.493334	e b i	-1.125532
-3.785644	e b j	-1.483657
-4.652737	e b k	-0.1959236
-1.841406	e b l	0.2501772
-3.76471	e b m	0.9854336
-3.326773	e b n	-0.5862581
-1.275861	e b o	1.112033
-3.479285	e b p	-0.2994321
-1.225398	e b r	-0.5112954
-2.278822	e b s	-0.4859947
-1.618291	e b t	0.9725231
-0.8897241	e b u	-1.174632
-4.849031	e b v	1.840805
-3.749647	e b w	1.225786
-1.094869	e b y	-0.07958636
-4.915978	e b z	0.04051076
-0.8865027	f b a	-0.8228755
-4.082402	f b b	-0.7672597
-4.082402	f b c
-0.6026351	f b e	-0.9852372
-3.957464	f b f	0.04916896
-3.04101	f b h	-0.9305052
-0.9382434	f b i	-0.3649865
-1.499582	f b l	-1.793854
-3.957464	f b m	-0.2032866
-3.480342	f b n	-1.051899
-0.8090923	f b o	-0.8028306
-3.605281	f b p	-0.06224155
-1.03734	f b r	-1.060649
-1.935241	f b s	-1.839125
-3.656434	f b t	-0.261121
-0.7233894	f b u	-0.1556669
-1.624016	f b y	-0.5864212
-3.293268	g b </s>
-0.8704904	g b a	-1.230165
-3.536306	g b b	-0.2456436
-3.314457	g b c	0.1447149
-0.532989	g b e	-1.042029
-3.235276	g b f	0.7227273
-2.875124	g b g	-0.6859429
-3.336734	g b h	-0.5080855
-1.4033	g b i	-0.4784413
-4.337474	g b j	-0.6118318
-1.549907	g b l	-1.799125
-3.124125	g b m	-1.045645
-4.138366	g b n	-0.1836876
-0.9733195	g b o	-0.3463466
-2.052006	g b p	-0.4837481
-1.357569	g b r	-1.724758
-2.536306	g b s	-0.4753057
-2.562409	g b t	-0.6242937
-0.6360753	g b u	-0.7648324
-3.916517	g b w	-0.2596568
-0.9836376	g b y	0.5522676
-4.255364	h b </s>
-1.167703	h b a	-0.9161376
-4.056257	h b b	-0.294014
-4.255364	h b c
-0.6408382	h b e	0.09095466
-3.931318	h b f	-0.4881807
-3.278105	h b h	-0.3407449
-1.48184	h b i	-0.820459
-4.056257	h b j
-1.879201	h b l	-2.00115
-4.056257	h b m	0.06449886
-2.354401	h b n	-2.033538
-0.4316309	h b o	-0.8048636
-4.056257	h b p
-1.238912	h b r	-1.284437
-2.588895	h b s	-1.83371
-3.755227	h b t	-0.2511982
-0.9311009	h b u	-0.3186616
-4.255364	h b w
-0.9837617	h b y	-0.3718624
-3.259143	i b </s>
-1.936235	i b a	1.366503
-2.434366	i b b	-1.621474
-3.505815	i b c	-0.5067288
-3.988076	i b d	0.01205536
-0.6007944	i b e	-1.503519
-3.476193	i b f	-0.01105233
-4.113015	i b g	-0.2140685
-2.986528	i b h	0.03962624
-0.6922186	i b i	-1.83207
-5.157221	i b j	-0.6111742
-4.532144	i b k	-0.5678897
-0.4491929	i b l	-1.681092
-3.374536	i b m	0.998136
-3.671806	i b n	-0.4303877
-2.694871	i b o	-0.5866684
-3.571911	i b p	-0.6445016
-1.946825	i b r	-0.8404138
-2.93969	i b s	-0.385916
-3.345329	i b t	-1.275289
-0.8338479	i b u	-1.481075
-4.657083	i b v	-0.1259983
-3.462106	i b w	0.8097496
-1.993225	i b y	-1.075047
-0.544068	j b a	-0.6008617
-0.6232493	j b e	-0.375142
-1.021189	j b o	0.02064983
-0.7781513	j b r	-0.07904896
-0.845098	j b u	0.05756487
-1.345236	j b y
-0.9627974	k b a	-1.231537
-3.44424	k b c	-0.2011378
-0.4031436	k b e	-1.263921
-3.34733	k b f	-0.7265916
-2.092057	k b i	0.09066551
-2.330297	k b l	-0.1160849
-3.44424	k b n	-0.4220895
-0.93336	k b o	-0.912734
-3.004907	k b p	-0.04538847
-1.493632	k b r	-0.3298442
-3.768286	k b t
-0.7696085	k b u	-0.6139178
-0.7915103	k b y	-0.3947681
-4.194476	l b </s>
-0.800567	l b a	-0.4108103
-4.194476	l b b	0.03542756
-4.194476	l b c	-0.2643953
-4.592415	l b d	-0.1111367
-0.189428	l b e	-0.6387364
-3.133778	l b f	-0.5306911
-4.717354	l b g
-4.240233	l b h	-0.246193
-2.210849	l b i	-0.06945927
-2.210849	l b l	-2.028744
-4.194476	l b m	0.8401271
-4.717354	l b n	-0.2842268
-1.331272	l b o	-1.034769
-4.416324	l b p	-0.04704254
-1.651153	l b r	-0.6082967
-3.006955	l b s	-0.1539854
-4.080532	l b t	-0.8843978
-1.073573	l b u	-0.8578881
-4.080532	l b w	-0.5859891
-1.565168	l b y	-0.5663192
-3.205271	m b </s>
-1.121555	m b a	0.3983828
-3.791244	m b b	-1.009934
-4.084449	m b c	-0.3152214
-3.674274	m b d	0.2325538
-0.1281584	m b e	-1.975683
-3.514573	m b f	0.07202321
-4.301157	m b g	-0.479944
-3.868849	m b h	-0.2998853
-1.178191	m b i	-0.6800371
-4.832637	m b j	2.188596
-4.753455	m b k	-0.437385
-1.631403	m b l	0.00616648
-3.850365	m b m	0.883688
-4.230577	m b n	-0.2978475
-1.490095	m b o	-1.097408
-3.768179	m b p	-0.2952352
-1.790376	m b r	-1.517146
-2.470531	m b s	0.7245379
-3.078288	m b t	-1.423337
-1.539009	m b u	-1.139972
-5.054485	m b v	0.7313315
-3.63398	m b w	0.5727458
-2.197958	m b y	-0.2584436
-3.983967	n b </s>
-1.233593	n b a	-1.220835
-4.090423	n b b	-0.7393201
-4.066942	n b c	-0.2114533
-4.442605	n b d	-0.2770798
-0.3125852	n b e	-0.665658
-2.634732	n b f	-1.247118
-4.743635	n b g	-0.204357
-3.270148	n b h	-0.9780129
-1.699978	n b i	-0.5045674
-5.067682	n b j	-0.6125507
-2.021619	n b l	-2.057613
-4.199567	n b m	0.4544932
-4.023476	n b n	-0.04655709
-1.14583	n b o	-1.217422
-4.304303	n b p	-0.03289301
-1.259941	n b r	-1.498703
-2.109158	n b s	-1.175082
-3.743635	n b t	-0.6290247
-0.8221698	n b u	-1.00667
-3.930722	n b w	1.863177
-0.8641522	n b y	0.4079855
-5.067682	n b z	-0.4198366
-2.639868	o b </s>
-0.9446264	o b a	-1.007813
-2.164395	o b b	-1.996191
-2.364846	o b c	-0.6051253
-3.295173	o b d	-0.1951333
-0.4080966	o b e	0.2255531
-3.212572	o b f	0.4300334
-3.66891	o b g	-1.209176
-3.401628	o b h	-0.8822352
-1.386116	o b i	-1.08728
-1.148849	o b j	-1.738962
-4.619112	o b k	-0.6030414
-0.7710415	o b l	-0.8979328
-3.018866	o b m	-0.3629888
-3.604872	o b n	-0.2343025
-1.656546	o b o	-0.6374566
-3.314478	o b p	-1.302836
-4.166815	o b q	-0.1730194
-1.56075	o b r	-1.71121
-1.168774	o b s	0.4108417
-1.806366	o b t	-3.202187
-1.594729	o b u	-0.4661631
-1.606767	o b v	-1.202719
-3.08551	o b w	0.1690328
-1.879672	o b y	0.3714424
-4.467845	o b z	-0.9623604
-3.893567	p b </s>
-1.149565	p b a	-1.112589
-2.47261	p b b	-0.6107351
-2.694459	p b c	-0.3400636
-0.391479	p b e	-1.457408
-2.242161	p b f	-1.631513
-2.916308	p b g	-0.1031003
-3.47261	p b h	-0.1666818
-2.110882	p b i	-0.3512669
-2.198452	p b l	-1.018267
-3.47261	p b m	-0.4018959
-1.398525	p b o	-0.8363428
-1.456413	p b r	-1.092622
-2.724422	p b s	-1.240901
-3.025452	p b t	-0.4281045
-0.7524509	p b u	-1.124161
-3.694459	p b v	-0.7748876
-3.47261	p b w	0.01366484
-0.6186687	p b y	-0.5520373
-1.214007	q b a	-0.2652082
-0.5842754	q b e	-0.6508152
-1.714609	q b f	-1.093779
-1.316669	q b o	-0.6005953
-2.015639	q b r	-0.1827949
-0.4028553	q b u	-0.8834887
-0.6934198	q b y	-0.05702895
-3.290808	r b </s>
-0.7050794	r b a	0.1850883
-3.448876	r b b	-0.3559684
-3.05306	r b c	-0.2266287
-3.493458	r b d	-1.038151
-0.5979907	r b e	0.6833932
-3.102618	r b f	0.6764359
-2.26163	r b g	-1.347636
-2.912441	r b h	-0.7042016
-0.9703798	r b i	-1.113933
-3.153175	r b j	1.998072
-4.783646	r b k
-1.690962	r b l	0.2346654
-3.028236	r b m	0.2556218
-2.571701	r b n	0.0006335764
-0.8871639	r b o	-0.6344829
-3.097872	r b p	-0.4960746
-4.584538	r b q	-0.02677273
-1.314481	r b r	-0.6492834
-1.88499	r b s	0.8700745
-2.309611	r b t	-1.820773
-0.871076	r b u	-0.321799
-4.020267	r b v	1.560067
-3.137381	r b w	0.8534585
-1.114766	r b y	-0.1402756
-4.584538	r b z	-0.111729
-4.093975	s b </s>
-1.178976	s b a	-0.8035966
-4.588825	s b b	-0.548547
-3.960436	s b c	-0.2376604
-4.450522	s b d	-0.3585853
-0.2958353	s b e	-1.56588
-3.054164	s b f	-1.208773
-4.412734	s b g	-0.2195545
-3.784344	s b h	-0.4291092
-1.977101	s b i	-0.7890832
-3.330547	s b j	0.4332665
-2.111161	s b l	-1.818453
-4.190885	s b m	-0.5883387
-4.450522	s b n	-0.4506264
-0.8998824	s b o	-1.383603
-4.044757	s b p	-0.08574858
-5.213901	s b q
-1.544726	s b r	-1.113205
-3.099218	s b s	-0.7830292
-3.66584	s b t	-0.5310103
-0.7822632	s b u	-1.162247
-4.713763	s b v	0.8357657
-4.261466	s b w	-0.5754029
-1.061372	s b y	0.0890649
-4.889855	s b z	-0.59329
-3.62208	t b </s>
-1.135406	t b a	-1.284792
-4.12723	t b b	-0.5658495
-3.884192	t b c	-0.6362668
-4.428259	t b d	-0.189839
-0.2204637	t b e	-1.145226
-3.334838	t b f	-0.3149904
-4.583161	t b g	-0.1347944
-3.936898	t b h	-0.407456
-1.908957	t b i	-0.9578023
-4.12723	t b j	1.111473
-2.172505	t b l	-2.300838
-4.386867	t b m	-0.5250541
-3.909746	t b n	-0.2752037
-1.402299	t b o	-0.8088683
-3.981102	t b p	-0.2239934
-1.496446	t b r	-1.412535
-2.956968	t b s	-0.8277158
-3.294721	t b t	-0.1152712
-0.9774871	t b u	-0.9720175
-4.197811	t b v	0.07148495
-3.720689	t b w	0.7637039
-0.9006168	t b y	-0.09448831
-3.109742	u b </s>
-4.990091	u b ]	-0.4476087
-1.533385	u b a	1.642807
-1.875584	u b b	-0.1457951
-2.237101	u b c	-2.19578
-2.945885	u b d	-0.8301899
-1.658084	u b e	-0.6178339
-3.276879	u b f	-1.142598
-3.404782	u b g	-0.840075
-3.181745	u b h	-0.7105591
-2.111253	u b i	0.0302689
-0.8379007	u b j	-1.838431
-4.121977	u b k	-0.5189265
-0.3823988	u b l	-0.8219116
-1.296319	u b m	-2.144274
-3.333606	u b n	-1.201596
-2.091724	u b o	-0.7724581
-2.547945	u b p	-1.595958
-4.268105	u b q	-0.2903937
-2.340734	u b r	-0.8873711
-0.7308904	u b s	-0.8709959
-1.070797	u b t	-0.527413
-1.764723	u b u	-0.5183743
-2.846501	u b v	-0.6467448
-3.285834	u b w	1.128409
-2.696396	u b y	-0.2418227
-4.790984	u b z	-0.5849748
-1.354108	v b a	-0.1614321
-0.6217147	v b e	-0.8064891
-1.752048	v b g	-0.73948
-1.876987	v b i	-0.2691278
-1.876987	v b l	-0.7694849
-0.9738972	v b o	-0.4979978
-0.6820106	v b r	-0.243031
-1.876987	v b s
-0.6639124	v b u	-0.4545298
-0.9738972	v b y	-0.01232503
-1.058251	w b a	-0.786499
-0.2672382	w b e	-0.155059
-3.62821	w b f	-0.1279359
-3.753149	w b g	-0.257919
-1.676387	w b i	-0.01659886
-2.169572	w b l	-1.119766
-1.245293	w b o	-0.9179148
-1.415357	w b r	-1.280198
-3.276027	w b s	-0.3360958
-0.7404522	w b u	-0.1591838
-1.180277	w b y	-0.4066462
-2.705971	x b </s>
-0.9118312	x b a	-1.128215
-3.131939	x b b	-0.294014
-2.830909	x b c	-0.08883131
-0.9994661	x b e	-0.5633119
-2.654818	x b f	-0.7020938
-3.331047	x b g
-0.8015255	x b i	-1.61691
-3.007	x b l	-0.4160838
-3.331047	x b m	0.229637
-2.495117	x b n	-0.1302853
-1.739829	x b o	-0.7083917
-1.386344	x b r	-1.289544
-1.860873	x b s	-1.195629
-0.5916098	x b u	-1.674572
-0.5559821	x b y	-0.3351669
-4.382953	y b </s>
-1.165776	y b a	-1.197974
-4.683983	y b b
-3.729741	y b c	-0.2017536
-3.838885	y b d	-0.9454674
-0.2642476	y b e	-1.142129
-3.081923	y b f	-1.175732
-4.883091	y b g
-3.956984	y b h	-0.5618865
-1.677374	y b i	-1.091374
-3.799376	y b j	-1.37941
-2.982127	y b k	-2.056072
-1.967701	y b l	-1.926942
-3.818682	y b n	-0.9425694
-1.190246	y b o	-1.337131
-4.047161	y b p	-0.1773419
-1.358878	y b r	-1.237274
-3.060734	y b s	-0.9935274
-4.119712	y b t	-0.8831549
-0.8481658	y b u	-1.405697
-4.883091	y b w	-0.5669442
-0.9920474	y b y	-0.3624356
-1.510499	z b a	-0.8412377
-0.4082307	z b e	-1.770755
-2.370837	z b f	-0.6563362
-1.842563	z b h	-1.117767
-1.640458	z b i	-1.299199
-2.995913	z b l
-0.3399336	z b o	-1.878585
-2.574957	z b r	-0.0346657
-1.156655	z b u	-1.249799
-2.194746	z b y	0.07236265
-0.8359299	* c a
-0.5118834	* c h	-0.2975319
-0.5118834	* c o	-0.1172962
-0.6368221	* c r
-0.937838	<s> c a	-1.160166
-3.289928	<s> c c	-0.7213531
-3.913178	<s> c d	-0.148812
-1.333623	<s> c e	-1.901071
-3.135027	<s> c f	-0.6503594
-4.010088	<s> c g	-0.193579
-0.9873503	<s> c h	-2.78205
-1.682218	<s> c i	-1.806839
-1.087752	<s> c l	-1.160197
-3.913178	<s> c m	-1.019236
-3.833997	<s> c n	-0.3110348
-0.2748284	<s> c o	-1.435169
-4.010088	<s> c p
-1.435478	<s> c r	-0.03814257
-1.703663	<s> c s	-1.29879
-3.333394	<s> c t	-0.8532507
-1.422096	<s> c u	-0.7640778
-2.352077	<s> c y	-1.806688
-3.231937	<s> c z	-0.6856862
-2.419956	[ c ]	-0.7573305
-2.198107	[ c a	-0.1264931
-0.9994499	[ c f	-1.874823
-1.993987	[ c h	-0.6503664
-2.295017	[ c l	-0.3860247
-0.07885111	[ c o	-1.510917
-2.419956	[ c r	-0.738515
-1.449919	[ c s	-1.412358
-0.6283889	] c a	-0.3013123
-0.1760913	] c o	-0.1514205
-0.3240465	_ c o
-1.184384	` c e
-0.860338	` c l	-0.1411055
-0.2863067	` c o	-0.1918304
-0.860338	` c r	-0.06194007
-0.9852768	` c u	-0.1630994
-3.846432	a c </s>
-1.863515	a c a	0.0669201
-4.221358	a c b	-0.6739876
-0.8307161	a c c	-2.150218
-3.960671	a c d	0.1533051
-0.9315172	a c e	0.317986
-3.913379	a c f	-0.4710904
-4.809629	a c g	-0.5308602
-0.8826412	a c h	-0.251096
-1.387594	a c i	-0.1275385
-5.31478	a c j	-0.1853225
-1.053683	a c k	-2.043887
-1.740147	a c l	-0.3739698
-4.116122	a c m	0.03010744
-4.297746	a c n	-0.1794951
-1.108472	a c o	-0.8811992
-2.443791	a c p	0.109813
-2.228847	a c q	-1.901017
-1.602534	a c r	-1.771685
-3.127823	a c s	-0.06723659
-0.5392478	a c t	-0.6509663
-2.208861	a c u	-0.4134226
-4.972357	a c v	0.09288911
-3.793642	a c w	-0.5110237
-1.470364	a c y	-0.4881742
-3.723715	a c z	-0.9639168
-2.243481	b c </s>
-1.216423	b c a	-0.215749
-2.122437	b c b	-0.2472453
-2.435366	b c c	-0.3431957
-2.486519	b c d	0.08517354
-1.934764	b c e	-0.4573444
-2.46019	b c f	-0.1708807
-2.912488	b c g	-0.3540197
-1.699413	b c h	-1.072244
-1.85179	b c i	-0.8722635
-2.544511	b c j	-1.06046
-2.787549	b c k	-0.08546685
-2.077855	b c l	-0.9076976
-2.486519	b c m	-0.02137326
-2.310428	b c n	-0.5847141
-0.4190297	b c o	-0.938454
-2.15916	b c p	-0.3604011
-0.4190297	b c r	-0.9761798
-1.447601	b c s	-0.5117503
-1.983069	b c t	-0.9580218
-1.686318	b c u	-0.9578175
-2.736397	b c v	-0.08453586
-2.009398	b c w	-0.1636247
-3.399958	c c </s>
-1.333887	c c a	-0.6143287
-3.979741	c c b	-0.5199891
-3.055462	c c c	-1.037463
-4.2985	c c d	0.2519684
-0.3537708	c c e	-3.661023
-3.69644	c c f	-0.8898471
-4.474591	c c g	-0.4183768
-1.811244	c c h	-3.425086
-1.437963	c c i	-2.792724
-4.532583	c c j	-0.3420678
-5.099668	c c k
-2.256121	c c l	-0.3574023
-3.614253	c c m	0.8891989
-4.263738	c c n	-0.09575357
-0.471988	c c o	-1.093578
-2.954436	c c p	-0.3141595
-1.614928	c c r	-1.271256
-2.815388	c c s	-0.2276046
-3.061711	c c t	-1.670007
-1.070014	c c u	-1.872725
-4.90056	c c v
-3.538832	c c w	0.9401932
-3.08988	c c y	-1.853828
-4.423439	c c z	-0.02716768
-4.591269	d c #	-0.7612565
-3.526811	d c </s>
-0.9323236	d c a	-1.517773
-3.947817	d c b	-0.2891034
-3.38715	d c c	-0.2376276
-3.470695	d c d	0.1415287
-1.506479	d c e	-1.956229
-3.299013	d c f	-0.4522517
-4.211058	d c g	0.2612811
-1.140928	d c h	-2.923727
-1.527636	d c i	-2.747887
-4.114148	d c j	-0.6583769
-4.813118	d c k	-0.7312703
-1.282705	d c l	0.2880915
-3.421008	d c m	1.269876
-3.843081	d c n	-0.2056179
-0.2372187	d c o	-0.09499576
-3.360821	d c p	1.006018
-5.012226	d c q	1.271323
-1.137737	d c r	-1.112908
-2.718531	d c s	0.2472119
-2.987043	d c t	-1.753901
-1.45139	d c u	-1.544365
-4.176296	d c v	-0.1400878
-3.477326	d c w	-0.2843444
-2.409998	d c y	-2.127912
-3.307968	d c z	-0.9839383
-3.695904	e c </s>
-4.784926	e c [	-0.1355212
-4.601656	e c ]	-0.6830431
-1.001206	e c a	-0.8811013
-2.79182	e c b	0
-3.290423	e c c	0.6255881
-3.123586	e c d	-0.5204026
-1.255226	e c e	-0.4260274
-2.917753	e c f	-1.114275
-4.646623	e c g	1.305777
-1.291231	e c h	-0.4067338
-1.122305	e c i	-0.8993116
-3.935199	e c j	0.9733347
-2.45274	e c k	-1.162854
-1.680831	e c l	-0.1571082
-3.828277	e c m	0.3243532
-3.04122	e c n	-1.2166
-0.4033166	e c o	0
-3.936737	e c p	0.233138
-5.108232	e c q	1.383355
-1.622571	e c r	-0.3525358
-3.197215	e c s	-0.3517343
-0.6524028	e c t	-0.7454157
-1.37004	e c u	-0.1266934
-4.646623	e c v	0.5004311
-3.926088	e c w	-0.4283102
-2.749696	e c y	-0.7104834
-2.880481	e c z	-1.671091
-4.174275	f c </s>
-1.187324	f c a	-1.143997
-4.132882	f c b	-0.4301401
-3.305043	f c c	-0.09004367
-3.561491	f c d	-0.09202344
-1.353024	f c e	-2.505464
-3.106089	f c f	-1.33113
-4.572215	f c g	-0.1622739
-1.089377	f c h	-2.837284
-1.358764	f c i	-2.416483
-3.873245	f c j	-1.549368
-1.507009	f c l	0.6305122
-3.187503	f c m	-0.5275472
-4.060332	f c n	-0.4432176
-0.2051901	f c o	-0.9031487
-4.095094	f c p	-0.3461241
-1.176801	f c r	-0.6776655
-2.835819	f c s	-0.9124682
-3.276648	f c t	-1.308793
-1.535886	f c u	-1.136946
-4.132882	f c w	-0.08731069
-2.00372	f c y	-3.018199
-3.229792	f c z	-0.8198963
-2.389481	g c </s>
-4.41067	g c [	-0.2155849
-0.9819418	g c a	-1.322036
-3.10964	g c b	-0.8930223
-2.516724	g c c	-0.4217571
-3.163516	g c d	-0.568041
-1.447512	g c e	-1.734769
-3.131917	g c f	0.0364827
-4.188822	g c g	0.3054724
-1.138133	g c h	-3.0266
-1.523804	g c i	-2.256309
-4.41067	g c j	-0.6735339
-1.230162	g c l	-1.293338
-3.01856	g c m	-0.1465489
-3.369278	g c n	-0.7083131
-0.2214516	g c o	-1.274532
-3.264542	g c p	-0.3843975
-1.307323	g c r	-0.3222047
-2.537544	g c s	-0.6669273
-2.573925	g c t	-1.964869
-1.590907	g c u	-1.082808
-4.41067	g c v	-0.06094152
-2.654796	g c w	-0.4063118
-2.486391	g c y	-2.48576
-3.275008	g c z	-1.102272
-4.582402	h c </s>
-0.6396542	h c a	-1.846086
-3.957326	h c c	-0.2809789
-3.714288	h c d	-0.4588393
-1.254465	h c e	-2.210706
-2.985355	h c f	-1.278897
-4.582402	h c g
-1.139182	h c h	-2.713669
-1.504773	h c i	-2.230511
-4.258356	h c j	-0.7454939
-1.405876	h c l	-0.7891675
-4.258356	h c m	-0.2058607
-3.957326	h c n	-0.2819645
-0.3113267	h c o	-0.8557184
-4.383295	h c p	-0.2997867
-1.330857	h c r	1.514535
-3.429052	h c s	-0.6499394
-3.445442	h c t	-1.032853
-1.62742	h c u	-1.091184
-4.383295	h c w
-1.97449	h c y	-2.432544
-3.480205	h c z	-0.6679574
-5.632647	i c #	-0.2295475
-2.326007	i c </s>
-5.632647	i c [	-0.2119624
-5.456556	i c ]	-0.2851638
-5.757586	i c `	-0.1757117
-0.6387181	i c a	0
-2.448381	i c b	-2.165051
-1.770411	i c c	0.3539402
-2.025702	i c d	-1.984361
-0.9965051	i c e	0.6620475
-2.194738	i c f	-2.951367
-2.136167	i c g	-0.8905837
-0.6610057	i c h	-0.09000999
-1.029687	i c i	-0.7020274
-3.449377	i c j	-1.258022
-1.811592	i c k	-1.874069
-1.751647	i c l	-0.2822058
-2.200761	i c m	-1.66294
-2.755131	i c n	-2.579981
-1.698932	i c o	0.2478032
-1.734388	i c p	-2.587242
-3.189775	i c q	-1.161366
-1.877382	i c r	-0.917412
-1.499875	i c s	0.08671639
-1.323112	i c t	0.08946709
-1.119799	i c u	-2.10251
-2.734745	i c v	-1.307727
-2.436194	i c w	-1.509474
-5.956694	i c x	-0.4476087
-1.261893	i c y	-0.857891
-3.661835	i c z	-0.2255426
-0.6037272	j c a	-0.6050175
-1.717671	j c b
-2.138627	j c c
-1.513551	j c f	-0.5381377
-1.416641	j c h	-0.3840335
-0.4343693	j c i	-1.380786
-1.375248	j c l	-0.675254
-1.270512	j c o	-0.6116989
-1.240549	j c p	-0.2537881
-1.186192	j c r	-0.0760051
-1.814581	j c s	-0.2005953
-1.513551	j c t	-0.5490022
-0.6106922	k c a	-1.398415
-3.211121	k c d	-0.4710941
-1.801751	k c e	-1.293317
-2.470758	k c f	-1.228049
-1.159325	k c h	-2.098073
-1.56276	k c i	-1.719124
-3.711258	k c j	-0.5482767
-1.113632	k c l	-0.8119569
-3.711258	k c n
-0.3428681	k c o	-1.210281
-3.512151	k c p	-0.3037159
-1.299076	k c r	-0.8003801
-2.91009	k c s	-0.2092246
-3.290302	k c t	-0.2709679
-1.648828	k c u	-0.8136416
-1.506398	k c y	-2.263922
-3.211121	k c z	0.1021805
-4.073246	l c </s>
-4.800245	l c [	-0.7355741
-1.128794	l c a	-1.383808
-4.432268	l c b	-0.2635257
-4.277366	l c c	-0.2770633
-3.897155	l c d	-0.4319373
-1.548283	l c e	-2.244213
-3.396553	l c f	-0.9413261
-4.999353	l c g
-1.225519	l c h	-2.813597
-1.651437	l c i	-2.597592
-4.999353	l c j	-0.5720405
-3.374276	l c k	-1.254529
-1.606379	l c l	-1.129227
-4.198185	l c m	-0.3076051
-4.800245	l c n
-0.1637671	l c o	-1.467064
-4.131238	l c p	-0.3834371
-1.15722	l c r	-1.066116
-3.337847	l c s	-0.7427202
-3.879426	l c t	-0.7111757
-1.502995	l c u	-1.29533
-3.897155	l c v	-0.6765908
-4.578396	l c w	-0.5119541
-2.765483	l c y	-1.158438
-3.862393	l c z	0.09162965
-3.760829	m c </s>
-0.8965557	m c a	-0.8605627
-3.614702	m c b	-0.07224575
-1.366028	m c c	-2.343464
-2.061859	m c d	-1.327405
-1.147411	m c e	-2.411508
-3.13758	m c f	0.08420975
-2.090584	m c g	-1.058245
-1.212809	m c h	-2.314609
-1.603675	m c i	-1.741887
-3.4598	m c j	-0.8843684
-1.775852	m c k	-2.576336
-1.467688	m c l	-0.6282161
-1.945252	m c m	-2.238649
-2.135517	m c n	-1.466103
-0.2888926	m c o	-0.6199205
-4.181786	m c p
-1.389392	m c r	0.07225413
-2.903497	m c s	-0.2896425
-3.229351	m c t	-0.4617177
-1.680925	m c u	-0.8894491
-3.012641	m c v	-0.8904442
-3.313671	m c w	-0.5062615
-2.455478	m c y	-1.61534
-2.65362	m c z	-0.984065
-4.512068	n c </s>
-1.554735	n c a	-0.3365198
-4.427747	n c b	0.1312681
-4.402924	n c c	-0.2545183
-4.290219	n c d	-0.3859786
-0.4071179	n c e	0
-3.54873	n c f	-0.9704193
-4.720344	n c g	-0.05301755
-1.515577	n c h	0.4756781
-0.710142	n c i	-0.3916802
-5.436347	n c j	-0.2933048
-3.180593	n c k	-1.794145
-1.171671	n c l	-2.599482
-4.544253	n c m	-0.6582579
-3.25737	n c n	1.454362
-0.8359235	n c o	0.1220654
-4.755106	n c p	-0.06073844
-5.857304	n c q	1.271323
-1.26287	n c r	-1.469023
-3.467865	n c s	-0.4211511
-1.77163	n c t	-0.9275628
-2.066093	n c u	-1.136528
-5.093925	n c v	0.4614148
-4.482105	n c w	0.7132713
-1.225917	n c y	-0.4251749
-3.817254	n c z	-0.08598731
-3.491869	o c </s>
-0.9608182	o c a	-0.8391462
-3.75044	o c b	-1.137533
-1.416243	o c c	-1.524646
-3.645097	o c d	-0.3579975
-0.8212168	o c e	-2.997103
-2.83167	o c f	-0.7649152
-4.05147	o c g	-0.4202484
-1.541925	o c h	-2.191555
-0.7135258	o c i	-1.994506
-4.85595	o c j	-0.3089428
-1.371117	o c k	-0.5818875
-1.727107	o c l	-1.124147
-3.721614	o c m	0.7682607
-3.3611	o c n	-0.6029577
-0.6930577	o c o	-1.0769
-3.518491	o c p	-0.9201656
-4.267679	o c q	0.378807
-0.876112	o c r	-1.517591
-3.09346	o c s	0.309241
-1.844433	o c t	-2.097186
-1.203197	o c u	-1.951715
-4.458011	o c v	0.6064186
-3.588779	o c w	-0.7631127
-3.134758	o c y	-1.599674
-4.311882	o c z	0.5652403
-2.757396	p c </s>
-0.8166306	p c a	0.3752617
-1.961516	p c b	-0.7931174
-1.591558	p c c	-0.8032221
-2.171935	p c d	-0.365925
-1.798355	p c e	-1.436288
-2.33415	p c f	0.03577111
-1.102738	p c h	-2.100842
-1.653592	p c i	-1.261425
-1.383565	p c l	0.2915341
-3.280275	p c m	-0.3066351
-2.882335	p c n	-0.3287662
-0.2631023	p c o	0.1568883
-2.854306	p c p	0.0635653
-1.294998	p c r	0.1366321
-1.815388	p c s	-0.2443537
-2.445642	p c t	-1.294372
-1.76617	p c u	-0.8300678
-3.456366	p c v	-0.2047985
-2.553276	p c w	0.03409427
-3.456366	p c y	-0.403523
-0.7123856	q c a	-0.693039
-1.641804	q c h	-0.1057187
-1.817896	q c l	-0.007183477
-0.3825293	q c o	-0.8839399
-0.4804365	q c r	-1.023701
-2.141942	q c t
-2.141942	q c u	-0.471207
-3.369689	r c </s>
-1.222207	r c a	-0.5909929
-3.55744	r c b	-0.5882503
-3.673604	r c c	-0.9543009
-3.645576	r c d	0.1181518
-0.5761251	r c e	-0.08660328
-2.974634	r c f	-1.120349
-3.935882	r c g	-0.4565516
-0.7922807	r c h	0.2031536
-1.116482	r c i	-0.1873954
-5.071545	r c j	-0.2639329
-2.717436	r c k	-0.8779767
-1.69851	r c l	-0.2620899
-3.816272	r c m	0.9654682
-3.441456	r c n	-0.8980064
-0.5000181	r c o	-0.4232241
-4.247636	r c p	0.1480169
-3.604183	r c q	-0.9853993
-1.496973	r c r	-0.8495327
-3.122154	r c s	-0.6114183
-2.437067	r c t	-1.63141
-1.259835	r c u	-1.613248
-4.469484	r c v	-0.1501561
-3.645576	r c w	0.1448222
-5.270652	r c x
-2.479738	r c y	-1.342769
-3.12542	r c z	-1.060279
-4.060253	s c </s>
-0.7722589	s c a	-1.632815
-3.648399	s c b	-0.5971585
-3.764303	s c c	0.01946164
-3.754202	s c d	-0.0801733
-1.421741	s c e	0.4939564
-3.359268	s c f	0.1957917
-4.579778	s c g	-0.3309181
-0.9495617	s c h	0.3082996
-1.250083	s c i	0.5926763
-4.652329	s c k	-1.03268
-1.229784	s c l	-1.622547
-4.060253	s c m	-0.0172547
-4.31351	s c n	0.0474665
-0.4451403	s c o	0.5265369
-4.246563	s c p	0.2108097
-5.415708	s c q
-1.024498	s c r	-0.9450141
-3.208	s c s	-0.1236446
-3.460726	s c t	-1.957573
-0.9646541	s c u	-0.098455
-4.489602	s c v	-0.2867026
-4.137419	s c w	-0.3343064
-2.854244	s c y	-2.197931
-3.91557	s c z	-1.281564
-2.301972	t c </s>
-0.8047821	t c a	-1.952572
-3.553151	t c b	-1.040034
-3.558829	t c c	-0.5118322
-3.410258	t c d	-0.6824555
-1.489667	t c e	-2.157734
-2.839759	t c f	-1.084727
-4.536552	t c g	-0.1690912
-0.9249749	t c h	-0.03316504
-1.782586	t c i	-2.030614
-4.059431	t c j	-1.357347
-4.962521	t c k
-1.32141	t c l	-1.753949
-3.633462	t c m	-0.2010085
-3.211756	t c n	-0.3780617
-0.2660684	t c o	-1.347601
-3.895574	t c p	0.1665677
-1.327876	t c r	-0.7708638
-3.072286	t c s	-0.1767048
-3.209193	t c t	-1.94171
-1.6368	t c u	-1.172505
-3.083616	t c w	-0.07343619
-2.317099	t c y	-0.2497766
-3.676214	t c z	-0.5432969
-4.414355	u c </s>
-1.178871	u c a	-1.169852
-4.468712	u c b	-0.5802849
-1.150079	u c c	-2.363325
-4.153442	u c d	-0.0964006
-0.9367315	u c e	-1.58088
-4.440684	u c f	-0.2370811
-5.167683	u c g
-0.5189583	u c h	-0.1315133
-1.21909	u c i	-2.926486
-1.985078	u c k	-0.8813872
-1.434806	u c l	-2.171261
-4.22983	u c m	-0.4205042
-4.53086	u c n	-0.2262821
-1.663665	u c o	-1.616863
-4.283076	u c p	-0.1377823
-1.888244	u c r	-2.186168
-3.799706	u c s	-0.7702417
-0.5211024	u c t	-0.9606876
-3.197646	u c u	-0.5507836
-5.36679	u c v
-4.389531	u c w	-0.1742011
-4.264593	u c y	-0.7040699
-4.799706	u c z	-0.2377469
-1.176436	v c </s>
-1.924624	v c ]	-0.09011545
-0.9736103	v c a	-0.4396973
-2.021534	v c b	-0.5464435
-1.778496	v c c	-0.7700887
-2.822702	v c d
-1.237392	v c e	-0.4861515
-1.986772	v c f	-0.1760663
-1.014355	v c h	-2.037596
-1.225654	v c i	-0.9220511
-2.146473	v c j	-0.9136494
-1.028833	v c l	-1.592262
-2.255617	v c m	-0.3334291
-2.401745	v c n	-0.4195468
-0.711549	v c o	-0.6181078
-1.758292	v c p	-0.5296103
-1.758292	v c r	0.04736061
-0.8265572	v c s	-0.6197626
-1.401745	v c t	-1.611979
-2.197625	v c u	-0.05186768
-1.569236	v c w	-0.6626692
-3.63036	w c </s>
-0.6465835	w c a	-1.200219
-3.32933	w c c	-0.4481092
-3.32933	w c d	-1.288673
-1.765059	w c e	-1.326511
-2.903361	w c f	-0.8051279
-1.136205	w c h	-2.540434
-1.151073	w c i	-2.553724
-1.293234	w c l	-0.7512851
-3.408511	w c m	-0.5714089
-4.130498	w c n	-0.6084588
-0.3046734	w c o	-0.6157724
-3.806451	w c p	-0.395202
-1.428508	w c r	-0.4735405
-3.294568	w c s	-0.2803751
-3.505421	w c t	-0.4710464
-1.668149	w c u	-0.7163804
-3.93139	w c w
-2.479092	w c y	-1.708231
-3.178062	w c z	-0.3907446
-2.228156	x c a	-0.7670004
-4.287593	x c c
-0.3002245	x c e	-3.372108
-2.33335	x c f	-2.098562
-4.486701	x c g
-0.7115203	x c h	-3.679454
-1.541998	x c i	-2.367465
-0.7383442	x c l	-1.662073
-4.486701	x c m	-0.6116429
-2.727288	x c n	-1.962773
-1.442081	x c o	-0.8922624
-3.650771	x c p	-0.8081741
-2.410606	x c r	-0.4642914
-2.782443	x c s	-1.444742
-4.162654	x c t	-0.2030489
-1.412918	x c u	-2.373284
-4.287593	x c w	-0.187663
-3.986563	x c y	-0.4369117
-4.287593	x c z	-0.06551787
-4.803106	y c </s>
-0.7342159	y c a	-1.782354
-4.325985	y c b	-0.6893572
-3.761714	y c c	-0.8494838
-3.937805	y c d	-0.8157791
-1.770891	y c e	-1.410397
-2.996927	y c f	-1.470288
-5.002214	y c g
-1.077222	y c h	-1.310272
-1.710152	y c i	-2.561566
-5.002214	y c j	-0.5720405
-4.001474	y c k	-0.5013037
-0.9960452	y c l	-1.919968
-4.502077	y c m	-0.1844719
-4.238835	y c n	-0.3463932
-0.2765733	y c o	-1.678637
-4.502077	y c p	-0.2475514
-1.331864	y c r	-0.8365497
-3.193868	y c s	-1.118753
-4.001474	y c t	-0.945763
-1.836808	y c u	-1.371023
-4.581258	y c v	-0.1575791
-4.678168	y c w	-0.3421223
-2.752598	y c y	-2.36846
-3.572658	y c z	-0.8938882
-0.6562818	z c a	-0.985177
-2.152288	z c e	-0.1913471
-1.110896	z c h	-0.9386877
-2.152288	z c i
-2.152288	z c k	-0.7312703
-1.851258	z c l	0.002499045
-0.3092633	z c o	-0.1925918
-1.588017	z c r	-1.152967
-2.152288	z c u
-2.351396	z c y
-0.8659816	z c z	-0.1300035
-0.30103	* d e	-0.1769483
-0.6250765	* d r	-0.4976692
-1.374054	<s> d a	-0.5962055
-3.66483	<s> d c	-0.6099086
-3.744011	<s> d d	-1.01537
-0.3321895	<s> d e	-2.148991
-4.164968	<s> d f
-2.96586	<s> d g	-0.5489196
-3.329038	<s> d h	-1.063674
-1.040032	<s> d i	-0.7796966
-3.164227	<s> d j	-0.6864508
-3.840921	<s> d m	-0.3566203
-3.488739	<s> d n	-0.9363754
-0.6340279	<s> d o	-1.122265
-1.398441	<s> d r	0.09106988
-3.329038	<s> d s	-0.2533071
-3.96586	<s> d t
-0.9075605	<s> d u	-0.6781284
-3.744011	<s> d w	-0.2880541
-2.937831	<s> d y	-1.010637
-0.8129134	[ d ]	-0.5789668
-0.5118834	[ d e	-0.09712592
-0.9378521	[ d i
-0.4607309	[ d u	-0.494415
-0.7353992	] d a	-0.5667986
-1.661506	] d d	-0.442723
-0.8981265	] d e	-0.231496
-1.161368	] d f	-0.1924875
-0.6607656	] d i	-0.4715724
-1.094421	] d o	-0.1592679
-1.161368	] d p	-0.3983494
-1.240549	] d s	-0.3602336
-1.240549	] d t	0.4017314
-1.462398	] d u	-0.2743823
-1.661506	] d w
-0.3424227	` d e	-0.1268101
-0.3424227	` d i	-0.6615382
-5.590376	a d #	-0.5577849
-2.166562	a d </s>
-5.266329	a d [	-0.08933312
-1.064652	a d a	0.2195316
-1.917149	a d b	0.2471076
-2.072093	a d c	-0.1070937
-1.08805	a d d	0.1258793
-0.6141265	a d e	0.2452247
-2.282928	a d f	-0.9526586
-2.71794	a d g	-0.8139442
-2.126686	a d h	0.3631297
-0.8074876	a d i	-1.647466
-2.003819	a d j	-1.041143
-3.567359	a d k	-0.3749318
-1.803034	a d l	-0.6508188
-1.4142	a d m	-1.100579
-2.185523	a d n	-0.3495664
-1.007178	a d o	-0.2630316
-2.353709	a d p	-1.41832
-2.97741	a d q	-1.186938
-1.962809	a d r	-0.6720028
-1.62342	a d s	0.5051574
-1.338766	a d t	0.5641184
-1.860983	a d u	-0.2196496
-1.311604	a d v	-2.238601
-2.154899	a d w	-0.4770215
-5.266329	a d x	0.6747901
-1.181021	a d y	0.4009947
-3.381251	a d z	-0.8680778
-2.470741	b d </s>
-1.602979	b d a	-0.844076
-2.89671	b d b
-3.095818	b d d
-0.7063782	b d e	-0.4871838
-0.7485187	b d i	-0.4903887
-3.095818	b d m
-1.008343	b d o	-0.96475
-2.771771	b d p
-2.143382	b d r	0.4181224
-2.118559	b d s	-0.3692694
-2.419589	b d t	0.2035116
-0.3285082	b d u	-1.801588
-2.674861	b d w	-0.2880541
-2.771771	b d y	-0.421461
-2.190648	c d </s>
-1.115867	c d a	-1.281147
-2.836912	c d b	0.696259
-1.765556	c d c	-0.4273889
-2.046024	c d d	-0.8272686
-0.2880836	c d e	-2.546968
-2.47789	c d f	0.4343073
-2.752591	c d g	-0.8791776
-2.836912	c d h	-0.893766
-0.6970325	c d i	-1.592659
-3.806948	c d j	-0.1746864
-2.88613	c d l	-0.5314609
-2.063962	c d m	0.01540191
-2.922342	c d n	0.4558884
-1.171465	c d o	-0.898611
-2.740002	c d p	-0.06547397
-1.44271	c d r	-0.3871265
-1.74374	c d s	-0.1467561
-2.364991	c d t	-0.0409639
-1.761625	c d u	0.6359755
-4.006056	c d v
-2.611972	c d w	0.9363722
-2.102226	c d y	-2.213348
-3.076055	d d </s>
-1.382035	d d a	-0.7570344
-3.283664	d d b	0.6398456
-3.138203	d d c	0.6691394
-3.452806	d d d	-0.2046393
-0.489753	d d e	-2.529569
-2.929927	d d f	0.6801262
-3.02426	d d g	0.05887703
-2.575453	d d h	0.2939526
-0.596077	d d i	-2.213732
-3.496272	d d j	-0.1975053
-4.473995	d d k	-0.3534857
-1.26163	d d l	-0.8191563
-2.414558	d d m	0.2402328
-3.106018	d d n	-0.3718827
-0.9564254	d d o	-1.557334
-3.307664	d d p	-0.2896211
-4.553176	d d q	0.6795437
-0.8886285	d d r	-1.238424
-2.05791	d d s	0.1510391
-1.681954	d d t	0.2480357
-1.423809	d d u	-0.4475621
-3.026837	d d v	-0.9900357
-3.037302	d d w	0.1416772
-2.312627	d d y	-0.5539926
-4.473995	d d z	-0.1527758
-5.004724	e d #	0.385578
-6.106921	e d *
-1.300684	e d </s>
-4.986995	e d [	-0.1616766
-5.106181	e d ]	0.1495486
-5.004724	e d `	-0.03778854
-1.001073	e d a	-0.0611497
-1.188966	e d b	-1.070677
-1.774807	e d c	-0.5701538
-1.999668	e d d	-0.7227418
-0.9971676	e d e	-0.3310882
-1.449493	e d f	-0.3104499
-1.954973	e d g	-0.2975965
-2.100955	e d h	-0.3215939
-0.8008116	e d i	0.07985338
-2.947819	e d j	-0.2456974
-2.611953	e d k	-0.9060221
-1.97683	e d l	-0.234892
-1.868016	e d m	0.09300777
-1.980837	e d n	-0.2128918
-1.102716	e d o	0.3597296
-1.808709	e d p	-1.659674
-3.00982	e d q	-0.958882
-1.748587	e d r	-0.9060998
-1.407362	e d s	-0.2918879
-0.7898807	e d t	-0.8165861
-1.266191	e d u	-0.4014518
-2.374168	e d v	-0.01866532
-1.527355	e d w	-0.3159249
-4.816733	e d x	0.90351
-2.372224	e d y	0.255734
-3.904928	e d z	-0.5591726
-4.132844	f d </s>
-1.108358	f d a	-1.085746
-3.530784	f d b	-0.1625903
-3.62096	f d c	-0.7048458
-3.530784	f d d	-0.6355361
-0.3222417	f d e	-2.395852
-2.21246	f d g	-0.5713641
-3.504455	f d h	-0.4820758
-0.5693331	f d i	-1.053202
-2.956753	f d j	-1.43196
-4.45689	f d k	-0.6119663
-3.392481	f d l	-0.9464841
-3.530784	f d m	-0.3522826
-3.044708	f d n	-1.14945
-1.056112	f d o	-2.48469
-2.889806	f d p	-0.4677086
-1.311822	f d r	0.07164781
-3.889806	f d s	-0.358397
-3.588776	f d t	0.5144541
-1.619959	f d u	0.2324389
-3.956753	f d v	-0.3537282
-3.229754	f d w	-0.5553839
-2.491866	f d y	-1.883376
-4.431748	g d </s>
-1.297469	g d a	-1.017978
-4.107702	g d c	-0.7859222
-4.107702	g d d	-0.7769588
-0.5380937	g d e	-2.277201
-3.595818	g d f	-0.5459329
-3.93161	g d g	-0.1255877
-3.479313	g d h	-0.6770568
-0.6703475	g d i	-1.415401
-4.431748	g d j
-4.431748	g d k	-0.6119663
-4.010792	g d l	-0.1563752
-4.107702	g d m
-3.505642	g d n	-1.452023
-0.586204	g d o	-2.69137
-0.9138122	g d p	0.9912509
-1.43676	g d r	-0.05350551
-4.431748	g d s
-4.010792	g d t	0.02888663
-1.627695	g d u	-0.1003858
-4.431748	g d v
-3.806672	g d w	-0.3619098
-2.516637	g d y	-1.650889
-3.830435	h d </s>
-1.14847	h d a	-1.495729
-3.626315	h d c	-0.1763082
-3.751253	h d d	-0.5810455
-0.5148842	h d e	-1.933747
-4.251391	h d f
-2.973102	h d g	0.1441996
-3.383277	h d h	-0.4373985
-0.6086555	h d i	-1.304064
-3.626315	h d j	-0.5457601
-4.052283	h d l	-0.7444826
-3.529405	h d m	-0.1313729
-3.684307	h d n	-0.8863762
-0.8357657	h d o	-0.7314293
-3.052284	h d p	0.1492323
-0.7180308	h d r	-0.4725372
-3.067007	h d s	-0.4550486
-3.383277	h d t	0.5576202
-1.504099	h d u	-0.1500569
-3.927345	h d v	-0.5045665
-3.228375	h d w	-0.1379895
-2.648591	h d y	-1.793136
-3.415461	h d z	-0.04971607
-5.389998	i d #	-0.1771267
-2.001305	i d </s>
-5.088968	i d [	-0.009219856
-5.088968	i d `	0.7323493
-1.176392	i d a	-0.09836394
-2.226936	i d b	0.1653796
-2.368946	i d c	-0.5606338
-1.642534	i d d	-2.365707
-0.1927136	i d e	-0.03109929
-2.112618	i d f	-0.5268626
-2.304351	i d g	-1.054867
-2.448321	i d h	0.3461426
-1.217667	i d i	-0.4606147
-3.071239	i d j	-1.141327
-3.621606	i d k	-0.3748723
-2.114379	i d l	0.0241426
-2.421048	i d m	-0.3199033
-1.672688	i d n	-0.7221658
-1.439536	i d o	-1.638288
-2.303757	i d p	-1.784794
-3.572653	i d q	-0.5926237
-2.327416	i d r	-0.8905042
-1.902153	i d s	0.1945233
-1.394289	i d t	0.3666072
-1.570037	i d u	-1.124688
-3.229629	i d v	0.2192011
-2.074237	i d w	-0.3570808
-2.521353	i d y	-0.9880337
-4.361969	i d z	-0.04999794
-1.228849	j d </s>
-0.8766668	j d a	-0.6192126
-1.830909	j d b	0.02536154
-1.830909	j d c	0.1696451
-1.017996	j d e	-0.8279268
-1.733999	j d h	-0.7928896
-0.49345	j d i	-0.1021003
-2.154956	j d n	-0.1596634
-1.286841	j d o	-0.3258597
-0.8201854	j d r	-1.135563
-1.830909	j d s	-0.118786
-1.432969	j d t	0.4624369
-2.154956	j d u	-0.6124989
-1.955848	j d v	-0.197003
-1.654818	j d w	0.1099338
-1.733999	j d z	-0.787457
-1.353981	k d a	-1.527122
-0.5635147	k d e	-1.514102
-3.378262	k d g	-0.1978561
-0.6458678	k d i	-1.118391
-3.378262	k d l	-0.1729251
-0.4766671	k d o	-1.949264
-3.026079	k d p	-0.2524189
-1.102375	k d r	0.0671927
-1.397123	k d u	-1.596231
-2.980322	k d y	-0.9714059
-3.702308	k d z	-0.6019349
-4.776206	l d #	-0.03520145
-1.684188	l d </s>
-4.952298	l d [	-0.02240449
-5.077237	l d ]	-0.1230532
-5.577374	l d `	0.7297891
-1.069517	l d a	-1.364841
-0.8198179	l d b	-1.693834
-1.574991	l d c	-0.7372757
-1.846788	l d d	-2.589147
-1.028232	l d e	0.5533785
-1.819038	l d f	-1.135726
-2.055221	l d g	-0.7057971
-1.3496	l d h	-1.519135
-1.047758	l d i	-1.032603
-2.383363	l d j	-0.6955155
-2.859314	l d k	-0.7367978
-0.9439531	l d l	-1.34204
-1.748483	l d m	-0.638177
-1.293321	l d n	-1.718191
-1.367528	l d o	-1.981745
-1.613542	l d p	-0.9726855
-3.152957	l d q	-1.266527
-1.292928	l d r	-0.9780626
-1.287914	l d s	-0.07568937
-1.323194	l d t	0.4184371
-1.910215	l d u	-0.2610158
-2.498788	l d v	-0.3627023
-1.599127	l d w	-0.5092598
-2.499936	l d y	-1.518902
-4.323909	l d z	-0.1710682
-2.884527	m d </s>
-1.362564	m d a	-0.9096693
-3.049337	m d b	-0.4147937
-2.228782	m d c	-0.05707509
-3.385129	m d d	-0.1057331
-0.3028828	m d e	-1.617017
-2.658131	m d f	-0.03979241
-1.475752	m d g	-0.3485278
-2.959161	m d h	-0.6543505
-0.7223716	m d i	-0.7581406
-3.885267	m d k
-3.686159	m d l
-3.163281	m d m	-0.08377976
-3.209038	m d n	0.2524939
-0.8500464	m d o	-0.1696921
-2.801553	m d p	-0.250322
-1.512973	m d r	0.09386366
-2.464311	m d s	-0.3990191
-3.017153	m d t	0.5037581
-1.423708	m d u	-1.678086
-3.209038	m d v	-0.6658844
-2.644767	m d w	-0.095272
-2.415093	m d y	-1.660511
-5.51237	n d #	-0.5451183
-5.864552	n d *	-0.08868434
-2.162251	n d </s>
-4.886828	n d [	-0.02183832
-5.035248	n d ]	0.6542719
-5.466612	n d `	0.30103
-1.046097	n d a	0.125512
-1.815644	n d b	0.4917081
-1.434021	n d c	0.3559331
-1.700013	n d d	-2.7722
-0.8869931	n d e	-0.2227222
-1.581539	n d f	-1.188516
-1.697848	n d g	-0.857854
-1.734661	n d h	-0.3937137
-0.8663439	n d i	0.1503394
-2.496684	n d j	-0.8625531
-2.89841	n d k	-0.7958706
-1.748592	n d l	-0.07716932
-1.304325	n d m	-0.5834341
-1.875225	n d n	-0.1306798
-1.265502	n d o	0.04883889
-1.507017	n d p	-0.1598066
-2.828123	n d q	-0.6524019
-1.563066	n d r	-0.7462983
-1.149514	n d s	-0.2646232
-0.8156638	n d t	-1.537929
-1.554725	n d u	-0.3046048
-2.368557	n d v	0.4407256
-1.395415	n d w	-0.3069614
-3.488888	n d x	-0.3149204
-2.35394	n d y	-1.689787
-3.493022	n d z	-0.8382027
-5.401875	o d #
-1.851616	o d </s>
-3.145863	o d ]	-0.7146563
-0.8283312	o d a	-1.035699
-2.197444	o d b	-0.07895224
-2.029193	o d c	-0.6229489
-2.102742	o d d	1.032796
-0.718734	o d e	0.4303898
-1.964136	o d f	-1.082937
-2.319107	o d g	-0.8540244
-2.561955	o d h	-0.2409348
-0.9687572	o d i	-0.651021
-2.827409	o d j	-0.3406268
-3.121181	o d k	-0.6323335
-2.492651	o d l	-0.07374379
-2.489838	o d m	0.376205
-2.275055	o d n	-1.079774
-0.9616035	o d o	0.6980563
-1.769425	o d p	-1.87024
-2.927841	o d q	-1.048775
-1.541018	o d r	-0.9240065
-1.205848	o d s	-0.3095493
-1.675482	o d t	-0.8474001
-0.6914016	o d u	-1.63644
-3.359743	o d v	0.1220481
-1.970619	o d w	-0.2541025
-1.554343	o d y	-0.0258422
-4.337467	o d z	-0.3580984
-2.671481	p d </s>
-0.5119476	p d a	-1.127657
-1.901448	p d b	-0.6231161
-2.382686	p d c	0.1750246
-3.148603	p d d	-0.1842424
-0.5270802	p d e	-1.048017
-2.812811	p d f	0.1585135
-3.324694	p d g	-0.1675073
-1.816164	p d h	-1.781654
-0.9662831	p d i	-0.7504883
-3.227784	p d k	-0.1554698
-2.696305	p d l	-0.304052
-2.885361	p d m	-0.2027649
-0.8400382	p d o	-0.9745278
-2.063431	p d p	-0.0334431
-1.557538	p d r	0.564008
-2.19436	p d s	-0.2461569
-1.582362	p d t	-0.3960146
-1.548356	p d u	-1.194707
-3.023664	p d v	-0.6512473
-2.780626	p d w	0.00715522
-2.722634	p d y	-1.462631
-1.793869	q d a	-0.561662
-1.793869	q d d	-0.5525358
-0.4284293	q d e	-0.8182058
-0.8414331	q d i	-0.6603658
-0.469822	q d o	-0.7693486
-1.594761	q d r	-0.6628073
