
\data\
ngram 1=40

\1-grams:
-5.350497	#
-6.20044	*
-8.004352	<
-2.082237	</s>
-99	<s>
-7.578383	>
-6.838021	@
-5.121828	[
-5.131419	]
-6.04531	_
-5.643254	`
-1.121747	a
-1.862136	b
-1.482069	c
-1.50133	d
-0.8989342	e
-1.67252	f
-1.763252	g
-1.348397	h
-1.10079	i
-2.908562	j
-2.298789	k
-1.420515	l
-1.564334	m
-1.127874	n
-1.0934	o
-1.625537	p
-2.992705	q
-1.20013	r
-1.198058	s
-1.013229	t
-1.536193	u
-1.957254	v
-1.792506	w
-2.714858	x
-1.846995	y
-2.722654	z
-8.481473	{
-8.481473	}
-8.481473	~

\end\
