
\data\
ngram 1=40
ngram 2=1049

\1-grams:
-5.350497	#	-1.753765
-6.20044	*	-0.6007587
-8.004352	<	-0.01025306
-2.082237	</s>
-99	<s>	-3.439333
-7.578383	>	-0.2537919
-6.838021	@	-0.7834535
-5.121828	[	-1.45621
-5.131419	]	-0.3047419
-6.04531	_	-0.3928779
-5.643254	`	0.4931537
-1.121747	a	0
-1.862136	b	0
-1.482069	c	0
-1.50133	d	0
-0.8989342	e	0
-1.67252	f	0
-1.763252	g	0
-1.348397	h	0
-1.10079	i	0
-2.908562	j	-2.644283
-2.298789	k	-0.02502532
-1.420515	l	0
-1.564334	m	0
-1.127874	n	0
-1.0934	o	0
-1.625537	p	0
-2.992705	q	-2.562786
-1.20013	r	0
-1.198058	s	0
-1.013229	t	0
-1.536193	u	-0.02767498
-1.957254	v	-0.6805996
-1.792506	w	0
-2.714858	x	-0.2249831
-1.846995	y	0
-2.722654	z	-0.5375519
-8.481473	{	-0.07514302
-8.481473	}	-0.08354148
-8.481473	~	-0.05063147

\2-grams:
-2.653855	# a
-2.653855	# b
-2.829947	# c
-3.871339	# d
-3.871339	# e
-0.7176769	# f
-3.871339	# g
-3.871339	# h
-3.871339	# i
-3.871339	# k
-3.871339	# n
-0.185016	# o
-3.871339	# p
-2.653855	# t
-0.8499433	# x
-0.9008221	* *
-1.00228	* </s>
-3.021396	* @
-1.050584	* a
-1.326791	* b
-1.16709	* c
-1.377943	* d
-1.435935	* e
-1.435935	* f
-3.021396	* g
-1.803912	* h
-1.050584	* i
-1.803912	* l
-1.502882	* m
-1.980003	* n
-1.281033	* o
-1.803912	* p
-1.582063	* r
-1.16709	* s
-1.16709	* t
-1.326791	* w
-3.021396	* y
-1.217484	< s
-1.217484	< t
-1.217484	< z
-4.765769	<s> #
-4.746025	<s> *
-7.1396	<s> >
-4.043212	<s> [
-6.098208	<s> _
-5.797178	<s> `
-1.138883	<s> a
-1.546569	<s> b
-1.78709	<s> c
-1.956257	<s> d
-1.805099	<s> e
-1.458433	<s> f
-2.310747	<s> g
-1.560496	<s> h
-0.6375159	<s> i
-2.741322	<s> j
-3.110765	<s> k
-1.851882	<s> l
-1.21207	<s> m
-1.785724	<s> n
-1.495161	<s> o
-1.787546	<s> p
-2.811751	<s> q
-2.047673	<s> r
-1.485535	<s> s
-0.5892911	<s> t
-2.194521	<s> u
-2.740845	<s> v
-1.012124	<s> w
-4.501611	<s> x
-2.034893	<s> y
-3.898179	<s> z
-7.1396	<s> {
-1.643453	> </s>
-0.60206	> o
-1.643453	> q
-1.643453	> r
-0.60206	> t
-1.643453	> w
-1.041393	@ a
-2.383815	@ b
-1.041393	@ e
-1.041393	@ f
-1.342423	@ j
-1.342423	@ l
-1.342423	@ m
-0.60206	@ o
-2.383815	@ p
-2.383815	@ r
-0.60206	@ s
-2.383815	@ y
-1.259275	[ ]
-1.080892	[ a
-1.928282	[ b
-0.4625688	[ c
-1.944672	[ d
-1.687548	[ e
-1.746862	[ f
-2.245703	[ g
-1.841132	[ h
-1.514548	[ i
-2.660676	[ j
-3.058616	[ k
-2.155526	[ l
-1.828167	[ m
-1.726177	[ n
-1.078612	[ o
-1.716193	[ p
-4.100008	[ q
-2.104373	[ r
-1.410256	[ s
-0.7565014	[ t
-2.405403	[ u
-3.058616	[ v
-1.66945	[ w
-2.882524	[ y
-2.058616	[ z
-4.090417	] #
-4.090417	] *
-0.2612095	] </s>
-2.571903	] [
-4.090417	] ]
-1.055588	] a
-2.027835	] b
-1.642484	] c
-1.410535	] d
-1.818575	] e
-1.969843	] f
-2.308661	] g
-1.61766	] h
-1.557662	] i
-2.504956	] j
-2.872933	] k
-2.071301	] l
-1.969843	] m
-2.071301	] n
-1.586626	] o
-1.952114	] p
-1.415556	] r
-1.511205	] s
-1.372331	] t
-2.504956	] u
-2.872933	] v
-1.716586	] w
-2.872933	] y
-4.090417	] z
-1.834103	_ </s>
-0.3289527	_ _
-1.737193	_ a
-1.322219	_ b
-1.834103	_ c
-2.135133	_ d
-1.658011	_ e
-1.834103	_ f
-2.135133	_ g
-3.176525	_ h
-2.135133	_ i
-3.176525	_ j
-1.834103	_ l
-1.959041	_ m
-1.834103	_ n
-1.591065	_ o
-1.39477	_ p
-1.322219	_ r
-1.18089	_ s
-0.9046837	_ t
-2.135133	_ u
-3.176525	_ v
-2.135133	_ w
-2.135133	_ z
-3.578582	` </s>
-3.578582	` [
-0.3263358	` `
-1.375821	` a
-1.60777	` b
-1.375821	` c
-1.796826	` d
-1.582947	` e
-1.796826	` f
-1.838219	` g
-1.692091	` h
-1.582947	` i
-1.993121	` j
-3.578582	` k
-2.060068	` l
-1.662128	` m
-1.60777	` n
-1.692091	` o
-1.406855	` p
-3.578582	` q
-1.692091	` r
-1.30674	` s
-1.294151	` t
-1.883977	` u
-2.361098	` v
-1.582947	` w
-3.578582	` x
-2.361098	` y
-5.944753	a #
-6.660756	a *
-2.656255	a </s>
-8.100089	a >
-5.451241	a [
-5.882605	a ]
-7.058696	a _
-5.961786	a `
-2.510111	a a
-1.603799	a b
-1.345978	a c
-1.491338	a d
-2.671227	a e
-1.924071	a f
-1.616202	a g
-2.603509	a h
-1.52144	a i
-2.692573	a j
-1.825925	a k
-0.9344852	a l
-1.440091	a m
-0.7030874	a n
-2.750399	a o
-1.663223	a p
-3.03598	a q
-0.9524578	a r
-1.088659	a s
-0.7654724	a t
-1.955623	a u
-1.57325	a v
-2.133849	a w
-2.824331	a x
-1.75893	a y
-3.104382	a z
-6.142216	b #
-7.3597	b *
-3.229109	b </s>
-6.017277	b [
-5.841186	b ]
-7.3597	b _
-1.037081	b a
-2.649688	b b
-2.928698	b c
-3.245506	b d
-0.4303461	b e
-2.946316	b f
-3.417394	b g
-3.268314	b h
-1.277049	b i
-1.820721	b j
-3.688897	b k
-0.8740748	b l
-2.589264	b m
-3.440072	b n
-1.103349	b o
-3.292796	b p
-4.826945	b q
-1.513912	b r
-1.612157	b s
-2.046129	b t
-1.014595	b u
-2.515841	b v
-2.991357	b w
-6.318307	b x
-1.089296	b y
-4.895061	b z
-5.958011	c #
-7.739767	c *
-2.950302	c </s>
-5.26701	c [
-5.059885	c ]
-6.522283	c `
-0.9714829	c a
-2.962336	c b
-1.621722	c c
-2.715334	c d
-0.856038	c e
-2.756564	c f
-2.884026	c g
-0.9738039	c h
-1.050419	c i
-3.986145	c j
-1.80214	c k
-1.476406	c l
-2.909887	c m
-3.147656	c n
-0.6004876	c o
-2.437266	c p
-3.133175	c q
-1.396977	c r
-2.211384	c s
-0.9622236	c t
-1.37879	c u
-3.470487	c v
-3.109486	c w
-6.221252	c x
-1.651444	c y
-3.308057	c z
-5.216715	d #
-6.077053	d *
-1.710068	d </s>
-7.720506	d >
-7.720506	d @
-5.030753	d [
-4.347685	d ]
-6.679113	d _
-5.33669	d `
-1.052914	d a
-1.460063	d b
-1.689903	d c
-1.727996	d d
-0.6923452	d e
-1.690761	d f
-1.775998	d g
-1.908508	d h
-0.8336229	d i
-2.59561	d j
-2.91103	d k
-1.676338	d l
-1.621827	d m
-1.880397	d n
-1.130014	d o
-1.737398	d p
-2.99964	d q
-1.586699	d r
-1.292442	d s
-0.9826246	d t
-1.388703	d u
-2.18493	d v
-1.613324	d w
-3.981884	d x
-1.977441	d y
-3.743102	d z
-5.205962	e #
-6.220811	e *
-8.322902	e <
-1.967666	e </s>
-7.105418	e >
-6.883569	e @
-5.078748	e [
-5.43332	e ]
-6.35209	e _
-5.790147	e `
-1.095708	e a
-1.88841	e b
-1.195553	e c
-1.197604	e d
-1.332661	e e
-1.580009	e f
-1.761092	e g
-1.987761	e h
-1.476982	e i
-2.823794	e j
-2.669107	e k
-1.473031	e l
-1.368603	e m
-0.9557762	e n
-1.570886	e o
-1.539084	e p
-2.363613	e q
-0.9015303	e r
-0.96895	e s
-1.195495	e t
-1.637239	e u
-1.667505	e v
-1.657583	e w
-1.926668	e x
-2.159721	e y
-2.642242	e z
-5.963855	f #
-6.507923	f *
-2.775892	f </s>
-6.331832	f @
-5.37759	f [
-5.69501	f ]
-6.206893	f _
-5.277474	f `
-1.095337	f a
-2.24943	f b
-1.634678	f c
-2.074049	f d
-1.094518	f e
-1.223976	f f
-2.175626	f g
-2.146186	f h
-0.8734507	f i
-2.675702	f j
-3.070728	f k
-1.676412	f l
-1.908821	f m
-2.237571	f n
-0.6612644	f o
-1.760768	f p
-3.212246	f q
-1.164829	f r
-1.758551	f s
-0.8078405	f t
-1.301193	f u
-2.438588	f v
-1.89291	f w
-4.537112	f x
-2.180524	f y
-3.777141	f z
-5.439468	g #
-5.940071	g *
-1.942298	g </s>
-6.116162	g @
-5.138438	g [
-5.286858	g ]
-5.940071	g _
-5.604278	g `
-0.9646387	g a
-2.102735	g b
-1.83043	g c
-2.00846	g d
-0.8030789	g e
-1.840488	g f
-2.016714	g g
-1.006687	g h
-1.032996	g i
-3.13096	g j
-3.091573	g k
-1.641167	g l
-1.93322	g m
-1.540561	g n
-1.098318	g o
-1.785357	g p
-3.193696	g q
-0.9413383	g r
-1.537219	g s
-1.035247	g t
-1.356124	g u
-2.781959	g v
-1.854239	g w
-4.138438	g x
-1.748629	g y
-4.05358	g z
-5.854323	h #
-2.609981	h </s>
-5.735137	h [
-5.752865	h ]
-6.434106	h _
-6.655955	h `
-0.693457	h a
-2.599699	h b
-2.272661	h c
-2.603672	h d
-0.3329565	h e
-2.605898	h f
-2.848375	h g
-2.452406	h h
-0.891697	h i
-3.680371	h j
-3.295614	h k
-2.45275	h l
-2.28362	h m
-2.327223	h n
-1.136813	h o
-2.33799	h p
-3.409211	h q
-1.737511	h r
-2.200791	h s
-1.350258	h t
-1.996553	h u
-3.331948	h v
-2.163256	h w
-5.685918	h x
-2.2665	h y
-3.815431	h z
-6.33929	i #
-3.67619	i </s>
-6.426441	i [
-5.013327	i ]
-6.681713	i _
-7.079653	i `
-1.397724	i a
-1.945451	i b
-1.145976	i c
-1.513565	i d
-1.438703	i e
-1.791376	i f
-1.627923	i g
-2.534773	i h
-3.190436	i i
-3.46634	i j
-2.189543	i k
-1.359906	i l
-1.51351	i m
-0.6291127	i n
-0.9608729	i o
-2.20156	i p
-3.450958	i q
-1.569624	i r
-0.8548974	i s
-0.9154627	i t
-2.953181	i u
-1.499248	i v
-2.230191	i w
-2.510139	i x
-4.311385	i y
-2.336269	i z
-8.121046	i }
-3.703679	j </s>
-6.313274	j [
-1.160064	j a
-3.949662	j b
-3.156271	j c
-3.139942	j d
-0.5352735	j e
-3.709588	j f
-3.746836	j g
-3.278445	j h
-1.885382	j i
-3.802059	j j
-2.761336	j k
-3.680816	j l
-3.439372	j m
-2.87481	j n
-0.5478593	j o
-2.925528	j p
-6.313274	j q
-2.747485	j r
-2.573781	j s
-2.651225	j t
-0.486416	j u
-2.919698	j v
-3.010618	j w
-4.004709	j y
-3.817036	j z
-5.068742	k #
-6.923048	k *
-1.777305	k </s>
-6.923048	k @
-4.860466	k [
-5.279595	k ]
-1.210006	k a
-2.136385	k b
-2.193413	k c
-2.202363	k d
-0.4066555	k e
-1.837449	k f
-2.401792	k g
-1.973519	k h
-0.8051311	k i
-3.327772	k j
-3.167325	k k
-1.768297	k l
-1.971484	k m
-1.315949	k n
-1.246262	k o
-1.929129	k p
-3.284509	k q
-1.940218	k r
-1.172215	k s
-1.239864	k t
-2.227864	k u
-3.080938	k v
-1.794158	k w
-3.538246	k x
-1.740597	k y
-4.458409	k z
-5.583837	l #
-6.21586	l *
-2.188959	l </s>
-7.801321	l @
-5.42749	l [
-5.856838	l ]
-6.106716	l _
-6.157868	l `
-0.9562422	l a
-1.866483	l b
-1.783594	l c
-1.205572	l d
-0.8013738	l e
-1.780799	l f
-2.372227	l g
-2.274796	l h
-0.8197811	l i
-3.286295	l j
-2.41885	l k
-0.9253074	l l
-1.997723	l m
-2.250208	l n
-1.165224	l o
-1.764037	l p
-3.165204	l q
-1.888788	l r
-1.352226	l s
-1.362514	l t
-1.591503	l u
-2.071526	l v
-2.070886	l w
-5.2097	l x
-1.063565	l y
-3.583258	l z
-5.713019	m #
-7.657502	m *
-2.146707	m </s>
-7.657502	m @
-5.555411	m [
-5.638385	m ]
-6.440018	m `
-0.8624009	m a
-1.385534	m b
-2.45734	m c
-2.753858	m d
-0.5578967	m e
-2.435109	m f
-2.888161	m g
-2.737013	m h
-0.9049226	m i
-3.685669	m j
-3.744244	m k
-2.709936	m l
-1.124502	m m
-2.507291	m n
-1.031558	m o
-1.081425	m p
-3.88091	m q
-1.496611	m r
-1.542607	m s
-1.728528	m t
-1.360126	m u
-2.960634	m v
-2.377386	m w
-4.519199	m x
-1.785761	m y
-4.46689	m z
-5.380473	n #
-6.508502	n *
-1.937791	n </s>
-8.093963	n >
-6.876479	n @
-4.982533	n [
-5.597725	n ]
-6.011178	n _
-5.835086	n `
-1.15978	n a
-2.007905	n b
-1.218284	n c
-0.8869882	n d
-1.064667	n e
-1.758153	n f
-1.025043	n g
-2.200356	n h
-1.174591	n i
-2.87276	n j
-2.116831	n k
-1.989633	n l
-1.870076	n m
-1.995424	n n
-1.135371	n o
-1.841619	n p
-3.244258	n q
-2.10338	n r
-1.135764	n s
-0.7175393	n t
-1.862268	n u
-2.058568	n v
-1.907915	n w
-4.108335	n x
-2.053943	n y
-3.256413	n z
-4.807148	o #
-7.087043	o *
-2.698586	o </s>
-8.128436	o >
-8.128436	o @
-5.561998	o [
-5.882923	o ]
-6.910952	o _
-6.211981	o `
-1.802036	o a
-1.689781	o b
-1.629032	o c
-1.708184	o d
-2.031994	o e
-1.004723	o f
-1.972949	o g
-2.269626	o h
-1.83835	o i
-2.796241	o j
-2.492396	o k
-1.474423	o l
-1.164662	o m
-0.674053	o n
-1.714777	o o
-1.255735	o p
-3.516092	o q
-0.8960497	o r
-1.421986	o s
-1.194263	o t
-1.030418	o u
-1.724478	o v
-1.528519	o w
-3.329761	o x
-2.4218	o y
-1.94001	o z
-8.128436	o ~
-5.378815	p #
-6.253876	p *
-2.583538	p </s>
-5.457996	p [
-4.795238	p ]
-7.596299	p _
-0.9632983	p a
-2.684356	p b
-2.797511	p c
-2.929183	p d
-0.706204	p e
-2.686556	p f
-3.296269	p g
-1.935886	p h
-1.549158	p i
-4.002847	p j
-3.892149	p k
-1.052017	p l
-1.96052	p m
-3.177327	p n
-0.7200105	p o
-1.235487	p p
-4.233722	p q
-0.6677803	p r
-1.907015	p s
-1.454214	p t
-1.54907	p u
-3.739994	p v
-2.546796	p w
-5.651816	p x
-2.790058	p y
-4.931657	p z
-2.269707	q </s>
-6.22913	q ]
-5.187738	q `
-1.996427	q a
-2.997406	q b
-3.068812	q c
-3.416886	q d
-2.861402	q e
-3.134659	q f
-4.011647	q g
-2.948438	q h
-1.962299	q i
-4.258319	q j
-3.983618	q k
-3.559349	q l
-3.158354	q m
-3.554269	q n
-3.057404	q o
-3.409587	q p
-3.886708	q q
-3.395346	q r
-2.556802	q s
-2.661399	q t
-0.01935673	q u
-3.287371	q v
-2.535008	q w
-4.34264	q y
-6.22913	q z
-5.628131	r #
-6.378253	r *
-2.240381	r </s>
-6.679284	r @
-5.043298	r [
-5.776194	r ]
-6.202162	r _
-6.077224	r `
-1.037607	r a
-2.219684	r b
-1.732679	r c
-1.591714	r d
-0.5763145	r e
-2.116607	r f
-1.811868	r g
-2.257404	r h
-1.041828	r i
-3.19165	r j
-1.801219	r k
-1.69461	r l
-1.596972	r m
-1.672929	r n
-0.8438194	r o
-1.784809	r p
-3.402879	r q
-1.757426	r r
-1.24544	r s
-1.055121	r t
-1.771474	r u
-2.130161	r v
-2.036901	r w
-4.578913	r x
-1.560152	r y
-3.011621	r z
-5.047888	s #
-5.982387	s *
-8.02378	s <
-1.49683	s </s>
-8.02378	s @
-4.638978	s [
-4.455402	s ]
-6.283417	s _
-5.519989	s `
-1.032723	s a
-1.791504	s b
-1.589696	s c
-2.018894	s d
-0.950907	s e
-1.756093	s f
-2.406691	s g
-1.403208	s h
-0.8997198	s i
-2.952293	s j
-2.249925	s k
-1.968596	s l
-1.741881	s m
-1.858517	s n
-1.080358	s o
-1.417717	s p
-2.934645	s q
-1.84927	s r
-1.120168	s s
-0.7465867	s t
-1.341111	s u
-2.535826	s v
-1.542138	s w
-5.128081	s x
-2.18777	s y
-4.008336	s z
-5.727881	t #
-6.565154	t *
-8.208608	t <
-2.041983	t </s>
-6.623146	t @
-5.171579	t [
-5.451211	t ]
-6.053271	t _
-6.070304	t `
-1.151086	t a
-2.039984	t b
-2.028604	t c
-2.325711	t d
-1.027067	t e
-2.124869	t f
-2.687337	t g
-0.5191337	t h
-0.8215343	t i
-3.084124	t j
-3.360729	t k
-1.98912	t l
-2.055668	t m
-2.330536	t n
-0.9695563	t o
-2.148526	t p
-3.495532	t q
-1.402312	t r
-1.398648	t s
-1.296549	t t
-1.687755	t u
-3.026219	t v
-1.55037	t w
-4.89887	t x
-1.691336	t y
-3.358801	t z
-5.565071	u #
-7.685645	u *
-2.824018	u </s>
-5.903889	u @
-6.343222	u [
-7.685645	u ]
-1.436456	u a
-1.677174	u b
-1.300479	u c
-1.655764	u d
-1.37246	u e
-2.30256	u f
-1.64922	u g
-2.624845	u h
-1.679177	u i
-3.675769	u j
-2.563932	u k
-0.9495546	u l
-1.451251	u m
-0.874418	u n
-2.589447	u o
-1.423715	u p
-4.277829	u q
-0.6791372	u r
-0.8897575	u s
-0.9678276	u t
-3.510873	u u
-3.1869	u v
-2.607743	u w
-3.192926	u x
-3.123637	u y
-3.480196	u z
-3.788621	v </s>
-6.22319	v [
-1.197135	v a
-4.170112	v b
-3.423505	v c
-3.944437	v d
-0.1598509	v e
-4.070902	v f
-4.094468	v g
-3.973992	v h
-0.7561538	v i
-5.032858	v j
-4.356903	v k
-3.504689	v l
-3.53477	v m
-4.089652	v n
-1.207361	v o
-3.446489	v p
-5.52422	v q
-3.115302	v r
-3.240467	v s
-3.482828	v t
-2.827689	v u
-3.926525	v v
-3.588713	v w
-5.746069	v x
-2.849084	v y
-5.032858	v z
-6.086907	w #
-6.387937	w *
-2.368821	w </s>
-5.609786	w [
-5.458518	w ]
-6.387937	w _
-6.211846	w `
-0.9636658	w a
-2.458697	w b
-2.280456	w c
-2.473197	w d
-0.642561	w e
-2.492902	w f
-2.918189	w g
-0.7464105	w h
-0.7028335	w i
-3.338331	w j
-3.515489	w k
-2.278933	w l
-2.130019	w m
-1.677612	w n
-0.7729909	w o
-2.393334	w p
-3.78642	w q
-2.053031	w r
-1.893755	w s
-1.598311	w t
-2.663825	w u
-3.289986	w v
-2.221167	w w
-5.910816	w x
-2.642082	w y
-4.053483	w z
-1.927012	x </s>
-4.444396	x [
-5.164556	x ]
-4.725223	x _
-6.506979	x `
-0.9204396	x a
-2.157555	x b
-1.001902	x c
-2.555228	x d
-1.209205	x e
-1.981927	x f
-3.289495	x g
-2.157342	x h
-0.9575479	x i
-3.006948	x j
-3.576284	x k
-2.836686	x l
-1.942425	x m
-2.287761	x n
-1.741884	x o
-0.6303837	x p
-3.858131	x q
-2.283457	x r
-1.942295	x s
-0.6150253	x t
-2.016648	x u
-3.064185	x v
-2.252068	x w
-3.213948	x x
-2.47725	x y
-1.751969	x z
-4.918475	y #
-5.48835	y *
-1.300995	y </s>
-4.48219	y [
-5.00101	y ]
-5.935509	y _
-5.634479	y `
-0.9828655	y a
-1.473377	y b
-1.354253	y c
-1.627961	y d
-1.210789	y e
-1.500525	y f
-1.943459	y g
-1.659337	y h
-1.060613	y i
-2.749627	y j
-2.78463	y k
-1.792706	y l
-1.361001	y m
-1.817416	y n
-0.9360676	y o
-1.425769	y p
-2.726691	y q
-1.597347	y r
-1.090474	y s
-0.9028779	y t
-2.056264	y u
-2.241677	y v
-1.320795	y w
-4.675437	y x
-2.488289	y y
-3.361246	y z
-2.974203	z </s>
-6.499183	z [
-1.311755	z a
-2.484894	z b
-3.129411	z c
-2.786155	z d
-0.06590999	z e
-2.861193	z f
-3.237682	z g
-2.503307	z h
-1.549252	z i
-3.628487	z j
-3.237682	z k
-2.466343	z l
-2.884919	z m
-2.826347	z n
-1.606196	z o
-3.028038	z p
-3.202518	z q
-2.797874	z r
-2.514543	z s
-2.965729	z t
-2.384439	z u
-3.668915	z v
-2.820301	z w
-6.499183	z x
-2.402412	z y
-2.510847	z z
-0.7403627	{ m
-0.7403627	} </s>
-0.7403627	~ o

\end\
