
\data\
ngram 1=38
ngram 2=1004

\1-grams:
-4.467286	#	-3.089633
-5.294072	*	-0.9893618
-2.055769	</s>
-99	<s>	-3.231675
-6.209898	@	-1.582882
-4.938832	[	-1.205668
-4.937725	]	-0.4545085
-5.172282	_	-1.677746
-4.695794	`	-1.178533
-1.097921	a	0
-1.821732	b	-2.738942
-1.459877	c	-0.5557097
-1.470236	d	0
-0.9104451	e	0
-1.686268	f	0
-1.697521	g	0
-1.390877	h	-0.2545741
-1.102888	i	-0.2488483
-2.852962	j	-2.452062
-2.231429	k	-0.6695675
-1.382361	l	0
-1.598238	m	-0.3435319
-1.115968	n	0
-1.117619	o	0
-1.665419	p	-0.7450415
-2.994261	q	-2.695238
-1.188218	r	0
-1.184464	s	0
-1.045962	t	0
-1.550001	u	-0.9446592
-1.945779	v	-2.640617
-1.821916	w	0
-2.658762	x	-0.6372752
-1.81772	y	0
-2.527951	z	-2.362683
-7.532118	{	-0.2899362
-7.532118	}	-0.2971935
-7.532118	~	-0.2665728

\2-grams:
-2.375954	# a
-2.375954	# b
-2.766041	# c
-3.067071	# d
-3.067071	# e
-0.6537711	# f
-3.067071	# g
-3.067071	# h
-3.067071	# i
-3.067071	# k
-3.067071	# n
-0.1211102	# o
-3.067071	# p
-2.375954	# t
-1.007179	* *
-1.116323	* </s>
-2.262451	* @
-1.058331	* a
-1.308209	* b
-1.148508	* c
-1.359361	* d
-1.326086	* e
-1.326086	* f
-2.262451	* g
-1.571335	* h
-1.032002	* i
-1.571335	* l
-1.4843	* m
-1.961421	* n
-1.359361	* o
-1.571335	* p
-1.563481	* r
-1.148508	* s
-1.262451	* t
-1.359361	* w
-2.262451	* y
-3.842886	<s> #
-3.908153	<s> *
-3.712927	<s> [
-5.175325	<s> _
-4.667169	<s> `
-0.983748	<s> a
-1.033875	<s> b
-1.542969	<s> c
-1.82907	<s> d
-1.589131	<s> e
-1.417473	<s> f
-1.854763	<s> g
-1.666795	<s> h
-0.8638888	<s> i
-2.299974	<s> j
-2.466904	<s> k
-1.80965	<s> l
-1.425164	<s> m
-1.591899	<s> n
-1.446646	<s> o
-1.666458	<s> p
-3.243359	<s> q
-1.773666	<s> r
-1.275668	<s> s
-0.6323873	<s> t
-1.947053	<s> u
-2.715179	<s> v
-1.281979	<s> w
-3.683963	<s> x
-2.033561	<s> y
-3.274958	<s> z
-5.476355	<s> {
-0.6379725	@ a
-1.447158	@ b
-1.447158	@ e
-0.6379725	@ f
-1.447158	@ j
-1.146128	@ m
-1.447158	@ p
-0.5107933	@ s
-1.910944	[ ]
-1.045758	[ a
-1.39794	[ b
-1.20412	[ c
-1.60206	[ d
-1.823909	[ e
-1.60206	[ f
-1.823909	[ g
-1.371611	[ h
-0.9788107	[ i
-1.910944	[ j
-2.30103	[ k
-1.910944	[ l
-1.371611	[ m
-1.69897	[ n
-1.371611	[ o
-1.346787	[ p
-2.60206	[ q
-1.665695	[ r
-1.323306	[ s
-0.633577	[ t
-1.90309	[ u
-1.170696	[ w
-2.60206	[ y
-2.59879	] #
-2.59879	] *
-0.7727157	] </s>
-2.29776	] [
-1.030589	] a
-1.695701	] b
-1.320037	] c
-1.644548	] d
-1.320037	] e
-1.452662	] f
-1.820639	] g
-1.019007	] h
-1.218579	] i
-2.59879	] j
-1.907674	] k
-1.662426	] l
-1.519609	] m
-1.598791	] n
-1.29776	] o
-1.598791	] p
-1.695701	] r
-1.237063	] s
-1.080277	] t
-2.29776	] u
-2.29776	] v
-1.452662	] w
-2.29776	] y
-2.59879	] z
-1.578204	_ </s>
-0.2835861	_ _
-1.578204	_ a
-1.345997	_ b
-2.08636	_ c
-1.578204	_ e
-1.696273	_ f
-2.38739	_ g
-2.38739	_ h
-2.08636	_ i
-2.38739	_ j
-1.696273	_ l
-1.696273	_ m
-2.08636	_ n
-1.609239	_ o
-1.451025	_ p
-1.345997	_ r
-1.18327	_ s
-1.241262	_ t
-2.08636	_ u
-2.38739	_ v
-2.08636	_ w
-2.08636	_ z
-2.840106	` [
-0.3282227	` `
-1.377708	` a
-1.609657	` b
-1.392948	` c
-1.798713	` d
-1.584834	` e
-1.798713	` f
-1.840106	` g
-1.693978	` h
-1.584834	` i
-1.903741	` j
-2.840106	` k
-2.061955	` l
-1.664015	` m
-1.609657	` n
-1.693978	` o
-1.408742	` p
-2.840106	` q
-1.693978	` r
-1.308627	` s
-1.308627	` t
-1.885864	` u
-2.14899	` v
-1.584834	` w
-2.840106	` x
-2.14899	` y
-5.091774	a #
-5.743081	a *
-2.561342	a </s>
-5.656046	a [
-5.230077	a ]
-6.434197	a _
-5.072469	a `
-2.290184	a a
-1.575967	a b
-1.349053	a c
-1.434697	a d
-2.52582	a e
-1.92162	a f
-1.651746	a g
-2.252125	a h
-1.5025	a i
-2.585146	a j
-1.868302	a k
-0.9239633	a l
-1.505704	a m
-0.6908772	a n
-2.691786	a o
-1.622481	a p
-2.808371	a q
-0.9575713	a r
-1.042435	a s
-0.8202339	a t
-1.94348	a u
-1.694222	a v
-2.118227	a w
-2.64773	a x
-1.782241	a y
-2.735836	a z
-5.019273	b #
-3.047631	b </s>
-5.409359	b ]
-5.710389	b _
-0.8727816	b a
-2.305726	b b
-2.696289	b c
-2.817738	b d
-0.5672524	b e
-3.341173	b f
-3.522868	b g
-2.959881	b h
-1.149395	b i
-2.34434	b j
-3.495545	b k
-0.9193092	b l
-2.793935	b m
-3.082	b n
-1.036622	b o
-2.854264	b p
-4.932238	b q
-1.350648	b r
-1.597114	b s
-1.733169	b t
-0.9116279	b u
-2.615918	b v
-2.75422	b w
-1.114672	b y
-4.631208	b z
-5.118	c #
-2.913277	c </s>
-5.771213	c [
-5.373272	c ]
-5.381126	c `
-0.8834181	c a
-2.588655	c b
-1.634746	c c
-2.462755	c d
-0.8368884	c e
-2.759854	c f
-2.58341	c g
-0.942134	c h
-1.097312	c i
-3.865417	c j
-1.679176	c k
-1.463032	c l
-2.761974	c m
-3.217937	c n
-0.6719688	c o
-2.333224	c p
-3.132723	c q
-1.292653	c r
-1.942488	c s
-1.03571	c t
-1.396647	c u
-3.308066	c v
-2.942553	c w
-5.771213	c x
-1.660539	c y
-3.302865	c z
-4.428413	d #
-5.158792	d *
-1.738568	d </s>
-4.646908	d [
-4.584761	d ]
-6.061882	d _
-4.418429	d `
-1.085422	d a
-1.444074	d b
-1.642289	d c
-1.636021	d d
-0.6629977	d e
-1.694302	d f
-1.830743	d g
-1.807503	d h
-0.8471941	d i
-2.433902	d j
-2.675383	d k
-1.73009	d l
-1.710163	d m
-1.824514	d n
-1.140669	d o
-1.615624	d p
-3.053282	d q
-1.531387	d r
-1.24065	d s
-1.051425	d t
-1.43339	d u
-2.092186	d v
-1.673958	d w
-4.175391	d x
-2.044848	d y
-3.483243	d z
-4.287219	e #
-5.259945	e *
-1.944039	e </s>
-5.930556	e @
-4.746612	e [
-4.782824	e ]
-5.542491	e _
-4.836343	e `
-1.135888	e a
-1.832996	e b
-1.230351	e c
-1.136399	e d
-1.398455	e e
-1.578232	e f
-1.769333	e g
-2.079109	e h
-1.453105	e i
-2.82628	e j
-2.544778	e k
-1.418507	e l
-1.416268	e m
-0.9701458	e n
-1.598313	e o
-1.614809	e p
-2.387535	e q
-0.8444318	e r
-0.9468678	e s
-1.233103	e t
-1.76696	e u
-1.665173	e v
-1.669792	e w
-1.888877	e x
-2.037591	e y
-2.446799	e z
-5.146882	f #
-5.544822	f *
-2.683288	f </s>
-5.154736	f @
-4.766671	f [
-4.909487	f ]
-5.544822	f _
-4.314373	f `
-1.052201	f a
-2.179896	f b
-1.653759	f c
-1.973405	f d
-1.092576	f e
-1.202834	f f
-1.890357	f g
-2.042873	f h
-0.8299185	f i
-2.639836	f j
-2.872263	f k
-1.477305	f l
-1.95209	f m
-2.151862	f n
-0.7025844	f o
-1.812629	f p
-3.318222	f q
-1.073369	f r
-1.679896	f s
-0.930389	f t
-1.324701	f u
-2.651061	f v
-2.020037	f w
-4.113459	f x
-2.323799	f y
-3.544822	f z
-4.555843	g #
-5.056446	g *
-1.921313	g </s>
-4.834597	g [
-4.688469	g ]
-5.056446	g _
-4.720654	g `
-1.023666	g a
-1.981081	g b
-1.742578	g c
-1.783985	g d
-0.7693272	g e
-1.868502	g f
-1.766708	g g
-1.00474	g h
-1.04175	g i
-2.87939	g j
-2.531185	g k
-1.410729	g l
-1.843459	g m
-1.43237	g n
-1.095159	g o
-1.80737	g p
-3.200119	g q
-1.024626	g r
-1.523649	g s
-1.101673	g t
-1.489969	g u
-2.816313	g v
-1.929719	g w
-3.688469	g x
-1.76467	g y
-3.65562	g z
-4.910794	h #
-2.37909	h </s>
-5.204878	h [
-5.09985	h ]
-5.442273	h _
-5.450127	h `
-0.6882536	h a
-2.384607	h b
-2.102822	h c
-2.444625	h d
-0.3532969	h e
-2.471369	h f
-2.708274	h g
-2.392823	h h
-0.9217214	h i
-3.372605	h j
-2.59929	h k
-2.282345	h l
-2.195676	h m
-2.152283	h n
-1.123521	h o
-2.270313	h p
-3.343283	h q
-1.63301	h r
-2.027066	h s
-1.368152	h t
-1.882965	h u
-3.045377	h v
-2.306695	h w
-4.937123	h x
-2.251381	h y
-4.408849	h z
-6.128202	i #
-3.394203	i </s>
-5.738116	i [
-5.350051	i ]
-5.620047	i _
-6.128202	i `
-1.374278	i a
-2.028366	i b
-1.102227	i c
-1.568828	i d
-1.394123	i e
-1.80463	i f
-1.547009	i g
-2.965787	i h
-2.957794	i i
-3.256629	i j
-2.145863	i k
-1.295968	i l
-1.487547	i m
-0.584837	i n
-1.07546	i o
-2.076432	i p
-3.100649	i q
-1.523318	i r
-0.9502316	i s
-0.9241174	i t
-2.949081	i u
-1.46403	i v
-2.994823	i w
-2.409078	i x
-3.662076	i y
-2.027763	i z
-6.429232	i }
-3.448734	j </s>
-0.6893769	j a
-3.356963	j b
-2.963179	j c
-3.298971	j d
-0.7883704	j e
-3.216784	j f
-3.02597	j g
-3.055933	j h
-1.321819	j i
-3.356963	j j
-3.600001	j k
-3.216784	j l
-2.946789	j m
-3.378153	j n
-0.5434458	j o
-2.257579	j p
-2.692411	j r
-2.674861	j s
-3.088118	j t
-0.5541895	j u
-3.400429	j v
-3.03573	j w
-3.679183	j y
-3.869997	j z
-4.221519	k #
-5.3007	k *
-1.79923	k </s>
-4.609583	k [
-4.609583	k ]
-1.113094	k a
-2.030487	k b
-2.104247	k c
-2.103971	k d
-0.4550499	k e
-1.892969	k f
-2.296378	k g
-1.831172	k h
-0.8289535	k i
-3.130438	k j
-2.801013	k k
-1.742231	k l
-1.932971	k m
-1.439524	k n
-1.123134	k o
-1.98452	k p
-3.920489	k q
-1.597839	k r
-1.018463	k s
-1.418346	k t
-1.885393	k u
-3.176848	k v
-1.920308	k w
-5.3007	k x
-1.959265	k y
-3.920489	k z
-4.78803	l #
-5.213393	l *
-2.214653	l </s>
-6.149757	l @
-5.371606	l [
-5.149757	l ]
-5.450787	l _
-5.246667	l `
-0.9429746	l a
-1.90548	l b
-1.784588	l c
-1.185418	l d
-0.7985023	l e
-1.828926	l f
-2.30083	l g
-2.328506	l h
-0.8005828	l i
-3.164331	l j
-2.547697	l k
-0.9484913	l l
-1.987223	l m
-2.255441	l n
-1.086691	l o
-1.80233	l p
-3.137764	l q
-1.886571	l r
-1.405355	l s
-1.444415	l t
-1.593382	l u
-2.192054	l v
-2.140944	l w
-5.195515	l x
-1.065564	l y
-3.909208	l z
-4.729764	m #
-5.933884	m *
-2.007335	m </s>
-5.933884	m @
-5.124698	m [
-4.892491	m ]
-5.242767	m `
-0.7374309	m a
-1.505976	m b
-2.322266	m c
-2.516578	m d
-0.6027073	m e
-2.156239	m f
-2.789621	m g
-2.515914	m h
-0.8512201	m i
-3.219554	m j
-3.355244	m k
-2.502037	m l
-1.52736	m m
-2.522769	m n
-0.8998248	m o
-1.083133	m p
-3.942657	m q
-2.550786	m r
-1.46082	m s
-1.689235	m t
-1.389332	m u
-3.245464	m v
-2.261324	m w
-4.892491	m x
-1.807622	m y
-3.970096	m z
-4.660275	n #
-5.479785	n *
-1.987902	n </s>
-6.41615	n @
-5.01821	n [
-5.001177	n ]
-5.270022	n _
-4.897636	n `
-1.106582	n a
-2.023313	n b
-1.226295	n c
-0.8950986	n d
-0.9936541	n e
-1.778871	n f
-0.9616271	n g
-2.159144	n h
-1.197672	n i
-2.670685	n j
-2.040761	n k
-1.93819	n l
-1.793874	n m
-1.966687	n n
-1.152465	n o
-1.949134	n p
-3.422273	n q
-2.119726	n r
-1.14227	n s
-0.7861621	n t
-1.94872	n u
-2.056524	n v
-2.002013	n w
-3.796014	n x
-1.93819	n y
-3.043054	n z
-3.834716	o #
-6.11347	o *
-2.629882	o </s>
-5.478135	o [
-5.268372	o ]
-5.723383	o _
-5.238409	o `
-1.778363	o a
-1.630425	o b
-1.618877	o c
-1.687658	o d
-2.043894	o e
-1.049411	o f
-1.972286	o g
-2.307867	o h
-1.86503	o i
-2.820771	o j
-2.365708	o k
-1.342632	o l
-1.170156	o m
-0.7015437	o n
-1.63154	o o
-1.393017	o p
-3.592986	o q
-0.8673664	o r
-1.375848	o s
-1.266715	o t
-1.080012	o u
-1.567155	o v
-1.395849	o w
-3.087141	o x
-2.364546	o y
-1.79351	o z
-6.4145	o ~
-4.451731	p #
-5.057519	p *
-2.358848	p </s>
-4.825312	p [
-5.175588	p ]
-5.866704	p _
-0.9205961	p a
-2.551574	p b
-2.578232	p c
-2.694685	p d
-0.7402969	p e
-2.585671	p f
-2.756451	p g
-1.820053	p h
-1.32605	p i
-3.465304	p j
-3.467031	p k
-1.05347	p l
-2.040046	p m
-2.817874	p n
-0.7522535	p o
-1.307145	p p
-4.264644	p q
-0.7334912	p r
-1.738822	p s
-1.391411	p t
-1.350328	p u
-3.769794	p v
-2.467896	p w
-5.175588	p x
-2.772933	p y
-4.752761	p z
-1.979173	q </s>
-4.537882	q ]
-4.236852	q `
-1.339775	q a
-2.629397	q b
-2.699033	q c
-2.993814	q d
-1.977975	q e
-2.838912	q f
-3.391754	q g
-2.492559	q h
-1.522522	q i
-3.58364	q j
-3.361791	q k
-2.914633	q l
-2.838912	q m
-3.075484	q n
-2.66865	q o
-2.76703	q p
-3.032732	q q
-2.904413	q r
-1.870429	q s
-2.2136	q t
-0.06932794	q u
-3.601517	q v
-2.000063	q w
-3.759731	q y
-4.812421	r #
-5.44081	r *
-2.185085	r </s>
-5.652783	r @
-5.229957	r [
-5.197772	r ]
-5.302507	r _
-5.13978	r `
-0.9782454	r a
-2.09718	r b
-1.67231	r c
-1.658131	r d
-0.6166475	r e
-2.046731	r f
-1.707502	r g
-2.213598	r h
-0.9678689	r i
-3.057219	r j
-1.827087	r k
-1.727319	r l
-1.537985	r m
-1.530746	r n
-0.8760241	r o
-1.895054	r p
-3.586504	r q
-1.709785	r r
-1.228429	r s
-1.174131	r t
-1.628181	r u
-2.093773	r v
-2.082375	r w
-3.93228	r x
-1.562051	r y
-3.00744	r z
-4.198435	s #
-5.046625	s *
-1.465665	s </s>
-6.347654	s @
-4.714186	s [
-4.59178	s ]
-5.41129	s _
-4.584227	s `
-1.081917	s a
-1.779335	s b
-1.498247	s c
-1.93459	s d
-0.9526025	s e
-1.71208	s f
-2.209794	s g
-1.368092	s h
-0.9639988	s i
-2.903922	s j
-2.18515	s k
-1.765818	s l
-1.675206	s m
-1.817173	s n
-1.129768	s o
-1.442355	s p
-2.965818	s q
-1.818173	s r
-1.163542	s s
-0.7066913	s t
-1.351576	s u
-2.622151	s v
-1.579268	s w
-4.541474	s x
-2.102512	s y
-3.932681	s z
-4.862906	t #
-5.583066	t *
-2.063254	t </s>
-5.549791	t @
-4.804914	t [
-4.787186	t ]
-5.163937	t _
-5.088216	t `
-1.145845	t a
-2.030839	t b
-1.9271	t c
-2.196745	t d
-0.9803104	t e
-2.086188	t f
-2.44425	t g
-0.5643016	t h
-0.8385628	t i
-2.95302	t j
-3.142354	t k
-1.953478	t l
-1.99415	t m
-2.32213	t n
-0.9832512	t o
-2.081596	t p
-3.492279	t q
-1.289248	t r
-1.305531	t s
-1.362922	t t
-1.648934	t u
-2.971343	t v
-1.570904	t w
-4.153718	t x
-1.654933	t y
-3.021219	t z
-5.681088	u #
-5.982118	u *
-3.133314	u </s>
-5.982118	u [
-5.982118	u ]
-1.486213	u a
-1.623004	u b
-1.209503	u c
-1.674751	u d
-1.411891	u e
-2.305151	u f
-1.534139	u g
-2.842239	u h
-1.630264	u i
-3.237825	u j
-2.214443	u k
-0.9789853	u l
-1.50309	u m
-0.8446059	u n
-2.695886	u o
-1.463433	u p
-4.659899	u q
-0.7818589	u r
-0.8433295	u s
-0.8997064	u t
-3.451919	u u
-3.317476	u v
-2.930966	u w
-3.28055	u x
-2.781815	u y
-3.107057	u z
-3.496436	v </s>
-5.586341	v [
-1.088734	v a
-3.815489	v b
-3.489431	v c
-3.694246	v d
-0.1638314	v e
-3.760266	v f
-3.942888	v g
-3.632098	v h
-0.7573911	v i
-4.683251	v j
-3.963092	v k
-2.856367	v l
-3.914243	v m
-3.688714	v n
-1.341816	v o
-3.541018	v p
-5.285311	v q
-3.472398	v r
-2.753832	v s
-3.358454	v t
-2.521135	v u
-3.717109	v v
-3.393216	v w
-2.600017	v y
-4.264122	v z
-4.901024	w #
-5.409179	w *
-2.36621	w </s>
-5.019093	w [
-4.631028	w ]
-5.409179	w _
-5.019093	w `
-0.8603909	w a
-2.26679	w b
-2.164284	w c
-2.213833	w d
-0.7968672	w e
-2.335278	w f
-2.561298	w g
-0.8213843	w h
-0.7012815	w i
-3.25996	w j
-3.038111	w k
-2.12826	w l
-2.239211	w m
-1.51664	w n
-0.7157471	w o
-2.299938	w p
-3.693176	w q
-2.010545	w r
-1.708865	w s
-1.419374	w t
-2.74784	w u
-3.25996	w v
-2.266946	w w
-4.901024	w x
-2.354375	w y
-3.649512	w z
-1.963271	x </s>
-4.572331	x ]
-4.873361	x `
-0.9663801	x a
-2.131422	x b
-0.9618309	x c
-2.427757	x d
-1.194206	x e
-1.848055	x f
-2.9983	x g
-2.092324	x h
-0.8972866	x i
-3.229909	x j
-3.183165	x k
-2.620508	x l
-2.104723	x m
-2.477162	x n
-1.651426	x o
-0.5747702	x p
-3.642912	x q
-1.956381	x r
-1.862214	x s
-0.792086	x t
-2.017842	x u
-3.088032	x v
-2.223054	x w
-3.09521	x x
-2.161554	x y
-1.482426	x z
-4.070947	y #
-4.568272	y *
-1.281462	y </s>
-4.31646	y [
-4.41337	y ]
-4.905214	y _
-4.7144	y `
-0.9600055	y a
-1.449983	y b
-1.309994	y c
-1.550106	y d
-1.111656	y e
-1.468049	y f
-1.906324	y g
-1.594847	y h
-1.119411	y i
-2.631614	y j
-2.650316	y k
-1.757128	y l
-1.403643	y m
-1.716358	y n
-1.114986	y o
-1.385327	y p
-2.987673	y q
-1.471436	y r
-1.02415	y s
-0.959318	y t
-1.933291	y u
-2.390323	y v
-1.374869	y w
-4.080931	y x
-2.556037	y y
-2.865595	y z
-3.11768	z </s>
-1.004214	z a
-2.30607	z b
-3.134939	z c
-3.20483	z d
-0.1272605	z e
-3.012945	z f
-3.681952	z g
-2.22602	z h
-1.225224	z i
-4.226019	z j
-3.606231	z k
-2.561691	z l
-2.966744	z m
-3.255983	z n
-1.322387	z o
-2.753751	z p
-3.661748	z q
-3.424387	z r
-2.481727	z s
-3.112076	z t
-2.050894	z u
-3.962778	z v
-2.951092	z w
-2.080927	z y
-2.387171	z z
-0.30103	{ m
-0.30103	} </s>
-0.30103	~ o

\end\
