
\data\
ngram 1=38
ngram 2=1004
ngram 3=12724
ngram 4=97465

\1-grams:
-4.467286	#	-3.089633
-5.294072	*	-0.9893618
-2.055769	</s>
-99	<s>	-3.231675
-6.209898	@	-1.582882
-4.938832	[	-1.205668
-4.937725	]	-0.4545085
-5.172282	_	-1.677746
-4.695794	`	-1.178533
-1.097921	a	0
-1.821732	b	-2.738942
-1.459877	c	-0.5557097
-1.470236	d	0
-0.9104451	e	0
-1.686268	f	0
-1.697521	g	0
-1.390877	h	-0.2545741
-1.102888	i	-0.2488483
-2.852962	j	-2.452062
-2.231429	k	-0.6695675
-1.382361	l	0
-1.598238	m	-0.3435319
-1.115968	n	0
-1.117619	o	0
-1.665419	p	-0.7450415
-2.994261	q	-2.695238
-1.188218	r	0
-1.184464	s	0
-1.045962	t	0
-1.550001	u	-0.9446592
-1.945779	v	-2.640617
-1.821916	w	0
-2.658762	x	-0.6372752
-1.81772	y	0
-2.527951	z	-2.362683
-7.532118	{	-0.2899362
-7.532118	}	-0.2971935
-7.532118	~	-0.2665728

\2-grams:
-2.375954	# a
-2.375954	# b	-0.5822445
-2.766041	# c
-3.067071	# d
-3.067071	# e
-0.6537711	# f	-2.317289
-3.067071	# g
-3.067071	# h
-3.067071	# i
-3.067071	# k
-3.067071	# n
-0.1211102	# o	-2.548662
-3.067071	# p
-2.375954	# t	-0.1420315
-1.007179	* *	-0.2735192
-1.116323	* </s>
-2.262451	* @
-1.058331	* a	-0.1430856
-1.308209	* b	-0.0307196
-1.148508	* c	-0.2489269
-1.359361	* d	-0.1687301
-1.326086	* e	-0.1950797
-1.326086	* f	-0.3197536
-2.262451	* g
-1.571335	* h	-0.2463495
-1.032002	* i	-0.3874309
-1.571335	* l
-1.4843	* m	-0.212597
-1.961421	* n	-0.5109832
-1.359361	* o	-0.274752
-1.571335	* p
-1.563481	* r	-0.2777569
-1.148508	* s	0.00434385
-1.262451	* t	-0.4251492
-1.359361	* w	-0.3414102
-2.262451	* y
-3.842886	<s> #	-1.019716
-3.908153	<s> *	-0.216642
-3.712927	<s> [	-0.3003125
-5.175325	<s> _	-0.2234803
-4.667169	<s> `	-0.1467569
-0.983748	<s> a	-1.69924
-1.033875	<s> b	-2.241889
-1.542969	<s> c	-1.961837
-1.82907	<s> d	-2.228188
-1.589131	<s> e	-2.600621
-1.417473	<s> f	-2.685642
-1.854763	<s> g	-2.118553
-1.666795	<s> h	-1.529824
-0.8638888	<s> i	-2.526953
-2.299974	<s> j	-1.132918
-2.466904	<s> k	-2.348252
-1.80965	<s> l	-1.755017
-1.425164	<s> m	-2.03519
-1.591899	<s> n	-2.513123
-1.446646	<s> o	-1.447592
-1.666458	<s> p	-1.794573
-3.243359	<s> q	-1.193424
-1.773666	<s> r	-2.782784
-1.275668	<s> s	-2.844543
-0.6323873	<s> t	-3.521255
-1.947053	<s> u	-1.960254
-2.715179	<s> v	-0.2170367
-1.281979	<s> w	-2.341991
-3.683963	<s> x	-1.337978
-2.033561	<s> y	-3.254972
-3.274958	<s> z	-0.4187705
-5.476355	<s> {
-0.6379725	@ a	-0.4117127
-1.447158	@ b
-1.447158	@ e
-0.6379725	@ f	-0.3679684
-1.447158	@ j
-1.146128	@ m
-1.447158	@ p
-0.5107933	@ s	-0.3805075
-1.910944	[ ]	-0.2000463
-1.045758	[ a	-0.2925602
-1.39794	[ b	-0.2105934
-1.20412	[ c	-0.2139705
-1.60206	[ d	-0.2789149
-1.823909	[ e	-0.2015136
-1.60206	[ f	-0.1616538
-1.823909	[ g	-0.1551462
-1.371611	[ h	-0.3650945
-0.9788107	[ i	-0.6669996
-1.910944	[ j
-2.30103	[ k
-1.910944	[ l	-0.2277411
-1.371611	[ m	-0.2463461
-1.69897	[ n	-0.2218732
-1.371611	[ o	-0.341495
-1.346787	[ p	-0.1186914
-2.60206	[ q
-1.665695	[ r	-0.07044147
-1.323306	[ s	-0.09409815
-0.633577	[ t	-0.7558059
-1.90309	[ u	-0.3309111
-1.170696	[ w	-0.289769
-2.60206	[ y
-2.59879	] #
-2.59879	] *
-0.7727157	] </s>
-2.29776	] [
-1.030589	] a	-0.2514018
-1.695701	] b	0.03383003
-1.320037	] c	-0.4414346
-1.644548	] d	-0.5119662
-1.320037	] e	-0.3528908
-1.452662	] f	-0.1216863
-1.820639	] g	-0.2200622
-1.019007	] h	-0.3994841
-1.218579	] i	-0.2340847
-2.59879	] j
-1.907674	] k
-1.662426	] l	-0.133483
-1.519609	] m	-0.2227641
-1.598791	] n	-0.2954197
-1.29776	] o	-0.05559323
-1.598791	] p	-0.6187521
-1.695701	] r	-0.3945249
-1.237063	] s	-0.3693188
-1.080277	] t	-0.8170034
-2.29776	] u
-2.29776	] v	-0.4592291
-1.452662	] w	-0.07179861
-2.29776	] y	-0.5080089
-2.59879	] z
-1.578204	_ </s>
-0.2835861	_ _	-1.359787
-1.578204	_ a	-0.1364873
-1.345997	_ b	-0.677863
-2.08636	_ c
-1.578204	_ e	-0.5528551
-1.696273	_ f	-0.1843118
-2.38739	_ g
-2.38739	_ h
-2.08636	_ i
-2.38739	_ j
-1.696273	_ l	-0.526837
-1.696273	_ m	-0.1925185
-2.08636	_ n
-1.609239	_ o	-0.1918637
-1.451025	_ p	-0.3541385
-1.345997	_ r	-0.4235751
-1.18327	_ s	-0.2191833
-1.241262	_ t	-0.8280447
-2.08636	_ u
-2.38739	_ v
-2.08636	_ w	-0.4463502
-2.08636	_ z	0.05248392
-2.840106	` [
-0.3282227	` `	-1.290055
-1.377708	` a	-0.322107
-1.609657	` b	-0.1756103
-1.392948	` c	-0.5665462
-1.798713	` d	-0.5361833
-1.584834	` e	-0.2356857
-1.798713	` f	-0.2283825
-1.840106	` g	-0.4851336
-1.693978	` h	-0.2180218
-1.584834	` i	-0.1419578
-1.903741	` j	-0.1476023
-2.840106	` k
-2.061955	` l	-0.4155741
-1.664015	` m	-0.147808
-1.609657	` n	-0.876444
-1.693978	` o	-0.2032278
-1.408742	` p	-0.03273766
-2.840106	` q
-1.693978	` r	-0.4455936
-1.308627	` s	-0.3997106
-1.308627	` t	-0.5876263
-1.885864	` u	-0.2495224
-2.14899	` v	-0.1968678
-1.584834	` w	-0.05821228
-2.840106	` x
-2.14899	` y	-0.5671067
-5.091774	a #	0.3074028
-5.743081	a *
-2.561342	a </s>
-5.656046	a [	-0.0769675
-5.230077	a ]	-0.1641084
-6.434197	a _
-5.072469	a `	-0.7852578
-2.290184	a a	0.8913434
-1.575967	a b	-0.1074402
-1.349053	a c	-1.089973
-1.434697	a d	-0.7965978
-2.52582	a e	-2.155689
-1.92162	a f	-1.426134
-1.651746	a g	-1.988317
-2.252125	a h	-0.685957
-1.5025	a i	0.4744822
-2.585146	a j	-0.2126008
-1.868302	a k	-0.46105
-0.9239633	a l	0.3626608
-1.505704	a m	-0.6671139
-0.6908772	a n	-0.4213248
-2.691786	a o	0.5670061
-1.622481	a p	-0.5633788
-2.808371	a q	1.359075
-0.9575713	a r	-0.2175473
-1.042435	a s	0.03579162
-0.8202339	a t	0.2229991
-1.94348	a u	1.045529
-1.694222	a v	-0.6413871
-2.118227	a w	0.01167334
-2.64773	a x	-1.726687
-1.782241	a y	0.0618222
-2.735836	a z	0.5212163
-5.019273	b #	-0.1713379
-3.047631	b </s>
-5.409359	b ]	-0.5202351
-5.710389	b _
-0.8727816	b a	-2.195156
-2.305726	b b	-0.4892051
-2.696289	b c	-0.8053567
-2.817738	b d	-1.433995
-0.5672524	b e	-0.7237332
-3.341173	b f	-1.594154
-3.522868	b g	-1.013299
-2.959881	b h	-1.148925
-1.149395	b i	-1.852367
-2.34434	b j	-1.529006
-3.495545	b k	-1.968193
-0.9193092	b l	-3.839132
-2.793935	b m	-0.9782276
-3.082	b n	-0.7539424
-1.036622	b o	-1.115954
-2.854264	b p	-0.4686909
-4.932238	b q	0.5986162
-1.350648	b r	-2.676398
-1.597114	b s	-0.3512987
-1.733169	b t	-0.3667204
-0.9116279	b u	-1.78982
-2.615918	b v	-1.187199
-2.75422	b w	-1.723092
-1.114672	b y	-0.3675586
-4.631208	b z	-0.3964931
-5.118	c #	1.024118
-2.913277	c </s>
-5.771213	c [
-5.373272	c ]	-0.1348268
-5.381126	c `	-0.32662
-0.8834181	c a	-0.08338401
-2.588655	c b	-0.4390654
-1.634746	c c	-0.6193498
-2.462755	c d	-0.7765394
-0.8368884	c e	0.3335962
-2.759854	c f	-1.731555
-2.58341	c g	-2.047774
-0.942134	c h	0.4189851
-1.097312	c i	-2.319148
-3.865417	c j	-0.388772
-1.679176	c k	0.03370858
-1.463032	c l	-3.485045
-2.761974	c m	-1.219704
-3.217937	c n	-1.328383
-0.6719688	c o	-0.1295033
-2.333224	c p	-0.3435655
-3.132723	c q	-2.10844
-1.292653	c r	-3.586678
-1.942488	c s	-0.1422572
-1.03571	c t	-0.1050476
-1.396647	c u	-1.833849
-3.308066	c v	0.009177932
-2.942553	c w	-1.356667
-5.771213	c x
-1.660539	c y	0.1273712
-3.302865	c z	-0.7991127
-4.428413	d #	0.4052517
-5.158792	d *	-0.05330753
-1.738568	d </s>
-4.646908	d [	-0.07135902
-4.584761	d ]	0.01542779
-6.061882	d _
-4.418429	d `	-1.066983
-1.085422	d a	0.1586291
-1.444074	d b	-1.585516
-1.642289	d c	-0.5210463
-1.636021	d d	-1.199525
-0.6629977	d e	-1.020279
-1.694302	d f	-1.885438
-1.830743	d g	-1.770577
-1.807503	d h	-1.648133
-0.8471941	d i	-0.3547293
-2.433902	d j	-0.4433454
-2.675383	d k	-2.715304
-1.73009	d l	-2.317382
-1.710163	d m	-1.618641
-1.824514	d n	-2.765651
-1.140669	d o	-0.941664
-1.615624	d p	-0.005992378
-3.053282	d q	-1.795824
-1.531387	d r	-2.260763
-1.24065	d s	-0.412307
-1.051425	d t	-1.584156
-1.43339	d u	0.7194162
-2.092186	d v	-1.083353
-1.673958	d w	-2.602642
-4.175391	d x	-1.145795
-2.044848	d y	0.09797703
-3.483243	d z	-0.1636545
-4.287219	e #	-0.02698373
-5.259945	e *	-0.1049786
-1.944039	e </s>
-5.930556	e @	-0.1667241
-4.746612	e [	0.08601114
-4.782824	e ]	-0.1108596
-5.542491	e _	-0.5175145
-4.836343	e `	-1.081284
-1.135888	e a	-0.753101
-1.832996	e b	-0.1008259
-1.230351	e c	-0.5524102
-1.136399	e d	0
-1.398455	e e	-0.04594078
-1.578232	e f	-1.07502
-1.769333	e g	-1.613426
-2.079109	e h	-1.244141
-1.453105	e i	0.3778665
-2.82628	e j	-0.3013911
-2.544778	e k	-0.2372324
-1.418507	e l	-0.8689248
-1.416268	e m	-0.6193366
-0.9701458	e n	0.3742846
-1.598313	e o	-1.235479
-1.614809	e p	-0.6671979
-2.387535	e q	-2.380109
-0.8444318	e r	0
-0.9468678	e s	0.3385704
-1.233103	e t	-0.7965975
-1.76696	e u	0.03455402
-1.665173	e v	-0.2940734
-1.669792	e w	-0.5335382
-1.888877	e x	0.1445227
-2.037591	e y	-0.5388452
-2.446799	e z	0.1539594
-5.146882	f #	-0.365029
-5.544822	f *
-2.683288	f </s>
-5.154736	f @
-4.766671	f [	-0.2214142
-4.909487	f ]	-0.08903056
-5.544822	f _
-4.314373	f `	-0.7789176
-1.052201	f a	-0.3015012
-2.179896	f b	-1.596059
-1.653759	f c	-1.790753
-1.973405	f d	-2.09668
-1.092576	f e	-0.4945427
-1.202834	f f	-0.6020173
-1.890357	f g	-2.291763
-2.042873	f h	-1.93928
-0.8299185	f i	-1.381883
-2.639836	f j	-0.714648
-2.872263	f k	-1.553367
-1.477305	f l	-2.801497
-1.95209	f m	-1.591182
-2.151862	f n	-1.908436
-0.7025844	f o	-2.364769
-1.812629	f p	-1.263354
-3.318222	f q	-1.091802
-1.073369	f r	-3.040507
-1.679896	f s	-0.001855463
-0.930389	f t	-0.8668283
-1.324701	f u	-1.478728
-2.651061	f v	-0.9648649
-2.020037	f w	-1.93006
-4.113459	f x	-1.089144
-2.323799	f y	-0.06018406
-3.544822	f z	-0.4943014
-4.555843	g #	0.002798775
-5.056446	g *	-0.07819148
-1.921313	g </s>
-4.834597	g [	0.03290779
-4.688469	g ]	-0.08596864
-5.056446	g _	-0.2068007
-4.720654	g `	-0.3613821
-1.023666	g a	-1.867122
-1.981081	g b	-0.7090715
-1.742578	g c	-1.551236
-1.783985	g d	-2.462584
-0.7693272	g e	-0.1504113
-1.868502	g f	-2.47982
-1.766708	g g	-2.127469
-1.00474	g h	-0.04187272
-1.04175	g i	-2.626563
-2.87939	g j	-0.8471259
-2.531185	g k	-1.745332
-1.410729	g l	-2.692151
-1.843459	g m	-0.8163081
-1.43237	g n	-1.021398
-1.095159	g o	-0.8159786
-1.80737	g p	-1.146044
-3.200119	g q	-1.415075
-1.024626	g r	-3.009522
-1.523649	g s	0.01022744
-1.101673	g t	-2.204387
-1.489969	g u	-1.241454
-2.816313	g v	-0.3781622
-1.929719	g w	-2.089234
-3.688469	g x	-1.487264
-1.76467	g y	0.02652865
-3.65562	g z	-0.1579127
-4.910794	h #	0.8388888
-2.37909	h </s>
-5.204878	h [	-0.05832521
-5.09985	h ]	-0.02439126
-5.442273	h _	-0.1342817
-5.450127	h `	-0.32662
-0.6882536	h a	-0.7004416
-2.384607	h b	-1.624023
-2.102822	h c	-1.741819
-2.444625	h d	-1.676044
-0.3532969	h e	0
-2.471369	h f	-2.163412
-2.708274	h g	-1.433257
-2.392823	h h	-2.245315
-0.9217214	h i	-2.187519
-3.372605	h j	-0.6083929
-2.59929	h k	-1.736433
-2.282345	h l	-1.279624
-2.195676	h m	-1.43083
-2.152283	h n	-0.4755655
-1.123521	h o	-1.509875
-2.270313	h p	-1.234679
-3.343283	h q	-1.575108
-1.63301	h r	-2.532039
-2.027066	h s	-0.8608532
-1.368152	h t	0.004667065
-1.882965	h u	1.027088
-3.045377	h v	-0.08470562
-2.306695	h w	-2.173299
-4.937123	h x	-0.6681713
-2.251381	h y	-0.3827817
-4.408849	h z	0.2886705
-6.128202	i #	-0.4336992
-3.394203	i </s>
-5.738116	i [
-5.350051	i ]	-0.2780474
-5.620047	i _	-0.1715437
-6.128202	i `
-1.374278	i a	0.3745442
-2.028366	i b	-1.625794
-1.102227	i c	0.4488677
-1.568828	i d	-0.1700207
-1.394123	i e	-1.910904
-1.80463	i f	0.1350766
-1.547009	i g	-1.450393
-2.965787	i h	-0.0294065
-2.957794	i i	-1.861757
-3.256629	i j	-0.3496557
-2.145863	i k	-1.817854
-1.295968	i l	0.4893014
-1.487547	i m	-0.643986
-0.584837	i n	-0.1810724
-1.07546	i o	-3.131054
-2.076432	i p	-0.02040844
-3.100649	i q	-0.8663169
-1.523318	i r	-0.7987534
-0.9502316	i s	0
-0.9241174	i t	-0.9993249
-2.949081	i u	-0.8443217
-1.46403	i v	-0.2676705
-2.994823	i w	-1.511369
-2.409078	i x	-0.9530441
-3.662076	i y	-1.464573
-2.027763	i z	-1.163337
-6.429232	i }
-3.448734	j </s>
-0.6893769	j a	-0.7887164
-3.356963	j b	-0.3659602
-2.963179	j c	-0.5835576
-3.298971	j d	-0.2575196
-0.7883704	j e	-1.822902
-3.216784	j f	-0.8940637
-3.02597	j g	-1.087001
-3.055933	j h	-0.8616666
-1.321819	j i	-0.3982445
-3.356963	j j	-0.6663375
-3.600001	j k	-0.3102429
-3.216784	j l	-0.4714358
-2.946789	j m	-0.6624391
-3.378153	j n	-0.4514495
-0.5434458	j o	-1.976504
-2.257579	j p	0.8454906
-2.692411	j r	-0.1093802
-2.674861	j s	0.03942365
-3.088118	j t	-0.5899969
-0.5541895	j u	-1.634419
-3.400429	j v	-0.9764135
-3.03573	j w	-0.3587125
-3.679183	j y	-0.4583398
-3.869997	j z	0.1729712
-4.221519	k #	0.7698124
-5.3007	k *
-1.79923	k </s>
-4.609583	k [
-4.609583	k ]
-1.113094	k a	-1.545168
-2.030487	k b	-1.433234
-2.104247	k c	-1.630364
-2.103971	k d	-2.208279
-0.4550499	k e	-0.2160891
-1.892969	k f	-2.329204
-2.296378	k g	-1.670213
-1.831172	k h	-0.4618093
-0.8289535	k i	-1.807578
-3.130438	k j	-0.1287015
-2.801013	k k	-0.7447983
-1.742231	k l	-2.655669
-1.932971	k m	-1.804187
-1.439524	k n	-3.174307
-1.123134	k o	-0.6323647
-1.98452	k p	0.1885493
-3.920489	k q	-0.008907969
-1.597839	k r	-1.985134
-1.018463	k s	-0.03919886
-1.418346	k t	-2.265479
-1.885393	k u	0.1284899
-3.176848	k v	0.1907832
-1.920308	k w	-1.779866
-5.3007	k x
-1.959265	k y	-0.4228013
-3.920489	k z	0.175533
-4.78803	l #	0.5042011
-5.213393	l *	-0.1580894
-2.214653	l </s>
-6.149757	l @
-5.371606	l [	-0.0769675
-5.149757	l ]	-0.1034183
-5.450787	l _
-5.246667	l `	-0.1036416
-0.9429746	l a	-0.0696181
-1.90548	l b	-1.374603
-1.784588	l c	-1.404292
-1.185418	l d	-0.09782471
-0.7985023	l e	-0.3048401
-1.828926	l f	-0.21517
-2.30083	l g	-2.423974
-2.328506	l h	-2.297864
-0.8005828	l i	-0.1884464
-3.164331	l j	-0.334599
-2.547697	l k	-0.9441388
-0.9484913	l l	0.3371172
-1.987223	l m	-0.7360051
-2.255441	l n	-1.593208
-1.086691	l o	-1.097984
-1.80233	l p	-0.1198267
-3.137764	l q	-1.503911
-1.886571	l r	-2.849317
-1.405355	l s	-0.3266923
-1.444415	l t	-0.2024111
-1.593382	l u	0.6048233
-2.192054	l v	-0.9142566
-2.140944	l w	-2.273012
-5.195515	l x	-0.707336
-1.065564	l y	0.1619694
-3.909208	l z	-0.2056925
-4.729764	m #	0.4650106
-5.933884	m *
-2.007335	m </s>
-5.933884	m @
-5.124698	m [	-0.171581
-4.892491	m ]	-0.1843218
-5.242767	m `	-0.004882858
-0.7374309	m a	-0.1102225
-1.505976	m b	-1.490278
-2.322266	m c	-0.9756922
-2.516578	m d	-1.081067
-0.6027073	m e	0.7211317
-2.156239	m f	-1.453323
-2.789621	m g	-1.453827
-2.515914	m h	-1.443741
-0.8512201	m i	-0.2209003
-3.219554	m j	-0.3238791
-3.355244	m k	-1.246546
-2.502037	m l	-2.237026
-1.52736	m m	-1.280625
-2.522769	m n	-0.8408829
-0.8998248	m o	-0.6739233
-1.083133	m p	0.186981
-3.942657	m q	-0.7288011
-2.550786	m r	-0.3882968
-1.46082	m s	0.2591081
-1.689235	m t	-1.498662
-1.389332	m u	-0.9808269
-3.245464	m v	-0.2247206
-2.261324	m w	-1.582918
-4.892491	m x	-0.4023792
-1.807622	m y	0.008708994
-3.970096	m z	0.2020185
-4.660275	n #	-0.09429714
-5.479785	n *	-0.2006951
-1.987902	n </s>
-6.41615	n @
-5.01821	n [	-0.006083268
-5.001177	n ]	-0.064286
-5.270022	n _	-0.417703
-4.897636	n `	-1.243074
-1.106582	n a	0.1261423
-2.023313	n b	-1.346802
-1.226295	n c	-1.833738
-0.8950986	n d	0
-0.9936541	n e	0.002967927
-1.778871	n f	-2.325069
-0.9616271	n g	0
-2.159144	n h	-1.409137
-1.197672	n i	-0.3581621
-2.670685	n j	-0.803948
-2.040761	n k	-0.7525231
-1.93819	n l	-2.748598
-1.793874	n m	-2.378181
-1.966687	n n	-1.385462
-1.152465	n o	-1.175245
-1.949134	n p	-0.785688
-3.422273	n q	-1.228765
-2.119726	n r	-2.735873
-1.14227	n s	0.7659949
-0.7861621	n t	0.130042
-1.94872	n u	-1.031062
-2.056524	n v	-0.8550121
-2.002013	n w	-2.606938
-3.796014	n x	-1.473286
-1.93819	n y	-1.025251
-3.043054	n z	-0.4412088
-3.834716	o #	-1.190465
-6.11347	o *
-2.629882	o </s>
-5.478135	o [
-5.268372	o ]	-0.1958396
-5.723383	o _
-5.238409	o `	-0.2223027
-1.778363	o a	-0.065862
-1.630425	o b	0.2616924
-1.618877	o c	-0.8211357
-1.687658	o d	-0.6143125
-2.043894	o e	-1.43082
-1.049411	o f	-0.02626285
-1.972286	o g	-1.325072
-2.307867	o h	-1.042796
-1.86503	o i	-1.64875
-2.820771	o j	0.3577043
-2.365708	o k	0.1147715
-1.342632	o l	-1.462837
-1.170156	o m	-0.2204671
-0.7015437	o n	0.2656783
-1.63154	o o	-0.2665721
-1.393017	o p	-0.9111404
-3.592986	o q	-0.988426
-0.8673664	o r	-0.3635496
-1.375848	o s	-0.6829036
-1.266715	o t	-0.1285645
-1.080012	o u	0.04529568
-1.567155	o v	-0.4694114
-1.395849	o w	0.2074671
-3.087141	o x	-1.518199
-2.364546	o y	-0.9926622
-1.79351	o z	-1.776367
-6.4145	o ~
-4.451731	p #	0.2377668
-5.057519	p *
-2.358848	p </s>
-4.825312	p [	-0.08245023
-5.175588	p ]
-5.866704	p _
-0.9205961	p a	-0.376308
-2.551574	p b	-1.620875
-2.578232	p c	-0.7507573
-2.694685	p d	-0.6345357
-0.7402969	p e	-0.246176
-2.585671	p f	-1.598118
-2.756451	p g	-2.24629
-1.820053	p h	-0.8600748
-1.32605	p i	-2.156835
-3.465304	p j	0.9730915
-3.467031	p k	-1.252085
-1.05347	p l	-3.465656
-2.040046	p m	-1.628353
-2.817874	p n	-1.979402
-0.7522535	p o	-2.434975
-1.307145	p p	-1.522523
-4.264644	p q	-0.8515105
-0.7334912	p r	-3.134028
-1.738822	p s	-0.1215047
-1.391411	p t	-1.017983
-1.350328	p u	-1.843888
-3.769794	p v	1.033851
-2.467896	p w	-1.986238
-5.175588	p x	-0.2214955
-2.772933	p y	0.1857014
-4.752761	p z	0.7094285
-1.979173	q </s>
-4.537882	q ]
-4.236852	q `	-0.2672442
-1.339775	q a	-1.130452
-2.629397	q b	-1.391115
-2.699033	q c	-1.143774
-2.993814	q d	-0.833271
-1.977975	q e	-0.02700921
-2.838912	q f	-0.7487738
-3.391754	q g	-0.3352212
-2.492559	q h	-0.5744234
-1.522522	q i	-0.4762889
-3.58364	q j	0.2469401
-3.361791	q k	-0.9543978
-2.914633	q l	-0.7865471
-2.838912	q m	-0.427279
-3.075484	q n	-0.8011857
-2.66865	q o	-0.4470551
-2.76703	q p	-0.4108604
-3.032732	q q	0.1840604
-2.904413	q r	-0.9206011
-1.870429	q s	-1.05057
-2.2136	q t	-1.439258
-0.06932794	q u	-3.440993
-3.601517	q v	0.05129766
-2.000063	q w	-1.74378
-3.759731	q y	-0.5599181
-4.812421	r #	-0.9177264
-5.44081	r *	-0.0429667
-2.185085	r </s>
-5.652783	r @	-0.1201367
-5.229957	r [	-0.03800094
-5.197772	r ]	-0.07522312
-5.302507	r _	-0.2441674
-5.13978	r `	-0.9550089
-0.9782454	r a	-0.4416621
-2.09718	r b	-0.07070976
-1.67231	r c	-1.4138
-1.658131	r d	-0.3458924
-0.6166475	r e	0.2480013
-2.046731	r f	-1.502433
-1.707502	r g	-1.117843
-2.213598	r h	-2.275343
-0.9678689	r i	-0.515308
-3.057219	r j	-0.5760003
-1.827087	r k	-0.08326679
-1.727319	r l	-1.233447
-1.537985	r m	0.09773998
-1.530746	r n	-0.6782681
-0.8760241	r o	-0.2515709
-1.895054	r p	-0.4340183
-3.586504	r q	-0.9425586
-1.709785	r r	-2.682549
-1.228429	r s	0.6357701
-1.174131	r t	-0.3154497
-1.628181	r u	-0.1956197
-2.093773	r v	-0.4916213
-2.082375	r w	-2.263717
-3.93228	r x	-0.07513709
-1.562051	r y	0.7951646
-3.00744	r z	-0.7280234
-4.198435	s #	-0.1790581
-5.046625	s *	-0.1845125
-1.465665	s </s>
-6.347654	s @
-4.714186	s [	-0.03800258
-4.59178	s ]	0.09970874
-5.41129	s _	-0.08210674
-4.584227	s `	-0.7086921
-1.081917	s a	-0.346237
-1.779335	s b	-1.447745
-1.498247	s c	-1.23228
-1.93459	s d	-1.863225
-0.9526025	s e	-0.3338146
-1.71208	s f	-2.049879
-2.209794	s g	-2.110193
-1.368092	s h	-0.2600655
-0.9639988	s i	0.05377127
-2.903922	s j	-0.4988458
-2.18515	s k	0.1513284
-1.765818	s l	-2.355629
-1.675206	s m	-0.6419183
-1.817173	s n	-2.635903
-1.129768	s o	-1.008195
-1.442355	s p	-0.2480185
-2.965818	s q	-1.6056
-1.818173	s r	-2.689026
-1.163542	s s	-0.2992466
-0.7066913	s t	0.1259084
-1.351576	s u	-1.35356
-2.622151	s v	-0.2315106
-1.579268	s w	-2.284908
-4.541474	s x	-0.5280356
-2.102512	s y	-1.529928
-3.932681	s z	0.4913725
-4.862906	t #	0.04588134
-5.583066	t *	-0.1277836
-2.063254	t </s>
-5.549791	t @	-0.4684367
-4.804914	t [	-0.09882194
-4.787186	t ]	-0.3959563
-5.163937	t _	-0.3973022
-5.088216	t `	-0.8925144
-1.145845	t a	0.2483354
-2.030839	t b	-1.330585
-1.9271	t c	-2.307058
-2.196745	t d	-2.424278
-0.9803104	t e	0.3134355
-2.086188	t f	-2.086304
-2.44425	t g	-1.702025
-0.5643016	t h	-0.2553536
-0.8385628	t i	-0.591589
-2.95302	t j	-0.8258275
-3.142354	t k	-1.904889
-1.953478	t l	-2.768214
-1.99415	t m	-1.775322
-2.32213	t n	-2.479497
-0.9832512	t o	0.6805056
-2.081596	t p	-1.269931
-3.492279	t q	-1.954742
-1.289248	t r	-2.762907
-1.305531	t s	0.1958332
-1.362922	t t	-1.332601
-1.648934	t u	0.1901695
-2.971343	t v	-0.01747865
-1.570904	t w	-3.502334
-4.153718	t x	-1.724018
-1.654933	t y	0.7366695
-3.021219	t z	-0.3004579
-5.681088	u #
-5.982118	u *
-3.133314	u </s>
-5.982118	u [
-5.982118	u ]
-1.486213	u a	-1.555459
-1.623004	u b	0.2736636
-1.209503	u c	-2.301297
-1.674751	u d	-0.9114704
-1.411891	u e	0.1275423
-2.305151	u f	-1.803309
-1.534139	u g	-1.379489
-2.842239	u h	-0.3436085
-1.630264	u i	-0.7851076
-3.237825	u j	-0.1547213
-2.214443	u k	0.1001707
-0.9789853	u l	-0.7022703
-1.50309	u m	0.1528019
-0.8446059	u n	-0.398313
-2.695886	u o	0.2508942
-1.463433	u p	0.08744749
-4.659899	u q	0.009939317
-0.7818589	u r	0.2838645
-0.8433295	u s	0.540577
-0.8997064	u t	0.3292513
-3.451919	u u	-1.356953
-3.317476	u v	0.182066
-2.930966	u w	-1.73425
-3.28055	u x	-0.8423711
-2.781815	u y	-0.5710533
-3.107057	u z	0.2197459
-3.496436	v </s>
-5.586341	v [
-1.088734	v a	-2.405762
-3.815489	v b	-0.2295762
-3.489431	v c	-0.734782
-3.694246	v d	-0.1046101
-0.1638314	v e	-0.2103861
-3.760266	v f	-0.4461915
-3.942888	v g	-1.24824
-3.632098	v h	-0.8501749
-0.7573911	v i	-0.9932962
-4.683251	v j	0.001177421
-3.963092	v k	-1.399436
-2.856367	v l	-1.937624
-3.914243	v m	-0.7045009
-3.688714	v n	-1.550963
-1.341816	v o	-2.080916
-3.541018	v p	-0.09431368
-5.285311	v q	0.2883947
-3.472398	v r	-0.8755489
-2.753832	v s	0.3961687
-3.358454	v t	-0.8301445
-2.521135	v u	-1.169609
-3.717109	v v	-1.514807
-3.393216	v w	-1.096798
-2.600017	v y	-0.004699043
-4.264122	v z	-1.56119
-4.901024	w #	1.126446
-5.409179	w *
-2.36621	w </s>
-5.019093	w [
-4.631028	w ]	-0.3080876
-5.409179	w _
-5.019093	w `	-0.32662
-0.8603909	w a	0.3913629
-2.26679	w b	-1.452392
-2.164284	w c	-1.902475
-2.213833	w d	-1.21969
-0.7968672	w e	-1.993264
-2.335278	w f	-2.151312
-2.561298	w g	-1.443914
-0.8213843	w h	-3.367204
-0.7012815	w i	-2.142388
-3.25996	w j	-0.2298869
-3.038111	w k	-0.725954
-2.12826	w l	-2.032689
-2.239211	w m	-2.218713
-1.51664	w n	-0.1062048
-0.7157471	w o	0.3239616
-2.299938	w p	-1.526801
-3.693176	w q	-0.5008211
-2.010545	w r	-2.506854
-1.708865	w s	-0.7086771
-1.419374	w t	-2.638475
-2.74784	w u	-1.264106
-3.25996	w v	-0.1687586
-2.266946	w w	-1.296909
-4.901024	w x	-0.5432326
-2.354375	w y	-1.918223
-3.649512	w z	-0.9986036
-1.963271	x </s>
-4.572331	x ]
-4.873361	x `
-0.9663801	x a	-1.387816
-2.131422	x b	-1.501677
-0.9618309	x c	-2.301643
-2.427757	x d	-1.491675
-1.194206	x e	-2.080232
-1.848055	x f	-1.64629
-2.9983	x g	-0.7106025
-2.092324	x h	-2.151115
-0.8972866	x i	-1.075598
-3.229909	x j	0.009939705
-3.183165	x k	-0.6699824
-2.620508	x l	-1.62483
-2.104723	x m	-1.4934
-2.477162	x n	-1.572305
-1.651426	x o	-1.680603
-0.5747702	x p	-2.452831
-3.642912	x q	-0.6088985
-1.956381	x r	-2.303099
-1.862214	x s	-0.5559292
-0.792086	x t	-0.791562
-2.017842	x u	-1.163366
-3.088032	x v	0.3018091
-2.223054	x w	-1.644436
-3.09521	x x	-1.230962
-2.161554	x y	0.1182114
-1.482426	x z	-2.494737
-4.070947	y #	0.01591832
-4.568272	y *	-0.05438406
-1.281462	y </s>
-4.31646	y [	0.0003487068
-4.41337	y ]	-0.1814896
-4.905214	y _
-4.7144	y `	-0.42353
-0.9600055	y a	0.226418
-1.449983	y b	-1.952375
-1.309994	y c	-1.560619
-1.550106	y d	-2.727456
-1.111656	y e	-0.4479184
-1.468049	y f	-2.55723
-1.906324	y g	-2.030376
-1.594847	y h	-2.323168
-1.119411	y i	-1.885511
-2.631614	y j	-0.4247384
-2.650316	y k	-1.496297
-1.757128	y l	-1.244285
-1.403643	y m	-1.692231
-1.716358	y n	-1.750538
-1.114986	y o	-1.751064
-1.385327	y p	-1.982344
-2.987673	y q	-1.480738
-1.471436	y r	-2.42898
-1.02415	y s	-0.2917932
-0.959318	y t	-2.860443
-1.933291	y u	-0.6174151
-2.390323	y v	-0.2810611
-1.374869	y w	-2.837199
-4.080931	y x	-0.6610954
-2.556037	y y	-2.941893
-2.865595	y z	-0.3664445
-3.11768	z </s>
-1.004214	z a	-0.4643524
-2.30607	z b	-1.393761
-3.134939	z c	-0.9608687
-3.20483	z d	-1.465777
-0.1272605	z e	-0.3796206
-3.012945	z f	-1.110449
-3.681952	z g	-0.4992351
-2.22602	z h	-1.634799
-1.225224	z i	-1.459096
-4.226019	z j	-0.3225718
-3.606231	z k	-0.583715
-2.561691	z l	-1.767984
-2.966744	z m	-0.7924136
-3.255983	z n	-1.030284
-1.322387	z o	-1.192765
-2.753751	z p	-0.883581
-3.661748	z q	-0.5306489
-3.424387	z r	-0.528093
-2.481727	z s	-0.3574425
-3.112076	z t	-0.5421687
-2.050894	z u	-1.016656
-3.962778	z v	0.3294469
-2.951092	z w	-1.261609
-2.080927	z y	-0.3080371
-2.387171	z z	-0.1995777
-0.30103	{ m
-0.30103	} </s>
-0.30103	~ o

\3-grams:
-0.01021917	<s> # o	1.011462
-0.4074853	a # f	1.4133
-0.2477845	a # o	1.498803
-0.3227741	b # f	1.800835
-0.3034529	c # f	1.432496
-0.5585814	c # o	1.897695
-0.9652703	d # f	1.206711
-0.07716595	d # o	1.088628
-2.180107	e # a
-2.180107	e # c
-0.191439	e # f	0.2671717
-0.4831954	e # o	0.7875982
-0.04818039	f # o	1.664127
-1.124406	g # b	-0.01040497
-0.1648103	g # o	1.530987
-0.8347878	h # f	1.666064
-0.1512677	h # o	1.530987
-0.1466828	i # f	1.800835
-0.1760913	k # f	1.459057
-0.6835201	k # o	1.897695
-1.207381	l # f	1.800835
-0.06069784	l # o	1.322711
-0.7269987	m # f	1.470747
-0.1249387	m # o	1.530987
-0.4017002	n # f	1.033089
-0.2319491	n # o	1.100863
-1.928994	o # f	1.94881
-0.005752329	o # o	0.06974284
-0.2852357	p # f	1.237208
-0.3521825	p # o	1.530987
-0.01296498	r # o	1.113452
-0.8269998	s # f	1.070877
-0.07733711	s # o	0.5693837
-1.146128	t # f	1.470747
-0.04346569	t # o	1.053866
-0.4477128	w # f	1.800835
-0.4477128	w # o	2.032466
-0.7501225	y # f	1.459057
-0.09691001	y # o	1.076729
-0.5870743	* * *	-0.3191161
-0.6044829	* * </s>
-1.100925	* * b
-0.9000036	<s> * *	-0.5598089
-0.9174121	<s> * a	-0.08300772
-0.9174121	<s> * c	-0.06416
-1.09108	<s> * e
-1.09108	<s> * f	-0.06143266
-1.413854	<s> * i	-0.2271141
-1.413854	<s> * r
-1.172541	<s> * s	-0.1139679
-1.09108	<s> * t	-0.670258
-0.7487428	d * s
-1.207381	e * b	-0.4720092
-1.207381	e * c
-0.8846066	e * d
-1.207381	e * e
-1.207381	e * m	-0.3800023
-1.207381	e * o
-0.623804	g * a
-0.6907508	l * </s>
-0.6907508	l * c
-0.3679768	n * i	0.08088019
-0.7487428	r * i
-1.146683	s * *
-0.8239087	s * </s>
-0.8239087	s * a	-0.2639072
-1.146683	s * s
-0.8239087	s * w
-0.7487428	t * i
-0.7487428	t * o	-0.408345
-0.9917808	y * </s>
-0.9917808	y * i
-0.9917808	y * o
-0.3227741	e @ a	-0.1902681
-0.3227741	r @ s	-0.1369565
-0.6907508	t @ a	-0.1902681
-0.1943084	t @ s	-0.5052949
-1.367767	<s> [ a
-1.286307	<s> [ c	-0.8870356
-1.286307	<s> [ f	-0.684888
-1.112638	<s> [ h	-0.3958007
-1.609081	<s> [ i
-1.367767	<s> [ m	-0.1374919
-1.609081	<s> [ n
-1.286307	<s> [ s	-0.2705692
-0.3484547	<s> [ t	-0.4878827
-1.286307	<s> [ w	-0.2257724
-0.623804	a [ a
-1.019312	d [ a
-0.9378521	d [ b	-0.1464988
-1.260626	d [ c	-0.5181769
-1.260626	d [ e
-1.260626	d [ o	-0.285106
-0.7266522	d [ t	-0.3720099
-1.260626	d [ w	-0.4598548
-1.18674	e [ a	-0.07799803
-1.224272	e [ b	-0.01389549
-1.206863	e [ c	-0.1807514
-1.720714	e [ d	-0.4882832
-1.39794	e [ f
-1.4794	e [ h	-0.1218602
-0.9208187	e [ i	-0.3062185
-1.720714	e [ n
-1.4794	e [ o	0.1211778
-1.18674	e [ p	-0.1167873
-1.720714	e [ r	-0.4218404
-1.4794	e [ s	-0.4132438
-0.7289332	e [ t	-0.05152315
-0.60206	f [ c	-0.2489534
-0.60206	f [ i
-0.8456528	g [ i
-0.8456528	g [ t	-0.5416091
-0.6907508	h [ a
-0.6907508	h [ t	-0.342952
-0.623804	l [ a	-0.5522894
-0.4477128	m [ p
-1.243593	n [ a
-0.9208187	n [ i	-0.1863714
-1.243593	n [ m	-0.5743954
-1.002279	n [ o	-0.1468103
-0.7096189	n [ t	-0.1269759
-1.243593	n [ w
-0.8870455	p [ p
-0.5642715	p [ t	-0.03495776
-0.9595962	r [ c
-0.6368221	r [ i	-0.1863714
-0.9595962	r [ t
-0.9451473	s [ a	-0.07799803
-1.479121	s [ b
-1.237807	s [ g	-0.08825503
-0.9451473	s [ i	-0.007983297
-1.156347	s [ s	-0.2705692
-0.9652703	s [ t	-0.1737373
-1.479121	s [ u
-0.9451473	s [ w	-0.1675324
-1.526894	t [ a
-1.526894	t [ b
-1.20412	t [ d
-1.526894	t [ h
-1.013043	t [ i	-0.1817288
-1.20412	t [ m	-0.2357815
-1.526894	t [ s
-0.50515	t [ t	-0.4503102
-0.9929201	t [ w	-0.2883162
-0.9208187	y [ a
-1.243593	y [ h
-1.002279	y [ i	-0.1551296
-1.243593	y [ m	-0.479795
-0.9208187	y [ o	0.02288824
-1.243593	y [ p
-1.002279	y [ t	-0.1353253
-1.243593	y [ w
-0.3227741	[ ] </s>
-1.049773	a ] c	-0.1788094
-0.7269987	a ] l	-0.2054814
-1.049773	a ] y	-0.06978074
-0.1466828	b ] o
-0.5446228	c ] n
-1.322774	d ] </s>
-1	d ] a
-1.322774	d ] b
-1	d ] e
-1.322774	d ] h	-0.5098026
-1	d ] i	-0.1003507
-1	d ] t	-0.570167
-1.322774	d ] w
-0.4771213	e ] </s>
-1.170651	e ] a	-0.1015618
-1.188059	e ] c	0.2772824
-1.361728	e ] d	-0.1283794
-1.361728	e ] f
-1.684502	e ] g
-1.443188	e ] h	0.2274744
-1.684502	e ] i
-1.684502	e ] m
-1.361728	e ] n	-0.2376163
-1.443188	e ] s	-0.5615996
-1.188059	e ] t	0.3372513
-0.6907508	f ] d
-0.7504669	g ] </s>
-0.9917808	g ] i
-0.9917808	g ] s
-0.9917808	g ] t	-0.2400791
-0.8870455	h ] </s>
-0.8870455	h ] c
-0.60206	i ] </s>
-0.9248341	i ] n
-0.60206	i ] t	-0.263078
-0.8456528	l ] f	-0.5275286
-0.8456528	l ] s
-0.3906031	m ] a	-0.5838009
-1.260626	n ] </s>
-0.7641838	n ] a	-0.1590422
-1.019312	n ] c	-0.04051367
-1.260626	n ] f
-1.260626	n ] m
-1.260626	n ] s
-1.019312	n ] t	-0.3748502
-0.4578069	o ] </s>
-0.9917808	o ] a
-0.9917808	o ] w	-0.4452035
-0.7504669	r ] </s>
-0.9917808	r ] c
-0.9917808	r ] e
-1.087677	s ] </s>
-0.8527849	s ] a	0.1315717
-1.601528	s ] b
-1.601528	s ] d	-0.5375049
-1.601528	s ] h	-0.5098026
-1.601528	s ] i
-1.601528	s ] k
-1.105085	s ] o	-0.2638411
-1.601528	s ] p
-1.601528	s ] r
-1.360214	s ] s
-1.087677	s ] t	0.2384794
-1.105085	s ] w	0.01088824
-1.544623	t ] </s>
-1.544623	t ] c
-0.2676062	t ] h	-0.1346776
-1.04818	t ] i	0.04774677
-1.544623	t ] r
-1.221849	t ] t	0.0679152
-1.544623	t ] w
-0.9248341	w ] </s>
-0.3908601	w ] e	-0.09218115
-0.9248341	w ] i	-0.554473
-0.8239087	y ] </s>
-1.146683	y ] a
-1.146683	y ] e
-1.146683	y ] f
-0.8239087	y ] o	-0.2468033
-1.146683	y ] p
-1.146683	y ] s
-0.1466828	<s> _ _	0.7923688
-1.708143	_ _ </s>
-0.01744389	_ _ _	-0.1482831
-0.9248341	e _ a	-0.4208873
-0.60206	e _ l	-0.3404929
-0.9248341	e _ o	-0.3800023
-0.60206	e _ s	-0.7931231
-0.3824902	g _ t	-0.2031681
-0.5446228	h _ e	-0.01040497
-0.4477128	i _ r	-0.5011593
-0.1918855	n _ s	-0.4183102
-0.8870455	r _ b
-0.8870455	r _ r	-0.5011593
-0.8870455	r _ t	-0.5657846
-0.8870455	r _ z	-0.06978074
-0.3679768	s _ _	0.4622808
-0.6907508	s _ p
-0.6338981	t _ b	-0.404646
-0.6714297	t _ r	-0.2376801
-0.6714297	t _ t	-0.4367353
-0.2063989	<s> ` `
-1.08052	` ` a	-0.1990043
-1.335792	` ` b	-0.05050021
-1.113943	` ` c	-0.07520192
-1.470491	` ` d	-0.001034432
-1.256611	` ` e	-0.08966308
-1.470491	` ` f	-0.0615411
-1.511883	` ` g	0.0909901
-1.365755	` ` h	-0.07451901
-1.335792	` ` i	-0.2016499
-1.823562	` ` j	0.130145
-1.823562	` ` l	0.06579284
-1.470491	` ` m	-0.1596191
-1.335792	` ` n	-0.2573662
-1.432702	` ` o	-0.08079074
-1.189664	` ` p	-0.2443498
-1.432702	` ` r	0.1013636
-1.034762	` ` s	-0.2370724
-0.9933694	` ` t	-0.2027947
-1.823562	` ` u	-0.2790151
-2.357536	` ` v	-0.3321421
-1.256611	` ` w	-0.1112491
-2.034762	` ` y	-0.3404929
-0.03950854	a ` `	-0.1206818
-0.1249387	c ` `
-0.02020339	d ` `	-0.1398881
-0.02945498	e ` `	-0.04590663
-1.630983	e ` m	-0.5337381
-0.04011722	f ` `	-0.1264427
-0.1139434	g ` `	-0.1648839
-0.1249387	h ` `
-0.2348918	l ` `	-0.08514935
-0.3227741	m ` `
-0.01336396	n ` `	-0.2097113
-0.2218488	o ` `	-0.1253173
-1.021744	o ` m
-0.1466828	q ` `
-0.02632894	r ` `	-0.1409604
-0.05585782	s ` `	-0.04179678
-1.609081	s ` p
-0.05551733	t ` `	-0.135756
-1.243593	t ` p
-0.1249387	w ` `
-0.09691001	y ` `	-0.1728643
-1.049773	* a c
-1.049773	* a m	-0.4080756
-0.8084589	* a n	-0.3851657
-1.049773	* a p	-0.4947135
-0.8084589	* a r	-0.4212348
-3.804286	<s> a a	-0.2843742
-1.658186	<s> a b	-1.025405
-1.232774	<s> a c	-0.1120108
-1.604989	<s> a d	-1.849288
-2.776603	<s> a e	-1.805465
-1.068215	<s> a f	-1.465875
-1.735211	<s> a g	-0.9340589
-2.252058	<s> a h	-0.7873585
-2.578793	<s> a i	-1.08019
-3.150184	<s> a j	0.5067031
-2.467301	<s> a k	-0.4860549
-1.014618	<s> a l	-1.702982
-1.275913	<s> a m	-1.576865
-0.5848193	<s> a n	-1.943087
-3.094667	<s> a o	-1.304084
-1.811365	<s> a p	-1.17822
-3.015486	<s> a q	-1.405364
-1.476409	<s> a r	-1.574687
-0.6805629	<s> a s	-0.9767314
-1.058197	<s> a t	-0.7029243
-2.170388	<s> a u	-0.9546996
-2.337271	<s> a v	-0.3528849
-2.230156	<s> a w	-1.046895
-2.629284	<s> a y	-1.307474
-3.346479	<s> a z	-0.7346777
-0.2063989	@ a p	-0.4618423
-0.8881044	[ a ]	-0.1171889
-1.401955	[ a b
-1.401955	[ a f
-1.401955	[ a m	-0.4080756
-0.4771213	[ a n	-0.5675843
-1.401955	[ a p
-1.401955	[ a r	-0.5017481
-1.079181	[ a s	-0.2571262
-1.09108	] a c	-0.827988
-1.413854	] a g
-1.413854	] a j	0.05161054
-1.413854	] a l
-0.4890205	] a n	-0.8556123
-0.6651117	] a r	-0.6355152
-1.09108	] a s
-1.413854	] a t
-0.4477128	_ a l	-0.5120543
-1.308051	` a b
-1.308051	` a c
-1.308051	` a d
-0.7740768	` a m	-0.9406193
-0.8116084	` a n
-0.7740768	` a s	-0.2493607
-1.308051	` a u	-0.5258632
-1.308051	` a x	-0.5412485
-3.475815	a a </s>
-2.337833	a a a	-0.2808083
-1.815634	a a b	0.01134814
-1.642954	a a c	-0.6606162
-1.416472	a a d	-1.39011
-3.666892	a a e	-0.2567303
-1.753078	a a f	-0.1393139
-1.86298	a a g	-0.864212
-2.599945	a a h	-0.2727929
-2.280691	a a i	-1.130681
-3.666892	a a j
-1.817678	a a k	-0.5250322
-1.391197	a a l	-1.109245
-1.923905	a a m	-0.08468859
-0.229353	a a n	-1.412512
-3.189771	a a o	-0.4663344
-1.89116	a a p	-0.7409923
-3.666892	a a q
-1.137547	a a r	-1.598111
-1.090167	a a s	0.01565851
-1.386617	a a t	-0.2754471
-2.351622	a a u	-0.7501734
-2.510545	a a v	0.2310155
-2.552949	a a w	-0.5522621
-3.989666	a a x	-0.5412485
-3.189771	a a y	-0.6682735
-2.821794	a a z	-0.9838617
-3.121604	b a </s>
-2.527977	b a a	-0.3803115
-1.556574	b a b	-0.2068886
-1.088799	b a c	-2.442712
-1.565302	b a d	0.1518274
-3.422634	b a e	-0.6011924
-3.052278	b a f	0.2282259
-1.923794	b a g	-0.9361625
-1.874292	b a h	-0.4430404
-1.710827	b a i	-0.5986369
-3.691479	b a j	0.2659711
-2.32439	b a k	-0.5344073
-0.5976326	b a l	-0.597356
-1.361791	b a m	-1.960442
-0.568889	b a n	-1.140903
-2.804184	b a o	0.05543583
-3.130037	b a p	-0.8823465
-3.934517	b a q	-0.6122792
-1.181222	b a r	-1.060104
-0.97132	b a s	-1.94571
-1.210344	b a t	-0.6454724
-3.156366	b a u	-0.8614029
-3.246543	b a v	-0.6581163
-2.86448	b a w	-0.8607254
-2.507194	b a y	-0.3652719
-3.319093	b a z	-0.6723883
-2.274481	c a </s>
-5.034477	c a ]
-2.075215	c a a	-0.9519613
-2.208367	c a b	-0.6863651
-2.190565	c a c	-1.552126
-1.469576	c a d	-2.246297
-3.058491	c a e	-0.4628375
-2.602237	c a f	-0.5160109
-2.569731	c a g	-1.259861
-2.603364	c a h	-1.171174
-2.163109	c a i	-0.3812102
-3.609041	c a j	-0.08711161
-3.343726	c a k	-0.01832172
-0.5687822	c a l	-0.2805261
-1.426521	c a m	-1.434689
-0.619006	c a n	0.2965063
-2.850368	c a o	-0.3588321
-1.150522	c a p	-1.019504
-5.034477	c a q	-0.5264668
-1.232608	c a r	-2.581501
-1.149252	c a s	0.1578302
-1.033853	c a t	-2.224176
-1.115363	c a u	-2.021585
-3.009847	c a v	-0.5186774
-2.499516	c a w	-1.60404
-4.711703	c a x	-0.8713365
-3.081614	c a y	-0.8757245
-4.538035	c a z	-0.2559557
-2.256301	d a </s>
-4.580799	d a `	0.3134617
-2.207822	d a a	-0.1528999
-1.414882	d a b	-1.145814
-1.378765	d a c	-0.6001081
-1.614921	d a d	-0.8947341
-2.679795	d a e	-1.230097
-1.590675	d a f	-1.427252
-1.628545	d a g	-0.9881898
-1.950745	d a h	-0.9225877
-1.872656	d a i	-0.3764156
-3.047041	d a j	-0.4466325
-2.135101	d a k	-0.3923315
-1.209082	d a l	0.4910698
-1.140199	d a m	-0.3536453
-0.6769963	d a n	-0.1155737
-2.628155	d a o	-0.7557642
-1.475127	d a p	-0.7654495
-3.131362	d a q	-0.7057485
-1.076311	d a r	-0.7237643
-1.04832	d a s	0.4077324
-0.9405103	d a t	-0.06733517
-1.988347	d a u	-0.8496013
-1.949518	d a v	-0.8949628
-1.980386	d a w	-1.577281
-3.97646	d a x	-0.3928543
-1.010553	d a y	-0.09487771
-3.163547	d a z	-0.04848193
-2.681647	e a </s>
-5.008666	e a `	0.1181449
-2.577302	e a a	-0.5818542
-1.729683	e a b	-1.270251
-1.257309	e a c	-0.7715017
-1.013733	e a d	-0.3856491
-3.301095	e a e	-0.3448828
-1.971904	e a f	-0.1759653
-1.689143	e a g	-1.444679
-2.560475	e a h	-1.66253
-2.307097	e a i	-0.612047
-3.526745	e a j	-0.4489069
-1.662313	e a k	0.5514439
-1.047624	e a l	-0.2403179
-1.655904	e a m	0.1325658
-0.7718847	e a n	0.380299
-2.551288	e a o	-1.626565
-1.656869	e a p	-0.7190822
-3.737599	e a q	-1.484244
-0.746911	e a r	0.7959403
-0.8336468	e a s	-0.8449202
-0.9875313	e a t	-0.6267309
-2.014348	e a u	-0.09534531
-1.855257	e a v	-0.7644138
-2.367522	e a w	-1.884945
-4.008666	e a x	-1.094114
-3.358682	e a y	-1.667486
-3.929484	e a z	-0.492287
-3.679707	f a </s>
-4.639304	f a `	0.4482329
-2.785051	f a a	-0.2433811
-1.810024	f a b	-0.6646362
-0.6316243	f a c	-1.105608
-1.70516	f a d	-1.196652
-2.578807	f a e	-1.16497
-1.767935	f a f	-1.067019
-1.87405	f a g	-1.134095
-2.288501	f a h	-0.9385131
-0.9120949	f a i	-1.727409
-3.030223	f a j	0.5827229
-2.663317	f a k	-0.6765168
-1.003014	f a l	-1.890728
-1.162715	f a m	-1.590744
-1.105498	f a n	-1.582753
-3.053288	f a o	-0.2837119
-1.785051	f a p	-1.244159
-3.225449	f a q	-0.8270274
-0.8693714	f a r	-2.060614
-1.182459	f a s	-0.9120733
-1.390702	f a t	-0.439815
-1.573281	f a u	-1.066671
-1.578807	f a v	-1.201304
-2.340332	f a w	-0.9872162
-3.492621	f a x	-0.03092062
-2.936318	f a y	-1.443309
-3.191591	f a z	0.290316
-3.412991	g a </s>
-2.881512	g a a	0.003419648
-1.56839	g a b	-0.8959026
-1.508384	g a c	-0.3306863
-1.770725	g a d	-1.58934
-2.913304	g a e	-0.1474349
-1.902446	g a f	-0.9503301
-1.289401	g a g	-0.8432539
-2.214334	g a h	-0.5963448
-0.7894937	g a i	-1.69424
-3.111961	g a j	0.08277091
-2.418234	g a k	-0.6444594
-1.146477	g a l	0.2266311
-1.402183	g a m	-1.383214
-0.6266373	g a n	0.4671435
-2.972082	g a o	-0.1739261
-1.422297	g a p	-0.5290873
-3.379567	g a q	-1.36116
-1.085183	g a r	-0.9544745
-1.093677	g a s	0.2627076
-1.043553	g a t	-0.1433407
-2.068992	g a u	-0.3932518
-1.961512	g a v	-0.5668203
-2.063519	g a w	-1.660359
-2.562958	g a y	-0.3187386
-1.838266	g a z	-1.225594
-4.110567	h a </s>
-3.31311	h a a	-0.2747492
-2.254882	h a b	-0.9051099
-2.300701	h a c	-0.3611321
-1.458145	h a d	0.5753192
-3.055049	h a e	-0.5823032
-2.307172	h a f	-1.482494
-2.390032	h a g	-1.246729
-2.947839	h a h	-0.5707635
-2.021143	h a i	-0.156448
-3.771748	h a j	0.719417
-2.665529	h a k	-0.3785395
-1.497927	h a l	0.09937367
-1.859703	h a m	-0.08802159
-0.7909687	h a n	0.1112225
-2.788347	h a o	-0.4306853
-1.618124	h a p	-1.424903
-3.728714	h a q	-0.6919087
-1.221163	h a r	-1.144682
-0.8446132	h a s	0.1186967
-0.437307	h a t	0.1650228
-2.532866	h a u	-0.6726038
-0.9114975	h a v	-2.435065
-2.73866	h a w	-0.9431938
-4.8022	h a x	-0.3932735
-3.254332	h a y	-1.03322
-2.828707	h a z	-0.9777333
-4.404164	i a #	0.5821447
-1.627143	i a </s>
-1.352696	i a a	-0.8581663
-1.622626	i a b	-1.74759
-1.97686	i a c	-0.2846529
-2.195816	i a d	-0.3871286
-2.389373	i a e	-0.448297
-2.165092	i a f	-0.3941357
-2.048916	i a g	-0.6596695
-1.904197	i a h	-1.242344
-1.679107	i a i	-0.7209263
-3.017527	i a j	-0.2866519
-2.680205	i a k	-0.3206216
-0.4633772	i a l	-0.2705128
-1.498772	i a m	0.5914207
-0.6627494	i a n	0.07681763
-2.061517	i a o	-0.7704893
-2.103131	i a p	-0.3908777
-3.732734	i a q	-1.16592
-1.607951	i a r	-0.5762773
-1.170158	i a s	-0.2006917
-0.9479474	i a t	-1.522718
-2.471755	i a u	-0.5117884
-2.918233	i a v	0.3372616
-1.852738	i a w	-2.094297
-4.404164	i a x	-0.3075484
-2.927849	i a y	-2.326035
-3.878863	i a z	0.3029137
-3.086716	j a </s>
-2.527408	j a a	-0.1042609
-2.097711	j a b	-0.5576679
-1.387746	j a c	-1.761048
-1.224137	j a d	-1.11189
-3.086716	j a e	-0.310391
-2.667586	j a f	-0.2852484
-2.471292	j a g	-0.6737751
-2.257412	j a h	-0.6200469
-1.693141	j a i	-0.62084
-2.989806	j a j	-0.6655103
-1.607789	j a k	-0.2547161
-1.92162	j a l	-1.143052
-1.449476	j a m	-0.7768012
-0.9205076	j a n	0.4056555
-3.594145	j a o
-0.2261531	j a p	-3.433265
-1.66347	j a r	-0.9796194
-2.092179	j a s	-0.6352042
-2.410022	j a t	-0.3473905
-2.108992	j a u	-0.9545349
-2.317708	j a v	-0.5272685
-1.968616	j a w	-0.5571331
-3.512684	j a x
-2.711052	j a y	-0.3401249
-2.081321	j a z	-0.2380368
-2.324311	k a </s>
-2.094212	k a a	-0.1173075
-1.052183	k a b	-1.119902
-1.631331	k a c	-0.8561624
-1.573792	k a d	-1.013495
-2.554165	k a e	0.002089741
-1.90888	k a f	0.2514363
-1.20131	k a g	-1.429685
-1.867487	k a h	-0.4777406
-1.915792	k a i	0.06742268
-2.90888	k a j	0.2637835
-1.88878	k a k	-0.9983953
-1.509115	k a l	-0.8611506
-1.63375	k a m	-0.3749239
-0.4201066	k a n	-0.2791625
-2.696272	k a o	-0.3120935
-1.624152	k a p	-0.5497652
-3.710512	k a q	-0.8565547
-1.143878	k a r	-0.7293709
-1.174796	k a s	-0.1291018
-1.071026	k a t	0.4212772
-2.126936	k a u	-0.5836614
-2.268555	k a v	0.270195
-1.825906	k a w	-1.474602
-2.146241	k a y	-0.3729683
-1.929955	k a z	-0.8357676
-5.052435	l a #	-0.3968652
-2.921225	l a </s>
-2.685645	l a a	-0.2805648
-1.469749	l a b	-0.8897237
-1.209353	l a c	-0.5005239
-1.817262	l a d	-1.246299
-3.257393	l a e	-0.1039755
-2.290329	l a f	-0.5618791
-1.827115	l a g	0.7657437
-2.009227	l a h	0.9190271
-1.440147	l a i	-0.1880015
-3.428632	l a j	0.1973352
-2.651688	l a k	-0.4817084
-1.974804	l a l	-0.8998241
-1.423952	l a m	0.173202
-0.7621135	l a n	-1.151735
-3.063768	l a o	-0.5432542
-1.776869	l a p	-0.7985961
-3.688269	l a q	-1.188236
-0.7139106	l a r	-1.082571
-1.076867	l a s	-0.1322939
-0.6779431	l a t	-1.782737
-1.713325	l a u	-1.670487
-2.191004	l a v	-0.2433558
-1.513584	l a w	0.3109172
-2.803662	l a x	-0.2239422
-1.499298	l a y	-1.110391
-3.019262	l a z	-0.4451332
-4.719331	m a #	0.05725714
-2.707902	m a </s>
-5.042105	m a ]
-2.184037	m a a	-0.2158984
-2.24463	m a b	-0.6140895
-1.57217	m a c	-0.004552108
-1.485236	m a d	-1.477142
-2.989627	m a e	-0.1762934
-2.486335	m a f	-0.7522739
-1.598319	m a g	-1.397331
-2.268569	m a h	-0.8506721
-1.152148	m a i	-1.660527
-1.475632	m a j	-1.557242
-1.172542	m a k	-2.332146
-1.221711	m a l	0.1072557
-2.228904	m a m	-0.7132471
-0.5475463	m a n	-1.164062
-2.520674	m a o	0.3711548
-2.256933	m a p	0.05871935
-4.082509	m a q	-0.7269152
-0.87351	m a r	0.1342746
-1.333368	m a s	-0.05102265
-0.9292573	m a t	-2.198352
-2.791619	m a u	-0.01421521
-3.128267	m a v	-0.2664049
-2.568063	m a w	-1.534271
-2.620111	m a x	-1.174291
-1.257083	m a y	-1.095979
-2.802001	m a z	-0.8641239
-4.913908	n a #	-0.1124414
-2.285083	n a </s>
-4.832447	n a ]
-1.961848	n a a	-0.1924847
-1.393536	n a b	-1.278602
-1.566059	n a c	-0.5878074
-1.616193	n a d	-2.528845
-2.832447	n a e	-0.5117443
-1.694882	n a f	-1.314123
-1.475784	n a g	-1.374541
-2.117001	n a h	-0.9617096
-1.86241	n a i	-0.09644822
-2.94408	n a j	0.3256376
-2.623827	n a k	-0.1168679
-0.6768986	n a l	0.0167452
-1.381429	n a m	-0.370553
-0.7037356	n a n	-1.476003
-2.677111	n a o	-0.6408279
-1.808235	n a p	-0.9269197
-3.395755	n a q	-2.008848
-1.310177	n a r	-1.679953
-1.136645	n a s	0.493491
-0.7226662	n a t	-1.711955
-2.074798	n a u	-0.4818692
-2.030358	n a v	-0.5790631
-1.956422	n a w	-2.159163
-3.6761	n a x	-1.192754
-2.77301	n a y	-1.363914
-2.65443	n a z	-0.9947832
-3.681894	o a </s>
-3.335107	o a a	-0.02616409
-1.590423	o a b	-0.72782
-0.77329	o a c	-1.244257
-0.8344586	o a d	-1.010333
-3.002668	o a e	-1.485442
-1.671877	o a f	-1.005573
-1.705697	o a g	-0.9262083
-2.15757	o a h	-0.974681
-2.445805	o a i	-0.6684862
-3.056353	o a j	0.4112607
-2.727652	o a k	0.152774
-0.8707662	o a l	-1.307316
-1.514905	o a m	-1.095894
-0.8206254	o a n	-0.7059964
-3.221163	o a o	-0.9713107
-1.500051	o a p	-0.7002088
-3.092069	o a q	-1.45807
-1.05853	o a r	-1.604002
-1.114084	o a s	-0.5763159
-1.324383	o a t	-0.3208538
-2.126934	o a u	-0.9837884
-1.593168	o a v	-1.523447
-2.175239	o a w	-1.384951
-3.117623	o a x	-0.1126994
-2.816593	o a y	-1.523549
-3.380864	o a z	-0.6252418
-3.427599	p a </s>
-3.292901	p a a	0.2245158
-1.833843	p a b	-1.238482
-1.123161	p a c	-0.9662086
-2.097308	p a d	-0.7811376
-3.645083	p a e	-0.4519675
-2.877927	p a f	0.3622162
-2.081602	p a g	-0.6149758
-3.08279	p a h	-0.4094349
-1.257249	p a i	-2.165301
-3.427599	p a j	-0.1971571
-1.587227	p a k	-1.274772
-1.349516	p a l	-0.6546365
-2.601721	p a m	-0.5649232
-0.7184578	p a n	0.1493746
-3.514749	p a o	-0.5900041
-1.875337	p a p	-1.281556
-3.043023	p a q	-1.822487
-0.4569284	p a r	-2.814364
-1.178883	p a s	-0.6458349
-1.090412	p a t	-1.049161
-2.187201	p a u	-1.400471
-2.710585	p a v	-0.7846124
-2.755781	p a w	-1.198572
-3.247143	p a x	-0.5957601
-1.316805	p a y	-0.5528004
-3.483715	p a z	0.6910392
-2.720986	q a </s>
-2.720986	q a a
-2.295017	q a b	-0.1912895
-2.547317	q a c	-0.1000157
-0.6997964	q a d	-1.911412
-0.531589	q a e	-2.338609
-1.750949	q a f	-0.9853079
-2.802446	q a g	-0.6750378
-1.855684	q a i	-1.335902
-1.654039	q a l	-0.2822483
-2.051979	q a m	-0.2309911
-0.6126463	q a n	-1.905474
-2.509786	q a p	-0.2702582
-1.766743	q a r	-0.883109
-1.465713	q a s	-0.4065623
-0.9058509	q a t	-1.29626
-3.04376	q a u
-2.720986	q a w	-0.8715767
-5.211309	r a #	-0.2507371
-3.009631	r a </s>
-2.879935	r a a	0.2016321
-1.453913	r a b	0.8150966
-1.133321	r a c	-0.1658014
-1.213276	r a d	-0.6940504
-1.666686	r a e	-1.494382
-1.914024	r a f	-0.03070936
-1.398858	r a g	-0.06151304
-2.488285	r a h	-0.03685649
-1.372485	r a i	-0.8471955
-2.727167	r a j	0.3216186
-2.42864	r a k	0.4569431
-0.8728262	r a l	0.1950516
-1.458406	r a m	-0.2217882
-0.7860329	r a n	-0.4485968
-2.439829	r a o	-1.2756
-1.592528	r a p	0.133769
-1.831503	r a q	-0.0454524
-1.673956	r a r	-2.303985
-1.440654	r a s	-0.8210428
-0.6334879	r a t	-1.159476
-2.363923	r a u	-0.750439
-2.086903	r a v	-0.1537902
-1.97384	r a w	-0.9731649
-4.219528	r a x	-0.6262562
-2.353241	r a y	-0.3041802
-2.054538	r a z	-0.6948532
-3.288014	s a </s>
-4.614948	s a `	0.5962079
-2.76331	s a a	-0.5824271
-1.469788	s a b	-1.400765
-1.388539	s a c	-0.5832052
-1.525217	s a d	-0.892148
-3.168827	s a e	-1.273672
-1.549734	s a f	-0.7126411
-1.430681	s a g	-1.072319
-2.105569	s a h	-1.103302
-1.807704	s a i	-0.8613811
-3.104369	s a j	-0.1347408
-2.446852	s a k	-0.1234518
-1.108099	s a l	0.2668299
-1.326968	s a m	-1.458816
-0.5015164	s a n	-1.11575
-3.288014	s a o	-0.6333714
-1.553509	s a p	-1.16321
-3.257137	s a q	-1.926839
-0.8188897	s a r	-1.270684
-1.171161	s a s	0.09103973
-1.326218	s a t	0.08013671
-1.899314	s a u	-1.037386
-1.67345	s a v	-1.545677
-1.911629	s a w	0.622844
-3.228311	s a x	-1.938338
-1.771722	s a y	0.42669
-3.674673	s a z	-1.145544
-5.185964	t a #
-2.972955	t a </s>
-5.185964	t a [
-4.86319	t a `	0.1181449
-2.672858	t a a	0.3084185
-1.151186	t a b	-1.019431
-1.3898	t a c	-1.203246
-1.985819	t a d	-1.568709
-3.117595	t a e	-0.1508358
-1.908465	t a f	-1.614551
-1.493912	t a g	-1.207955
-2.21483	t a h	-0.00491086
-1.150905	t a i	-1.195724
-3.184975	t a j	0.1667385
-1.34275	t a k	-1.953529
-0.8710195	t a l	0.02925741
-1.767788	t a m	-1.054759
-0.701353	t a n	-0.7621586
-2.860304	t a o	-0.1511717
-1.845044	t a p	0.4179917
-3.46525	t a q	-1.311942
-0.944391	t a r	-1.343519
-1.314555	t a s	-0.1688631
-0.8532577	t a t	-0.6599606
-2.268061	t a u	-0.2544765
-2.619325	t a v	-0.1543193
-2.502092	t a w	-1.403672
-1.629264	t a x	-0.1627983
-2.439398	t a y	-0.3032688
-3.877913	t a z	-0.03918559
-3.319814	u a </s>
-2.771629	u a a	-0.3515429
-1.768364	u a b	-1.365961
-2.186275	u a c	-1.527685
-1.695188	u a d	-1.230401
-2.883121	u a e	-0.6338717
-2.916121	u a f	-0.229684
-1.66983	u a g	-2.214107
-2.796935	u a h	-0.02408576
-2.504679	u a i	0.2119942
-3.495905	u a j	0.376463
-2.033507	u a k	-0.8687776
-0.2953827	u a l	0.1663312
-2.385315	u a m	-0.6861273
-1.07661	u a n	0.5870244
-3.495905	u a o	-0.2663555
-2.852452	u a p	-0.5229558
-0.8123176	u a r	-1.756575
-1.798676	u a s	-0.4114734
-0.845889	u a t	-1.328509
-3.217151	u a u	-0.6753081
-3.080932	u a v	-0.06235979
-2.951837	u a w	-0.7557131
-2.365571	u a y	-0.445654
-3.827707	u a z	-0.06287662
-2.953539	v a </s>
-2.553124	v a a	0.01085277
-1.97386	v a b	-1.038526
-1.549683	v a c	-2.05017
-1.861119	v a d	-1.521461
-3.418426	v a e	-0.427566
-3.383663	v a f	-0.3913504
-1.832965	v a g	-1.561975
-3.218853	v a h	-0.4459566
-1.2302	v a i	-1.834672
-3.196577	v a j	-0.9983369
-2.175388	v a k	-1.282042
-0.5899805	v a l	-1.029213
-2.611116	v a m	-1.112219
-0.7606529	v a n	-1.677545
-3.267158	v a o	-0.4663245
-2.543364	v a p	-0.8535773
-1.134936	v a r	-1.616477
-1.172707	v a s	-1.472839
-0.5514003	v a t	-2.142609
-2.790037	v a u	-0.9004775
-4.101946	v a v	-0.5435233
-2.906542	v a w	-1.063532
-3.418426	v a z	-0.7735167
-3.488091	w a </s>
-3.21635	w a a	0.01222454
-1.993694	w a b	0.1024135
-2.48433	w a c	0.7518555
-1.999785	w a d	-1.551255
-3.849818	w a e	-0.2729789
-2.71628	w a f	0.1228001
-1.56023	w a g	-1.175835
-2.478751	w a h	-0.4436356
-1.854622	w a i	-1.198029
-3.117425	w a j	-1.22255
-2.021159	w a k	-1.49381
-1.555573	w a l	-0.6749772
-2.405774	w a m	-0.9180518
-1.060167	w a n	-0.7096962
-4.181621	w a o	-0.3493945
-2.126363	w a p	-0.125719
-4.181621	w a q	-0.3572521
-0.606706	w a r	-0.8560857
-0.4722573	w a s	-0.06701335
-1.361691	w a t	-0.5395398
-3.125543	w a u	-0.5105833
-2.01731	w a v	-0.8991418
-3.071667	w a w	-0.866646
-3.895576	w a x	-0.1202215
-0.8187333	w a y	-0.3022014
-3.030275	w a z	-0.09266232
-2.401831	x a b	-0.3840994
-0.9684615	x a c	-1.902096
-2.253769	x a d	-0.5744241
-2.52677	x a f	-0.563527
-1.637468	x a g	-1.457456
-3.752634	x a h	-0.5861539
-3.51132	x a i	-0.4429652
-3.752634	x a k
-2.22574	x a l	-0.8833745
-0.1774924	x a m	-2.079221
-1.083507	x a n	-1.48584
-3.752634	x a o	-0.5186092
-2.605951	x a p	-0.4942418
-2.283732	x a r	-0.7387405
-1.651709	x a s	-0.3618551
-1.192651	x a t	-1.185372
-2.584762	x a u	-1.664849
-2.294197	x a v	-0.05940866
-3.752634	x a w
-3.51132	x a y	-0.7102721
-2.342774	y a </s>
-2.202944	y a a	-0.2410774
-1.459267	y a b	-1.335027
-1.323835	y a c	-0.3400232
-1.480005	y a d	-1.272635
-2.851304	y a e	-0.8390534
-1.510612	y a f	-1.067758
-1.554091	y a g	-1.199431
-1.833228	y a h	-0.7850173
-2.133218	y a i	-0.4407451
-2.84058	y a j	-0.1846404
-2.135301	y a k	0.4289812
-1.204533	y a l	-0.9798696
-1.449043	y a m	-1.239685
-0.4338948	y a n	-1.103694
-2.809911	y a o	-0.364766
-1.535859	y a p	-2.060345
-2.948214	y a q	-1.419152
-0.9390821	y a r	-2.230743
-1.029545	y a s	0.007103553
-1.328697	y a t	0.2697414
-1.983542	y a u	-1.043867
-2.156699	y a v	-1.221885
-2.006982	y a w	-1.918231
-4.600047	y a x	-0.4974481
-2.772123	y a y	-1.872081
-3.263032	y a z	-0.2109866
-1.958564	z a </s>
-1.793131	z a a	-0.1585025
-1.899586	z a b	-0.9028364
-2.207565	z a c	-0.8158273
-2.408892	z a d	-0.4234901
-2.920775	z a e	-0.2557029
-2.537559	z a f	-0.4650302
-2.455889	z a g	-0.3557924
-2.327859	z a h	-0.5328853
-1.681893	z a i	-0.4784771
-3.604295	z a j
-1.642022	z a k	-0.7022212
-2.229105	z a l	-0.5922963
-1.832639	z a m	-0.7250065
-1.640121	z a n	-0.5687809
-2.744684	z a o	-0.07624268
-2.207565	z a p	-0.6444449
-1.22617	z a r	-1.164662
-1.723495	z a s	-0.3573491
-0.1269849	z a t	-2.168543
-3.331758	z a u	-0.1550864
-2.795837	z a v	-0.6583349
-1.879383	z a w	-1.262632
-3.845609	z a x	-0.5412485
-3.045714	z a y	-0.4265316
-3.045714	z a z	-0.05465978
-0.1249387	# b r	-0.756319
-0.7998953	* b e
-0.5585814	* b u	-0.0282657
-1.5543	<s> b a	-0.988147
-4.046819	<s> b d	-0.4668794
-1.101045	<s> b e	-1.625116
-3.296352	<s> b h	-1.024373
-2.098088	<s> b i	-0.3239783
-2.33527	<s> b l	-1.482004
-3.79169	<s> b n	-0.9344779
-1.486311	<s> b o	-0.7215813
-3.79169	<s> b p	-0.1535466
-1.536145	<s> b r	-0.7049616
-4.046819	<s> b t	-0.1842154
-0.1256501	<s> b u	-2.06265
-1.164412	<s> b y	-0.8141136
-0.5533304	[ b e	-0.3178119
-0.5157988	[ b u	-0.08480959
-1.049773	[ b y
-0.7487428	] b a
-0.7487428	] b e
-0.08715018	_ b a	-0.9509357
-1.076102	` b a	-0.5755403
-1.076102	` b i	-0.5747882
-0.8347878	` b l	-0.4570586
-1.076102	` b r
-0.5796593	` b u	0.1203154
-3.443257	a b </s>
-1.345546	a b a	-0.001760178
-2.134775	a b b	-0.7761405
-2.45511	a b c	-1.213515
-2.167149	a b d	-1.527421
-1.396732	a b e	0.541127
-3.290029	a b f	0.6746618
-3.326751	a b g	-0.1758399
-2.816838	a b h	-0.03234564
-0.7915317	a b i	-1.079322
-3.205018	a b j	0.09832774
-2.75102	a b k	-0.7981551
-0.4220518	a b l	-0.821319
-2.731126	a b m	-0.3572277
-2.685044	a b n	-1.305376
-0.6368161	a b o	-1.702841
-2.690913	a b p	-1.370813
-4.703883	a b q
-1.476935	a b r	-0.5709656
-1.429934	a b s	-0.5026561
-3.133955	a b t	-0.800986
-1.548387	a b u	1.289857
-3.95514	a b v	0.4947413
-2.110819	a b w	-0.07219224
-2.117868	a b y	-0.1734016
-4.207441	a b z	-0.1014006
-2.716341	b b </s>
-0.8706366	b b a	-0.8447485
-3.250315	b b b
-1.680387	b b c	-0.3802008
-2.45042	b b d	-0.6009795
-0.8329539	b b e	-1.561144
-3.250315	b b f
-1.084516	b b i	-1.321772
-0.4156581	b b l	-1.365242
-2.927541	b b m	-0.8828279
-1.142212	b b o	-1.105129
-2.716341	b b p	-0.5290227
-3.250315	b b q
-2.258535	b b r	0.1763252
-2.736465	b b s	-0.1027812
-2.14939	b b t	-0.9588134
-1.619333	b b u	0.1418728
-2.927541	b b v	-0.9376337
-0.9732989	b b y	-0.6924695
-3.32924	c b #	-0.3321421
-1.657513	c b </s>
-0.9107157	c b a	-0.5424903
-1.939519	c b b	-0.8319465
-1.483587	c b c	-0.3881077
-1.903804	c b d	-0.6901277
-0.9650733	c b e	-1.029969
-1.793391	c b f	-0.2705086
-2.068614	c b g	-0.3186157
-1.393682	c b h	-2.022224
-1.230734	c b i	-0.09812834
-3.006466	c b j
-3.32924	c b k	-0.604447
-1.597097	c b l	-1.162713
-1.735399	c b m	-0.4774395
-2.161368	c b n	-1.327485
-1.037983	c b o	-0.523315
-1.426682	c b p	-1.412886
-3.32924	c b q	-0.3800023
-1.337459	c b r	0.8520507
-0.8421132	c b s	-0.7417508
-1.434369	c b t	-1.623054
-1.044255	c b u	-0.07956319
-1.274072	c b w	-0.2168926
-1.881527	c b y	-0.1730272
-3.617807	d b </s>
-1.10499	d b a	-0.7559211
-3.663565	d b b	-0.6742982
-3.949609	d b c	-0.3938811
-3.967018	d b d	0.1288228
-0.4404151	d b e	-0.866785
-4.140686	d b f	-0.2512252
-3.538626	d b h	-0.5602088
-1.84329	d b i	-0.8208326
-1.978321	d b l	-1.548851
-3.576415	d b m	-0.4604802
-3.538626	d b n	-0.1349883
-1.414774	d b o	-0.8852608
-3.576415	d b p	0.1130851
-1.414231	d b r	-1.203946
-3.170649	d b s	-0.04226556
-3.576415	d b t	-0.5423056
-1.181486	d b u	-0.6117619
-3.949609	d b w	-0.3969732
-0.4112513	d b y	0.2254899
-3.533405	e b </s>
-0.7462987	e b a	-0.9921991
-2.854179	e b b	-0.324877
-3.107436	e b c	-0.1846845
-3.089707	e b d	-0.5489075
-0.560842	e b e	-0.3705538
-3.834435	e b f	0.02845882
-4.63433	e b g
-3.232375	e b h	-0.193184
-1.220945	e b i	-1.290814
-2.919446	e b j	-1.993244
-4.63433	e b k
-1.718639	e b l	-2.345485
-3.197613	e b m	-0.3521733
-3.42695	e b n	-0.4656902
-1.081533	e b o	0.9321079
-3.257198	e b p	0.01140577
-1.117042	e b r	-1.010542
-2.432652	e b s	-0.7242139
-0.9503951	e b t	0.02278081
-0.9034858	e b u	-0.745134
-4.393016	e b v	0.8548663
-3.788677	e b w	0.06482338
-1.225434	e b y	-0.04199662
-0.7026405	f b a	-0.1485826
-0.6845905	f b e	-1.207108
-2.364926	f b h	-0.6721909
-0.9802143	f b i	-0.1882743
-1.394114	f b l	-1.183522
-0.7914742	f b o	-0.6869903
-3.270295	f b p	-0.1396374
-0.9232309	f b r	-0.2403173
-3.188835	f b t	-0.2757121
-0.865239	f b u	-0.5191067
-1.586775	f b y	-0.1595097
-3.202726	g b </s>
-0.7187013	g b a	-1.17548
-3.165195	g b b	-0.4404986
-2.649396	g b c	0.1210425
-0.5884619	g b e	-0.864746
-3.165195	g b f	-0.4529263
-2.677424	g b h	-0.3567046
-1.322037	g b i	-0.3537236
-3.699168	g b j	-0.5917895
-1.579358	g b l	-2.1094
-2.438542	g b m	-0.8955076
-3.699168	g b n
-0.9080471	g b o	-0.7327642
-2.812123	g b p	0.1577268
-1.284142	g b r	-0.8809132
-2.362154	g b s	-0.2300058
-2.391118	g b t	-0.295476
-0.7569532	g b u	-0.1832296
-3.202726	g b w	-0.005651478
-0.9807768	g b y	-0.1537392
-0.9552324	h b a	-0.9329215
-3.602289	h b b
-0.702023	h b e	-1.122769
-2.715243	h b h	0.133093
-1.374619	h b i	-0.4236049
-3.602289	h b j
-1.711313	h b l	-0.6840796
-3.602289	h b m	-0.3967147
-0.4197763	h b o	-1.271745
-3.602289	h b p
-1.19673	h b r	-0.4321134
-3.602289	h b t
-0.9484251	h b u	-0.04530322
-1.165571	h b y	-0.00543329
-2.895716	i b </s>
-1.24462	i b a	-0.04048106
-2.133694	i b b	-0.935677
-3.145593	i b c	-0.6757299
-3.750076	i b d	-0.3840836
-0.6665463	i b e	-0.7538185
-3.497776	i b f	-0.1697596
-3.750076	i b g	-0.2170734
-2.856798	i b h	-0.4597585
-0.7738075	i b i	-1.225788
-3.712545	i b k	-0.4376274
-0.5008814	i b l	-1.695614
-2.562017	i b m	-0.02531689
-3.122112	i b n	-0.2696406
-2.172979	i b o	-0.230938
-3.099836	i b p	-0.5890197
-1.594008	i b r	-0.5035751
-2.668472	i b s	-0.1886252
-3.170417	i b t	-0.6528443
-0.8070263	i b u	-1.315259
-3.145593	i b w	-0.03256533
-1.444697	i b y	-1.413063
-0.2808266	j b a	-0.7383
-1.167872	j b e	-0.5536937
-1.167872	j b o
-0.845098	j b r	-0.1964899
-0.6627578	k b a	-1.007446
-0.508285	k b e	-1.358051
-1.657429	k b i	-0.3728276
-2.094122	k b l	-0.1451823
-2.874552	k b n	-0.4659164
-0.9459304	k b o	-0.4539346
-2.22882	k b p	-0.05750551
-1.470872	k b r	0.05584702
-0.8420781	k b u	-0.242836
-0.8486089	k b y	0.07792591
-0.5553237	l b a	-1.652531
-3.767156	l b b
-3.848616	l b c	-0.4224383
-0.3128192	l b e	-0.6516591
-4.08993	l b f
-3.555956	l b h	-0.4438485
-1.86226	l b i	-0.146209
-1.816142	l b l	-1.339115
-3.341187	l b m	0.03449449
-1.290517	l b o	-1.620694
-4.08993	l b p
-1.51108	l b r	-0.45048
-2.712798	l b s	-0.4233316
-4.08993	l b t	-0.5904992
-1.027847	l b u	-0.4883208
-1.578696	l b y	0.06941663
-2.498489	m b </s>
-0.9144239	m b a	0.2189138
-3.223788	m b b	-0.3176419
-3.28178	m b c	-0.1286417
-3.047697	m b d	-0.3570078
-0.3144325	m b e	-2.228505
-3.085485	m b f	-0.06005861
-3.524818	m b g	-0.3371141
-3.085485	m b h	-0.03870303
-0.8384051	m b i	-1.090099
-1.279922	m b l	0.6221977
-3.085485	m b m	-0.2870108
-3.75971	m b n	-0.2697316
-1.271965	m b o	-0.4353397
-3.386515	m b p	0.1027911
-1.155138	m b r	-1.135764
-2.05684	m b s	-0.6779158
-2.394484	m b t	-1.348426
-1.415071	m b u	-0.1711919
-3.105689	m b w	-0.2695952
-1.935148	m b y	0.2667847
-3.392838	n b </s>
-0.9196427	n b a	-0.3908709
-3.742048	n b c	-0.1525728
-3.724639	n b d	-0.2161729
-0.4564747	n b e	-0.2392532
-3.724639	n b f	-0.3851021
-3.091808	n b h	-0.1053501
-1.224635	n b i	-0.5857431
-4.238491	n b j	-0.6116276
-1.908538	n b l	-1.395085
-3.704516	n b m	-0.2665385
-3.742048	n b n	-0.1880222
-0.97653	n b o	-1.357123
-3.997176	n b p	-0.1396374
-1.161878	n b r	-1.228604
-1.241161	n b s	-1.882355
-3.24671	n b t	-0.4572445
-0.9441313	n b u	-0.7865744
-3.278894	n b w	-0.1206989
-0.9632468	n b y	-0.228875
-2.647354	o b </s>
-0.5243617	o b a	-1.413656
-2.090348	o b b	-0.9243733
-2.309859	o b c	-0.7536674
-3.140622	o b d	-0.057982
-0.566749	o b e	-0.4289868
-3.111977	o b f	-0.7390209
-3.093879	o b g	-0.8310562
-3.369102	o b h	-0.1046582
-1.201898	o b i	-0.8681821
-1.677204	o b j	-1.963877
-4.115877	o b k	-0.2304574
-0.8908127	o b l	-2.501613
-3.182015	o b m	-0.7119184
-3.403864	o b n	-0.5802934
-1.477221	o b o	-0.7431105
-3.093879	o b p	-0.8046541
-1.576171	o b r	-0.8984509
-1.20578	o b s	0.3239261
-2.139636	o b t	-1.803621
-1.394377	o b u	-0.5013672
-1.731381	o b v	-1.973334
-3.111977	o b w	0.6607719
-2.080784	o b y	-0.198855
-4.095754	o b z	-0.9183751
-1.095022	p b a	-0.6182365
-1.633889	p b b	-0.7211908
-1.838009	p b c	-0.4346029
-0.4087953	p b e	-1.285601
-3.160783	p b g	-0.6084226
-2.838009	p b h	-0.0133548
-1.758828	p b i	-0.1618674
-1.934919	p b l	-1.085917
-2.919469	p b m	-0.1944427
-1.007634	p b o	-1.537325
-1.390851	p b r	-0.3353682
-0.8423738	p b u	-0.4233698
-2.838009	p b v	-0.9376337
-3.160783	p b w	-0.5758976
-0.7612473	p b y	0.1372842
-0.9542425	q b a	-0.2581724
-0.5467572	q b e	-0.3061072
-1.005395	q b o	-0.3895318
-0.403335	q b u	-0.5821252
-1.005395	q b y	-0.04071698
-3.100592	r b </s>
-0.6758271	r b a	-0.835182
-3.578522	r b b
-2.74157	r b c	-0.3100656
-3.100592	r b d	-0.6392459
-0.6636347	r b e	0.4568586
-3.132777	r b f	-0.001871521
-3.558399	r b g	-0.01595856
-2.574622	r b h	-0.5533932
-0.9041001	r b i	-1.01125
-4.092373	r b j	-0.5917895
-1.775428	r b l	0.8322303
-2.666936	r b m	-0.4347506
-2.259948	r b n	0.1159793
-0.7515922	r b o	-0.4602255
-2.904297	r b p	-0.2417322
-1.281048	r b r	-0.7883792
-1.886885	r b s	1.336431
-2.23812	r b t	-1.306445
-0.9890415	r b u	-0.4407755
-4.092373	r b v	0.4485824
-3.132777	r b w	-0.3700677
-1.205327	r b y	0.2645521
-3.91753	s b </s>
-0.9661505	s b a	-1.569369
-3.188108	s b c	0.0188182
-3.91753	s b d	-0.3358864
-0.3439673	s b e	-0.9793688
-4.091198	s b f	-0.637795
-3.153346	s b h	-0.1717368
-1.618929	s b i	-0.9868627
-3.614077	s b j	-0.933567
-1.780859	s b l	-1.696826
-3.454376	s b m	-0.3999777
-4.172658	s b n	-0.1598556
-1.028115	s b o	-0.661168
-3.489138	s b p	0.04179374
-1.318876	s b r	-0.6057369
-3.392228	s b s	0.002081472
-3.900121	s b t	-0.1695813
-0.8141237	s b u	-0.9816138
-4.172658	s b v	-0.46925
-3.614077	s b w	-0.3638552
-1.002117	s b y	0.5199596
-3.413924	t b </s>
-0.8200344	t b a	-1.59651
-3.552227	t b b	-0.5886701
-3.455317	t b c	-0.3018969
-3.766996	t b d	-0.2173205
-0.3387757	t b e	-0.6829209
-3.224868	t b h	-0.1210631
-1.573362	t b i	-1.102845
-4.30097	t b j	-0.6119998
-1.781375	t b l	-1.584228
-4.059656	t b m	-0.1840432
-3.804527	t b n	-0.4181643
-1.13809	t b o	-1.516157
-3.341374	t b p	-0.170067
-1.297256	t b r	-0.8567883
-3.455317	t b s	-0.007865736
-2.655977	t b t	-0.2606932
-0.9331337	t b u	-0.6059111
-3.309189	t b w	-0.1771769
-0.9938185	t b y	-0.06191406
-2.853964	u b </s>
-1.224618	u b a	-0.1212839
-1.316539	u b b	-1.775513
-2.337925	u b c	-0.9490953
-2.484053	u b d	-1.241768
-1.710754	u b e	-0.5635505
-2.978903	u b f	-1.075453
-3.154994	u b g	-0.3548161
-3.690916	u b h	-0.1521343
-1.770283	u b i	-0.823402
-1.41661	u b j	-1.67732
-3.317722	u b k	-0.52032
-0.293796	u b l	-0.1330404
-1.821295	u b m	-1.965756
-2.76805	u b n	-1.042983
-2.010809	u b o	-1.099214
-1.988046	u b p	-0.9553794
-2.149599	u b r	-0.08289763
-0.7813927	u b s	-1.867717
-1.152558	u b t	0.0511338
-1.924545	u b u	-0.2658058
-2.424616	u b v	-1.903736
-2.997386	u b w	-0.4415345
-3.103842	u b y	0.0270304
-1.375191	v b a	-0.3375855
-0.6916708	v b e	-0.5477544
-1.616505	v b i	-0.5681782
-1.082531	v b o	-0.4035857
-0.624724	v b r	-0.4111965
-0.6569086	v b u	-0.6680398
-1.102654	v b y	-0.08477248
-0.7892429	w b a	-1.059851
-0.5322618	w b e	-0.1879815
-3.289072	w b g	-0.3743342
-1.508921	w b i	-0.8296945
-1.981022	w b l	-0.9841335
-1.042019	w b o	-0.2731198
-1.339616	w b r	-0.4836336
-3.289072	w b s
-0.5608949	w b u	-0.3600644
-1.052484	w b y	-0.2110258
-0.8906807	x b a	-0.4880671
-2.264818	x b b	-0.2953091
-1.009545	x b e	-0.5774739
-0.443086	x b i	-1.519651
-2.587592	x b m	-0.3967147
-2.587592	x b n
-1.440909	x b o	-0.308432
-0.9637879	x b r	-0.6804748
-0.6850342	x b u	-0.9540211
-1.343999	x b y	-0.3518496
-1.066309	y b a	-0.5471458
-3.150473	y b c	-0.2575839
-4.110069	y b d
-0.3206252	y b e	-1.000098
-4.110069	y b g
-3.223024	y b h	-0.5886448
-1.578675	y b i	-0.7639611
-2.942197	y b j	-1.321747
-3.613627	y b k	-0.9362212
-1.648466	y b l	-1.525311
-3.613627	y b n	-0.9344779
-1.069625	y b o	-1.177031
-3.868755	y b p	-0.4076255
-1.302995	y b r	-0.6965075
-4.110069	y b s	-0.5497247
-0.8847483	y b u	-0.6735654
-0.9267575	y b y	0.2826676
-2.009779	z b a	0.01050107
-0.7487105	z b e	-1.335103
-1.551973	z b i	-0.8074212
-0.1275576	z b o	-1.972435
-1.584157	z b u	0.005078097
-2.543753	z b y
-0.9595962	* c a
-0.7182823	* c h	-0.3397748
-0.7182823	* c o	-0.1016196
-0.6368221	* c r
-0.8151213	<s> c a	-1.389674
-3.030296	<s> c c	-0.5969136
-3.456265	<s> c d
-1.420168	<s> c e	-1.537222
-3.456265	<s> c f	-0.2972181
-3.779039	<s> c g
-0.5451072	<s> c h	-2.827765
-1.702937	<s> c i	-1.085569
-1.198586	<s> c l	-1.17762
-3.282596	<s> c n	-0.254669
-0.4575696	<s> c o	-1.021579
-1.364012	<s> c r	0.6877874
-3.456265	<s> c t
-1.413558	<s> c u	-0.7757351
-2.185198	<s> c y	-1.425029
-3.245065	<s> c z	-0.7316573
-1.002279	[ c a	-0.1799868
-0.7297419	[ c h	-0.5164672
-0.9208187	[ c l	-0.8497592
-0.7096189	[ c o	-0.04383055
-0.9208187	[ c r	-0.9024015
-0.8830925	] c a	-0.3547353
-0.1995724	] c o	-0.1286523
-1.051497	` c l	-0.1232069
-0.2710668	` c o	-0.2817393
-1.051497	` c r	-0.06726207
-0.9700368	` c u	-0.08799662
-3.687204	a c </s>
-1.609909	a c a	0.8254486
-3.829872	a c b	-0.5110786
-0.9297779	a c c	-2.043988
-3.579994	a c d	-0.106888
-0.86274	a c e	0.04155704
-3.784114	a c f	-0.2788332
-4.930797	a c g	-0.5208769
-0.9147065	a c h	0.09645054
-1.277609	a c i	-1.008826
-0.9425045	a c k	0.2126088
-1.756969	a c l	0.1668603
-3.704933	a c m	-0.3914755
-3.608023	a c n	0.1536439
-1.152163	a c o	-0.4791259
-4.043752	a c p	0.369211
-2.190274	a c q	0.04409673
-1.392826	a c r	-1.063071
-3.072307	a c s	0.2162099
-0.6347566	a c t	-0.3802237
-1.931634	a c u	0.223516
-4.608023	a c v
-3.451676	a c w	0.2270886
-1.295493	a c y	-0.0100613
-3.344782	a c z	-0.7495188
-2.325779	b c </s>
-0.9496424	b c a	-0.3258449
-1.633889	b c b	-0.1336716
-2.059858	b c c	-0.073045
-1.934919	b c e	-0.3512632
-2.618439	b c f	-0.08103079
-2.859753	b c g
-1.360888	b c h	-1.237071
-1.599127	b c i	-1.156568
-2.618439	b c j	-0.573834
-1.838009	b c l	-0.8784798
-2.363311	b c m	-0.2622235
-2.059858	b c n	-0.6737247
-0.4230357	b c o	-0.9604958
-2.618439	b c p	-0.3168731
-0.5669423	b c r	-0.6423848
-1.61616	b c s	-0.1328269
-1.633889	b c t	-0.5430381
-1.735347	b c u	-0.3539516
-1.900157	b c w	-0.05389708
-3.207048	c c </s>
-1.432746	c c a	-0.3098083
-3.483254	c c b	-0.4125017
-2.747301	c c c	-0.4072565
-3.749176	c c d	0.2335032
-0.4318874	c c e	-3.0047
-3.396104	c c f	-0.4949858
-4.041836	c c g	-0.6556481
-1.650036	c c h	-2.234598
-1.525275	c c i	-1.628788
-4.041836	c c j	-0.2689619
-4.28315	c c k
-2.037823	c c l	-0.09263134
-3.396104	c c m	-0.1816978
-3.960376	c c n	-0.170324
-0.4652478	c c o	0.07678447
-2.227982	c c p	-0.2977262
-1.550442	c c r	-0.6030068
-2.276129	c c s	0.147535
-2.932347	c c t	-0.8304735
-0.8471009	c c u	-1.790523
-3.158743	c c w	-0.3081769
-2.881194	c c y	-1.06169
-4.041836	c c z	-0.04720757
-3.768803	d c #	-0.6821829
-3.039381	d c </s>
-0.8749043	d c a	-1.054287
-3.305649	d c b	-0.4016618
-3.097373	d c c	-0.4856909
-3.189143	d c d	-0.1514266
-1.474616	d c e	-1.255844
-2.972434	d c f	-0.4724396
-3.751394	d c g	0.1516228
-0.8550446	d c h	-2.305071
-1.516502	d c i	-1.771512
-4.265245	d c j
-3.942471	d c k	-0.8768663
-1.328629	d c l	-1.068687
-3.340411	d c m	0.6487314
-3.215472	d c n	0.1693538
-0.3278199	d c o	-0.4613379
-3.3782	d c p	0.08967546
-1.122489	d c r	-0.1085747
-2.587083	d c s	0.009891231
-2.415271	d c t	-1.278307
-1.293461	d c u	-1.015921
-4.023931	d c v	-0.2043182
-2.901078	d c w	-0.7589241
-2.302321	d c y	-1.67368
-3.097373	d c z	-0.9088678
-4.048901	e c </s>
-0.9743834	e c a	-2.195882
-2.156047	e c b	-0.8017473
-2.948843	e c c	-1.103997
-2.682902	e c d	-0.2875255
-1.090055	e c e	-1.219712
-3.565248	e c f	0.5739871
-4.349931	e c g	0.3597977
-1.12712	e c h	-1.2415
-1.249654	e c i	-2.493836
-3.944165	e c j	-0.2844634
-2.377223	e c k	-0.6196448
-1.523797	e c l	-1.471834
-3.67532	e c m	0.110363
-3.789263	e c n	-0.4458998
-0.4588344	e c o	-0.7136568
-3.565248	e c p	-0.8399004
-4.914202	e c q	2.635049
-1.479527	e c r	-0.4252686
-3.342105	e c s	-0.4319598
-0.7144652	e c t	-0.6716094
-1.230195	e c u	-1.407637
-5.236976	e c v
-3.886173	e c w	0.738933
-2.683753	e c y	-0.868535
-3.035297	e c z	-1.790768
-1.011967	f c a	-0.701929
-3.714972	f c b
-2.744935	f c c	-0.7640728
-3.192093	f c d	-0.4134708
-1.371892	f c e	-2.065637
-0.7493001	f c h	-2.73589
-1.420506	f c i	-1.597025
-1.454106	f c l	-0.3288627
-3.796432	f c m
-3.541304	f c n	-0.6311408
-0.2993867	f c o	-0.597798
-1.204874	f c r	-0.2260551
-3.796432	f c s	-0.1900025
-3.503772	f c t	-0.2125241
-1.492256	f c u	-1.250927
-3.541304	f c w	-0.07551341
-2.17506	f c y	-1.928354
-2.830365	f c z	-0.9416466
-0.9288571	g c a	-1.076174
-2.336144	g c c	-0.5241767
-3.937671	g c d
-1.660655	g c e	-1.384055
-3.696357	g c f
-0.9016868	g c h	-2.395327
-1.57088	g c i	-2.067981
-1.272475	g c l	-0.797576
-3.441229	g c m	-0.3394803
-3.614897	g c n	-0.2921495
-0.2663328	g c o	-1.483309
-3.614897	g c p	-0.1055315
-1.21928	g c r	0.01417391
-3.42382	g c s	-0.3514609
-3.696357	g c t	-0.1446752
-1.398291	g c u	-0.7925601
-3.614897	g c v	-0.05351217
-3.614897	g c w	-0.8686235
-2.321167	g c y	-1.589295
-3.42382	g c z	-0.2751927
-0.6680934	h c a	-1.126534
-3.5613	h c c
-3.5613	h c d	-0.2673899
-0.9208187	h c e	-2.374111
-0.8246381	h c h	-2.118019
-1.559855	h c i	-1.693185
-1.472574	h c l	-0.5432261
-3.5613	h c n
-0.4229975	h c o	-0.08734044
-3.5613	h c p	-0.2956693
-1.33513	h c r	0.4734016
-3.3501	h c t	-0.1925834
-1.642222	h c u	-0.9476668
-3.5613	h c w
-2.314146	h c y	-1.302982
-3.64276	h c z	-0.06081776
-4.849884	i c #	-0.8020971
-2.251458	i c </s>
-5.172658	i c [
-4.931344	i c ]	-0.06027478
-4.849884	i c `	-0.3404929
-0.5444466	i c a	0.3142867
-2.250729	i c b	-2.073093
-1.689015	i c c	0.1644308
-1.809677	i c d	-1.705453
-1.019787	i c e	0.189377
-2.065267	i c f	-1.347276
-1.850029	i c g	-0.5675497
-0.9768348	i c h	0.3073899
-0.905319	i c i	-0.8423446
-3.262547	i c j	-0.4169401
-1.770944	i c k	0.3559742
-1.960395	i c l	-0.2381744
-2.062423	i c m	-1.057753
-2.633278	i c n	-1.291707
-1.646942	i c o	0.7677746
-1.616973	i c p	-1.749011
-3.586643	i c q	1.191331
-1.719229	i c r	-0.1082235
-1.224263	i c s	-0.1208711
-1.213998	i c t	-0.3376458
-1.418842	i c u	-1.703239
-2.58193	i c v	-0.3488742
-2.300881	i c w	-1.082002
-1.32975	i c y	-0.1558971
-3.407927	i c z	-0.336136
-0.7160034	j c a	-0.01997731
-1.238882	j c b
-0.8129134	j c h	-0.3461691
-1.047805	j c i	-0.736725
-1.561656	j c l
-1.065214	j c o	-0.3599284
-0.5698753	j c p	-0.2482189
-1.561656	j c r
-0.7009082	k c a	-1.413961
-2.800792	k c d	-0.4729936
-1.719331	k c e	-0.7637813
-0.9199907	k c h	-1.550241
-1.110093	k c i	-1.682871
-1.321391	k c l	-1.221779
-0.4498183	k c o	-0.487107
-0.9316347	k c r	-1.414176
-1.448264	k c u	-0.4848971
-1.652385	k c y	-1.538016
-3.042105	k c z	-0.1991135
-0.9620491	l c a	-1.410874
-3.676848	l c c	0.0560694
-3.969509	l c d	-0.1934005
-1.646668	l c e	-1.507402
-1.00137	l c h	-2.0676
-1.635195	l c i	-1.750934
-2.501847	l c k	-1.797636
-1.35149	l c l	-0.9914671
-0.2884564	l c o	-0.6994149
-3.696971	l c p	-0.3215623
-0.9113927	l c r	-0.848118
-3.696971	l c s	-0.3330251
-4.210823	l c t
-1.276679	l c u	-0.827395
-2.209834	l c y	-0.7884045
-3.888048	l c z	0.1088808
-0.7933912	m c a	-1.207429
-1.429774	m c c	-1.230912
-1.968164	m c d	-0.7208583
-1.29775	m c e	-1.555762
-2.570225	m c f	-0.4871584
-2.465489	m c g	0.2999419
-0.8947794	m c h	-1.750358
-1.586311	m c i	-1.394381
-1.624845	m c k	-1.940879
-1.308421	m c l	-1.652068
-2.231406	m c m	-0.6752503
-2.249889	m c n	-0.7690811
-0.3986309	m c o	0.2927845
-1.224227	m c r	-0.1051241
-2.657375	m c s
-3.134496	m c t
-1.603017	m c u	-0.6512636
-2.960828	m c v	-0.4018818
-2.657375	m c w	-0.499826
-2.289398	m c y	-1.018952
-3.215956	m c z	-0.06081776
-3.934583	n c </s>
-1.489671	n c a	-0.6497287
-4.286765	n c b	-0.2090886
-3.888825	n c c	-0.6201558
-3.587795	n c d	-0.2674997
-0.3702783	n c e	-0.06749155
-4.189855	n c f	-0.2284776
-4.539065	n c g	-0.06478516
-1.214331	n c h	0.05202525
-0.8752296	n c i	-1.687913
-3.125397	n c k	-1.697741
-1.238081	n c l	-1.9291
-4.794194	n c m	-0.2885203
-3.527097	n c n	-0.3571409
-0.8735073	n c o	-0.3651448
-4.148462	n c p	-0.05294158
-1.142697	n c r	-0.8586401
-3.203083	n c s	0.1058884
-1.684298	n c t	-0.6853713
-1.905424	n c u	-0.5450439
-4.712734	n c v	-0.05351217
-3.828127	n c w	-0.547383
-1.325997	n c y	0.007854113
-3.338597	n c z	-0.8661068
-3.079619	o c </s>
-0.8884265	o c a	-1.311566
-3.716442	o c b	-0.3200209
-1.332925	o c c	-1.798563
-3.516869	o c d	-0.002509269
-1.081629	o c e	-2.676954
-3.54035	o c f	0.05807077
-3.84138	o c g	0.4978265
-1.262614	o c h	-1.506771
-0.7508479	o c i	-2.485893
-4.399962	o c j	-0.1454833
-1.115106	o c k	-0.8408508
-1.633955	o c l	-1.139342
-3.716442	o c m	-0.1858795
-3.716442	o c n	0.01992359
-0.8128543	o c o	-0.5566348
-3.75423	o c p	-0.1844353
-3.364259	o c q	1.492361
-0.7870653	o c r	-0.8788873
-2.738718	o c s	-0.2407795
-1.702551	o c t	-1.820574
-1.185708	o c u	-1.53914
-3.15217	o c w	0.5573882
-2.778589	o c y	-0.9990081
-4.127425	o c z	0.06337411
-2.637683	p c </s>
-0.7621335	p c a	-0.4862531
-2.637683	p c b	-0.3116932
-1.174529	p c c	-0.3584437
-2.600152	p c d	0.1964997
-1.756994	p c e	-0.7340716
-2.892812	p c f	-0.3490189
-1.047924	p c h	-1.321723
-1.675689	p c i	-0.8895962
-1.353974	p c l	0.6233768
-2.811352	p c m	-0.9267508
-2.892812	p c n	-0.349028
-0.3534696	p c o	0.4369616
-2.811352	p c p
-1.195051	p c r	1.000369
-1.966254	p c s	-0.3007418
-2.385383	p c t	-0.6796154
-1.443375	p c u	-0.3481751
-1.926745	p c w	-0.05048089
-3.134126	p c y
-0.6084002	q c a	-0.589926
-0.2706474	q c o	-0.2970363
-0.7596679	q c r	-0.4902553
-3.34937	r c </s>
-1.138199	r c a	-0.946178
-3.329167	r c b	-0.225647
-3.392836	r c c	-0.4491957
-3.329167	r c d	-0.02037926
-0.5176221	r c e	0.106456
-3.592408	r c f	0.0009550636
-3.495498	r c g	-0.9572575
-0.7126911	r c h	0.168473
-1.204277	r c i	-1.333197
-2.83274	r c k	-0.4607415
-1.577468	r c l	-1.07185
-3.592408	r c m	-0.2678761
-4.275928	r c n	-0.07203439
-0.6186262	r c o	-0.5764182
-3.592408	r c p	-0.1904819
-1.47569	r c r	-0.3086985
-2.964019	r c s	0.004199825
-2.478465	r c t	-1.0093
-1.290294	r c u	-1.719669
-3.525461	r c w	0.1159642
-2.224431	r c y	-1.220899
-3.370559	r c z	-0.8809487
-4.372286	s c </s>
-0.618167	s c a	-2.198798
-4.69506	s c b
-3.849407	s c c	-0.2649297
-3.387009	s c d	-0.8366359
-1.298812	s c e	-1.437169
-3.808014	s c f	-0.09805608
-4.69506	s c g
-0.9297538	s c h	-1.832049
-1.14646	s c i	-1.246556
-4.372286	s c k	-0.8768663
-1.348211	s c l	-1.478568
-3.895165	s c m	-0.09491228
-4.69506	s c n
-0.4956255	s c o	-0.1061741
-4.453746	s c p	-0.4424693
-1.065718	s c r	-0.306619
-3.895165	s c s	-0.2642322
-4.453746	s c t	-0.1646159
-1.194461	s c u	-0.6291203
-4.372286	s c w
-2.375191	s c y	-1.761293
-3.594135	s c z	-0.9718487
-2.83478	t c </s>
-0.7707465	t c a	-1.503595
-3.890858	t c b	-0.296311
-3.328607	t c c	-0.5408488
-3.303784	t c d	-0.2930175
-1.361776	t c e	-1.763504
-3.559056	t c f	-0.1543847
-3.870735	t c g	-0.3977091
-0.7116688	t c h	-0.1616402
-1.717072	t c i	-1.917521
-1.436513	t c l	-1.100262
-3.445113	t c m	0.2634946
-3.559056	t c n	-0.1326467
-0.3776987	t c o	-0.6899495
-3.479875	t c p	-0.5098286
-1.139927	t c r	-0.7835189
-3.303784	t c s	-0.1898838
-3.412928	t c t	-0.8553833
-1.57139	t c u	-1.430553
-3.328607	t c w	-0.4684201
-1.883278	t c y	-0.9036902
-3.908267	t c z	-0.05113844
-1.149987	u c a	-1.639362
-4.618268	u c b
-1.073906	u c c	-2.197977
-4.121825	u c d	-0.6582211
-0.9813456	u c e	-0.9894502
-0.4885906	u c h	-0.1176006
-1.341251	u c i	-2.424966
-1.754747	u c k	-0.005066345
-1.151127	u c l	-3.279637
-3.818372	u c m	-0.558265
-2.012947	u c o	-0.6605719
-1.875538	u c r	-1.305698
-3.693434	u c s	-1.059039
-0.5889751	u c t	-0.6190826
-3.159831	u c u	-0.1504093
-3.818372	u c y	-0.9437151
-0.7746907	v c a	-0.1594587
-1.942563	v c c
-1.701249	v c e	-0.1964722
-1.619789	v c f	-0.8771546
-0.649752	v c h	-1.342428
-1.619789	v c i	-0.895844
-0.59176	v c l	-1.422176
-0.6655462	v c o	-0.5408369
-1.942563	v c s	-0.5797249
-0.569117	w c a	-1.218453
-3.391578	w c c	-0.6101592
-1.533088	w c e	-1.037622
-1.042135	w c h	-1.636714
-1.496707	w c i	-1.965625
-1.247072	w c l	-0.6430881
-0.356435	w c o	-0.7184172
-3.391578	w c p	-0.4551689
-1.372739	w c r	0.8166081
-3.391578	w c s	-0.5797249
-1.48902	w c u	-0.5780456
-2.399797	w c y	-0.891763
-2.171168	x c a	-0.282898
-0.4092399	x c e	-2.585101
-0.4563809	x c h	-2.998085
-1.587248	x c i	-2.036968
-0.9611656	x c l	-0.714572
-1.405025	x c o	-0.9308593
-2.870138	x c p	-1.07038
-1.870138	x c r	0.1620397
-1.19804	x c u	-1.821341
-3.757183	x c z	-0.1991135
-0.7340674	y c a	-1.332641
-2.957248	y c c	-1.269611
-3.927285	y c d	-0.2916901
-1.684247	y c e	-1.419115
-3.753616	y c f	-0.03459605
-0.8413998	y c h	-1.685527
-1.76492	y c i	-1.616728
-3.927285	y c k	-0.8823292
-1.029658	y c l	-1.352327
-4.250059	y c m
-4.008745	y c n	-0.1938599
-0.3362573	y c o	-0.8420371
-1.276977	y c r	-0.09327838
-3.753616	y c s	-0.3909597
-3.736208	y c t	-0.6866501
-1.691756	y c u	-1.274507
-2.578331	y c y	-1.737396
-3.042678	y c z	-0.8149539
-0.3377528	z c a	-0.5504127
-0.8692317	z c h	-0.4093705
-1.39211	z c l
-0.6387828	z c o	0.08565715
-1.180911	z c r	-1.00609
-1.714885	z c z
-0.5074289	* d e	-0.1777621
-0.7487428	* d r	-0.534631
-1.224039	<s> d a	-1.264439
-3.251624	<s> d d	-0.7428483
-0.3267235	<s> d e	-1.820123
-2.958964	<s> d h	-0.945013
-0.9116862	<s> d i	-0.03245027
-2.568104	<s> d j	-0.5883937
-3.251624	<s> d n	-0.6700367
-0.7960268	<s> d o	0.03493581
-1.451385	<s> d r	0.2891354
-0.8541936	<s> d u	-0.7855865
-3.492938	<s> d w
-2.392013	<s> d y	-0.9178063
-0.6043389	[ d ]	-0.5155549
-0.5228788	[ d i
-0.7998953	] d e
-0.4771213	] d i	-0.2362306
-0.4771213	] d o	-0.2793098
-0.3906031	` d e	-0.125214
-0.3906031	` d i	-0.7216536
-4.845153	a d #	-0.5626714
-1.934668	a d </s>
-1.173815	a d a	0.06755618
-1.748349	a d b	1.054901
-2.052557	a d c	0.1450631
-1.174594	a d d	-0.1994793
-0.5018382	a d e	0.6641818
-2.156267	a d f	-0.5895929
-2.531153	a d g	-0.9157267
-2.074704	a d h	0.3550944
-0.8874653	a d i	-0.384712
-1.828359	a d j	-1.446254
-3.09641	a d k	-0.3885422
-1.731156	a d l	-0.3839444
-1.387989	a d m	-0.9193089
-2.054032	a d n	-0.09727774
-1.201956	a d o	-0.4243688
-2.212749	a d p	-1.244691
-2.820523	a d q	-1.015475
-1.825731	a d r	0.007594395
-1.5608	a d s	-0.09908545
-1.429541	a d t	0.1565733
-1.763467	a d u	-0.2457584
-1.205221	a d v	-1.663406
-2.131444	a d w	0.07211385
-1.366537	a d y	0.0854987
-3.055018	a d z	-0.4713123
-2.49699	b d </s>
-1.401289	b d a	-0.6921045
-2.738304	b d b
-0.7720771	b d e	-0.8445854
-0.8970158	b d i	-0.3808737
-0.8714617	b d o	-0.5486986
-1.892651	b d r	-0.2683512
-1.778708	b d s	-0.4237308
-0.3174632	b d u	-1.576158
-2.49699	b d y	-0.4669691
-2.06542	c d </s>
-1.342316	c d a	-0.9562614
-2.568095	c d b	-0.02748962
-1.498898	c d c	-0.7965965
-2.568095	c d d	-0.8482115
-0.2804968	c d e	-1.964976
-2.078009	c d f	0.3117482
-2.958698	c d g	-0.1325462
-2.706398	c d h	-0.6550787
-0.7303918	c d i	-0.6395463
-3.455141	c d j
-2.94129	c d l	-0.2134539
-2.194514	c d m	-0.08491046
-2.921166	c d n	0.2246462
-1.087043	c d o	-1.274581
-2.46336	c d p	-0.3718214
-1.600888	c d r	0.3171761
-1.537606	c d s	0.02560002
-2.308458	c d t	0.319921
-1.810147	c d u	0.06322667
-2.94129	c d w	-0.03484364
-1.817096	c d y	-1.745845
-3.757662	d d </s>
-1.248035	d d a	-1.061482
-3.471618	d d b	0.2726247
-3.083437	d d c	-0.3706395
-3.147107	d d d	-0.6744348
-0.4773494	d d e	-1.877896
-2.528233	d d f	-0.4095905
-4.030199	d d g
-2.357674	d d h	-0.5612028
-0.7154889	d d i	-1.268519
-3.42586	d d j	-0.05915726
-0.8959168	d d l	-1.348171
-2.978702	d d m	1.101831
-3.22174	d d n	0.3078053
-0.9681296	d d o	-0.8047518
-3.195411	d d p	-0.2906071
-0.9411333	d d r	-1.171714
-1.974074	d d s	-0.2949776
-1.997725	d d t	-0.1956271
-1.573991	d d u	-0.2531189
-3.346679	d d v	-0.6420146
-2.934499	d d w	0.7031243
-2.147107	d d y	-0.8339413
-3.77507	d d z	-0.09862997
-4.163053	e d #	-0.3697754
-5.330925	e d *
-1.410601	e d </s>
-4.443879	e d [	-0.1907611
-4.796951	e d ]	-0.08032512
-4.105061	e d `	-0.03778854
-1.020216	e d a	0.03040196
-1.197201	e d b	-0.9398804
-1.606865	e d c	-1.056931
-1.831192	e d d	-0.8819229
-0.9914513	e d e	0.64912
-1.484534	e d f	-0.6873262
-1.760341	e d g	-0.303752
-1.904461	e d h	-0.8393908
-0.844393	e d i	-1.225715
-2.702083	e d j	-0.2361635
-2.436442	e d k	0.5271899
-1.819316	e d l	-0.309814
-1.746174	e d m	0.2319148
-1.839162	e d n	-0.2169904
-1.184828	e d o	-0.5488559
-1.684005	e d p	-1.85866
-3.044363	e d q	-0.03436894
-1.697174	e d r	-0.6376416
-1.278662	e d s	-0.2439402
-0.7924424	e d t	-0.9324418
-1.364172	e d u	-0.2375557
-2.412654	e d v	-0.1820875
-1.538329	e d w	-0.09673765
-4.229999	e d x	0.3679356
-2.368332	e d y	-1.098563
-3.550773	e d z	-0.3450568
-1.317353	f d a	-0.6551065
-2.72632	f d b	-0.2894968
-2.969358	f d d	-0.9361569
-0.3094414	f d e	-1.705801
-3.718101	f d h	-0.4124693
-0.6773787	f d i	-0.6402977
-2.617175	f d j	-1.04359
-3.184126	f d m	-0.2248612
-2.571418	f d n	-1.223831
-0.7446951	f d o	-1.525389
-2.441084	f d p	-0.3499136
-1.462515	f d r	0.2042334
-3.221658	f d s	-0.3273593
-3.184126	f d t	0.08767652
-1.881222	f d u	0.2124627
-2.969358	f d w	-0.2817471
-2.101596	f d y	-1.869461
-3.896265	g d </s>
-1.367565	g d a	-1.045884
-3.654951	g d d	-0.7428483
-0.6386555	g d e	-1.627806
-0.8541592	g d i	-0.4432578
-3.57349	g d l
-3.896265	g d n	-0.5352655
-0.682697	g d o	-2.197634
-0.4751929	g d p	0.6622622
-1.589714	g d r	-0.089755
-3.896265	g d t	-0.4410082
-1.898323	g d u	-0.07479145
-3.896265	g d w
-2.310249	g d y	-1.797464
-0.9148631	h d a	-0.9612642
-3.045829	h d d	-0.6812658
-0.4938578	h d e	-1.708049
-3.300957	h d h	-0.2741736
-0.6692688	h d i	-0.5207155
-3.219497	h d j	-0.2892746
-3.219497	h d l	-0.888233
-3.542271	h d m	-0.4930812
-3.045829	h d n	-0.9036039
-0.9155815	h d o	-1.160671
-2.374399	h d p	-0.1660547
-0.7477167	h d r	-0.2633764
-2.793529	h d s	0.01238509
-3.300957	h d t	0.1638341
-1.64354	h d u	-0.4462993
-3.542271	h d v	-0.6119524
-3.300957	h d w	-0.3912745
-2.205257	h d y	-1.261291
-3.02842	h d z	-0.2045064
-2.081529	i d </s>
-4.464743	i d [	-0.1816704
-4.172083	i d `	0.7468563
-1.101492	i d a	-0.3119675
-2.199538	i d b	0.908718
-2.083703	i d c	-0.3676201
-1.274492	i d d	-1.786257
-0.2499247	i d e	0.4698981
-2.133677	i d f	0.1289691
-1.795946	i d g	-1.317381
-2.469469	i d h	-0.145156
-1.141238	i d i	0.2056109
-2.941326	i d j	-0.4725554
-2.991172	i d k	-0.06077096
-1.752855	i d l	-0.05025532
-2.435522	i d m	0.2030793
-1.51366	i d n	-0.739908
-1.716141	i d o	-0.8662632
-2.208158	i d p	-1.486862
-3.860404	i d q	0.1221094
-2.195762	i d r	-0.379012
-1.687801	i d s	0.1191384
-1.498487	i d t	0.5291283
-1.454716	i d u	-1.008726
-3.188306	i d v	-0.2470997
-2.179163	i d w	0.4147577
-2.607551	i d y	-0.4919517
-4.172083	i d z	-0.1654086
-0.6918901	j d a	-0.1515076
-0.6918901	j d e	-0.2192344
-0.7294216	j d i
-1.225864	j d u	-0.6116059
-1.225864	j d z	-0.5237842
-0.9066941	k d a	-1.615054
-0.5483687	k d e	-0.8526986
-0.8275129	k d i	-0.4349673
-0.4579482	k d o	-1.394196
-1.192407	k d r	-0.3565289
-1.56326	k d u	-0.8826726
-2.719607	k d y	-0.8960059
-4.568679	l d #	0.3142012
-1.537503	l d </s>
-4.31355	l d [
-4.31355	l d ]	-0.1352116
-4.809993	l d `	0.7299577
-1.196146	l d a	-1.349377
-0.8698686	l d b	-1.587284
-1.487943	l d c	-1.408978
-1.69506	l d d	-2.060308
-0.9297113	l d e	-1.656071
-1.730329	l d f	-0.3888588
-1.942737	l d g	-0.7934567
-1.283823	l d h	-1.07727
-1.016808	l d i	-1.491609
-2.699522	l d j	0.002669066
-2.791153	l d k	-0.4601706
-1.673638	l d l	-0.04640923
-1.66136	l d m	-0.4093518
-1.33249	l d n	-0.8550299
-1.445168	l d o	-1.204061
-1.537829	l d p	-0.7551633
-2.977568	l d q	-1.00561
-1.253715	l d r	-1.163125
-1.014121	l d s	-0.201677
-1.339233	l d t	0.2688862
-1.962174	l d u	-1.980228
-2.493048	l d v	0.1867129
-1.306138	l d w	-0.7174105
-2.5664	l d y	-0.9379483
-4.296142	l d z	0.1838041
-2.728984	m d </s>
-1.184309	m d a	-0.6988896
-2.417305	m d b	-0.4637775
-2.074883	m d c	-0.4668301
-3.021645	m d d	-0.1133045
-0.40743	m d e	-1.102598
-2.338124	m d f	-0.4791546
-1.078849	m d g	-0.8869597
-2.728984	m d h	-0.945013
-0.7798159	m d i	0.105618
-3.021645	m d m	-0.3547855
-3.262958	m d n
-0.7738529	m d o	-1.021595
-2.338124	m d p	-0.1985159
-1.42608	m d r	0.1430622
-2.055578	m d s	-0.2582729
-3.021645	m d t
-1.525211	m d u	-1.043019
-2.162033	m d w	-0.577768
-1.954908	m d y	-1.232327
-4.566806	n d #	-0.1658721
-5.125388	n d *	-0.1208714
-2.069416	n d </s>
-4.870259	n d [
-4.441868	n d ]	-0.05674732
-4.521049	n d `	0.30103
-1.077129	n d a	0.06828288
-1.706069	n d b	-0.07266326
-1.405738	n d c	0.1249575
-1.628676	n d d	-2.178915
-0.8021821	n d e	-1.345478
-1.571074	n d f	-0.5033427
-1.84399	n d g	-0.6094543
-1.646104	n d h	-0.5166
-0.8554587	n d i	-0.6046135
-2.297034	n d j	-0.8351609
-2.612564	n d k	0.1678653
-1.72302	n d l	0.1751435
-1.533651	n d m	-0.5943558
-1.869383	n d n	-1.416727
-1.218048	n d o	0.3942811
-1.428364	n d p	-1.995819
-2.938986	n d q	-1.31765
-1.506991	n d r	-0.6296917
-1.080817	n d s	0.07881109
-0.9301627	n d t	-0.1982218
-1.510919	n d u	0.02017678
-2.359082	n d v	-0.2687655
-1.603911	n d w	0.2270867
-3.750197	n d x	-0.6927702
-2.429382	n d y	-1.192181
-3.327924	n d z	-0.2149894
-1.808811	o d </s>
-0.8580205	o d a	-0.861659
-2.24972	o d b	-0.2517433
-2.130244	o d c	-0.414213
-1.972493	o d d	0.3666101
-0.5858621	o d e	-1.817861
-1.969445	o d f	-0.2539619
-2.248275	o d g	-0.8624538
-2.488795	o d h	0.4646261
-0.9622169	o d i	-0.1393247
-2.875583	o d j	-0.2341721
-3.279683	o d k	-0.2564701
-2.44354	o d l	-1.623174
-2.452683	o d m	0.07014327
-2.064083	o d n	-1.319928
-0.9941259	o d o	0.8899667
-1.92134	o d p	-1.488264
-3.580713	o d q	-0.01258912
-1.673379	o d r	-0.6828402
-1.227842	o d s	-0.003573288
-1.783347	o d t	-0.2423024
-0.7688511	o d u	-2.375919
-3.114057	o d v	0.4676963
-2.087355	o d w	-0.6217756
-1.576392	o d y	0.1527053
-4.572494	o d z
-2.092838	p d </s>
-0.7936209	p d a	-0.9659247
-1.916746	p d b	-0.3996048
-2.503821	p d c	-0.08903947
-3.017672	p d d
-0.5776263	p d e	-0.5205927
-2.130626	p d f	0.02268023
-2.694898	p d g	-0.228304
-3.017672	p d h	-0.4124693
-0.8497995	p d i	-0.02186601
-2.483698	p d l	-0.4090896
-2.521229	p d m	-0.01349849
-0.6920119	p d o	-0.8347027
-1.33951	p d p	-0.3886003
-1.326921	p d r	0.05595861
-1.666869	p d s	-0.5687975
-1.615716	p d t	-0.02065264
-1.499921	p d u	-0.6902264
-2.268929	p d v	-0.7456263
-2.172019	p d w	0.08710124
-2.776358	p d y	-0.7006891
-1.389721	q d d	-0.5596457
-0.3679768	q d e	-0.6345983
-0.5898255	q d i	-0.2443738
-0.8932784	q d o	-0.1312123
-1.148407	q d u	-0.699054
-4.034979	r d #	0.3238805
-1.719158	r d </s>
-1.143192	r d a	-1.352261
-2.05738	r d b	-0.1211698
-1.936032	r d c	-0.6552625
-2.116395	r d d	-1.831364
-0.5118834	r d e	-0.7441975
-1.872188	r d f	0.1683627
-2.314701	r d g	-0.6601257
-2.141701	r d h	-0.03085618
-0.7431158	r d i	-0.5140792
-2.945406	r d j	0.5906189
-2.555435	r d k	-1.010583
-1.440009	r d l	-0.1785428
-1.936806	r d m	0.272739
-2.158139	r d n	-0.7652089
-1.149589	r d o	-1.303184
-1.77782	r d p	-1.612755
-2.736379	r d q	-0.4848579
-1.753803	r d r	-1.542685
-0.9432006	r d s	0.3950906
-1.270795	r d t	0.1756782
-1.94383	r d u	-1.721507
-3.032556	r d v	0.8063178
-1.752788	r d w	0.1903644
-2.465661	r d y	-0.5697625
-3.571825	r d z	-0.6815712
-4.258718	s d </s>
-1.353502	s d a	-1.233653
-3.266937	s d b	0.02747803
-4.017404	s d c
-3.762275	s d d	-0.3484669
-0.3749219	s d e	-1.900707
-3.015125	s d f	-0.2523482
-2.28596	s d g	-1.079197
-4.017404	s d h	-0.2741736
-0.6791458	s d i	-0.8824226
-3.762275	s d j	-0.3141077
-4.017404	s d m	-0.2930826
-2.750307	s d n	-1.208778
-0.6834143	s d o	-1.623348
-2.600152	s d p	-0.4208414
-1.23065	s d r	0.05895996
-2.965907	s d s	-0.9784756
-3.509975	s d t	0.4121548
-1.435341	s d u	-0.4269691
-3.935944	s d v	-0.3039581
-2.740967	s d w	-0.5129019
-2.190348	s d y	-1.608403
-4.258718	s d z
-1.240969	t d a	-1.549978
-3.893749	t d c
-3.893749	t d d	-0.6077973
-0.3430566	t d e	-1.83505
-4.135063	t d h
-0.7074609	t d i	0.1315466
-3.638621	t d j	-0.1411771
-2.549048	t d m	-1.143858
-3.289411	t d n	-0.9641932
-0.6517208	t d o	-1.112566
-3.812289	t d p	-0.9400902
-1.417254	t d r	-0.2853737
-3.812289	t d s	-0.2944049
-3.638621	t d t	-0.393788
-1.696124	t d u	0.4304935
-3.893749	t d v	-0.1189533
-2.909199	t d w	-1.021919
-2.302639	t d y	-2.161014
-2.456109	u d </s>
-1.232917	u d a	-0.86334
-2.591364	u d b	-0.6862113
-2.705308	u d c	-0.3061099
-1.335628	u d d	-1.165676
-0.5553961	u d e	-1.481711
-3.028614	u d f	0.0200044
-0.7561617	u d g	-2.281872
-2.316142	u d h	0.2549328
-0.4711069	u d i	-0.861437
-2.86021	u d j	-1.24704
-2.716303	u d k	-1.821818
-2.338885	u d l	-1.587591
-2.985148	u d m	0.8607775
-3.006338	u d n	0.3517873
-1.727584	u d o	0.01638445
-2.7633	u d p	-0.6171194
-2.64461	u d r	0.2922102
-2.119847	u d s	0.1402266
-2.426554	u d t	0.03961674
-2.298768	u d u	-1.044115
-3.911707	u d v	-0.4265302
-2.522038	u d w	1.305065
-1.424843	u d y	-0.3689185
-1.737747	v d </s>
-1.414973	v d a	-0.2664203
-1.496433	v d c
-0.5698753	v d e	-0.2905558
-0.6368221	v d i	-0.6079659
-1.737747	v d m
-0.9890046	v d o	-0.3310662
-1.496433	v d p	-0.4590664
-1.737747	v d r
-1.496433	v d s	-0.1993368
-1.737747	v d t	-0.2424498
-1.737747	v d w
-1.737747	v d y	-0.565918
-2.320285	w d </s>
-1.229204	w d a	-1.225184
-3.019255	w d b	-0.7468756
-2.542134	w d c	0.08424272
-3.019255	w d d	-0.8496763
-0.4197356	w d e	-1.566578
-2.005014	w d f	-1.466007
-3.019255	w d h
-0.872094	w d i	-1.870186
-2.496376	w d l	-0.5931335
-2.828178	w d m	-0.08798175
-2.542134	w d n	-0.4826596
-0.5223252	w d o	-0.9198582
-2.241104	w d p	-0.08248042
-1.347157	w d r	-0.04396722
-1.542134	w d s	-0.2193423
-2.593286	w d t	0.3986072
-2.033978	w d u	-0.6474115
-2.828178	w d w	-0.4299285
-2.454983	w d y	-0.5177245
-0.764363	x d a	-1.327396
-0.2497046	x d e	-0.5660432
-0.9015362	x d i	-0.5060886
-1.215155	x d o	-0.4650387
-1.366423	x d r	-0.6513366
-1.757283	x d u	-0.5473843
-2.291257	x d y
-4.009946	y d </s>
-1.241049	y d a	-1.389775
-3.687172	y d b	-0.2998813
-0.430214	y d e	-1.781158
-0.5561954	y d i	-1.617528
-3.687172	y d j	-0.9273568
-3.513504	y d m	-0.4602007
-2.620225	y d n	-1.215279
-0.7064115	y d o	-0.9914122
-3.261203	y d p	-0.5158595
-1.219811	y d r	-0.5075778
-3.164293	y d s	-0.04576868
-1.589105	y d u	-1.312446
-4.009946	y d v	-0.5597496
-2.687172	y d w	-0.9948912
-2.423931	y d y	-1.475279
-1.329059	z d a	-0.2515707
-0.2379782	z d e	-0.5879973
-0.80618	z d i	-0.3654264
-0.80618	z d o	-0.3907818
-1.329059	z d r	-0.864719
-0.6907508	* e c	-0.4269332
-0.6907508	* e x
-1.226358	<s> e a	-2.667401
-2.808042	<s> e b	-0.5644846
-1.21053	<s> e c	-2.016185
-1.797318	<s> e d	-1.508723
-1.8419	<s> e f	-1.996995
-1.719906	<s> e g	-1.445266
-3.236434	<s> e h	-0.958369
-1.641711	<s> e i	-1.347052
-1.590558	<s> e l	-0.959722
-1.400085	<s> e m	-1.016483
-1.295047	<s> e n	-1.250334
-2.845831	<s> e p	-1.317727
-1.750503	<s> e q	-0.1125675
-2.081043	<s> e r	-1.375609
-1.677708	<s> e s	-1.366877
-2.146861	<s> e t	-0.7795297
-0.6539733	<s> e u	-1.811481
-0.4666076	<s> e v	-1.129695
-1.162947	<s> e x	-0.7522149
-3.236434	<s> e y	-0.9173487
-0.623804	[ e c	-0.4269332
-0.623804	[ e n
-0.8016323	] e c	-0.1189389
-0.8016323	] e m	-0.212073
-0.8016323	] e n	-0.291843
-1.124406	] e s	-0.5985926
-0.8016323	] e v	-0.3454712
-0.1249387	_ e n	-0.911544
-1.100925	` e a
-1.100925	` e c	-0.4269332
-0.5669513	` e n	-0.2232269
-1.100925	` e s	-0.5047827
-1.100925	` e t
-1.100925	` e u	-0.3654109
-2.908378	a e </s>
-1.592407	a e a	-0.6351897
-1.973879	a e b	-0.9823844
-1.85916	a e c	-1.04177
-1.221742	a e d	-1.888548
-2.866985	a e e	-1.326024
-2.317313	a e f	-0.9559824
-1.999893	a e g	-1.404099
-3.257588	a e h	-0.2537377
-2.285129	a e i	-0.7354355
-2.629624	a e j	-1.152628
-2.200808	a e k	-0.8958009
-0.2086267	a e l	0.9697803
-1.756089	a e m	-1.013948
-1.690894	a e n	-0.6007349
-2.653105	a e o	-0.7441566
-2.607348	a e p	-1.289701
-2.954135	a e q	1.027312
-1.787804	a e r	-0.8086202
-1.63422	a e s	-1.215162
-2.274909	a e t	-1.312802
-0.9825502	a e u	-1.533955
-1.680491	a e v	0.83909
-2.794434	a e w	-0.4421093
-1.631916	a e x	-0.2560757
-2.954135	a e z	-0.3250851
-2.479436	b e </s>
-4.747476	b e `	0.4360337
-1.205268	b e a	-0.8997814
-1.981469	b e b	-2.251395
-0.8976733	b e c	-2.622163
-1.550849	b e d	-0.8464926
-0.9416849	b e e	-2.373807
-1.428053	b e f	-2.767986
-1.467633	b e g	-1.677512
-1.522064	b e h	-1.592439
-1.286045	b e i	-1.604288
-2.818854	b e j	-0.3694811
-2.657415	b e k	-1.159446
-1.251599	b e l	-0.5688406
-1.816596	b e m	-2.433265
-1.330892	b e n	-1.552083
-2.076438	b e o	-1.154977
-1.815573	b e p	-2.298061
-3.109713	b e q	-0.006112153
-0.8037647	b e r	-0.9081405
-1.254171	b e s	-0.09273985
-0.9602657	b e t	-1.54488
-2.076811	b e u	-1.830303
-2.499684	b e v	-0.2100457
-2.073468	b e w	-2.389829
-3.842107	b e x	-0.2713521
-1.898365	b e y	-1.764183
-3.509668	b e z	-0.244491
-4.839693	c e #	-0.3010835
-1.384218	c e </s>
-4.584565	c e [	-0.1296553
-4.332264	c e ]	-0.1594094
-4.839693	c e _	-0.3492305
-1.219701	c e a	-0.02959988
-1.776113	c e b	-2.247658
-1.805925	c e c	-2.210628
-1.119577	c e d	-0.6962597
-1.743153	c e e	-1.853658
-1.6939	c e f	-0.6883924
-2.381656	c e g	-0.5033022
-1.99182	c e h	-0.6577357
-1.228803	c e i	-1.037713
-2.938689	c e j	-0.2792101
-2.81375	c e k	-0.9354056
-1.655456	c e l	-1.520712
-1.654087	c e m	-1.800942
-0.8732111	c e n	-2.363916
-1.200485	c e o	-0.8820103
-1.371615	c e p	-1.311175
-3.295835	c e q	0.3888223
-1.23099	c e r	-0.6688488
-0.6335549	c e s	0.08080012
-1.160209	c e t	-1.759198
-2.369658	c e u	-0.8046197
-2.540749	c e v	-0.1556541
-1.686474	c e w	-2.850686
-2.58895	c e x	-0.4148419
-3.210048	c e y	-0.9681461
-4.567156	c e z	0.4549072
-2.151156	d e </s>
-5.244537	d e _
-1.297171	d e a	-0.2631951
-1.396891	d e b	-1.557052
-1.111306	d e c	-1.483474
-1.193761	d e d	0.05857624
-1.429002	d e e	-2.421254
-1.305007	d e f	-2.08353
-2.180348	d e g	-0.6242551
-2.636205	d e h	-0.6156534
-2.006011	d e i	-0.9701639
-3.148464	d e j	-0.06992399
-3.155846	d e k	-0.6843678
-1.469721	d e l	-0.09975624
-1.159685	d e m	-1.829001
-0.9202165	d e n	0.1421054
-1.888205	d e o	-0.161815
-1.412426	d e p	-2.113726
-2.273403	d e q	-0.285621
-0.7596466	d e r	0.1949116
-1.112832	d e s	-0.08045628
-1.526029	d e t	-1.82429
-2.012207	d e u	0.1702041
-1.198307	d e v	-0.1352869
-2.341979	d e w	-2.522232
-1.83564	d e x	-0.1750814
-3.42116	d e y	-1.624405
-3.474605	d e z	-0.9065856
-4.534897	e e #	-0.4224806
-2.221052	e e </s>
-4.746097	e e [
-4.827557	e e ]	-0.1770603
-1.400331	e e a	-1.636035
-2.373799	e e b	-1.39429
-1.183091	e e c	-1.240894
-0.8388109	e e d	-0.2510464
-2.40236	e e e	-1.276035
-1.551582	e e f	-0.521649
-2.570006	e e g	0.05657189
-2.614692	e e h	-0.3848992
-1.432441	e e i	-1.870245
-3.467343	e e j	-0.5460752
-1.560366	e e k	-0.7948317
-1.523207	e e l	-0.6833407
-1.151815	e e m	0.5199537
-0.7086703	e e n	0.1907589
-1.944693	e e o	-0.8980059
-1.459341	e e p	1.285859
-2.230664	e e q	-0.6642119
-1.773585	e e r	0.7783756
-1.476662	e e s	0.2700228
-1.312274	e e t	-0.08429132
-1.042061	e e u	-1.002334
-1.692762	e e v	-1.50995
-2.309404	e e w	-2.126825
-1.292015	e e x	-1.255207
-2.298939	e e y	-2.390586
-1.735232	e e z	-1.747441
-2.020079	f e </s>
-1.07814	f e a	-1.331691
-2.06043	f e b	-1.557894
-0.7696052	f e c	-1.415814
-1.190984	f e d	-1.139066
-1.396677	f e e	-1.350925
-2.215457	f e f	-1.298855
-2.091464	f e g	-1.011449
-2.512727	f e h	-0.8473584
-1.981689	f e i	-1.4502
-3.850187	f e j	-0.1919204
-3.100064	f e k	-0.3212134
-1.471335	f e l	-1.85647
-1.737498	f e m	-1.644495
-1.098811	f e n	-1.321324
-2.441523	f e o	-1.006145
-2.723893	f e p	-1.663336
-2.616556	f e q	-0.1125675
-0.5978191	f e r	-0.1107438
-1.444072	f e s	-0.9188214
-1.596727	f e t	-1.592462
-1.411249	f e u	-0.4056841
-1.883458	f e v	-0.8799255
-1.209581	f e w	-0.5696561
-1.564067	f e x	-0.815432
-3.607149	f e y	-0.5467555
-3.276155	f e z	-1.929016
-4.397071	g e #	0.735805
-1.589163	g e </s>
-4.588149	g e [
-1.474205	g e a	-0.9860629
-2.013731	g e b	-1.874054
-1.527073	g e c	-2.136384
-1.174067	g e d	0.139306
-1.803531	g e e	-1.062482
-1.72881	g e f	-1.26775
-2.377741	g e g	-0.6537769
-2.239844	g e h	-0.5723394
-1.460396	g e i	-0.7100353
-3.12575	g e j	0.1981251
-3.226421	g e k	-0.7119131
-1.592806	g e l	-0.9072461
-1.436983	g e m	-1.698565
-0.8053892	g e n	-0.6121554
-1.252156	g e o	-0.643714
-1.888311	g e p	-2.312703
-2.872145	g e q	0.135217
-0.7427403	g e r	0.00600518
-0.9124923	g e s	0.002622075
-0.9238826	g e t	0.6069291
-2.009127	g e u	-0.136576
-2.11588	g e v	-0.810156
-1.841514	g e w	-2.216602
-2.001936	g e x	-0.7874559
-3.092142	g e y	-0.8773347
-3.986089	g e z	-0.8979689
-4.884854	h e #	-0.1831413
-5.119746	h e *
-3.516102	h e </s>
-5.633596	h e @	-0.3321421
-4.532671	h e [	-0.04484869
-5.137154	h e ]	-0.137068
-4.17516	h e `	-0.128484
-1.32917	h e a	0.6546983
-1.574878	h e b	-2.759281
-1.197169	h e c	-0.9469329
-1.424369	h e d	-0.6653743
-1.244944	h e e	-2.162466
-1.444811	h e f	-1.326576
-1.595153	h e g	-0.3294989
-1.894459	h e h	-1.497801
-1.135523	h e i	-1.754898
-2.539725	h e j	-0.3078469
-2.281439	h e k	-1.765636
-1.404793	h e l	-1.540673
-1.281601	h e m	0.01825736
-1.26132	h e n	0.3083055
-1.576957	h e o	-0.4789423
-1.278472	h e p	-1.582518
-2.597612	h e q	0.2925235
-0.8174714	h e r	-0.2763165
-1.122185	h e s	-0.7118353
-1.466781	h e t	-0.9331862
-1.417227	h e u	-1.895723
-2.094129	h e v	0.9673156
-1.427824	h e w	-2.161264
-2.867299	h e x	-0.5982681
-1.43372	h e y	-0.5736057
-3.069442	h e z	-1.086508
-2.945204	i e </s>
-2.692687	i e a	-0.6944957
-2.993717	i e b	-0.6496958
-2.429804	i e c	-1.718411
-1.202792	i e d	0.4521527
-3.160048	i e e	-0.8057764
-1.694071	i e f	1.015219
-2.70673	i e g	-0.5972185
-3.005726	i e h	-0.2158333
-2.777431	i e i	-0.6089402
-4.639448	i e j	-0.3257674
-3.372352	i e k	-0.6304609
-1.696852	i e l	-0.8559586
-2.784689	i e m	-0.5657027
-0.9223369	i e n	-1.546519
-3.09559	i e o	-0.721234
-3.41186	i e p	-0.2150113
-1.391361	i e r	0.07256053
-0.2547273	i e s	0.08713809
-1.175251	i e t	0.1476229
-2.649503	i e u	-0.01003509
-1.245317	i e v	-0.6966882
-1.431208	i e w	0.03344778
-2.985891	i e x	-0.1744198
-4.639448	i e y	-0.4337701
-4.880762	i e z	0.2065741
-1.54642	j e a	-2.216346
-2.890812	j e b	-1.224852
-0.1432449	j e c	-3.654446
-2.987722	j e d	-0.1688976
-2.510601	j e e	-0.432595
-1.993185	j e f	-1.854762
-3.222614	j e g	-1.132596
-3.736465	j e h
-3.413691	j e j	-0.8224795
-3.495151	j e k	-0.5812056
-2.091471	j e l	-1.422483
-2.660363	j e m	-0.354617
-2.045714	j e n	-0.7545202
-1.505206	j e o	-2.146513
-2.686692	j e p	-1.136571
-1.324964	j e r	-1.437246
-2.045714	j e s	-1.329642
-1.93657	j e t	-0.8733963
-3.495151	j e u	-0.1120491
-2.33451	j e v	-1.157687
-0.9629287	j e w	-1.68268
-2.008061	k e </s>
-4.691303	k e _	-0.5574923
-1.370851	k e a	-0.2569707
-2.023482	k e b	-1.513772
-1.784575	k e c	-1.61167
-1.079832	k e d	0.05243975
-1.408534	k e e	-2.359164
-2.082971	k e f	-1.350918
-2.202197	k e g	-0.1228263
-1.990737	k e h	-1.109252
-1.580596	k e i	-0.4527236
-2.59523	k e j	-0.1671456
-2.620341	k e k	-0.7511237
-1.068441	k e l	-0.21302
-1.743216	k e m	-1.934857
-1.157853	k e n	-1.249561
-1.685181	k e o	-0.3894728
-1.567125	k e p	-1.606651
-2.994391	k e q	0.7864941
-0.9810202	k e r	-0.5432245
-1.153244	k e s	0.3248388
-0.6043276	k e t	-0.1332652
-2.008061	k e u	-0.8552305
-2.511196	k e v	0.233062
-1.734051	k e w	-1.746343
-2.474582	k e x	-0.9604701
-1.19856	k e y	-0.3600375
-3.64153	k e z	-0.6476521
-4.351255	l e #	0.4469734
-1.574263	l e </s>
-4.700465	l e [	-0.06664178
-0.7811326	l e a	-1.320521
-1.747137	l e b	-1.800417
-1.057826	l e c	-1.060874
-1.065225	l e d	-0.3593235
-1.616695	l e e	0.7318686
-1.538409	l e f	-1.505189
-1.443038	l e g	-0.6490963
-2.014996	l e h	0.9851677
-1.512028	l e i	-0.5604267
-3.010811	l e j	-0.3207777
-2.997147	l e k	-1.272003
-1.837638	l e l	-1.061997
-1.20361	l e m	-0.1306759
-1.198936	l e n	-1.39797
-1.560267	l e o	-0.7364472
-1.819521	l e p	-1.223244
-2.878499	l e q	0.2258479
-1.547935	l e r	0.02713448
-0.9207929	l e s	0.06025245
-1.146674	l e t	-1.618592
-2.136411	l e u	-0.2902338
-1.463469	l e v	-0.9086869
-1.752027	l e w	-1.739291
-1.749412	l e x	1.088441
-2.475037	l e y	0.04962972
-4.029036	l e z	0.5236098
-4.642855	m e #	-0.1711592
-5.176829	m e *
-1.843896	m e </s>
-5.176829	m e [
-4.662978	m e ]	-0.1945249
-4.854055	m e `	0.2407169
-1.166318	m e a	0.410664
-2.202131	m e b	-1.74136
-1.657879	m e c	-2.299957
-1.207031	m e d	0.1485529
-1.747864	m e e	-1.750436
-1.930811	m e f	-1.53426
-2.318339	m e g	-0.5166411
-2.211261	m e h	-0.6825252
-1.734359	m e i	-0.3755282
-3.100727	m e j	-0.4693649
-2.906295	m e k	-0.8601125
-1.852898	m e l	-1.738942
-1.277215	m e m	-2.566337
-0.4351959	m e n	-0.8689705
-1.686245	m e o	-1.028291
-1.987571	m e p	-1.576384
-3.270478	m e q	0.443735
-0.8594592	m e r	-1.030698
-1.15042	m e s	-0.670383
-1.239544	m e t	-0.8556259
-2.397689	m e u	-0.5604999
-2.621059	m e v	-0.2767148
-1.740669	m e w	-2.603837
-2.058407	m e x	-0.777677
-3.163859	m e y	-1.28872
-3.950965	m e z	0.2584325
-4.754298	n e #	-1.033503
-4.945375	n e *
-1.777861	n e </s>
-5.026835	n e [
-4.734175	n e ]	-0.1681537
-1.46355	n e a	-0.06458642
-2.156265	n e b	-1.828771
-1.451685	n e c	-0.443698
-1.138088	n e d	-0.01636204
-1.18983	n e e	-2.079158
-1.300412	n e f	-1.640977
-1.675395	n e g	-1.280895
-2.264134	n e h	-0.6747651
-1.544952	n e i	-0.8337064
-2.810773	n e j	-0.9522699
-2.806546	n e k	-1.010347
-1.895382	n e l	0.06078238
-1.601376	n e m	-1.588018
-1.043336	n e n	-2.11272
-1.45406	n e o	-0.9955198
-2.126709	n e p	-0.4422257
-2.117575	n e q	-1.27761
-1.132239	n e r	-0.6726382
