
\data\
ngram 1=38

\1-grams:
-4.467286	#
-5.294072	*
-2.055769	</s>
-99	<s>
-6.209898	@
-4.938832	[
-4.937725	]
-5.172282	_
-4.695794	`
-1.097921	a
-1.821732	b
-1.459877	c
-1.470236	d
-0.9104451	e
-1.686268	f
-1.697521	g
-1.390877	h
-1.102888	i
-2.852962	j
-2.231429	k
-1.382361	l
-1.598238	m
-1.115968	n
-1.117619	o
-1.665419	p
-2.994261	q
-1.188218	r
-1.184464	s
-1.045962	t
-1.550001	u
-1.945779	v
-1.821916	w
-2.658762	x
-1.81772	y
-2.527951	z
-7.532118	{
-7.532118	}
-7.532118	~

\end\
