
\data\
ngram 1=38
ngram 2=1004
ngram 3=12724

\1-grams:
-4.467286	#	-3.089633
-5.294072	*	-0.9893618
-2.055769	</s>
-99	<s>	-3.231675
-6.209898	@	-1.582882
-4.938832	[	-1.205668
-4.937725	]	-0.4545085
-5.172282	_	-1.677746
-4.695794	`	-1.178533
-1.097921	a	0
-1.821732	b	-2.738942
-1.459877	c	-0.5557097
-1.470236	d	0
-0.9104451	e	0
-1.686268	f	0
-1.697521	g	0
-1.390877	h	-0.2545741
-1.102888	i	-0.2488483
-2.852962	j	-2.452062
-2.231429	k	-0.6695675
-1.382361	l	0
-1.598238	m	-0.3435319
-1.115968	n	0
-1.117619	o	0
-1.665419	p	-0.7450415
-2.994261	q	-2.695238
-1.188218	r	0
-1.184464	s	0
-1.045962	t	0
-1.550001	u	-0.9446592
-1.945779	v	-2.640617
-1.821916	w	0
-2.658762	x	-0.6372752
-1.81772	y	0
-2.527951	z	-2.362683
-7.532118	{	-0.2899362
-7.532118	}	-0.2971935
-7.532118	~	-0.2665728

\2-grams:
-2.375954	# a
-2.375954	# b	-0.5822445
-2.766041	# c
-3.067071	# d
-3.067071	# e
-0.6537711	# f	-2.317289
-3.067071	# g
-3.067071	# h
-3.067071	# i
-3.067071	# k
-3.067071	# n
-0.1211102	# o	-2.548662
-3.067071	# p
-2.375954	# t	-0.1420315
-1.007179	* *	-0.2735192
-1.116323	* </s>
-2.262451	* @
-1.058331	* a	-0.1430856
-1.308209	* b	-0.0307196
-1.148508	* c	-0.2489269
-1.359361	* d	-0.1687301
-1.326086	* e	-0.1950797
-1.326086	* f	-0.3197536
-2.262451	* g
-1.571335	* h	-0.2463495
-1.032002	* i	-0.3874309
-1.571335	* l
-1.4843	* m	-0.212597
-1.961421	* n	-0.5109832
-1.359361	* o	-0.274752
-1.571335	* p
-1.563481	* r	-0.2777569
-1.148508	* s	0.00434385
-1.262451	* t	-0.4251492
-1.359361	* w	-0.3414102
-2.262451	* y
-3.842886	<s> #	-1.019716
-3.908153	<s> *	-0.216642
-3.712927	<s> [	-0.3003125
-5.175325	<s> _	-0.2234803
-4.667169	<s> `	-0.1467569
-0.983748	<s> a	-1.69924
-1.033875	<s> b	-2.241889
-1.542969	<s> c	-1.961837
-1.82907	<s> d	-2.228188
-1.589131	<s> e	-2.600621
-1.417473	<s> f	-2.685642
-1.854763	<s> g	-2.118553
-1.666795	<s> h	-1.529824
-0.8638888	<s> i	-2.526953
-2.299974	<s> j	-1.132918
-2.466904	<s> k	-2.348252
-1.80965	<s> l	-1.755017
-1.425164	<s> m	-2.03519
-1.591899	<s> n	-2.513123
-1.446646	<s> o	-1.447592
-1.666458	<s> p	-1.794573
-3.243359	<s> q	-1.193424
-1.773666	<s> r	-2.782784
-1.275668	<s> s	-2.844543
-0.6323873	<s> t	-3.521255
-1.947053	<s> u	-1.960254
-2.715179	<s> v	-0.2170367
-1.281979	<s> w	-2.341991
-3.683963	<s> x	-1.337978
-2.033561	<s> y	-3.254972
-3.274958	<s> z	-0.4187705
-5.476355	<s> {
-0.6379725	@ a	-0.4117127
-1.447158	@ b
-1.447158	@ e
-0.6379725	@ f	-0.3679684
-1.447158	@ j
-1.146128	@ m
-1.447158	@ p
-0.5107933	@ s	-0.3805075
-1.910944	[ ]	-0.2000463
-1.045758	[ a	-0.2925602
-1.39794	[ b	-0.2105934
-1.20412	[ c	-0.2139705
-1.60206	[ d	-0.2789149
-1.823909	[ e	-0.2015136
-1.60206	[ f	-0.1616538
-1.823909	[ g	-0.1551462
-1.371611	[ h	-0.3650945
-0.9788107	[ i	-0.6669996
-1.910944	[ j
-2.30103	[ k
-1.910944	[ l	-0.2277411
-1.371611	[ m	-0.2463461
-1.69897	[ n	-0.2218732
-1.371611	[ o	-0.341495
-1.346787	[ p	-0.1186914
-2.60206	[ q
-1.665695	[ r	-0.07044147
-1.323306	[ s	-0.09409815
-0.633577	[ t	-0.7558059
-1.90309	[ u	-0.3309111
-1.170696	[ w	-0.289769
-2.60206	[ y
-2.59879	] #
-2.59879	] *
-0.7727157	] </s>
-2.29776	] [
-1.030589	] a	-0.2514018
-1.695701	] b	0.03383003
-1.320037	] c	-0.4414346
-1.644548	] d	-0.5119662
-1.320037	] e	-0.3528908
-1.452662	] f	-0.1216863
-1.820639	] g	-0.2200622
-1.019007	] h	-0.3994841
-1.218579	] i	-0.2340847
-2.59879	] j
-1.907674	] k
-1.662426	] l	-0.133483
-1.519609	] m	-0.2227641
-1.598791	] n	-0.2954197
-1.29776	] o	-0.05559323
-1.598791	] p	-0.6187521
-1.695701	] r	-0.3945249
-1.237063	] s	-0.3693188
-1.080277	] t	-0.8170034
-2.29776	] u
-2.29776	] v	-0.4592291
-1.452662	] w	-0.07179861
-2.29776	] y	-0.5080089
-2.59879	] z
-1.578204	_ </s>
-0.2835861	_ _	-1.359787
-1.578204	_ a	-0.1364873
-1.345997	_ b	-0.677863
-2.08636	_ c
-1.578204	_ e	-0.5528551
-1.696273	_ f	-0.1843118
-2.38739	_ g
-2.38739	_ h
-2.08636	_ i
-2.38739	_ j
-1.696273	_ l	-0.526837
-1.696273	_ m	-0.1925185
-2.08636	_ n
-1.609239	_ o	-0.1918637
-1.451025	_ p	-0.3541385
-1.345997	_ r	-0.4235751
-1.18327	_ s	-0.2191833
-1.241262	_ t	-0.8280447
-2.08636	_ u
-2.38739	_ v
-2.08636	_ w	-0.4463502
-2.08636	_ z	0.05248392
-2.840106	` [
-0.3282227	` `	-1.290055
-1.377708	` a	-0.322107
-1.609657	` b	-0.1756103
-1.392948	` c	-0.5665462
-1.798713	` d	-0.5361833
-1.584834	` e	-0.2356857
-1.798713	` f	-0.2283825
-1.840106	` g	-0.4851336
-1.693978	` h	-0.2180218
-1.584834	` i	-0.1419578
-1.903741	` j	-0.1476023
-2.840106	` k
-2.061955	` l	-0.4155741
-1.664015	` m	-0.147808
-1.609657	` n	-0.876444
-1.693978	` o	-0.2032278
-1.408742	` p	-0.03273766
-2.840106	` q
-1.693978	` r	-0.4455936
-1.308627	` s	-0.3997106
-1.308627	` t	-0.5876263
-1.885864	` u	-0.2495224
-2.14899	` v	-0.1968678
-1.584834	` w	-0.05821228
-2.840106	` x
-2.14899	` y	-0.5671067
-5.091774	a #	0.3074028
-5.743081	a *
-2.561342	a </s>
-5.656046	a [	-0.0769675
-5.230077	a ]	-0.1641084
-6.434197	a _
-5.072469	a `	-0.7852578
-2.290184	a a	0.8913434
-1.575967	a b	-0.1074402
-1.349053	a c	-1.089973
-1.434697	a d	-0.7965978
-2.52582	a e	-2.155689
-1.92162	a f	-1.426134
-1.651746	a g	-1.988317
-2.252125	a h	-0.685957
-1.5025	a i	0.4744822
-2.585146	a j	-0.2126008
-1.868302	a k	-0.46105
-0.9239633	a l	0.3626608
-1.505704	a m	-0.6671139
-0.6908772	a n	-0.4213248
-2.691786	a o	0.5670061
-1.622481	a p	-0.5633788
-2.808371	a q	1.359075
-0.9575713	a r	-0.2175473
-1.042435	a s	0.03579162
-0.8202339	a t	0.2229991
-1.94348	a u	1.045529
-1.694222	a v	-0.6413871
-2.118227	a w	0.01167334
-2.64773	a x	-1.726687
-1.782241	a y	0.0618222
-2.735836	a z	0.5212163
-5.019273	b #	-0.1713379
-3.047631	b </s>
-5.409359	b ]	-0.5202351
-5.710389	b _
-0.8727816	b a	-2.195156
-2.305726	b b	-0.4892051
-2.696289	b c	-0.8053567
-2.817738	b d	-1.433995
-0.5672524	b e	-0.7237332
-3.341173	b f	-1.594154
-3.522868	b g	-1.013299
-2.959881	b h	-1.148925
-1.149395	b i	-1.852367
-2.34434	b j	-1.529006
-3.495545	b k	-1.968193
-0.9193092	b l	-3.839132
-2.793935	b m	-0.9782276
-3.082	b n	-0.7539424
-1.036622	b o	-1.115954
-2.854264	b p	-0.4686909
-4.932238	b q	0.5986162
-1.350648	b r	-2.676398
-1.597114	b s	-0.3512987
-1.733169	b t	-0.3667204
-0.9116279	b u	-1.78982
-2.615918	b v	-1.187199
-2.75422	b w	-1.723092
-1.114672	b y	-0.3675586
-4.631208	b z	-0.3964931
-5.118	c #	1.024118
-2.913277	c </s>
-5.771213	c [
-5.373272	c ]	-0.1348268
-5.381126	c `	-0.32662
-0.8834181	c a	-0.08338401
-2.588655	c b	-0.4390654
-1.634746	c c	-0.6193498
-2.462755	c d	-0.7765394
-0.8368884	c e	0.3335962
-2.759854	c f	-1.731555
-2.58341	c g	-2.047774
-0.942134	c h	0.4189851
-1.097312	c i	-2.319148
-3.865417	c j	-0.388772
-1.679176	c k	0.03370858
-1.463032	c l	-3.485045
-2.761974	c m	-1.219704
-3.217937	c n	-1.328383
-0.6719688	c o	-0.1295033
-2.333224	c p	-0.3435655
-3.132723	c q	-2.10844
-1.292653	c r	-3.586678
-1.942488	c s	-0.1422572
-1.03571	c t	-0.1050476
-1.396647	c u	-1.833849
-3.308066	c v	0.009177932
-2.942553	c w	-1.356667
-5.771213	c x
-1.660539	c y	0.1273712
-3.302865	c z	-0.7991127
-4.428413	d #	0.4052517
-5.158792	d *	-0.05330753
-1.738568	d </s>
-4.646908	d [	-0.07135902
-4.584761	d ]	0.01542779
-6.061882	d _
-4.418429	d `	-1.066983
-1.085422	d a	0.1586291
-1.444074	d b	-1.585516
-1.642289	d c	-0.5210463
-1.636021	d d	-1.199525
-0.6629977	d e	-1.020279
-1.694302	d f	-1.885438
-1.830743	d g	-1.770577
-1.807503	d h	-1.648133
-0.8471941	d i	-0.3547293
-2.433902	d j	-0.4433454
-2.675383	d k	-2.715304
-1.73009	d l	-2.317382
-1.710163	d m	-1.618641
-1.824514	d n	-2.765651
-1.140669	d o	-0.941664
-1.615624	d p	-0.005992378
-3.053282	d q	-1.795824
-1.531387	d r	-2.260763
-1.24065	d s	-0.412307
-1.051425	d t	-1.584156
-1.43339	d u	0.7194162
-2.092186	d v	-1.083353
-1.673958	d w	-2.602642
-4.175391	d x	-1.145795
-2.044848	d y	0.09797703
-3.483243	d z	-0.1636545
-4.287219	e #	-0.02698373
-5.259945	e *	-0.1049786
-1.944039	e </s>
-5.930556	e @	-0.1667241
-4.746612	e [	0.08601114
-4.782824	e ]	-0.1108596
-5.542491	e _	-0.5175145
-4.836343	e `	-1.081284
-1.135888	e a	-0.753101
-1.832996	e b	-0.1008259
-1.230351	e c	-0.5524102
-1.136399	e d	0
-1.398455	e e	-0.04594078
-1.578232	e f	-1.07502
-1.769333	e g	-1.613426
-2.079109	e h	-1.244141
-1.453105	e i	0.3778665
-2.82628	e j	-0.3013911
-2.544778	e k	-0.2372324
-1.418507	e l	-0.8689248
-1.416268	e m	-0.6193366
-0.9701458	e n	0.3742846
-1.598313	e o	-1.235479
-1.614809	e p	-0.6671979
-2.387535	e q	-2.380109
-0.8444318	e r	0
-0.9468678	e s	0.3385704
-1.233103	e t	-0.7965975
-1.76696	e u	0.03455402
-1.665173	e v	-0.2940734
-1.669792	e w	-0.5335382
-1.888877	e x	0.1445227
-2.037591	e y	-0.5388452
-2.446799	e z	0.1539594
-5.146882	f #	-0.365029
-5.544822	f *
-2.683288	f </s>
-5.154736	f @
-4.766671	f [	-0.2214142
-4.909487	f ]	-0.08903056
-5.544822	f _
-4.314373	f `	-0.7789176
-1.052201	f a	-0.3015012
-2.179896	f b	-1.596059
-1.653759	f c	-1.790753
-1.973405	f d	-2.09668
-1.092576	f e	-0.4945427
-1.202834	f f	-0.6020173
-1.890357	f g	-2.291763
-2.042873	f h	-1.93928
-0.8299185	f i	-1.381883
-2.639836	f j	-0.714648
-2.872263	f k	-1.553367
-1.477305	f l	-2.801497
-1.95209	f m	-1.591182
-2.151862	f n	-1.908436
-0.7025844	f o	-2.364769
-1.812629	f p	-1.263354
-3.318222	f q	-1.091802
-1.073369	f r	-3.040507
-1.679896	f s	-0.001855463
-0.930389	f t	-0.8668283
-1.324701	f u	-1.478728
-2.651061	f v	-0.9648649
-2.020037	f w	-1.93006
-4.113459	f x	-1.089144
-2.323799	f y	-0.06018406
-3.544822	f z	-0.4943014
-4.555843	g #	0.002798775
-5.056446	g *	-0.07819148
-1.921313	g </s>
-4.834597	g [	0.03290779
-4.688469	g ]	-0.08596864
-5.056446	g _	-0.2068007
-4.720654	g `	-0.3613821
-1.023666	g a	-1.867122
-1.981081	g b	-0.7090715
-1.742578	g c	-1.551236
-1.783985	g d	-2.462584
-0.7693272	g e	-0.1504113
-1.868502	g f	-2.47982
-1.766708	g g	-2.127469
-1.00474	g h	-0.04187272
-1.04175	g i	-2.626563
-2.87939	g j	-0.8471259
-2.531185	g k	-1.745332
-1.410729	g l	-2.692151
-1.843459	g m	-0.8163081
-1.43237	g n	-1.021398
-1.095159	g o	-0.8159786
-1.80737	g p	-1.146044
-3.200119	g q	-1.415075
-1.024626	g r	-3.009522
-1.523649	g s	0.01022744
-1.101673	g t	-2.204387
-1.489969	g u	-1.241454
-2.816313	g v	-0.3781622
-1.929719	g w	-2.089234
-3.688469	g x	-1.487264
-1.76467	g y	0.02652865
-3.65562	g z	-0.1579127
-4.910794	h #	0.8388888
-2.37909	h </s>
-5.204878	h [	-0.05832521
-5.09985	h ]	-0.02439126
-5.442273	h _	-0.1342817
-5.450127	h `	-0.32662
-0.6882536	h a	-0.7004416
-2.384607	h b	-1.624023
-2.102822	h c	-1.741819
-2.444625	h d	-1.676044
-0.3532969	h e	0
-2.471369	h f	-2.163412
-2.708274	h g	-1.433257
-2.392823	h h	-2.245315
-0.9217214	h i	-2.187519
-3.372605	h j	-0.6083929
-2.59929	h k	-1.736433
-2.282345	h l	-1.279624
-2.195676	h m	-1.43083
-2.152283	h n	-0.4755655
-1.123521	h o	-1.509875
-2.270313	h p	-1.234679
-3.343283	h q	-1.575108
-1.63301	h r	-2.532039
-2.027066	h s	-0.8608532
-1.368152	h t	0.004667065
-1.882965	h u	1.027088
-3.045377	h v	-0.08470562
-2.306695	h w	-2.173299
-4.937123	h x	-0.6681713
-2.251381	h y	-0.3827817
-4.408849	h z	0.2886705
-6.128202	i #	-0.4336992
-3.394203	i </s>
-5.738116	i [
-5.350051	i ]	-0.2780474
-5.620047	i _	-0.1715437
-6.128202	i `
-1.374278	i a	0.3745442
-2.028366	i b	-1.625794
-1.102227	i c	0.4488677
-1.568828	i d	-0.1700207
-1.394123	i e	-1.910904
-1.80463	i f	0.1350766
-1.547009	i g	-1.450393
-2.965787	i h	-0.0294065
-2.957794	i i	-1.861757
-3.256629	i j	-0.3496557
-2.145863	i k	-1.817854
-1.295968	i l	0.4893014
-1.487547	i m	-0.643986
-0.584837	i n	-0.1810724
-1.07546	i o	-3.131054
-2.076432	i p	-0.02040844
-3.100649	i q	-0.8663169
-1.523318	i r	-0.7987534
-0.9502316	i s	0
-0.9241174	i t	-0.9993249
-2.949081	i u	-0.8443217
-1.46403	i v	-0.2676705
-2.994823	i w	-1.511369
-2.409078	i x	-0.9530441
-3.662076	i y	-1.464573
-2.027763	i z	-1.163337
-6.429232	i }
-3.448734	j </s>
-0.6893769	j a	-0.7887164
-3.356963	j b	-0.3659602
-2.963179	j c	-0.5835576
-3.298971	j d	-0.2575196
-0.7883704	j e	-1.822902
-3.216784	j f	-0.8940637
-3.02597	j g	-1.087001
-3.055933	j h	-0.8616666
-1.321819	j i	-0.3982445
-3.356963	j j	-0.6663375
-3.600001	j k	-0.3102429
-3.216784	j l	-0.4714358
-2.946789	j m	-0.6624391
-3.378153	j n	-0.4514495
-0.5434458	j o	-1.976504
-2.257579	j p	0.8454906
-2.692411	j r	-0.1093802
-2.674861	j s	0.03942365
-3.088118	j t	-0.5899969
-0.5541895	j u	-1.634419
-3.400429	j v	-0.9764135
-3.03573	j w	-0.3587125
-3.679183	j y	-0.4583398
-3.869997	j z	0.1729712
-4.221519	k #	0.7698124
-5.3007	k *
-1.79923	k </s>
-4.609583	k [
-4.609583	k ]
-1.113094	k a	-1.545168
-2.030487	k b	-1.433234
-2.104247	k c	-1.630364
-2.103971	k d	-2.208279
-0.4550499	k e	-0.2160891
-1.892969	k f	-2.329204
-2.296378	k g	-1.670213
-1.831172	k h	-0.4618093
-0.8289535	k i	-1.807578
-3.130438	k j	-0.1287015
-2.801013	k k	-0.7447983
-1.742231	k l	-2.655669
-1.932971	k m	-1.804187
-1.439524	k n	-3.174307
-1.123134	k o	-0.6323647
-1.98452	k p	0.1885493
-3.920489	k q	-0.008907969
-1.597839	k r	-1.985134
-1.018463	k s	-0.03919886
-1.418346	k t	-2.265479
-1.885393	k u	0.1284899
-3.176848	k v	0.1907832
-1.920308	k w	-1.779866
-5.3007	k x
-1.959265	k y	-0.4228013
-3.920489	k z	0.175533
-4.78803	l #	0.5042011
-5.213393	l *	-0.1580894
-2.214653	l </s>
-6.149757	l @
-5.371606	l [	-0.0769675
-5.149757	l ]	-0.1034183
-5.450787	l _
-5.246667	l `	-0.1036416
-0.9429746	l a	-0.0696181
-1.90548	l b	-1.374603
-1.784588	l c	-1.404292
-1.185418	l d	-0.09782471
-0.7985023	l e	-0.3048401
-1.828926	l f	-0.21517
-2.30083	l g	-2.423974
-2.328506	l h	-2.297864
-0.8005828	l i	-0.1884464
-3.164331	l j	-0.334599
-2.547697	l k	-0.9441388
-0.9484913	l l	0.3371172
-1.987223	l m	-0.7360051
-2.255441	l n	-1.593208
-1.086691	l o	-1.097984
-1.80233	l p	-0.1198267
-3.137764	l q	-1.503911
-1.886571	l r	-2.849317
-1.405355	l s	-0.3266923
-1.444415	l t	-0.2024111
-1.593382	l u	0.6048233
-2.192054	l v	-0.9142566
-2.140944	l w	-2.273012
-5.195515	l x	-0.707336
-1.065564	l y	0.1619694
-3.909208	l z	-0.2056925
-4.729764	m #	0.4650106
-5.933884	m *
-2.007335	m </s>
-5.933884	m @
-5.124698	m [	-0.171581
-4.892491	m ]	-0.1843218
-5.242767	m `	-0.004882858
-0.7374309	m a	-0.1102225
-1.505976	m b	-1.490278
-2.322266	m c	-0.9756922
-2.516578	m d	-1.081067
-0.6027073	m e	0.7211317
-2.156239	m f	-1.453323
-2.789621	m g	-1.453827
-2.515914	m h	-1.443741
-0.8512201	m i	-0.2209003
-3.219554	m j	-0.3238791
-3.355244	m k	-1.246546
-2.502037	m l	-2.237026
-1.52736	m m	-1.280625
-2.522769	m n	-0.8408829
-0.8998248	m o	-0.6739233
-1.083133	m p	0.186981
-3.942657	m q	-0.7288011
-2.550786	m r	-0.3882968
-1.46082	m s	0.2591081
-1.689235	m t	-1.498662
-1.389332	m u	-0.9808269
-3.245464	m v	-0.2247206
-2.261324	m w	-1.582918
-4.892491	m x	-0.4023792
-1.807622	m y	0.008708994
-3.970096	m z	0.2020185
-4.660275	n #	-0.09429714
-5.479785	n *	-0.2006951
-1.987902	n </s>
-6.41615	n @
-5.01821	n [	-0.006083268
-5.001177	n ]	-0.064286
-5.270022	n _	-0.417703
-4.897636	n `	-1.243074
-1.106582	n a	0.1261423
-2.023313	n b	-1.346802
-1.226295	n c	-1.833738
-0.8950986	n d	0
-0.9936541	n e	0.002967927
-1.778871	n f	-2.325069
-0.9616271	n g	0
-2.159144	n h	-1.409137
-1.197672	n i	-0.3581621
-2.670685	n j	-0.803948
-2.040761	n k	-0.7525231
-1.93819	n l	-2.748598
-1.793874	n m	-2.378181
-1.966687	n n	-1.385462
-1.152465	n o	-1.175245
-1.949134	n p	-0.785688
-3.422273	n q	-1.228765
-2.119726	n r	-2.735873
-1.14227	n s	0.7659949
-0.7861621	n t	0.130042
-1.94872	n u	-1.031062
-2.056524	n v	-0.8550121
-2.002013	n w	-2.606938
-3.796014	n x	-1.473286
-1.93819	n y	-1.025251
-3.043054	n z	-0.4412088
-3.834716	o #	-1.190465
-6.11347	o *
-2.629882	o </s>
-5.478135	o [
-5.268372	o ]	-0.1958396
-5.723383	o _
-5.238409	o `	-0.2223027
-1.778363	o a	-0.065862
-1.630425	o b	0.2616924
-1.618877	o c	-0.8211357
-1.687658	o d	-0.6143125
-2.043894	o e	-1.43082
-1.049411	o f	-0.02626285
-1.972286	o g	-1.325072
-2.307867	o h	-1.042796
-1.86503	o i	-1.64875
-2.820771	o j	0.3577043
-2.365708	o k	0.1147715
-1.342632	o l	-1.462837
-1.170156	o m	-0.2204671
-0.7015437	o n	0.2656783
-1.63154	o o	-0.2665721
-1.393017	o p	-0.9111404
-3.592986	o q	-0.988426
-0.8673664	o r	-0.3635496
-1.375848	o s	-0.6829036
-1.266715	o t	-0.1285645
-1.080012	o u	0.04529568
-1.567155	o v	-0.4694114
-1.395849	o w	0.2074671
-3.087141	o x	-1.518199
-2.364546	o y	-0.9926622
-1.79351	o z	-1.776367
-6.4145	o ~
-4.451731	p #	0.2377668
-5.057519	p *
-2.358848	p </s>
-4.825312	p [	-0.08245023
-5.175588	p ]
-5.866704	p _
-0.9205961	p a	-0.376308
-2.551574	p b	-1.620875
-2.578232	p c	-0.7507573
-2.694685	p d	-0.6345357
-0.7402969	p e	-0.246176
-2.585671	p f	-1.598118
-2.756451	p g	-2.24629
-1.820053	p h	-0.8600748
-1.32605	p i	-2.156835
-3.465304	p j	0.9730915
-3.467031	p k	-1.252085
-1.05347	p l	-3.465656
-2.040046	p m	-1.628353
-2.817874	p n	-1.979402
-0.7522535	p o	-2.434975
-1.307145	p p	-1.522523
-4.264644	p q	-0.8515105
-0.7334912	p r	-3.134028
-1.738822	p s	-0.1215047
-1.391411	p t	-1.017983
-1.350328	p u	-1.843888
-3.769794	p v	1.033851
-2.467896	p w	-1.986238
-5.175588	p x	-0.2214955
-2.772933	p y	0.1857014
-4.752761	p z	0.7094285
-1.979173	q </s>
-4.537882	q ]
-4.236852	q `	-0.2672442
-1.339775	q a	-1.130452
-2.629397	q b	-1.391115
-2.699033	q c	-1.143774
-2.993814	q d	-0.833271
-1.977975	q e	-0.02700921
-2.838912	q f	-0.7487738
-3.391754	q g	-0.3352212
-2.492559	q h	-0.5744234
-1.522522	q i	-0.4762889
-3.58364	q j	0.2469401
-3.361791	q k	-0.9543978
-2.914633	q l	-0.7865471
-2.838912	q m	-0.427279
-3.075484	q n	-0.8011857
-2.66865	q o	-0.4470551
-2.76703	q p	-0.4108604
-3.032732	q q	0.1840604
-2.904413	q r	-0.9206011
-1.870429	q s	-1.05057
-2.2136	q t	-1.439258
-0.06932794	q u	-3.440993
-3.601517	q v	0.05129766
-2.000063	q w	-1.74378
-3.759731	q y	-0.5599181
-4.812421	r #	-0.9177264
-5.44081	r *	-0.0429667
-2.185085	r </s>
-5.652783	r @	-0.1201367
-5.229957	r [	-0.03800094
-5.197772	r ]	-0.07522312
-5.302507	r _	-0.2441674
-5.13978	r `	-0.9550089
-0.9782454	r a	-0.4416621
-2.09718	r b	-0.07070976
-1.67231	r c	-1.4138
-1.658131	r d	-0.3458924
-0.6166475	r e	0.2480013
-2.046731	r f	-1.502433
-1.707502	r g	-1.117843
-2.213598	r h	-2.275343
-0.9678689	r i	-0.515308
-3.057219	r j	-0.5760003
-1.827087	r k	-0.08326679
-1.727319	r l	-1.233447
-1.537985	r m	0.09773998
-1.530746	r n	-0.6782681
-0.8760241	r o	-0.2515709
-1.895054	r p	-0.4340183
-3.586504	r q	-0.9425586
-1.709785	r r	-2.682549
-1.228429	r s	0.6357701
-1.174131	r t	-0.3154497
-1.628181	r u	-0.1956197
-2.093773	r v	-0.4916213
-2.082375	r w	-2.263717
-3.93228	r x	-0.07513709
-1.562051	r y	0.7951646
-3.00744	r z	-0.7280234
-4.198435	s #	-0.1790581
-5.046625	s *	-0.1845125
-1.465665	s </s>
-6.347654	s @
-4.714186	s [	-0.03800258
-4.59178	s ]	0.09970874
-5.41129	s _	-0.08210674
-4.584227	s `	-0.7086921
-1.081917	s a	-0.346237
-1.779335	s b	-1.447745
-1.498247	s c	-1.23228
-1.93459	s d	-1.863225
-0.9526025	s e	-0.3338146
-1.71208	s f	-2.049879
-2.209794	s g	-2.110193
-1.368092	s h	-0.2600655
-0.9639988	s i	0.05377127
-2.903922	s j	-0.4988458
-2.18515	s k	0.1513284
-1.765818	s l	-2.355629
-1.675206	s m	-0.6419183
-1.817173	s n	-2.635903
-1.129768	s o	-1.008195
-1.442355	s p	-0.2480185
-2.965818	s q	-1.6056
-1.818173	s r	-2.689026
-1.163542	s s	-0.2992466
-0.7066913	s t	0.1259084
-1.351576	s u	-1.35356
-2.622151	s v	-0.2315106
-1.579268	s w	-2.284908
-4.541474	s x	-0.5280356
-2.102512	s y	-1.529928
-3.932681	s z	0.4913725
-4.862906	t #	0.04588134
-5.583066	t *	-0.1277836
-2.063254	t </s>
-5.549791	t @	-0.4684367
-4.804914	t [	-0.09882194
-4.787186	t ]	-0.3959563
-5.163937	t _	-0.3973022
-5.088216	t `	-0.8925144
-1.145845	t a	0.2483354
-2.030839	t b	-1.330585
-1.9271	t c	-2.307058
-2.196745	t d	-2.424278
-0.9803104	t e	0.3134355
-2.086188	t f	-2.086304
-2.44425	t g	-1.702025
-0.5643016	t h	-0.2553536
-0.8385628	t i	-0.591589
-2.95302	t j	-0.8258275
-3.142354	t k	-1.904889
-1.953478	t l	-2.768214
-1.99415	t m	-1.775322
-2.32213	t n	-2.479497
-0.9832512	t o	0.6805056
-2.081596	t p	-1.269931
-3.492279	t q	-1.954742
-1.289248	t r	-2.762907
-1.305531	t s	0.1958332
-1.362922	t t	-1.332601
-1.648934	t u	0.1901695
-2.971343	t v	-0.01747865
-1.570904	t w	-3.502334
-4.153718	t x	-1.724018
-1.654933	t y	0.7366695
-3.021219	t z	-0.3004579
-5.681088	u #
-5.982118	u *
-3.133314	u </s>
-5.982118	u [
-5.982118	u ]
-1.486213	u a	-1.555459
-1.623004	u b	0.2736636
-1.209503	u c	-2.301297
-1.674751	u d	-0.9114704
-1.411891	u e	0.1275423
-2.305151	u f	-1.803309
-1.534139	u g	-1.379489
-2.842239	u h	-0.3436085
-1.630264	u i	-0.7851076
-3.237825	u j	-0.1547213
-2.214443	u k	0.1001707
-0.9789853	u l	-0.7022703
-1.50309	u m	0.1528019
-0.8446059	u n	-0.398313
-2.695886	u o	0.2508942
-1.463433	u p	0.08744749
-4.659899	u q	0.009939317
-0.7818589	u r	0.2838645
-0.8433295	u s	0.540577
-0.8997064	u t	0.3292513
-3.451919	u u	-1.356953
-3.317476	u v	0.182066
-2.930966	u w	-1.73425
-3.28055	u x	-0.8423711
-2.781815	u y	-0.5710533
-3.107057	u z	0.2197459
-3.496436	v </s>
-5.586341	v [
-1.088734	v a	-2.405762
-3.815489	v b	-0.2295762
-3.489431	v c	-0.734782
-3.694246	v d	-0.1046101
-0.1638314	v e	-0.2103861
-3.760266	v f	-0.4461915
-3.942888	v g	-1.24824
-3.632098	v h	-0.8501749
-0.7573911	v i	-0.9932962
-4.683251	v j	0.001177421
-3.963092	v k	-1.399436
-2.856367	v l	-1.937624
-3.914243	v m	-0.7045009
-3.688714	v n	-1.550963
-1.341816	v o	-2.080916
-3.541018	v p	-0.09431368
-5.285311	v q	0.2883947
-3.472398	v r	-0.8755489
-2.753832	v s	0.3961687
-3.358454	v t	-0.8301445
-2.521135	v u	-1.169609
-3.717109	v v	-1.514807
-3.393216	v w	-1.096798
-2.600017	v y	-0.004699043
-4.264122	v z	-1.56119
-4.901024	w #	1.126446
-5.409179	w *
-2.36621	w </s>
-5.019093	w [
-4.631028	w ]	-0.3080876
-5.409179	w _
-5.019093	w `	-0.32662
-0.8603909	w a	0.3913629
-2.26679	w b	-1.452392
-2.164284	w c	-1.902475
-2.213833	w d	-1.21969
-0.7968672	w e	-1.993264
-2.335278	w f	-2.151312
-2.561298	w g	-1.443914
-0.8213843	w h	-3.367204
-0.7012815	w i	-2.142388
-3.25996	w j	-0.2298869
-3.038111	w k	-0.725954
-2.12826	w l	-2.032689
-2.239211	w m	-2.218713
-1.51664	w n	-0.1062048
-0.7157471	w o	0.3239616
-2.299938	w p	-1.526801
-3.693176	w q	-0.5008211
-2.010545	w r	-2.506854
-1.708865	w s	-0.7086771
-1.419374	w t	-2.638475
-2.74784	w u	-1.264106
-3.25996	w v	-0.1687586
-2.266946	w w	-1.296909
-4.901024	w x	-0.5432326
-2.354375	w y	-1.918223
-3.649512	w z	-0.9986036
-1.963271	x </s>
-4.572331	x ]
-4.873361	x `
-0.9663801	x a	-1.387816
-2.131422	x b	-1.501677
-0.9618309	x c	-2.301643
-2.427757	x d	-1.491675
-1.194206	x e	-2.080232
-1.848055	x f	-1.64629
-2.9983	x g	-0.7106025
-2.092324	x h	-2.151115
-0.8972866	x i	-1.075598
-3.229909	x j	0.009939705
-3.183165	x k	-0.6699824
-2.620508	x l	-1.62483
-2.104723	x m	-1.4934
-2.477162	x n	-1.572305
-1.651426	x o	-1.680603
-0.5747702	x p	-2.452831
-3.642912	x q	-0.6088985
-1.956381	x r	-2.303099
-1.862214	x s	-0.5559292
-0.792086	x t	-0.791562
-2.017842	x u	-1.163366
-3.088032	x v	0.3018091
-2.223054	x w	-1.644436
-3.09521	x x	-1.230962
-2.161554	x y	0.1182114
-1.482426	x z	-2.494737
-4.070947	y #	0.01591832
-4.568272	y *	-0.05438406
-1.281462	y </s>
-4.31646	y [	0.0003487068
-4.41337	y ]	-0.1814896
-4.905214	y _
-4.7144	y `	-0.42353
-0.9600055	y a	0.226418
-1.449983	y b	-1.952375
-1.309994	y c	-1.560619
-1.550106	y d	-2.727456
-1.111656	y e	-0.4479184
-1.468049	y f	-2.55723
-1.906324	y g	-2.030376
-1.594847	y h	-2.323168
-1.119411	y i	-1.885511
-2.631614	y j	-0.4247384
-2.650316	y k	-1.496297
-1.757128	y l	-1.244285
-1.403643	y m	-1.692231
-1.716358	y n	-1.750538
-1.114986	y o	-1.751064
-1.385327	y p	-1.982344
-2.987673	y q	-1.480738
-1.471436	y r	-2.42898
-1.02415	y s	-0.2917932
-0.959318	y t	-2.860443
-1.933291	y u	-0.6174151
-2.390323	y v	-0.2810611
-1.374869	y w	-2.837199
-4.080931	y x	-0.6610954
-2.556037	y y	-2.941893
-2.865595	y z	-0.3664445
-3.11768	z </s>
-1.004214	z a	-0.4643524
-2.30607	z b	-1.393761
-3.134939	z c	-0.9608687
-3.20483	z d	-1.465777
-0.1272605	z e	-0.3796206
-3.012945	z f	-1.110449
-3.681952	z g	-0.4992351
-2.22602	z h	-1.634799
-1.225224	z i	-1.459096
-4.226019	z j	-0.3225718
-3.606231	z k	-0.583715
-2.561691	z l	-1.767984
-2.966744	z m	-0.7924136
-3.255983	z n	-1.030284
-1.322387	z o	-1.192765
-2.753751	z p	-0.883581
-3.661748	z q	-0.5306489
-3.424387	z r	-0.528093
-2.481727	z s	-0.3574425
-3.112076	z t	-0.5421687
-2.050894	z u	-1.016656
-3.962778	z v	0.3294469
-2.951092	z w	-1.261609
-2.080927	z y	-0.3080371
-2.387171	z z	-0.1995777
-0.30103	{ m
-0.30103	} </s>
-0.30103	~ o

\3-grams:
-0.01021917	<s> # o
-0.4074853	a # f
-0.2477845	a # o
-0.3227741	b # f
-0.3034529	c # f
-0.5585814	c # o
-0.9652703	d # f
-0.07716595	d # o
-2.180107	e # a
-2.180107	e # c
-0.191439	e # f
-0.4831954	e # o
-0.04818039	f # o
-1.124406	g # b
-0.1648103	g # o
-0.8347878	h # f
-0.1512677	h # o
-0.1466828	i # f
-0.1760913	k # f
-0.6835201	k # o
-1.207381	l # f
-0.06069784	l # o
-0.7269987	m # f
-0.1249387	m # o
-0.4017002	n # f
-0.2319491	n # o
-1.928994	o # f
-0.005752329	o # o
-0.2852357	p # f
-0.3521825	p # o
-0.01296498	r # o
-0.8269998	s # f
-0.07733711	s # o
-1.146128	t # f
-0.04346569	t # o
-0.4477128	w # f
-0.4477128	w # o
-0.7501225	y # f
-0.09691001	y # o
-0.5870743	* * *
-0.6044829	* * </s>
-1.100925	* * b
-0.9000036	<s> * *
-0.9174121	<s> * a
-0.9174121	<s> * c
-1.09108	<s> * e
-1.09108	<s> * f
-1.413854	<s> * i
-1.413854	<s> * r
-1.172541	<s> * s
-1.09108	<s> * t
-0.7487428	d * s
-1.207381	e * b
-1.207381	e * c
-0.8846066	e * d
-1.207381	e * e
-1.207381	e * m
-1.207381	e * o
-0.623804	g * a
-0.6907508	l * </s>
-0.6907508	l * c
-0.3679768	n * i
-0.7487428	r * i
-1.146683	s * *
-0.8239087	s * </s>
-0.8239087	s * a
-1.146683	s * s
-0.8239087	s * w
-0.7487428	t * i
-0.7487428	t * o
-0.9917808	y * </s>
-0.9917808	y * i
-0.9917808	y * o
-0.3227741	e @ a
-0.3227741	r @ s
-0.6907508	t @ a
-0.1943084	t @ s
-1.367767	<s> [ a
-1.286307	<s> [ c
-1.286307	<s> [ f
-1.112638	<s> [ h
-1.609081	<s> [ i
-1.367767	<s> [ m
-1.609081	<s> [ n
-1.286307	<s> [ s
-0.3484547	<s> [ t
-1.286307	<s> [ w
-0.623804	a [ a
-1.019312	d [ a
-0.9378521	d [ b
-1.260626	d [ c
-1.260626	d [ e
-1.260626	d [ o
-0.7266522	d [ t
-1.260626	d [ w
-1.18674	e [ a
-1.224272	e [ b
-1.206863	e [ c
-1.720714	e [ d
-1.39794	e [ f
-1.4794	e [ h
-0.9208187	e [ i
-1.720714	e [ n
-1.4794	e [ o
-1.18674	e [ p
-1.720714	e [ r
-1.4794	e [ s
-0.7289332	e [ t
-0.60206	f [ c
-0.60206	f [ i
-0.8456528	g [ i
-0.8456528	g [ t
-0.6907508	h [ a
-0.6907508	h [ t
-0.623804	l [ a
-0.4477128	m [ p
-1.243593	n [ a
-0.9208187	n [ i
-1.243593	n [ m
-1.002279	n [ o
-0.7096189	n [ t
-1.243593	n [ w
-0.8870455	p [ p
-0.5642715	p [ t
-0.9595962	r [ c
-0.6368221	r [ i
-0.9595962	r [ t
-0.9451473	s [ a
-1.479121	s [ b
-1.237807	s [ g
-0.9451473	s [ i
-1.156347	s [ s
-0.9652703	s [ t
-1.479121	s [ u
-0.9451473	s [ w
-1.526894	t [ a
-1.526894	t [ b
-1.20412	t [ d
-1.526894	t [ h
-1.013043	t [ i
-1.20412	t [ m
-1.526894	t [ s
-0.50515	t [ t
-0.9929201	t [ w
-0.9208187	y [ a
-1.243593	y [ h
-1.002279	y [ i
-1.243593	y [ m
-0.9208187	y [ o
-1.243593	y [ p
-1.002279	y [ t
-1.243593	y [ w
-0.3227741	[ ] </s>
-1.049773	a ] c
-0.7269987	a ] l
-1.049773	a ] y
-0.1466828	b ] o
-0.5446228	c ] n
-1.322774	d ] </s>
-1	d ] a
-1.322774	d ] b
-1	d ] e
-1.322774	d ] h
-1	d ] i
-1	d ] t
-1.322774	d ] w
-0.4771213	e ] </s>
-1.170651	e ] a
-1.188059	e ] c
-1.361728	e ] d
-1.361728	e ] f
-1.684502	e ] g
-1.443188	e ] h
-1.684502	e ] i
-1.684502	e ] m
-1.361728	e ] n
-1.443188	e ] s
-1.188059	e ] t
-0.6907508	f ] d
-0.7504669	g ] </s>
-0.9917808	g ] i
-0.9917808	g ] s
-0.9917808	g ] t
-0.8870455	h ] </s>
-0.8870455	h ] c
-0.60206	i ] </s>
-0.9248341	i ] n
-0.60206	i ] t
-0.8456528	l ] f
-0.8456528	l ] s
-0.3906031	m ] a
-1.260626	n ] </s>
-0.7641838	n ] a
-1.019312	n ] c
-1.260626	n ] f
-1.260626	n ] m
-1.260626	n ] s
-1.019312	n ] t
-0.4578069	o ] </s>
-0.9917808	o ] a
-0.9917808	o ] w
-0.7504669	r ] </s>
-0.9917808	r ] c
-0.9917808	r ] e
-1.087677	s ] </s>
-0.8527849	s ] a
-1.601528	s ] b
-1.601528	s ] d
-1.601528	s ] h
-1.601528	s ] i
-1.601528	s ] k
-1.105085	s ] o
-1.601528	s ] p
-1.601528	s ] r
-1.360214	s ] s
-1.087677	s ] t
-1.105085	s ] w
-1.544623	t ] </s>
-1.544623	t ] c
-0.2676062	t ] h
-1.04818	t ] i
-1.544623	t ] r
-1.221849	t ] t
-1.544623	t ] w
-0.9248341	w ] </s>
-0.3908601	w ] e
-0.9248341	w ] i
-0.8239087	y ] </s>
-1.146683	y ] a
-1.146683	y ] e
-1.146683	y ] f
-0.8239087	y ] o
-1.146683	y ] p
-1.146683	y ] s
-0.1466828	<s> _ _
-1.708143	_ _ </s>
-0.01744389	_ _ _
-0.9248341	e _ a
-0.60206	e _ l
-0.9248341	e _ o
-0.60206	e _ s
-0.3824902	g _ t
-0.5446228	h _ e
-0.4477128	i _ r
-0.1918855	n _ s
-0.8870455	r _ b
-0.8870455	r _ r
-0.8870455	r _ t
-0.8870455	r _ z
-0.3679768	s _ _
-0.6907508	s _ p
-0.6338981	t _ b
-0.6714297	t _ r
-0.6714297	t _ t
-0.2063989	<s> ` `
-1.08052	` ` a
-1.335792	` ` b
-1.113943	` ` c
-1.470491	` ` d
-1.256611	` ` e
-1.470491	` ` f
-1.511883	` ` g
-1.365755	` ` h
-1.335792	` ` i
-1.823562	` ` j
-1.823562	` ` l
-1.470491	` ` m
-1.335792	` ` n
-1.432702	` ` o
-1.189664	` ` p
-1.432702	` ` r
-1.034762	` ` s
-0.9933694	` ` t
-1.823562	` ` u
-2.357536	` ` v
-1.256611	` ` w
-2.034762	` ` y
-0.03950854	a ` `
-0.1249387	c ` `
-0.02020339	d ` `
-0.02945498	e ` `
-1.630983	e ` m
-0.04011722	f ` `
-0.1139434	g ` `
-0.1249387	h ` `
-0.2348918	l ` `
-0.3227741	m ` `
-0.01336396	n ` `
-0.2218488	o ` `
-1.021744	o ` m
-0.1466828	q ` `
-0.02632894	r ` `
-0.05585782	s ` `
-1.609081	s ` p
-0.05551733	t ` `
-1.243593	t ` p
-0.1249387	w ` `
-0.09691001	y ` `
-1.049773	* a c
-1.049773	* a m
-0.8084589	* a n
-1.049773	* a p
-0.8084589	* a r
-3.804286	<s> a a
-1.658186	<s> a b
-1.232774	<s> a c
-1.604989	<s> a d
-2.776603	<s> a e
-1.068215	<s> a f
-1.735211	<s> a g
-2.252058	<s> a h
-2.578793	<s> a i
-3.150184	<s> a j
-2.467301	<s> a k
-1.014618	<s> a l
-1.275913	<s> a m
-0.5848193	<s> a n
-3.094667	<s> a o
-1.811365	<s> a p
-3.015486	<s> a q
-1.476409	<s> a r
-0.6805629	<s> a s
-1.058197	<s> a t
-2.170388	<s> a u
-2.337271	<s> a v
-2.230156	<s> a w
-2.629284	<s> a y
-3.346479	<s> a z
-0.2063989	@ a p
-0.8881044	[ a ]
-1.401955	[ a b
-1.401955	[ a f
-1.401955	[ a m
-0.4771213	[ a n
-1.401955	[ a p
-1.401955	[ a r
-1.079181	[ a s
-1.09108	] a c
-1.413854	] a g
-1.413854	] a j
-1.413854	] a l
-0.4890205	] a n
-0.6651117	] a r
-1.09108	] a s
-1.413854	] a t
-0.4477128	_ a l
-1.308051	` a b
-1.308051	` a c
-1.308051	` a d
-0.7740768	` a m
-0.8116084	` a n
-0.7740768	` a s
-1.308051	` a u
-1.308051	` a x
-3.475815	a a </s>
-2.337833	a a a
-1.815634	a a b
-1.642954	a a c
-1.416472	a a d
-3.666892	a a e
-1.753078	a a f
-1.86298	a a g
-2.599945	a a h
-2.280691	a a i
-3.666892	a a j
-1.817678	a a k
-1.391197	a a l
-1.923905	a a m
-0.229353	a a n
-3.189771	a a o
-1.89116	a a p
-3.666892	a a q
-1.137547	a a r
-1.090167	a a s
-1.386617	a a t
-2.351622	a a u
-2.510545	a a v
-2.552949	a a w
-3.989666	a a x
-3.189771	a a y
-2.821794	a a z
-3.121604	b a </s>
-2.527977	b a a
-1.556574	b a b
-1.088799	b a c
-1.565302	b a d
-3.422634	b a e
-3.052278	b a f
-1.923794	b a g
-1.874292	b a h
-1.710827	b a i
-3.691479	b a j
-2.32439	b a k
-0.5976326	b a l
-1.361791	b a m
-0.568889	b a n
-2.804184	b a o
-3.130037	b a p
-3.934517	b a q
-1.181222	b a r
-0.97132	b a s
-1.210344	b a t
-3.156366	b a u
-3.246543	b a v
-2.86448	b a w
-2.507194	b a y
-3.319093	b a z
-2.274481	c a </s>
-5.034477	c a ]
-2.075215	c a a
-2.208367	c a b
-2.190565	c a c
-1.469576	c a d
-3.058491	c a e
-2.602237	c a f
-2.569731	c a g
-2.603364	c a h
-2.163109	c a i
-3.609041	c a j
-3.343726	c a k
-0.5687822	c a l
-1.426521	c a m
-0.619006	c a n
-2.850368	c a o
-1.150522	c a p
-5.034477	c a q
-1.232608	c a r
-1.149252	c a s
-1.033853	c a t
-1.115363	c a u
-3.009847	c a v
-2.499516	c a w
-4.711703	c a x
-3.081614	c a y
-4.538035	c a z
-2.256301	d a </s>
-4.580799	d a `
-2.207822	d a a
-1.414882	d a b
-1.378765	d a c
-1.614921	d a d
-2.679795	d a e
-1.590675	d a f
-1.628545	d a g
-1.950745	d a h
-1.872656	d a i
-3.047041	d a j
-2.135101	d a k
-1.209082	d a l
-1.140199	d a m
-0.6769963	d a n
-2.628155	d a o
-1.475127	d a p
-3.131362	d a q
-1.076311	d a r
-1.04832	d a s
-0.9405103	d a t
-1.988347	d a u
-1.949518	d a v
-1.980386	d a w
-3.97646	d a x
-1.010553	d a y
-3.163547	d a z
-2.681647	e a </s>
-5.008666	e a `
-2.577302	e a a
-1.729683	e a b
-1.257309	e a c
-1.013733	e a d
-3.301095	e a e
-1.971904	e a f
-1.689143	e a g
-2.560475	e a h
-2.307097	e a i
-3.526745	e a j
-1.662313	e a k
-1.047624	e a l
-1.655904	e a m
-0.7718847	e a n
-2.551288	e a o
-1.656869	e a p
-3.737599	e a q
-0.746911	e a r
-0.8336468	e a s
-0.9875313	e a t
-2.014348	e a u
-1.855257	e a v
-2.367522	e a w
-4.008666	e a x
-3.358682	e a y
-3.929484	e a z
-3.679707	f a </s>
-4.639304	f a `
-2.785051	f a a
-1.810024	f a b
-0.6316243	f a c
-1.70516	f a d
-2.578807	f a e
-1.767935	f a f
-1.87405	f a g
-2.288501	f a h
-0.9120949	f a i
-3.030223	f a j
-2.663317	f a k
-1.003014	f a l
-1.162715	f a m
-1.105498	f a n
-3.053288	f a o
-1.785051	f a p
-3.225449	f a q
-0.8693714	f a r
-1.182459	f a s
-1.390702	f a t
-1.573281	f a u
-1.578807	f a v
-2.340332	f a w
-3.492621	f a x
-2.936318	f a y
-3.191591	f a z
-3.412991	g a </s>
-2.881512	g a a
-1.56839	g a b
-1.508384	g a c
-1.770725	g a d
-2.913304	g a e
-1.902446	g a f
-1.289401	g a g
-2.214334	g a h
-0.7894937	g a i
-3.111961	g a j
-2.418234	g a k
-1.146477	g a l
-1.402183	g a m
-0.6266373	g a n
-2.972082	g a o
-1.422297	g a p
-3.379567	g a q
-1.085183	g a r
-1.093677	g a s
-1.043553	g a t
-2.068992	g a u
-1.961512	g a v
-2.063519	g a w
-2.562958	g a y
-1.838266	g a z
-4.110567	h a </s>
-3.31311	h a a
-2.254882	h a b
-2.300701	h a c
-1.458145	h a d
-3.055049	h a e
-2.307172	h a f
-2.390032	h a g
-2.947839	h a h
-2.021143	h a i
-3.771748	h a j
-2.665529	h a k
-1.497927	h a l
-1.859703	h a m
-0.7909687	h a n
-2.788347	h a o
-1.618124	h a p
-3.728714	h a q
-1.221163	h a r
-0.8446132	h a s
-0.437307	h a t
-2.532866	h a u
-0.9114975	h a v
-2.73866	h a w
-4.8022	h a x
-3.254332	h a y
-2.828707	h a z
-4.404164	i a #
-1.627143	i a </s>
-1.352696	i a a
-1.622626	i a b
-1.97686	i a c
-2.195816	i a d
-2.389373	i a e
-2.165092	i a f
-2.048916	i a g
-1.904197	i a h
-1.679107	i a i
-3.017527	i a j
-2.680205	i a k
-0.4633772	i a l
-1.498772	i a m
-0.6627494	i a n
-2.061517	i a o
-2.103131	i a p
-3.732734	i a q
-1.607951	i a r
-1.170158	i a s
-0.9479474	i a t
-2.471755	i a u
-2.918233	i a v
-1.852738	i a w
-4.404164	i a x
-2.927849	i a y
-3.878863	i a z
-3.086716	j a </s>
-2.527408	j a a
-2.097711	j a b
-1.387746	j a c
-1.224137	j a d
-3.086716	j a e
-2.667586	j a f
-2.471292	j a g
-2.257412	j a h
-1.693141	j a i
-2.989806	j a j
-1.607789	j a k
-1.92162	j a l
-1.449476	j a m
-0.9205076	j a n
-3.594145	j a o
-0.2261531	j a p
-1.66347	j a r
-2.092179	j a s
-2.410022	j a t
-2.108992	j a u
-2.317708	j a v
-1.968616	j a w
-3.512684	j a x
-2.711052	j a y
-2.081321	j a z
-2.324311	k a </s>
-2.094212	k a a
-1.052183	k a b
-1.631331	k a c
-1.573792	k a d
-2.554165	k a e
-1.90888	k a f
-1.20131	k a g
-1.867487	k a h
-1.915792	k a i
-2.90888	k a j
-1.88878	k a k
-1.509115	k a l
-1.63375	k a m
-0.4201066	k a n
-2.696272	k a o
-1.624152	k a p
-3.710512	k a q
-1.143878	k a r
-1.174796	k a s
-1.071026	k a t
-2.126936	k a u
-2.268555	k a v
-1.825906	k a w
-2.146241	k a y
-1.929955	k a z
-5.052435	l a #
-2.921225	l a </s>
-2.685645	l a a
-1.469749	l a b
-1.209353	l a c
-1.817262	l a d
-3.257393	l a e
-2.290329	l a f
-1.827115	l a g
-2.009227	l a h
-1.440147	l a i
-3.428632	l a j
-2.651688	l a k
-1.974804	l a l
-1.423952	l a m
-0.7621135	l a n
-3.063768	l a o
-1.776869	l a p
-3.688269	l a q
-0.7139106	l a r
-1.076867	l a s
-0.6779431	l a t
-1.713325	l a u
-2.191004	l a v
-1.513584	l a w
-2.803662	l a x
-1.499298	l a y
-3.019262	l a z
-4.719331	m a #
-2.707902	m a </s>
-5.042105	m a ]
-2.184037	m a a
-2.24463	m a b
-1.57217	m a c
-1.485236	m a d
-2.989627	m a e
-2.486335	m a f
-1.598319	m a g
-2.268569	m a h
-1.152148	m a i
-1.475632	m a j
-1.172542	m a k
-1.221711	m a l
-2.228904	m a m
-0.5475463	m a n
-2.520674	m a o
-2.256933	m a p
-4.082509	m a q
-0.87351	m a r
-1.333368	m a s
-0.9292573	m a t
-2.791619	m a u
-3.128267	m a v
-2.568063	m a w
-2.620111	m a x
-1.257083	m a y
-2.802001	m a z
-4.913908	n a #
-2.285083	n a </s>
-4.832447	n a ]
-1.961848	n a a
-1.393536	n a b
-1.566059	n a c
-1.616193	n a d
-2.832447	n a e
-1.694882	n a f
-1.475784	n a g
-2.117001	n a h
-1.86241	n a i
-2.94408	n a j
-2.623827	n a k
-0.6768986	n a l
-1.381429	n a m
-0.7037356	n a n
-2.677111	n a o
-1.808235	n a p
-3.395755	n a q
-1.310177	n a r
-1.136645	n a s
-0.7226662	n a t
-2.074798	n a u
-2.030358	n a v
-1.956422	n a w
-3.6761	n a x
-2.77301	n a y
-2.65443	n a z
-3.681894	o a </s>
-3.335107	o a a
-1.590423	o a b
-0.77329	o a c
-0.8344586	o a d
-3.002668	o a e
-1.671877	o a f
-1.705697	o a g
-2.15757	o a h
-2.445805	o a i
-3.056353	o a j
-2.727652	o a k
-0.8707662	o a l
-1.514905	o a m
-0.8206254	o a n
-3.221163	o a o
-1.500051	o a p
-3.092069	o a q
-1.05853	o a r
-1.114084	o a s
-1.324383	o a t
-2.126934	o a u
-1.593168	o a v
-2.175239	o a w
-3.117623	o a x
-2.816593	o a y
-3.380864	o a z
-3.427599	p a </s>
-3.292901	p a a
-1.833843	p a b
-1.123161	p a c
-2.097308	p a d
-3.645083	p a e
-2.877927	p a f
-2.081602	p a g
-3.08279	p a h
-1.257249	p a i
-3.427599	p a j
-1.587227	p a k
-1.349516	p a l
-2.601721	p a m
-0.7184578	p a n
-3.514749	p a o
-1.875337	p a p
-3.043023	p a q
-0.4569284	p a r
-1.178883	p a s
-1.090412	p a t
-2.187201	p a u
-2.710585	p a v
-2.755781	p a w
-3.247143	p a x
-1.316805	p a y
-3.483715	p a z
-2.720986	q a </s>
-2.720986	q a a
-2.295017	q a b
-2.547317	q a c
-0.6997964	q a d
-0.531589	q a e
-1.750949	q a f
-2.802446	q a g
-1.855684	q a i
-1.654039	q a l
-2.051979	q a m
-0.6126463	q a n
-2.509786	q a p
-1.766743	q a r
-1.465713	q a s
-0.9058509	q a t
-3.04376	q a u
-2.720986	q a w
-5.211309	r a #
-3.009631	r a </s>
-2.879935	r a a
-1.453913	r a b
-1.133321	r a c
-1.213276	r a d
-1.666686	r a e
-1.914024	r a f
-1.398858	r a g
-2.488285	r a h
-1.372485	r a i
-2.727167	r a j
-2.42864	r a k
-0.8728262	r a l
-1.458406	r a m
-0.7860329	r a n
-2.439829	r a o
-1.592528	r a p
-1.831503	r a q
-1.673956	r a r
-1.440654	r a s
-0.6334879	r a t
-2.363923	r a u
-2.086903	r a v
-1.97384	r a w
-4.219528	r a x
-2.353241	r a y
-2.054538	r a z
-3.288014	s a </s>
-4.614948	s a `
-2.76331	s a a
-1.469788	s a b
-1.388539	s a c
-1.525217	s a d
-3.168827	s a e
-1.549734	s a f
-1.430681	s a g
-2.105569	s a h
-1.807704	s a i
-3.104369	s a j
-2.446852	s a k
-1.108099	s a l
-1.326968	s a m
-0.5015164	s a n
-3.288014	s a o
-1.553509	s a p
-3.257137	s a q
-0.8188897	s a r
-1.171161	s a s
-1.326218	s a t
-1.899314	s a u
-1.67345	s a v
-1.911629	s a w
-3.228311	s a x
-1.771722	s a y
-3.674673	s a z
-5.185964	t a #
-2.972955	t a </s>
-5.185964	t a [
-4.86319	t a `
-2.672858	t a a
-1.151186	t a b
-1.3898	t a c
-1.985819	t a d
-3.117595	t a e
-1.908465	t a f
-1.493912	t a g
-2.21483	t a h
-1.150905	t a i
-3.184975	t a j
-1.34275	t a k
-0.8710195	t a l
-1.767788	t a m
-0.701353	t a n
-2.860304	t a o
-1.845044	t a p
-3.46525	t a q
-0.944391	t a r
-1.314555	t a s
-0.8532577	t a t
-2.268061	t a u
-2.619325	t a v
-2.502092	t a w
-1.629264	t a x
-2.439398	t a y
-3.877913	t a z
-3.319814	u a </s>
-2.771629	u a a
-1.768364	u a b
-2.186275	u a c
-1.695188	u a d
-2.883121	u a e
-2.916121	u a f
-1.66983	u a g
-2.796935	u a h
-2.504679	u a i
-3.495905	u a j
-2.033507	u a k
-0.2953827	u a l
-2.385315	u a m
-1.07661	u a n
-3.495905	u a o
-2.852452	u a p
-0.8123176	u a r
-1.798676	u a s
-0.845889	u a t
-3.217151	u a u
-3.080932	u a v
-2.951837	u a w
-2.365571	u a y
-3.827707	u a z
-2.953539	v a </s>
-2.553124	v a a
-1.97386	v a b
-1.549683	v a c
-1.861119	v a d
-3.418426	v a e
-3.383663	v a f
-1.832965	v a g
-3.218853	v a h
-1.2302	v a i
-3.196577	v a j
-2.175388	v a k
-0.5899805	v a l
-2.611116	v a m
-0.7606529	v a n
-3.267158	v a o
-2.543364	v a p
-1.134936	v a r
-1.172707	v a s
-0.5514003	v a t
-2.790037	v a u
-4.101946	v a v
-2.906542	v a w
-3.418426	v a z
-3.488091	w a </s>
-3.21635	w a a
-1.993694	w a b
-2.48433	w a c
-1.999785	w a d
-3.849818	w a e
-2.71628	w a f
-1.56023	w a g
-2.478751	w a h
-1.854622	w a i
-3.117425	w a j
-2.021159	w a k
-1.555573	w a l
-2.405774	w a m
-1.060167	w a n
-4.181621	w a o
-2.126363	w a p
-4.181621	w a q
-0.606706	w a r
-0.4722573	w a s
-1.361691	w a t
-3.125543	w a u
-2.01731	w a v
-3.071667	w a w
-3.895576	w a x
-0.8187333	w a y
-3.030275	w a z
-2.401831	x a b
-0.9684615	x a c
-2.253769	x a d
-2.52677	x a f
-1.637468	x a g
-3.752634	x a h
-3.51132	x a i
-3.752634	x a k
-2.22574	x a l
-0.1774924	x a m
-1.083507	x a n
-3.752634	x a o
-2.605951	x a p
-2.283732	x a r
-1.651709	x a s
-1.192651	x a t
-2.584762	x a u
-2.294197	x a v
-3.752634	x a w
-3.51132	x a y
-2.342774	y a </s>
-2.202944	y a a
-1.459267	y a b
-1.323835	y a c
-1.480005	y a d
-2.851304	y a e
-1.510612	y a f
-1.554091	y a g
-1.833228	y a h
-2.133218	y a i
-2.84058	y a j
-2.135301	y a k
-1.204533	y a l
-1.449043	y a m
-0.4338948	y a n
-2.809911	y a o
-1.535859	y a p
-2.948214	y a q
-0.9390821	y a r
-1.029545	y a s
-1.328697	y a t
-1.983542	y a u
-2.156699	y a v
-2.006982	y a w
-4.600047	y a x
-2.772123	y a y
-3.263032	y a z
-1.958564	z a </s>
-1.793131	z a a
-1.899586	z a b
-2.207565	z a c
-2.408892	z a d
-2.920775	z a e
-2.537559	z a f
-2.455889	z a g
-2.327859	z a h
-1.681893	z a i
-3.604295	z a j
-1.642022	z a k
-2.229105	z a l
-1.832639	z a m
-1.640121	z a n
-2.744684	z a o
-2.207565	z a p
-1.22617	z a r
-1.723495	z a s
-0.1269849	z a t
-3.331758	z a u
-2.795837	z a v
-1.879383	z a w
-3.845609	z a x
-3.045714	z a y
-3.045714	z a z
-0.1249387	# b r
-0.7998953	* b e
-0.5585814	* b u
-1.5543	<s> b a
-4.046819	<s> b d
-1.101045	<s> b e
-3.296352	<s> b h
-2.098088	<s> b i
-2.33527	<s> b l
-3.79169	<s> b n
-1.486311	<s> b o
-3.79169	<s> b p
-1.536145	<s> b r
-4.046819	<s> b t
-0.1256501	<s> b u
-1.164412	<s> b y
-0.5533304	[ b e
-0.5157988	[ b u
-1.049773	[ b y
-0.7487428	] b a
-0.7487428	] b e
-0.08715018	_ b a
-1.076102	` b a
-1.076102	` b i
-0.8347878	` b l
-1.076102	` b r
-0.5796593	` b u
-3.443257	a b </s>
-1.345546	a b a
-2.134775	a b b
-2.45511	a b c
-2.167149	a b d
-1.396732	a b e
-3.290029	a b f
-3.326751	a b g
-2.816838	a b h
-0.7915317	a b i
-3.205018	a b j
-2.75102	a b k
-0.4220518	a b l
-2.731126	a b m
-2.685044	a b n
-0.6368161	a b o
-2.690913	a b p
-4.703883	a b q
-1.476935	a b r
-1.429934	a b s
-3.133955	a b t
-1.548387	a b u
-3.95514	a b v
-2.110819	a b w
-2.117868	a b y
-4.207441	a b z
-2.716341	b b </s>
-0.8706366	b b a
-3.250315	b b b
-1.680387	b b c
-2.45042	b b d
-0.8329539	b b e
-3.250315	b b f
-1.084516	b b i
-0.4156581	b b l
-2.927541	b b m
-1.142212	b b o
-2.716341	b b p
-3.250315	b b q
-2.258535	b b r
-2.736465	b b s
-2.14939	b b t
-1.619333	b b u
-2.927541	b b v
-0.9732989	b b y
-3.32924	c b #
-1.657513	c b </s>
-0.9107157	c b a
-1.939519	c b b
-1.483587	c b c
-1.903804	c b d
-0.9650733	c b e
-1.793391	c b f
-2.068614	c b g
-1.393682	c b h
-1.230734	c b i
-3.006466	c b j
-3.32924	c b k
-1.597097	c b l
-1.735399	c b m
-2.161368	c b n
-1.037983	c b o
-1.426682	c b p
-3.32924	c b q
-1.337459	c b r
-0.8421132	c b s
-1.434369	c b t
-1.044255	c b u
-1.274072	c b w
-1.881527	c b y
-3.617807	d b </s>
-1.10499	d b a
-3.663565	d b b
-3.949609	d b c
-3.967018	d b d
-0.4404151	d b e
-4.140686	d b f
-3.538626	d b h
-1.84329	d b i
-1.978321	d b l
-3.576415	d b m
-3.538626	d b n
-1.414774	d b o
-3.576415	d b p
-1.414231	d b r
-3.170649	d b s
-3.576415	d b t
-1.181486	d b u
-3.949609	d b w
-0.4112513	d b y
-3.533405	e b </s>
-0.7462987	e b a
-2.854179	e b b
-3.107436	e b c
-3.089707	e b d
-0.560842	e b e
-3.834435	e b f
-4.63433	e b g
-3.232375	e b h
-1.220945	e b i
-2.919446	e b j
-4.63433	e b k
-1.718639	e b l
-3.197613	e b m
-3.42695	e b n
-1.081533	e b o
-3.257198	e b p
-1.117042	e b r
-2.432652	e b s
-0.9503951	e b t
-0.9034858	e b u
-4.393016	e b v
-3.788677	e b w
-1.225434	e b y
-0.7026405	f b a
-0.6845905	f b e
-2.364926	f b h
-0.9802143	f b i
-1.394114	f b l
-0.7914742	f b o
-3.270295	f b p
-0.9232309	f b r
-3.188835	f b t
-0.865239	f b u
-1.586775	f b y
-3.202726	g b </s>
-0.7187013	g b a
-3.165195	g b b
-2.649396	g b c
-0.5884619	g b e
-3.165195	g b f
-2.677424	g b h
-1.322037	g b i
-3.699168	g b j
-1.579358	g b l
-2.438542	g b m
-3.699168	g b n
-0.9080471	g b o
-2.812123	g b p
-1.284142	g b r
-2.362154	g b s
-2.391118	g b t
-0.7569532	g b u
-3.202726	g b w
-0.9807768	g b y
-0.9552324	h b a
-3.602289	h b b
-0.702023	h b e
-2.715243	h b h
-1.374619	h b i
-3.602289	h b j
-1.711313	h b l
-3.602289	h b m
-0.4197763	h b o
-3.602289	h b p
-1.19673	h b r
-3.602289	h b t
-0.9484251	h b u
-1.165571	h b y
-2.895716	i b </s>
-1.24462	i b a
-2.133694	i b b
-3.145593	i b c
-3.750076	i b d
-0.6665463	i b e
-3.497776	i b f
-3.750076	i b g
-2.856798	i b h
-0.7738075	i b i
-3.712545	i b k
-0.5008814	i b l
-2.562017	i b m
-3.122112	i b n
-2.172979	i b o
-3.099836	i b p
-1.594008	i b r
-2.668472	i b s
-3.170417	i b t
-0.8070263	i b u
-3.145593	i b w
-1.444697	i b y
-0.2808266	j b a
-1.167872	j b e
-1.167872	j b o
-0.845098	j b r
-0.6627578	k b a
-0.508285	k b e
-1.657429	k b i
-2.094122	k b l
-2.874552	k b n
-0.9459304	k b o
-2.22882	k b p
-1.470872	k b r
-0.8420781	k b u
-0.8486089	k b y
-0.5553237	l b a
-3.767156	l b b
-3.848616	l b c
-0.3128192	l b e
-4.08993	l b f
-3.555956	l b h
-1.86226	l b i
-1.816142	l b l
-3.341187	l b m
-1.290517	l b o
-4.08993	l b p
-1.51108	l b r
-2.712798	l b s
-4.08993	l b t
-1.027847	l b u
-1.578696	l b y
-2.498489	m b </s>
-0.9144239	m b a
-3.223788	m b b
-3.28178	m b c
-3.047697	m b d
-0.3144325	m b e
-3.085485	m b f
-3.524818	m b g
-3.085485	m b h
-0.8384051	m b i
-1.279922	m b l
-3.085485	m b m
-3.75971	m b n
-1.271965	m b o
-3.386515	m b p
-1.155138	m b r
-2.05684	m b s
-2.394484	m b t
-1.415071	m b u
-3.105689	m b w
-1.935148	m b y
-3.392838	n b </s>
-0.9196427	n b a
-3.742048	n b c
-3.724639	n b d
-0.4564747	n b e
-3.724639	n b f
-3.091808	n b h
-1.224635	n b i
-4.238491	n b j
-1.908538	n b l
-3.704516	n b m
-3.742048	n b n
-0.97653	n b o
-3.997176	n b p
-1.161878	n b r
-1.241161	n b s
-3.24671	n b t
-0.9441313	n b u
-3.278894	n b w
-0.9632468	n b y
-2.647354	o b </s>
-0.5243617	o b a
-2.090348	o b b
-2.309859	o b c
-3.140622	o b d
-0.566749	o b e
-3.111977	o b f
-3.093879	o b g
-3.369102	o b h
-1.201898	o b i
-1.677204	o b j
-4.115877	o b k
-0.8908127	o b l
-3.182015	o b m
-3.403864	o b n
-1.477221	o b o
-3.093879	o b p
-1.576171	o b r
-1.20578	o b s
-2.139636	o b t
-1.394377	o b u
-1.731381	o b v
-3.111977	o b w
-2.080784	o b y
-4.095754	o b z
-1.095022	p b a
-1.633889	p b b
-1.838009	p b c
-0.4087953	p b e
-3.160783	p b g
-2.838009	p b h
-1.758828	p b i
-1.934919	p b l
-2.919469	p b m
-1.007634	p b o
-1.390851	p b r
-0.8423738	p b u
-2.838009	p b v
-3.160783	p b w
-0.7612473	p b y
-0.9542425	q b a
-0.5467572	q b e
-1.005395	q b o
-0.403335	q b u
-1.005395	q b y
-3.100592	r b </s>
-0.6758271	r b a
-3.578522	r b b
-2.74157	r b c
-3.100592	r b d
-0.6636347	r b e
-3.132777	r b f
-3.558399	r b g
-2.574622	r b h
-0.9041001	r b i
-4.092373	r b j
-1.775428	r b l
-2.666936	r b m
-2.259948	r b n
-0.7515922	r b o
-2.904297	r b p
-1.281048	r b r
-1.886885	r b s
-2.23812	r b t
-0.9890415	r b u
-4.092373	r b v
-3.132777	r b w
-1.205327	r b y
-3.91753	s b </s>
-0.9661505	s b a
-3.188108	s b c
-3.91753	s b d
-0.3439673	s b e
-4.091198	s b f
-3.153346	s b h
-1.618929	s b i
-3.614077	s b j
-1.780859	s b l
-3.454376	s b m
-4.172658	s b n
-1.028115	s b o
-3.489138	s b p
-1.318876	s b r
-3.392228	s b s
-3.900121	s b t
-0.8141237	s b u
-4.172658	s b v
-3.614077	s b w
-1.002117	s b y
-3.413924	t b </s>
-0.8200344	t b a
-3.552227	t b b
-3.455317	t b c
-3.766996	t b d
-0.3387757	t b e
-3.224868	t b h
-1.573362	t b i
-4.30097	t b j
-1.781375	t b l
-4.059656	t b m
-3.804527	t b n
-1.13809	t b o
-3.341374	t b p
-1.297256	t b r
-3.455317	t b s
-2.655977	t b t
-0.9331337	t b u
-3.309189	t b w
-0.9938185	t b y
-2.853964	u b </s>
-1.224618	u b a
-1.316539	u b b
-2.337925	u b c
-2.484053	u b d
-1.710754	u b e
-2.978903	u b f
-3.154994	u b g
-3.690916	u b h
-1.770283	u b i
-1.41661	u b j
-3.317722	u b k
-0.293796	u b l
-1.821295	u b m
-2.76805	u b n
-2.010809	u b o
-1.988046	u b p
-2.149599	u b r
-0.7813927	u b s
-1.152558	u b t
-1.924545	u b u
-2.424616	u b v
-2.997386	u b w
-3.103842	u b y
-1.375191	v b a
-0.6916708	v b e
-1.616505	v b i
-1.082531	v b o
-0.624724	v b r
-0.6569086	v b u
-1.102654	v b y
-0.7892429	w b a
-0.5322618	w b e
-3.289072	w b g
-1.508921	w b i
-1.981022	w b l
-1.042019	w b o
-1.339616	w b r
-3.289072	w b s
-0.5608949	w b u
-1.052484	w b y
-0.8906807	x b a
-2.264818	x b b
-1.009545	x b e
-0.443086	x b i
-2.587592	x b m
-2.587592	x b n
-1.440909	x b o
-0.9637879	x b r
-0.6850342	x b u
-1.343999	x b y
-1.066309	y b a
-3.150473	y b c
-4.110069	y b d
-0.3206252	y b e
-4.110069	y b g
-3.223024	y b h
-1.578675	y b i
-2.942197	y b j
-3.613627	y b k
-1.648466	y b l
-3.613627	y b n
-1.069625	y b o
-3.868755	y b p
-1.302995	y b r
-4.110069	y b s
-0.8847483	y b u
-0.9267575	y b y
-2.009779	z b a
-0.7487105	z b e
-1.551973	z b i
-0.1275576	z b o
-1.584157	z b u
-2.543753	z b y
-0.9595962	* c a
-0.7182823	* c h
-0.7182823	* c o
-0.6368221	* c r
-0.8151213	<s> c a
-3.030296	<s> c c
-3.456265	<s> c d
-1.420168	<s> c e
-3.456265	<s> c f
-3.779039	<s> c g
-0.5451072	<s> c h
-1.702937	<s> c i
-1.198586	<s> c l
-3.282596	<s> c n
-0.4575696	<s> c o
-1.364012	<s> c r
-3.456265	<s> c t
-1.413558	<s> c u
-2.185198	<s> c y
-3.245065	<s> c z
-1.002279	[ c a
-0.7297419	[ c h
-0.9208187	[ c l
-0.7096189	[ c o
-0.9208187	[ c r
-0.8830925	] c a
-0.1995724	] c o
-1.051497	` c l
-0.2710668	` c o
-1.051497	` c r
-0.9700368	` c u
-3.687204	a c </s>
-1.609909	a c a
-3.829872	a c b
-0.9297779	a c c
-3.579994	a c d
-0.86274	a c e
-3.784114	a c f
-4.930797	a c g
-0.9147065	a c h
-1.277609	a c i
-0.9425045	a c k
-1.756969	a c l
-3.704933	a c m
-3.608023	a c n
-1.152163	a c o
-4.043752	a c p
-2.190274	a c q
-1.392826	a c r
-3.072307	a c s
-0.6347566	a c t
-1.931634	a c u
-4.608023	a c v
-3.451676	a c w
-1.295493	a c y
-3.344782	a c z
-2.325779	b c </s>
-0.9496424	b c a
-1.633889	b c b
-2.059858	b c c
-1.934919	b c e
-2.618439	b c f
-2.859753	b c g
-1.360888	b c h
-1.599127	b c i
-2.618439	b c j
-1.838009	b c l
-2.363311	b c m
-2.059858	b c n
-0.4230357	b c o
-2.618439	b c p
-0.5669423	b c r
-1.61616	b c s
-1.633889	b c t
-1.735347	b c u
-1.900157	b c w
-3.207048	c c </s>
-1.432746	c c a
-3.483254	c c b
-2.747301	c c c
-3.749176	c c d
-0.4318874	c c e
-3.396104	c c f
-4.041836	c c g
-1.650036	c c h
-1.525275	c c i
-4.041836	c c j
-4.28315	c c k
-2.037823	c c l
-3.396104	c c m
-3.960376	c c n
-0.4652478	c c o
-2.227982	c c p
-1.550442	c c r
-2.276129	c c s
-2.932347	c c t
-0.8471009	c c u
-3.158743	c c w
-2.881194	c c y
-4.041836	c c z
-3.768803	d c #
-3.039381	d c </s>
-0.8749043	d c a
-3.305649	d c b
-3.097373	d c c
-3.189143	d c d
-1.474616	d c e
-2.972434	d c f
-3.751394	d c g
-0.8550446	d c h
-1.516502	d c i
-4.265245	d c j
-3.942471	d c k
-1.328629	d c l
-3.340411	d c m
-3.215472	d c n
-0.3278199	d c o
-3.3782	d c p
-1.122489	d c r
-2.587083	d c s
-2.415271	d c t
-1.293461	d c u
-4.023931	d c v
-2.901078	d c w
-2.302321	d c y
-3.097373	d c z
-4.048901	e c </s>
-0.9743834	e c a
-2.156047	e c b
-2.948843	e c c
-2.682902	e c d
-1.090055	e c e
-3.565248	e c f
-4.349931	e c g
-1.12712	e c h
-1.249654	e c i
-3.944165	e c j
-2.377223	e c k
-1.523797	e c l
-3.67532	e c m
-3.789263	e c n
-0.4588344	e c o
-3.565248	e c p
-4.914202	e c q
-1.479527	e c r
-3.342105	e c s
-0.7144652	e c t
-1.230195	e c u
-5.236976	e c v
-3.886173	e c w
-2.683753	e c y
-3.035297	e c z
-1.011967	f c a
-3.714972	f c b
-2.744935	f c c
-3.192093	f c d
-1.371892	f c e
-0.7493001	f c h
-1.420506	f c i
-1.454106	f c l
-3.796432	f c m
-3.541304	f c n
-0.2993867	f c o
-1.204874	f c r
-3.796432	f c s
-3.503772	f c t
-1.492256	f c u
-3.541304	f c w
-2.17506	f c y
-2.830365	f c z
-0.9288571	g c a
-2.336144	g c c
-3.937671	g c d
-1.660655	g c e
-3.696357	g c f
-0.9016868	g c h
-1.57088	g c i
-1.272475	g c l
-3.441229	g c m
-3.614897	g c n
-0.2663328	g c o
-3.614897	g c p
-1.21928	g c r
-3.42382	g c s
-3.696357	g c t
-1.398291	g c u
-3.614897	g c v
-3.614897	g c w
-2.321167	g c y
-3.42382	g c z
-0.6680934	h c a
-3.5613	h c c
-3.5613	h c d
-0.9208187	h c e
-0.8246381	h c h
-1.559855	h c i
-1.472574	h c l
-3.5613	h c n
-0.4229975	h c o
-3.5613	h c p
-1.33513	h c r
-3.3501	h c t
-1.642222	h c u
-3.5613	h c w
-2.314146	h c y
-3.64276	h c z
-4.849884	i c #
-2.251458	i c </s>
-5.172658	i c [
-4.931344	i c ]
-4.849884	i c `
-0.5444466	i c a
-2.250729	i c b
-1.689015	i c c
-1.809677	i c d
-1.019787	i c e
-2.065267	i c f
-1.850029	i c g
-0.9768348	i c h
-0.905319	i c i
-3.262547	i c j
-1.770944	i c k
-1.960395	i c l
-2.062423	i c m
-2.633278	i c n
-1.646942	i c o
-1.616973	i c p
-3.586643	i c q
-1.719229	i c r
-1.224263	i c s
-1.213998	i c t
-1.418842	i c u
-2.58193	i c v
-2.300881	i c w
-1.32975	i c y
-3.407927	i c z
-0.7160034	j c a
-1.238882	j c b
-0.8129134	j c h
-1.047805	j c i
-1.561656	j c l
-1.065214	j c o
-0.5698753	j c p
-1.561656	j c r
-0.7009082	k c a
-2.800792	k c d
-1.719331	k c e
-0.9199907	k c h
-1.110093	k c i
-1.321391	k c l
-0.4498183	k c o
-0.9316347	k c r
-1.448264	k c u
-1.652385	k c y
-3.042105	k c z
-0.9620491	l c a
-3.676848	l c c
-3.969509	l c d
-1.646668	l c e
-1.00137	l c h
-1.635195	l c i
-2.501847	l c k
-1.35149	l c l
-0.2884564	l c o
-3.696971	l c p
-0.9113927	l c r
-3.696971	l c s
-4.210823	l c t
-1.276679	l c u
-2.209834	l c y
-3.888048	l c z
-0.7933912	m c a
-1.429774	m c c
-1.968164	m c d
-1.29775	m c e
-2.570225	m c f
-2.465489	m c g
-0.8947794	m c h
-1.586311	m c i
-1.624845	m c k
-1.308421	m c l
-2.231406	m c m
-2.249889	m c n
-0.3986309	m c o
-1.224227	m c r
-2.657375	m c s
-3.134496	m c t
-1.603017	m c u
-2.960828	m c v
-2.657375	m c w
-2.289398	m c y
-3.215956	m c z
-3.934583	n c </s>
-1.489671	n c a
-4.286765	n c b
-3.888825	n c c
-3.587795	n c d
-0.3702783	n c e
-4.189855	n c f
-4.539065	n c g
-1.214331	n c h
-0.8752296	n c i
-3.125397	n c k
-1.238081	n c l
-4.794194	n c m
-3.527097	n c n
-0.8735073	n c o
-4.148462	n c p
-1.142697	n c r
-3.203083	n c s
-1.684298	n c t
-1.905424	n c u
-4.712734	n c v
-3.828127	n c w
-1.325997	n c y
-3.338597	n c z
-3.079619	o c </s>
-0.8884265	o c a
-3.716442	o c b
-1.332925	o c c
-3.516869	o c d
-1.081629	o c e
-3.54035	o c f
-3.84138	o c g
-1.262614	o c h
-0.7508479	o c i
-4.399962	o c j
-1.115106	o c k
-1.633955	o c l
-3.716442	o c m
-3.716442	o c n
-0.8128543	o c o
-3.75423	o c p
-3.364259	o c q
-0.7870653	o c r
-2.738718	o c s
-1.702551	o c t
-1.185708	o c u
-3.15217	o c w
-2.778589	o c y
-4.127425	o c z
-2.637683	p c </s>
-0.7621335	p c a
-2.637683	p c b
-1.174529	p c c
-2.600152	p c d
-1.756994	p c e
-2.892812	p c f
-1.047924	p c h
-1.675689	p c i
-1.353974	p c l
-2.811352	p c m
-2.892812	p c n
-0.3534696	p c o
-2.811352	p c p
-1.195051	p c r
-1.966254	p c s
-2.385383	p c t
-1.443375	p c u
-1.926745	p c w
-3.134126	p c y
-0.6084002	q c a
-0.2706474	q c o
-0.7596679	q c r
-3.34937	r c </s>
-1.138199	r c a
-3.329167	r c b
-3.392836	r c c
-3.329167	r c d
-0.5176221	r c e
-3.592408	r c f
-3.495498	r c g
-0.7126911	r c h
-1.204277	r c i
-2.83274	r c k
-1.577468	r c l
-3.592408	r c m
-4.275928	r c n
-0.6186262	r c o
-3.592408	r c p
-1.47569	r c r
-2.964019	r c s
-2.478465	r c t
-1.290294	r c u
-3.525461	r c w
-2.224431	r c y
-3.370559	r c z
-4.372286	s c </s>
-0.618167	s c a
-4.69506	s c b
-3.849407	s c c
-3.387009	s c d
-1.298812	s c e
-3.808014	s c f
-4.69506	s c g
-0.9297538	s c h
-1.14646	s c i
-4.372286	s c k
-1.348211	s c l
-3.895165	s c m
-4.69506	s c n
-0.4956255	s c o
-4.453746	s c p
-1.065718	s c r
-3.895165	s c s
-4.453746	s c t
-1.194461	s c u
-4.372286	s c w
-2.375191	s c y
-3.594135	s c z
-2.83478	t c </s>
-0.7707465	t c a
-3.890858	t c b
-3.328607	t c c
-3.303784	t c d
-1.361776	t c e
-3.559056	t c f
-3.870735	t c g
-0.7116688	t c h
-1.717072	t c i
-1.436513	t c l
-3.445113	t c m
-3.559056	t c n
-0.3776987	t c o
-3.479875	t c p
-1.139927	t c r
-3.303784	t c s
-3.412928	t c t
-1.57139	t c u
-3.328607	t c w
-1.883278	t c y
-3.908267	t c z
-1.149987	u c a
-4.618268	u c b
-1.073906	u c c
-4.121825	u c d
-0.9813456	u c e
-0.4885906	u c h
-1.341251	u c i
-1.754747	u c k
-1.151127	u c l
-3.818372	u c m
-2.012947	u c o
-1.875538	u c r
-3.693434	u c s
-0.5889751	u c t
-3.159831	u c u
-3.818372	u c y
-0.7746907	v c a
-1.942563	v c c
-1.701249	v c e
-1.619789	v c f
-0.649752	v c h
-1.619789	v c i
-0.59176	v c l
-0.6655462	v c o
-1.942563	v c s
-0.569117	w c a
-3.391578	w c c
-1.533088	w c e
-1.042135	w c h
-1.496707	w c i
-1.247072	w c l
-0.356435	w c o
-3.391578	w c p
-1.372739	w c r
-3.391578	w c s
-1.48902	w c u
-2.399797	w c y
-2.171168	x c a
-0.4092399	x c e
-0.4563809	x c h
-1.587248	x c i
-0.9611656	x c l
-1.405025	x c o
-2.870138	x c p
-1.870138	x c r
-1.19804	x c u
-3.757183	x c z
-0.7340674	y c a
-2.957248	y c c
-3.927285	y c d
-1.684247	y c e
-3.753616	y c f
-0.8413998	y c h
-1.76492	y c i
-3.927285	y c k
-1.029658	y c l
-4.250059	y c m
-4.008745	y c n
-0.3362573	y c o
-1.276977	y c r
-3.753616	y c s
-3.736208	y c t
-1.691756	y c u
-2.578331	y c y
-3.042678	y c z
-0.3377528	z c a
-0.8692317	z c h
-1.39211	z c l
-0.6387828	z c o
-1.180911	z c r
-1.714885	z c z
-0.5074289	* d e
-0.7487428	* d r
-1.224039	<s> d a
-3.251624	<s> d d
-0.3267235	<s> d e
-2.958964	<s> d h
-0.9116862	<s> d i
-2.568104	<s> d j
-3.251624	<s> d n
-0.7960268	<s> d o
-1.451385	<s> d r
-0.8541936	<s> d u
-3.492938	<s> d w
-2.392013	<s> d y
-0.6043389	[ d ]
-0.5228788	[ d i
-0.7998953	] d e
-0.4771213	] d i
-0.4771213	] d o
-0.3906031	` d e
-0.3906031	` d i
-4.845153	a d #
-1.934668	a d </s>
-1.173815	a d a
-1.748349	a d b
-2.052557	a d c
-1.174594	a d d
-0.5018382	a d e
-2.156267	a d f
-2.531153	a d g
-2.074704	a d h
-0.8874653	a d i
-1.828359	a d j
-3.09641	a d k
-1.731156	a d l
-1.387989	a d m
-2.054032	a d n
-1.201956	a d o
-2.212749	a d p
-2.820523	a d q
-1.825731	a d r
-1.5608	a d s
-1.429541	a d t
-1.763467	a d u
-1.205221	a d v
-2.131444	a d w
-1.366537	a d y
-3.055018	a d z
-2.49699	b d </s>
-1.401289	b d a
-2.738304	b d b
-0.7720771	b d e
-0.8970158	b d i
-0.8714617	b d o
-1.892651	b d r
-1.778708	b d s
-0.3174632	b d u
-2.49699	b d y
-2.06542	c d </s>
-1.342316	c d a
-2.568095	c d b
-1.498898	c d c
-2.568095	c d d
-0.2804968	c d e
-2.078009	c d f
-2.958698	c d g
-2.706398	c d h
-0.7303918	c d i
-3.455141	c d j
-2.94129	c d l
-2.194514	c d m
-2.921166	c d n
-1.087043	c d o
-2.46336	c d p
-1.600888	c d r
-1.537606	c d s
-2.308458	c d t
-1.810147	c d u
-2.94129	c d w
-1.817096	c d y
-3.757662	d d </s>
-1.248035	d d a
-3.471618	d d b
-3.083437	d d c
-3.147107	d d d
-0.4773494	d d e
-2.528233	d d f
-4.030199	d d g
-2.357674	d d h
-0.7154889	d d i
-3.42586	d d j
-0.8959168	d d l
-2.978702	d d m
-3.22174	d d n
-0.9681296	d d o
-3.195411	d d p
-0.9411333	d d r
-1.974074	d d s
-1.997725	d d t
-1.573991	d d u
-3.346679	d d v
-2.934499	d d w
-2.147107	d d y
-3.77507	d d z
-4.163053	e d #
-5.330925	e d *
-1.410601	e d </s>
-4.443879	e d [
-4.796951	e d ]
-4.105061	e d `
-1.020216	e d a
-1.197201	e d b
-1.606865	e d c
-1.831192	e d d
-0.9914513	e d e
-1.484534	e d f
-1.760341	e d g
-1.904461	e d h
-0.844393	e d i
-2.702083	e d j
-2.436442	e d k
-1.819316	e d l
-1.746174	e d m
-1.839162	e d n
-1.184828	e d o
-1.684005	e d p
-3.044363	e d q
-1.697174	e d r
-1.278662	e d s
-0.7924424	e d t
-1.364172	e d u
-2.412654	e d v
-1.538329	e d w
-4.229999	e d x
-2.368332	e d y
-3.550773	e d z
-1.317353	f d a
-2.72632	f d b
-2.969358	f d d
-0.3094414	f d e
-3.718101	f d h
-0.6773787	f d i
-2.617175	f d j
-3.184126	f d m
-2.571418	f d n
-0.7446951	f d o
-2.441084	f d p
-1.462515	f d r
-3.221658	f d s
-3.184126	f d t
-1.881222	f d u
-2.969358	f d w
-2.101596	f d y
-3.896265	g d </s>
-1.367565	g d a
-3.654951	g d d
-0.6386555	g d e
-0.8541592	g d i
-3.57349	g d l
-3.896265	g d n
-0.682697	g d o
-0.4751929	g d p
-1.589714	g d r
-3.896265	g d t
-1.898323	g d u
-3.896265	g d w
-2.310249	g d y
-0.9148631	h d a
-3.045829	h d d
-0.4938578	h d e
-3.300957	h d h
-0.6692688	h d i
-3.219497	h d j
-3.219497	h d l
-3.542271	h d m
-3.045829	h d n
-0.9155815	h d o
-2.374399	h d p
-0.7477167	h d r
-2.793529	h d s
-3.300957	h d t
-1.64354	h d u
-3.542271	h d v
-3.300957	h d w
-2.205257	h d y
-3.02842	h d z
-2.081529	i d </s>
-4.464743	i d [
-4.172083	i d `
-1.101492	i d a
-2.199538	i d b
-2.083703	i d c
-1.274492	i d d
-0.2499247	i d e
-2.133677	i d f
-1.795946	i d g
-2.469469	i d h
-1.141238	i d i
-2.941326	i d j
-2.991172	i d k
-1.752855	i d l
-2.435522	i d m
-1.51366	i d n
-1.716141	i d o
-2.208158	i d p
-3.860404	i d q
-2.195762	i d r
-1.687801	i d s
-1.498487	i d t
-1.454716	i d u
-3.188306	i d v
-2.179163	i d w
-2.607551	i d y
-4.172083	i d z
-0.6918901	j d a
-0.6918901	j d e
-0.7294216	j d i
-1.225864	j d u
-1.225864	j d z
-0.9066941	k d a
-0.5483687	k d e
-0.8275129	k d i
-0.4579482	k d o
-1.192407	k d r
-1.56326	k d u
-2.719607	k d y
-4.568679	l d #
-1.537503	l d </s>
-4.31355	l d [
-4.31355	l d ]
-4.809993	l d `
-1.196146	l d a
-0.8698686	l d b
-1.487943	l d c
-1.69506	l d d
-0.9297113	l d e
-1.730329	l d f
-1.942737	l d g
-1.283823	l d h
-1.016808	l d i
-2.699522	l d j
-2.791153	l d k
-1.673638	l d l
-1.66136	l d m
-1.33249	l d n
-1.445168	l d o
-1.537829	l d p
-2.977568	l d q
-1.253715	l d r
-1.014121	l d s
-1.339233	l d t
-1.962174	l d u
-2.493048	l d v
-1.306138	l d w
-2.5664	l d y
-4.296142	l d z
-2.728984	m d </s>
-1.184309	m d a
-2.417305	m d b
-2.074883	m d c
-3.021645	m d d
-0.40743	m d e
-2.338124	m d f
-1.078849	m d g
-2.728984	m d h
-0.7798159	m d i
-3.021645	m d m
-3.262958	m d n
-0.7738529	m d o
-2.338124	m d p
-1.42608	m d r
-2.055578	m d s
-3.021645	m d t
-1.525211	m d u
-2.162033	m d w
-1.954908	m d y
-4.566806	n d #
-5.125388	n d *
-2.069416	n d </s>
-4.870259	n d [
-4.441868	n d ]
-4.521049	n d `
-1.077129	n d a
-1.706069	n d b
-1.405738	n d c
-1.628676	n d d
-0.8021821	n d e
-1.571074	n d f
-1.84399	n d g
-1.646104	n d h
-0.8554587	n d i
-2.297034	n d j
-2.612564	n d k
-1.72302	n d l
-1.533651	n d m
-1.869383	n d n
-1.218048	n d o
-1.428364	n d p
-2.938986	n d q
-1.506991	n d r
-1.080817	n d s
-0.9301627	n d t
-1.510919	n d u
-2.359082	n d v
-1.603911	n d w
-3.750197	n d x
-2.429382	n d y
-3.327924	n d z
-1.808811	o d </s>
-0.8580205	o d a
-2.24972	o d b
-2.130244	o d c
-1.972493	o d d
-0.5858621	o d e
-1.969445	o d f
-2.248275	o d g
-2.488795	o d h
-0.9622169	o d i
-2.875583	o d j
-3.279683	o d k
-2.44354	o d l
-2.452683	o d m
-2.064083	o d n
-0.9941259	o d o
-1.92134	o d p
-3.580713	o d q
-1.673379	o d r
-1.227842	o d s
-1.783347	o d t
-0.7688511	o d u
-3.114057	o d v
-2.087355	o d w
-1.576392	o d y
-4.572494	o d z
-2.092838	p d </s>
-0.7936209	p d a
-1.916746	p d b
-2.503821	p d c
-3.017672	p d d
-0.5776263	p d e
-2.130626	p d f
-2.694898	p d g
-3.017672	p d h
-0.8497995	p d i
-2.483698	p d l
-2.521229	p d m
-0.6920119	p d o
-1.33951	p d p
-1.326921	p d r
-1.666869	p d s
-1.615716	p d t
-1.499921	p d u
-2.268929	p d v
-2.172019	p d w
-2.776358	p d y
-1.389721	q d d
-0.3679768	q d e
-0.5898255	q d i
-0.8932784	q d o
-1.148407	q d u
-4.034979	r d #
-1.719158	r d </s>
-1.143192	r d a
-2.05738	r d b
-1.936032	r d c
-2.116395	r d d
-0.5118834	r d e
-1.872188	r d f
-2.314701	r d g
-2.141701	r d h
-0.7431158	r d i
-2.945406	r d j
-2.555435	r d k
-1.440009	r d l
-1.936806	r d m
-2.158139	r d n
-1.149589	r d o
-1.77782	r d p
-2.736379	r d q
-1.753803	r d r
-0.9432006	r d s
-1.270795	r d t
-1.94383	r d u
-3.032556	r d v
-1.752788	r d w
-2.465661	r d y
-3.571825	r d z
-4.258718	s d </s>
-1.353502	s d a
-3.266937	s d b
-4.017404	s d c
-3.762275	s d d
-0.3749219	s d e
-3.015125	s d f
-2.28596	s d g
-4.017404	s d h
-0.6791458	s d i
-3.762275	s d j
-4.017404	s d m
-2.750307	s d n
-0.6834143	s d o
-2.600152	s d p
-1.23065	s d r
-2.965907	s d s
-3.509975	s d t
-1.435341	s d u
-3.935944	s d v
-2.740967	s d w
-2.190348	s d y
-4.258718	s d z
-1.240969	t d a
-3.893749	t d c
-3.893749	t d d
-0.3430566	t d e
-4.135063	t d h
-0.7074609	t d i
-3.638621	t d j
-2.549048	t d m
-3.289411	t d n
-0.6517208	t d o
-3.812289	t d p
-1.417254	t d r
-3.812289	t d s
-3.638621	t d t
-1.696124	t d u
-3.893749	t d v
-2.909199	t d w
-2.302639	t d y
-2.456109	u d </s>
-1.232917	u d a
-2.591364	u d b
-2.705308	u d c
-1.335628	u d d
-0.5553961	u d e
-3.028614	u d f
-0.7561617	u d g
-2.316142	u d h
-0.4711069	u d i
-2.86021	u d j
-2.716303	u d k
-2.338885	u d l
-2.985148	u d m
-3.006338	u d n
-1.727584	u d o
-2.7633	u d p
-2.64461	u d r
-2.119847	u d s
-2.426554	u d t
-2.298768	u d u
-3.911707	u d v
-2.522038	u d w
-1.424843	u d y
-1.737747	v d </s>
-1.414973	v d a
-1.496433	v d c
-0.5698753	v d e
-0.6368221	v d i
-1.737747	v d m
-0.9890046	v d o
-1.496433	v d p
-1.737747	v d r
-1.496433	v d s
-1.737747	v d t
-1.737747	v d w
-1.737747	v d y
-2.320285	w d </s>
-1.229204	w d a
-3.019255	w d b
-2.542134	w d c
-3.019255	w d d
-0.4197356	w d e
-2.005014	w d f
-3.019255	w d h
-0.872094	w d i
-2.496376	w d l
-2.828178	w d m
-2.542134	w d n
-0.5223252	w d o
-2.241104	w d p
-1.347157	w d r
-1.542134	w d s
-2.593286	w d t
-2.033978	w d u
-2.828178	w d w
-2.454983	w d y
-0.764363	x d a
-0.2497046	x d e
-0.9015362	x d i
-1.215155	x d o
-1.366423	x d r
-1.757283	x d u
-2.291257	x d y
-4.009946	y d </s>
-1.241049	y d a
-3.687172	y d b
-0.430214	y d e
-0.5561954	y d i
-3.687172	y d j
-3.513504	y d m
-2.620225	y d n
-0.7064115	y d o
-3.261203	y d p
-1.219811	y d r
-3.164293	y d s
-1.589105	y d u
-4.009946	y d v
-2.687172	y d w
-2.423931	y d y
-1.329059	z d a
-0.2379782	z d e
-0.80618	z d i
-0.80618	z d o
-1.329059	z d r
-0.6907508	* e c
-0.6907508	* e x
-1.226358	<s> e a
-2.808042	<s> e b
-1.21053	<s> e c
-1.797318	<s> e d
-1.8419	<s> e f
-1.719906	<s> e g
-3.236434	<s> e h
-1.641711	<s> e i
-1.590558	<s> e l
-1.400085	<s> e m
-1.295047	<s> e n
-2.845831	<s> e p
-1.750503	<s> e q
-2.081043	<s> e r
-1.677708	<s> e s
-2.146861	<s> e t
-0.6539733	<s> e u
-0.4666076	<s> e v
-1.162947	<s> e x
-3.236434	<s> e y
-0.623804	[ e c
-0.623804	[ e n
-0.8016323	] e c
-0.8016323	] e m
-0.8016323	] e n
-1.124406	] e s
-0.8016323	] e v
-0.1249387	_ e n
-1.100925	` e a
-1.100925	` e c
-0.5669513	` e n
-1.100925	` e s
-1.100925	` e t
-1.100925	` e u
-2.908378	a e </s>
-1.592407	a e a
-1.973879	a e b
-1.85916	a e c
-1.221742	a e d
-2.866985	a e e
-2.317313	a e f
-1.999893	a e g
-3.257588	a e h
-2.285129	a e i
-2.629624	a e j
-2.200808	a e k
-0.2086267	a e l
-1.756089	a e m
-1.690894	a e n
-2.653105	a e o
-2.607348	a e p
-2.954135	a e q
-1.787804	a e r
-1.63422	a e s
-2.274909	a e t
-0.9825502	a e u
-1.680491	a e v
-2.794434	a e w
-1.631916	a e x
-2.954135	a e z
-2.479436	b e </s>
-4.747476	b e `
-1.205268	b e a
-1.981469	b e b
-0.8976733	b e c
-1.550849	b e d
-0.9416849	b e e
-1.428053	b e f
-1.467633	b e g
-1.522064	b e h
-1.286045	b e i
-2.818854	b e j
-2.657415	b e k
-1.251599	b e l
-1.816596	b e m
-1.330892	b e n
-2.076438	b e o
-1.815573	b e p
-3.109713	b e q
-0.8037647	b e r
-1.254171	b e s
-0.9602657	b e t
-2.076811	b e u
-2.499684	b e v
-2.073468	b e w
-3.842107	b e x
-1.898365	b e y
-3.509668	b e z
-4.839693	c e #
-1.384218	c e </s>
-4.584565	c e [
-4.332264	c e ]
-4.839693	c e _
-1.219701	c e a
-1.776113	c e b
-1.805925	c e c
-1.119577	c e d
-1.743153	c e e
-1.6939	c e f
-2.381656	c e g
-1.99182	c e h
-1.228803	c e i
-2.938689	c e j
-2.81375	c e k
-1.655456	c e l
-1.654087	c e m
-0.8732111	c e n
-1.200485	c e o
-1.371615	c e p
-3.295835	c e q
-1.23099	c e r
-0.6335549	c e s
-1.160209	c e t
-2.369658	c e u
-2.540749	c e v
-1.686474	c e w
-2.58895	c e x
-3.210048	c e y
-4.567156	c e z
-2.151156	d e </s>
-5.244537	d e _
-1.297171	d e a
-1.396891	d e b
-1.111306	d e c
-1.193761	d e d
-1.429002	d e e
-1.305007	d e f
-2.180348	d e g
-2.636205	d e h
-2.006011	d e i
-3.148464	d e j
-3.155846	d e k
-1.469721	d e l
-1.159685	d e m
-0.9202165	d e n
-1.888205	d e o
-1.412426	d e p
-2.273403	d e q
-0.7596466	d e r
-1.112832	d e s
-1.526029	d e t
-2.012207	d e u
-1.198307	d e v
-2.341979	d e w
-1.83564	d e x
-3.42116	d e y
-3.474605	d e z
-4.534897	e e #
-2.221052	e e </s>
-4.746097	e e [
-4.827557	e e ]
-1.400331	e e a
-2.373799	e e b
-1.183091	e e c
-0.8388109	e e d
-2.40236	e e e
-1.551582	e e f
-2.570006	e e g
-2.614692	e e h
-1.432441	e e i
-3.467343	e e j
-1.560366	e e k
-1.523207	e e l
-1.151815	e e m
-0.7086703	e e n
-1.944693	e e o
-1.459341	e e p
-2.230664	e e q
-1.773585	e e r
-1.476662	e e s
-1.312274	e e t
-1.042061	e e u
-1.692762	e e v
-2.309404	e e w
-1.292015	e e x
-2.298939	e e y
-1.735232	e e z
-2.020079	f e </s>
-1.07814	f e a
-2.06043	f e b
-0.7696052	f e c
-1.190984	f e d
-1.396677	f e e
-2.215457	f e f
-2.091464	f e g
-2.512727	f e h
-1.981689	f e i
-3.850187	f e j
-3.100064	f e k
-1.471335	f e l
-1.737498	f e m
-1.098811	f e n
-2.441523	f e o
-2.723893	f e p
-2.616556	f e q
-0.5978191	f e r
-1.444072	f e s
-1.596727	f e t
-1.411249	f e u
-1.883458	f e v
-1.209581	f e w
-1.564067	f e x
-3.607149	f e y
-3.276155	f e z
-4.397071	g e #
-1.589163	g e </s>
-4.588149	g e [
-1.474205	g e a
-2.013731	g e b
-1.527073	g e c
-1.174067	g e d
-1.803531	g e e
-1.72881	g e f
-2.377741	g e g
-2.239844	g e h
-1.460396	g e i
-3.12575	g e j
-3.226421	g e k
-1.592806	g e l
-1.436983	g e m
-0.8053892	g e n
-1.252156	g e o
-1.888311	g e p
-2.872145	g e q
-0.7427403	g e r
-0.9124923	g e s
-0.9238826	g e t
-2.009127	g e u
-2.11588	g e v
-1.841514	g e w
-2.001936	g e x
-3.092142	g e y
-3.986089	g e z
-4.884854	h e #
-5.119746	h e *
-3.516102	h e </s>
-5.633596	h e @
-4.532671	h e [
-5.137154	h e ]
-4.17516	h e `
-1.32917	h e a
-1.574878	h e b
-1.197169	h e c
-1.424369	h e d
-1.244944	h e e
-1.444811	h e f
-1.595153	h e g
-1.894459	h e h
-1.135523	h e i
-2.539725	h e j
-2.281439	h e k
-1.404793	h e l
-1.281601	h e m
-1.26132	h e n
-1.576957	h e o
-1.278472	h e p
-2.597612	h e q
-0.8174714	h e r
-1.122185	h e s
-1.466781	h e t
-1.417227	h e u
-2.094129	h e v
-1.427824	h e w
-2.867299	h e x
-1.43372	h e y
-3.069442	h e z
-2.945204	i e </s>
-2.692687	i e a
-2.993717	i e b
-2.429804	i e c
-1.202792	i e d
-3.160048	i e e
-1.694071	i e f
-2.70673	i e g
-3.005726	i e h
-2.777431	i e i
-4.639448	i e j
-3.372352	i e k
-1.696852	i e l
-2.784689	i e m
-0.9223369	i e n
-3.09559	i e o
-3.41186	i e p
-1.391361	i e r
-0.2547273	i e s
-1.175251	i e t
-2.649503	i e u
-1.245317	i e v
-1.431208	i e w
-2.985891	i e x
-4.639448	i e y
-4.880762	i e z
-1.54642	j e a
-2.890812	j e b
-0.1432449	j e c
-2.987722	j e d
-2.510601	j e e
-1.993185	j e f
-3.222614	j e g
-3.736465	j e h
-3.413691	j e j
-3.495151	j e k
-2.091471	j e l
-2.660363	j e m
-2.045714	j e n
-1.505206	j e o
-2.686692	j e p
-1.324964	j e r
-2.045714	j e s
-1.93657	j e t
-3.495151	j e u
-2.33451	j e v
-0.9629287	j e w
-2.008061	k e </s>
-4.691303	k e _
-1.370851	k e a
-2.023482	k e b
-1.784575	k e c
-1.079832	k e d
-1.408534	k e e
-2.082971	k e f
-2.202197	k e g
-1.990737	k e h
-1.580596	k e i
-2.59523	k e j
-2.620341	k e k
-1.068441	k e l
-1.743216	k e m
-1.157853	k e n
-1.685181	k e o
-1.567125	k e p
-2.994391	k e q
-0.9810202	k e r
-1.153244	k e s
-0.6043276	k e t
-2.008061	k e u
-2.511196	k e v
-1.734051	k e w
-2.474582	k e x
-1.19856	k e y
-3.64153	k e z
-4.351255	l e #
-1.574263	l e </s>
-4.700465	l e [
-0.7811326	l e a
-1.747137	l e b
-1.057826	l e c
-1.065225	l e d
-1.616695	l e e
-1.538409	l e f
-1.443038	l e g
-2.014996	l e h
-1.512028	l e i
-3.010811	l e j
-2.997147	l e k
-1.837638	l e l
-1.20361	l e m
-1.198936	l e n
-1.560267	l e o
-1.819521	l e p
-2.878499	l e q
-1.547935	l e r
-0.9207929	l e s
-1.146674	l e t
-2.136411	l e u
-1.463469	l e v
-1.752027	l e w
-1.749412	l e x
-2.475037	l e y
-4.029036	l e z
-4.642855	m e #
-5.176829	m e *
-1.843896	m e </s>
-5.176829	m e [
-4.662978	m e ]
-4.854055	m e `
-1.166318	m e a
-2.202131	m e b
-1.657879	m e c
-1.207031	m e d
-1.747864	m e e
-1.930811	m e f
-2.318339	m e g
-2.211261	m e h
-1.734359	m e i
-3.100727	m e j
-2.906295	m e k
-1.852898	m e l
-1.277215	m e m
-0.4351959	m e n
-1.686245	m e o
-1.987571	m e p
-3.270478	m e q
-0.8594592	m e r
-1.15042	m e s
-1.239544	m e t
-2.397689	m e u
-2.621059	m e v
-1.740669	m e w
-2.058407	m e x
-3.163859	m e y
-3.950965	m e z
-4.754298	n e #
-4.945375	n e *
-1.777861	n e </s>
-5.026835	n e [
-4.734175	n e ]
-1.46355	n e a
-2.156265	n e b
-1.451685	n e c
-1.138088	n e d
-1.18983	n e e
-1.300412	n e f
-1.675395	n e g
-2.264134	n e h
-1.544952	n e i
-2.810773	n e j
-2.806546	n e k
-1.895382	n e l
-1.601376	n e m
-1.043336	n e n
-1.45406	n e o
-2.126709	n e p
-2.117575	n e q
-1.132239	n e r
-0.9036272	n e s
-1.076535	n e t
-1.621642	n e u
-1.617335	n e v
-1.105813	n e w
-1.505727	n e x
-1.807178	n e y
-1.572402	n e z
-3.224478	o e </s>
-1.470238	o e a
-2.814303	o e b
-1.124107	o e c
-1.86275	o e d
-4.216259	o e e
-1.829026	o e f
-2.544531	o e g
-2.879244	o e h
-0.9518073	o e i
-3.974945	o e j
-3.224478	o e k
-1.610183	o e l
-1.330795	o e m
-0.8083127	o e n
-3.467516	o e o
-3.194514	o e p
-2.237067	o e q
-1.816723	o e r
-0.5517202	o e s
-2.036152	o e t
-1.381601	o e u
-1.442722	o e v
-3.682284	o e w
-0.8984345	o e x
-3.166486	o e y
-4.730746	p e #
-1.868969	p e </s>
-4.97206	p e [
-0.7751524	p e a
-2.615862	p e b
-0.9685881	p e c
-1.348908	p e d
-1.903171	p e e
-2.143232	p e f
-2.61186	p e g
-2.379773	p e h
-2.021579	p e i
-3.177017	p e j
-3.402132	p e k
-1.978113	p e l
-2.17072	p e m
-0.8157141	p e n
-1.070914	p e o
-2.795994	p e p
-3.804188	p e q
-0.5791005	p e r
-1.424408	p e s
-1.253843	p e t
-2.768473	p e u
-3.026037	p e v
-2.05637	p e w
-2.875988	p e x
-3.783985	p e y
-3.473195	p e z
-0.968842	q e </s>
-1.112749	q e a
-1.480725	q e b
-1.413779	q e c
-2.164246	q e d
-1.480725	q e e
-2.164246	q e f
-2.40556	q e g
-1.258877	q e h
-0.9471228	q e i
-1.871585	q e l
-1.480725	q e m
-1.445963	q e n
-1.559907	q e o
-1.198179	q e p
-2.40556	q e q
-1.605664	q e r
-1.217484	q e s
-0.8878087	q e t
-2.40556	q e u
-1.559907	q e v
-1.112749	q e w
-2.082785	q e x
-4.68586	r e #
-5.331591	r e *
-1.991574	r e </s>
-5.059054	r e [
-4.496804	r e ]
-5.250131	r e `
-0.8374411	r e a
-1.904888	r e b
-1.163072	r e c
-1.179047	r e d
-1.16325	r e e
-1.43239	r e f
-1.459424	r e g
-2.072402	r e h
-1.360587	r e i
-2.538887	r e j
-2.840762	r e k
-1.414737	r e l
-1.427963	r e m
-1.152157	r e n
-1.646301	r e o
-1.473987	r e p
-1.942564	r e q
-1.951933	r e r
-0.7923805	r e s
-1.268735	r e t
-2.088364	r e u
-1.571431	r e v
-1.894361	r e w
-1.958466	r e x
-2.968341	r e y
-3.559935	r e z
-4.440809	s e #
-1.801212	s e </s>
-4.744262	s e [
-4.917931	s e ]
-5.240705	s e `
-1.25511	s e a
-1.980246	s e b
-0.989996	s e c
-1.049502	s e d
-1.264686	s e e
-1.704059	s e f
-2.077615	s e g
-1.932654	s e h
-1.435629	s e i
-2.875224	s e j
-2.858494	s e k
-1.253101	s e l
-1.633726	s e m
-1.101712	s e n
-1.437014	s e o
-1.652484	s e p
-1.897293	s e q
-1.117718	s e r
-1.064435	s e s
-1.086402	s e t
-2.05184	s e u
-1.211014	s e v
-1.653821	s e w
-1.616973	s e x
-2.742805	s e y
-3.52582	s e z
-4.837647	t e #
-1.98288	t e </s>
-5.110185	t e [
-5.028724	t e ]
-5.028724	t e _
-5.351499	t e `
-1.44632	t e a
-2.293392	t e b
-1.324917	t e c
-0.7551136	t e d
-1.824062	t e e
-1.962523	t e f
-1.590446	t e g
-2.279246	t e h
-1.7589	t e i
-2.984708	t e j
-3.280536	t e k
-1.506846	t e l
-1.284301	t e m
-1.069444	t e n
-1.845739	t e o
-1.844128	t e p
-2.993962	t e q
-0.5337771	t e r
-1.04152	t e s
-1.585514	t e t
-2.108775	t e u
-1.885814	t e v
-2.14658	t e w
-1.849077	t e x
-3.537363	t e y
-4.090872	t e z
-3.919438	u e #
-1.540033	u e </s>
-4.41588	u e ]
-1.43893	u e a
-1.938784	u e b
-1.846772	u e c
-1.076491	u e d
-1.931738	u e e
-1.74806	u e f
-2.374328	u e g
-2.235774	u e h
-1.484937	u e i
-2.89813	u e j
-3.269198	u e k
-1.059951	u e l
-2.112346	u e m
-0.8045591	u e n
-1.333187	u e o
-1.873871	u e p
-3.366108	u e q
-1.680926	u e r
-0.5437761	u e s
-0.9717654	u e t
-2.483868	u e u
-2.55739	u e v
-1.8068	u e w
-2.89813	u e x
-3.491046	u e y
-2.656414	u e z
-3.31192	v e #
-5.026848	v e *
-1.901241	v e </s>
-4.468267	v e [
-4.77172	v e ]
-1.376873	v e a
-1.528249	v e b
-1.816881	v e c
-1.381709	v e d
-1.854777	v e e
-1.873874	v e f
-2.191295	v e g
-2.108221	v e h
-1.658932	v e i
-2.917359	v e j
-3.092096	v e k
-1.065566	v e l
-1.599818	v e m
-0.8122966	v e n
-1.807296	v e o
-1.838744	v e p
-3.28263	v e q
-0.5152217	v e r
-0.9910974	v e s
-1.267447	v e t
-2.388684	v e u
-2.816128	v e v
-2.090273	v e w
-3.878441	v e x
-2.084053	v e y
-1.864641	v e z
-3.408192	w e </s>
-4.517681	w e [
-4.436221	w e ]
-0.9484229	w e a
-2.105131	w e b
-1.636421	w e c
-1.178542	w e d
-0.9892698	w e e
-2.326755	w e f
-2.614489	w e g
-1.763507	w e h
-1.811939	w e i
-3.279874	w e j
-2.322278	w e k
-0.9750227	w e l
-1.82379	w e m
-1.397866	w e n
-2.783009	w e o
-2.444995	w e p
-3.279874	w e q
-0.4976846	w e r
-1.052226	w e s
-2.295294	w e t
-2.255331	w e u
-1.398795	w e v
-1.839624	w e w
-2.429042	w e x
-4.262553	w e y
-3.283494	x e a
-0.691489	x e c
-0.7564298	x e d
-3.202034	x e f
-3.202034	x e g
-1.270915	x e i
-2.216757	x e l
-1.074929	x e m
-1.539276	x e n
-3.524808	x e q
-0.8702694	x e r
-0.5628797	x e s
-2.599974	x e t
-2.423883	x e u
-1.729765	x e v
-1.946761	x e x
-3.202034	x e y
-3.046441	y e </s>
-0.3804953	y e a
-2.68893	y e b
-1.750263	y e c
-1.187269	y e d
-1.894323	y e e
-1.755788	y e f
-2.63426	y e g
-3.241016	y e h
-2.107199	y e i
-4.448396	y e j
-2.620472	y e k
-1.498256	y e l
-1.581554	y e m
-1.212515	y e n
-2.716253	y e o
-2.979494	y e p
-2.27233	y e q
-1.255804	y e r
-1.400528	y e s
-0.9655541	y e t
-1.625477	y e u
-1.514253	y e v
-2.803403	y e w
-1.178515	y e x
-3.155586	y e y
-3.301713	y e z
-2.503998	z e </s>
-1.948003	z e a
-2.847527	z e b
-2.160907	z e c
-1.122715	z e d
-2.381366	z e e
-2.56728	z e f
-2.864073	z e g
-2.847527	z e h
-2.170192	z e i
-3.57588	z e j
-3.515182	z e k
-2.872589	z e l
-2.700819	z e m
-1.377223	z e n
-2.107533	z e o
-2.56728	z e p
-4.188589	z e q
-0.10522	z e r
-1.922668	z e s
-1.548939	z e t
-3.233458	z e u
-3.554691	z e v
-2.598157	z e w
-4.208712	z e x
-3.700819	z e y
-3.515182	z e z
-0.001680058	# f o
-0.3679768	* f i
-0.6907508	* f r
-1.306065	<s> f a
-3.66322	<s> f d
-1.512339	<s> f e
-0.6528524	<s> f i
-2.232806	<s> f l
-0.2799346	<s> f o
-0.9174316	<s> f r
-3.58176	<s> f t
-1.347918	<s> f u
-0.2063989	@ f t
-0.3492104	[ f o
-0.7504669	] f o
-0.6690068	] f r
-0.9917808	] f u
-0.3227741	_ f o
-0.8870455	` f a
-0.5642715	` f o
-0.6457316	` f r
-2.96851	a f </s>
-1.2038	a f a
-3.609488	a f b
-3.170155	a f c
-2.96851	a f d
-0.919735	a f e
-0.8844954	a f f
-1.274281	a f g
-3.233824	a f h
-1.209814	a f i
-3.609488	a f j
-3.36645	a f k
-1.93739	a f l
-3.471185	a f m
-3.471185	a f n
-1.104677	a f o
-3.398634	a f p
-0.7538171	a f r
-2.44812	a f s
-0.5912554	a f t
-1.418806	a f u
-2.910518	a f w
-3.861788	a f y
-3.257305	a f z
-1.193125	b f a
-1.414973	b f e
-0.9378521	b f i
-2.214869	b f l
-0.2973338	b f o
-0.8920946	b f r
-2.214869	b f s
-0.9068179	b f u
-2.214869	b f w
-0.7886425	c f a
-1.367906	c f e
-0.6116852	c f i
-1.78091	c f l
-2.624068	c f m
-0.6014258	c f o
-0.8826367	c f r
-2.644191	c f s
-2.358146	c f t
-0.854507	c f u
-3.699381	d f </s>
-0.9773512	d f a
-3.890458	d f b
-3.971918	d f c
-2.704822	d f d
-1.463405	d f e
-3.971918	d f f
-3.71679	d f h
-0.8292572	d f i
-1.779869	d f l
-4.213233	d f m
-0.3609852	d f o
-3.890458	d f q
-0.7040671	d f r
-3.112307	d f s
-3.112307	d f t
-1.246348	d f u
-3.464489	d f w
-3.71679	d f z
-2.919589	e f </s>
-1.095615	e f a
-3.380683	e f b
-3.230527	e f c
-3.034841	e f d
-1.069482	e f e
-0.9775252	e f f
-3.764687	e f g
-3.463657	e f h
-0.6544166	e f i
-3.399988	e f j
-4.140351	e f k
-1.418025	e f l
-3.074958	e f m
-3.399988	e f n
-0.5552569	e f o
-3.070313	e f p
-1.159723	e f r
-2.317529	e f s
-1.582844	e f t
-1.080504	e f u
-4.375243	e f v
-3.198343	e f w
-4.64778	e f x
-3.129627	e f y
-4.392651	e f z
-2.129801	f f </s>
-4.165897	f f [
-1.338959	f f a
-2.306558	f f b
-2.58994	f f c
-2.660747	f f d
-0.4296598	f f e
-2.436192	f f f
-2.89483	f f g
-2.762205	f f h
-0.5206384	f f i
-3.992229	f f j
-3.601625	f f k
-1.948413	f f l
-2.688776	f f m
-3.18062	f f n
-0.8404497	f f o
-2.67923	f f p
-4.165897	f f q
-1.525084	f f r
-1.559874	f f s
-1.79792	f f t
-1.754839	f f u
-3.97482	f f v
-2.333388	f f w
-3.49689	f f y
-1.021612	g f a
-3.297897	g f c
-3.063005	g f d
-1.43334	g f e
-0.9076688	g f i
-1.852151	g f l
-3.570434	g f m
-0.3952017	g f o
-0.6193507	g f r
-3.063005	g f s
-1.081299	g f u
-2.966095	g f v
-3.811748	g f w
-0.9295118	h f a
-2.981553	h f d
-1.129545	h f e
-0.7867811	h f i
-1.465755	h f l
-0.4351042	h f o
-0.8975528	h f r
-3.001676	h f s
-2.766784	h f t
-0.9513728	h f u
-3.14748	i f </s>
-4.470254	i f @
-1.411616	i f a
-2.302382	i f b
-1.902791	i f c
-2.343568	i f d
-0.9817417	i f e
-0.7200485	i f f
-2.136051	i f g
-2.01076	i f h
-0.591178	i f i
-2.85375	i f j
-2.917032	i f k
-2.13888	i f l
-2.168236	i f m
-1.65009	i f n
-1.541816	i f o
-2.034652	i f p
-3.624602	i f q
-2.13324	i f r
-1.814369	i f s
-0.7311174	i f t
-2.068299	i f u
-3.193238	i f v
-1.729179	i f w
-3.936281	i f x
-1.248755	i f y
-3.973812	i f z
-0.9852768	j f a
-1.308051	j f i
-0.161368	j f k
-1.066737	j f o
-1.108878	k f a
-1.675337	k f e
-0.996111	k f i
-2.293787	k f l
-0.2284663	k f o
-0.8892168	k f r
-3.253384	k f s
-1.135889	k f u
-1.460493	l f </s>
-0.8461782	l f a
-2.072858	l f b
-1.63959	l f c
-1.591667	l f d
-1.474494	l f e
-1.82947	l f f
-2.295526	l f g
-2.051319	l f h
-0.7200763	l f i
-3.206888	l f j
-3.279439	l f k
-1.386333	l f l
-2.119434	l f m
-2.687363	l f n
-0.6414945	l f o
-2.184111	l f p
-3.670042	l f q
-1.084798	l f r
-1.713376	l f s
-1.492172	l f t
-1.14561	l f u
-3.652633	l f v
-1.769382	l f w
-2.481982	l f y
-1.760611	m f </s>
-1.034919	m f a
-2.096403	m f b
-1.804516	m f c
-2.154395	m f d
-1.576247	m f e
-1.914321	m f f
-2.476614	m f g
-1.809161	m f h
-0.9607404	m f i
-3.623297	m f j
-3.126855	m f k
-1.790873	m f l
-1.932546	m f m
-2.272494	m f n
-0.444197	m f o
-1.853365	m f p
-2.631516	m f q
-0.9113569	m f r
-1.187695	m f s
-1.702097	m f t
-1.289094	m f u
-3.300523	m f v
-1.637765	m f w
-0.9785052	n f a
-4.160158	n f b
-3.093211	n f c
-3.160158	n f d
-1.248291	n f e
-4.160158	n f f
-4.160158	n f h
-0.8694561	n f i
-4.482933	n f j
-2.965182	n f k
-0.692353	n f l
-0.5403001	n f o
-4.241619	n f p
-0.7969852	n f r
-3.969081	n f s
-3.406831	n f t
-1.310739	n f u
-4.160158	n f w
-5.210742	o f #
-3.616901	o f </s>
-4.461999	o f [
-4.887968	o f ]
-5.210742	o f _
-3.846575	o f `
-1.060814	o f a
-1.77447	o f b
-1.213015	o f c
-1.567475	o f d
-1.354069	o f e
-1.152529	o f f
-1.534116	o f g
-1.624647	o f h
-1.099847	o f i
-2.198363	o f j
-2.478598	o f k
-1.621815	o f l
-1.51567	o f m
-1.781777	o f n
-1.362837	o f o
-1.368972	o f p
-2.887968	o f q
-1.519123	o f r
-1.316375	o f s
-0.5752687	o f t
-1.787712	o f u
-2.188708	o f v
-1.662228	o f w
-3.774024	o f x
-2.588388	o f y
-3.144981	o f z
-2.592712	p f </s>
-1.09919	p f a
-2.803912	p f b
-3.126686	p f c
-1.517605	p f e
-2.630244	p f f
-0.8097417	p f i
-1.84967	p f l
-0.3985088	p f o
-2.630244	p f p
-0.719932	p f r
-2.612835	p f s
-0.9445736	p f u
-3.126686	p f w
-0.69897	q f a
-1.544623	q f e
-1.010649	q f i
-1.544623	q f l
-0.4436975	q f o
-0.6575773	q f r
-3.06672	r f </s>
-0.9227877	r f a
-3.342927	r f b
-3.297169	r f c
-3.093049	r f d
-1.098787	r f e
-3.64638	r f f
-4.142822	r f g
-3.901508	r f h
-0.7426802	r f i
-1.803015	r f l
-3.255777	r f m
-0.4813925	r f o
-3.901508	r f p
-0.9156933	r f r
-2.740867	r f s
-3.018416	r f t
-0.8382295	r f u
-3.217988	r f w
-3.901508	r f y
-3.732484	s f </s>
-0.8919077	s f a
-3.635574	s f b
-3.967376	s f c
-3.293152	s f d
-1.172129	s f e
-4.239913	s f f
-3.967376	s f h
-0.9646792	s f i
-1.846699	s f l
-4.481227	s f m
-0.3881411	s f o
-3.984785	s f p
-0.7512321	s f r
-3.188416	s f s
-3.204211	s f t
-1.055562	s f u
-3.405125	s f w
-2.390062	s f y
-4.245621	t f </s>
-1.011156	t f a
-2.808903	t f d
-1.249211	t f e
-4.004307	t f f
-3.749178	t f g
-3.922847	t f h
-0.8176771	t f i
-3.922847	t f k
-1.738155	t f l
-4.245621	t f n
-0.3610696	t f o
-2.692398	t f p
-0.7810833	t f r
-3.711647	t f s
-4.004307	t f t
-1.156434	t f u
-4.004307	t f w
-0.6125098	u f a
-3.522621	u f b
-2.334545	u f e
-0.1775557	u f f
-3.522621	u f h
-1.524679	u f i
-2.296757	u f l
-2.31524	u f m
-1.605086	u f o
-2.033515	u f r
-3.281307	u f s
-2.773878	u f t
-2.085903	u f u
-3.199847	u f v
-1.671728	v f </s>
-0.7846821	v f a
-1.137754	v f e
-1.137754	v f i
-1.671728	v f l
-0.394711	v f o
-1.137754	v f r
-1.348954	v f w
-0.7037587	w f a
-1.325714	w f e
-0.8102655	w f i
-1.751682	w f l
-0.5182027	w f o
-2.89781	w f p
-0.7304929	w f r
-1.927773	w f s
-1.110114	w f u
-3.220584	w f w
-1.284943	x f a
-1.821186	x f e
-0.3918374	x f i
-2.870959	x f l
-2.870959	x f n
-0.3606639	x f o
-1.186457	x f r
-2.629645	x f t
-1.770033	x f u
-0.9230987	y f a
-4.092004	y f d
-1.295013	y f e
-0.9017621	y f i
-3.85069	y f j
-1.663152	y f l
-0.3772365	y f o
-0.7405228	y f r
-3.55803	y f s
-3.76923	y f t
-1.094675	y f u
-0.243038	z f a
-0.8151348	z f e
-1.340436	z f i
-0.7607772	z f o
-1.595565	z f r
-1.52817	<s> g a
-3.14447	<s> g b
-2.320562	<s> g d
-0.6339254	<s> g e
-2.580199	<s> g h
-0.5171046	<s> g i
-1.083773	<s> g l
-3.225931	<s> g m
-0.7884446	<s> g o
-3.467244	<s> g p
-0.8013902	<s> g r
-2.580199	<s> g t
-1.75236	<s> g u
-3.467244	<s> g y
-0.623804	[ g e
-0.623804	[ g o
-0.30103	] g e
-0.5228788	` g l
-0.5228788	` g o
-0.8456528	` g r
-4.09413	a g #
-3.148983	a g </s>
-0.8148564	a g a
-2.925119	a g b
-3.879361	a g c
-2.567607	a g d
-0.3757917	a g e
-3.058175	a g f
-1.493755	a g g
-2.030403	a g h
-1.105392	a g i
-1.725546	a g l
-1.999979	a g m
-1.602612	a g n
-1.106673	a g o
-3.552002	a g p
-0.8642635	a g r
-2.466481	a g s
-2.983111	a g t
-1.587659	a g u
-4.628104	a g v
-3.180391	a g w
-3.552002	a g y
-4.131661	a g z
-1.233278	b g a
-2.033174	b g c
-1.073577	b g e
-1.4992	b g l
-0.4973246	b g o
-0.3746074	b g r
-1.519323	b g u
-1.406047	c g a
-2.53459	c g d
-1.608019	c g e
-3.093172	c g f
-2.800512	c g h
-1.855364	c g i
-1.717981	c g l
-0.720935	c g o
-0.1610651	c g r
-3.334486	c g t
-1.826075	c g u
-3.334486	c g y
-4.076791	d g </s>
-1.321048	d g a
-4.076791	d g c
-1.980718	d g d
-0.3250187	d g e
-3.56294	d g f
-2.754017	d g h
-1.248867	d g i
-3.835477	d g k
-1.272574	d g l
-1.69458	d g m
-3.276896	d g n
-0.8984977	d g o
-3.580348	d g p
-0.7935461	d g r
-1.739776	d g s
-2.78398	d g t
-1.582778	d g u
-4.076791	d g v
-4.076791	d g w
-2.76874	d g y
-3.706212	e g </s>
-0.8050648	e g a
-4.20155	e g b
-3.296037	e g c
-2.544844	e g d
-1.122446	e g e
-3.375218	e g f
-2.395974	e g g
-2.983108	e g h
-0.6078151	e g i
-4.375218	e g j
-4.697992	e g k
-1.201256	e g l
-2.606827	e g m
-2.738396	e g n
-0.8393338	e g o
-3.773159	e g p
-0.8022694	e g r
-2.604366	e g s
-2.123175	e g t
-1.096998	e g u
-4.375218	e g v
-3.4544	e g w
-1.28602	e g y
-4.20155	e g z
-1.479824	f g a
-0.7974345	f g d
-0.9638263	f g e
-3.801148	f g f
-0.7132024	f g h
-1.955495	f g i
-0.8175086	f g l
-2.676742	f g m
-2.375712	f g n
-0.76967	f g o
-0.8339355	f g r
-3.801148	f g s
-3.001253	f g t
-1.776518	f g u
-3.287297	f g w
-3.672228	g g </s>
-1.281137	g g a
-3.672228	g g b
-2.268548	g g d
-0.3871908	g g e
-3.113646	g g h
-1.222791	g g i
-0.7836837	g g l
-3.067889	g g m
-1.182528	g g o
-3.417099	g g p
-0.6851515	g g r
-2.067889	g g s
-2.988708	g g t
-1.675192	g g u
-3.417099	g g w
-2.83744	g g y
-1.253992	h g a
-1.716966	h g d
-0.8056034	h g e
-2.764771	h g h
-1.432969	h g i
-1.114906	h g l
-3.037308	h g n
-0.5403183	h g o
-0.4811462	h g r
-2.764771	h g s
-3.037308	h g t
-1.587871	h g u
-3.278622	h g w
-3.037308	h g y
-3.484283	i g </s>
-1.484457	i g a
-2.385293	i g b
-2.654336	i g c
-2.667379	i g d
-1.486198	i g e
-3.043374	i g f
-1.63278	i g g
-0.2603717	i g h
-1.318623	i g i
-4.231433	i g k
-2.55794	i g l
-2.386678	i g m
-0.6494299	i g n
-1.927498	i g o
-2.662115	i g p
-3.32592	i g q
-1.486896	i g r
-2.509311	i g s
-2.452471	i g t
-1.729018	i g u
-3.678103	i g v
-3.183253	i g w
-4.214025	i g y
-4.231433	i g z
-1.176091	j g a
-0.3521825	j g b
-0.3744589	j g o
-1.572958	k g a
-0.9074113	k g b
-1.800201	k g d
-1.054931	k g e
-2.5272	k g h
-1.541923	k g i
-1.391538	k g l
-2.849974	k g m
-0.5479553	k g o
-0.4408403	k g r
-1.682102	k g u
-0.8232123	l g a
-2.468716	l g b
-2.807535	l g c
-1.120574	l g d
-1.001972	l g e
-2.848928	l g f
-2.4872	l g h
-1.038023	l g i
-1.514474	l g l
-3.371806	l g n
-0.5331672	l g o
-0.658036	l g r
-3.198138	l g s
-2.848928	l g t
-1.567894	l g u
-0.807803	m g a
-2.989916	m g b
-1.998135	m g d
-0.782535	m g e
-2.748602	m g h
-1.293004	m g i
-1.072381	m g l
-2.455942	m g m
-0.6685916	m g o
-0.561064	m g r
-2.989916	m g t
-1.510794	m g u
-4.375339	n g #
-4.766199	n g *
-1.552898	n g </s>
-4.45452	n g [
-4.340577	n g ]
-4.766199	n g _
-4.340577	n g `
-0.9892411	n g a
-1.642141	n g b
-1.376716	n g c
-1.589238	n g d
-0.9215872	n g e
-1.50047	n g f
-1.860901	n g g
-1.7282	n g h
-1.152665	n g i
-2.512016	n g j
-2.155885	n g k
-1.394956	n g l
-1.556673	n g m
-1.870302	n g n
-1.250617	n g o
-1.442527	n g p
-2.859024	n g q
-1.43849	n g r
-1.18857	n g s
-0.7324456	n g t
-1.741786	n g u
-2.451922	n g v
-1.562369	n g w
-3.314641	n g x
-2.529208	n g y
-3.333946	n g z
-3.010849	o g </s>
-1.401215	o g a
-3.539123	o g b
-3.487971	o g c
-2.074857	o g d
-0.8400446	o g e
-3.238093	o g f
-2.128346	o g g
-2.584881	o g h
-0.7671684	o g i
-3.238093	o g j
-4.046552	o g k
-1.524183	o g l
-2.487971	o g m
-1.042021	o g n
-1.234579	o g o
-3.266122	o g p
-0.5429947	o g r
-2.26037	o g s
-2.649822	o g t
-1.354787	o g u
-3.119994	o g w
-0.9931979	o g y
-1.36989	p g a
-2.207163	p g d
-1.346825	p g e
-1.748525	p g i
-1.438155	p g l
-1.160863	p g o
-0.1181414	p g r
-2.955906	p g s
-1.748525	p g u
-0.7504669	q g a
-0.9917808	q g h
-0.6690068	q g o
-0.6690068	q g r
-2.803889	r g </s>
-1.007907	r g a
-3.27467	r g b
-3.045333	r g c
-2.591075	r g d
-0.3335474	r g e
-3.682155	r g f
-3.682155	r g g
-2.57194	r g h
-0.9267885	r g i
-3.948076	r g j
-4.48205	r g k
-1.817512	r g l
-3.27467	r g m
-3.335368	r g n
-1.23071	r g o
-3.314178	r g p
-1.283444	r g r
-2.654126	r g s
-2.773075	r g t
-1.104153	r g u
-3.948076	r g v
-3.174	r g w
-1.001316	r g y
-1.211518	s g a
-3.983513	s g b
-3.487071	s g c
-1.537977	s g d
-0.8487175	s g e
-3.183618	s g f
-2.514611	s g h
-1.281131	s g i
-1.17739	s g l
-3.096467	s g m
-2.83683	s g n
-0.4958907	s g o
-2.374432	s g p
-0.5711871	s g r
-3.13786	s g s
-2.593792	s g t
-1.328301	s g u
-3.983513	s g w
-3.983513	s g y
-3.983513	s g z
-0.9408463	t g a
-3.041906	t g b
-3.887558	t g c
-1.779455	t g d
-0.7227996	t g e
-3.087663	t g f
-2.811457	t g h
-1.182167	t g i
-1.08382	t g l
-2.719686	t g m
-2.626932	t g n
-0.6284382	t g o
-3.564784	t g p
-0.6260979	t g r
-2.865814	t g s
-2.536756	t g t
-1.342068	t g u
-3.646245	t g v
-3.373708	t g w
-3.353585	t g y
-2.970858	u g </s>
-1.421855	u g a
-3.000821	u g b
-2.406587	u g c
-2.723703	u g d
-1.040079	u g e
-3.000821	u g f
-0.8982406	u g g
-0.2018748	u g h
-2.368798	u g i
-3.970858	u g k
-2.289617	u g l
-2.033006	u g m
-2.9165	u g n
-1.683056	u g o
-2.684551	u g p
-2.584656	u g r
-1.612923	u g s
-2.233135	u g t
-1.521123	u g u
-4.293632	u g v
-2.856915	u g w
-4.293632	u g x
-4.052318	u g y
-0.6434527	v g a
-0.5642715	v g e
-1.489105	v g h
-0.3881802	v g o
-1.489105	v g r
-1.617432	w g a
-2.46059	w g d
-0.7064312	w g e
-2.480713	w g h
-1.546851	w g i
-0.8633537	w g l
-2.994564	w g m
-0.5795371	w g o
-0.5034887	w g r
-2.994564	w g t
-1.67179	w g u
-1.224272	x g a
-1.224272	x g d
-0.9208187	x g e
-0.8750613	x g i
-0.7289332	x g l
-0.7289332	x g o
-0.7611179	x g r
-1.097958	y g a
-3.330955	y g b
-2.126835	y g d
-0.6742178	y g e
-2.276597	y g h
-1.005302	y g i
-1.293528	y g l
-3.412415	y g m
-3.330955	y g n
-0.632854	y g o
-3.330955	y g p
-0.5840611	y g r
-2.904986	y g s
-2.577627	y g t
-1.338254	y g u
-3.653729	y g w
-0.6714297	z g a
-0.845098	z g e
-1.167872	z g l
-0.4191293	z g o
-0.3227741	* h o
-0.9016112	<s> h a
-0.4025089	<s> h e
-0.7630646	<s> h i
-3.655212	<s> h m
-0.5947159	<s> h o
-3.655212	<s> h r
-3.413899	<s> h s
-3.655212	<s> h t
-1.330993	<s> h u
-3.413899	<s> h w
-2.633468	<s> h y
-0.7533277	[ h ]
-0.7533277	[ h a
-0.7533277	[ h i
-1.076102	[ h o
-0.8347878	[ h t
-0.6766936	] h a
-0.1995724	] h e
-1.184123	] h i
-0.7504669	` h a
-0.9917808	` h i
-0.4953384	` h u
-2.068129	a h </s>
-0.4199189	a h a
-1.994551	a h b
-2.426197	a h c
-1.801861	a h d
-0.970151	a h e
-2.52886	a h f
-2.704951	a h g
-1.901039	a h h
-0.9725571	a h i
-2.951623	a h j
-1.67287	a h k
-2.257793	a h l
-1.278982	a h m
-1.946544	a h n
-1.230735	a h o
-1.910231	a h p
-1.827964	a h r
-1.634297	a h s
-1.85779	a h t
-0.9717536	a h u
-3.102891	a h v
-1.745909	a h w
-2.003095	a h y
-4.027725	a h z
-0.3111757	b h a
-2.596161	b h b
-1.30335	b h e
-1.219029	b h i
-1.026232	b h o
-0.5304003	b h u
-4.479319	c h #
-2.087927	c h </s>
-4.652987	c h [
-4.975761	c h ]
-0.5748689	c h a
-2.003652	c h b
-1.584925	c h c
-1.990229	c h d
-1.042398	c h e
-1.96014	c h f
-2.237458	c h g
-1.71832	c h h
-0.585718	c h i
-3.019519	c h j
-3.019519	c h k
-1.940338	c h l
-1.610018	c h m
-1.384175	c h n
-1.157628	c h o
-1.77504	c h p
-3.255047	c h q
-1.640291	c h r
-1.686376	c h s
-1.383085	c h t
-1.936427	c h u
-2.353407	c h v
-1.662352	c h w
-4.975761	c h x
-2.36147	c h y
-3.829078	c h z
-4.100032	d h </s>
-0.4329309	d h a
-3.858718	d h b
-3.777258	d h c
-4.100032	d h d
-0.7156795	d h e
-3.858718	d h f
-0.6427618	d h i
-3.777258	d h l
-0.846818	d h o
-4.100032	d h p
-2.7229	d h r
-3.108251	d h s
-3.586181	d h t
-1.242386	d h u
-3.603589	d h w
-2.168019	d h y
-3.874366	e h </s>
-0.4151352	e h a
-3.127591	e h b
-3.588321	e h c
-2.998496	e h d
-0.7884451	e h e
-3.501171	e h f
-3.891774	e h g
-3.639474	e h h
-0.749053	e h i
-3.639474	e h j
-2.986262	e h k
-3.542564	e h l
-2.162353	e h m
-2.998496	e h n
-0.7129387	e h o
-2.826561	e h p
-2.214185	e h r
-2.826561	e h s
-3.037414	e h t
-1.29804	e h u
-2.750172	e h w
-2.192316	e h y
-0.8664651	f h a
-3.648632	f h b
-3.152189	f h c
-3.648632	f h d
-0.7805505	f h e
-3.648632	f h f
-0.4500249	f h i
-0.7245221	f h o
-3.648632	f h p
-3.152189	f h r
-3.648632	f h s
-0.852614	f h u
-1.957881	f h y
-2.053156	g h </s>
-4.434196	g h _
-1.144922	g h a
-1.526013	g h b
-1.938319	g h c
-2.048101	g h d
-1.132192	g h e
-2.209721	g h f
-2.287031	g h g
-2.255826	g h h
-1.312397	g h i
-3.037465	g h j
-3.487434	g h k
-1.31624	g h l
-2.1335	g h m
-2.188383	g h n
-1.43001	g h o
-1.859975	g h p
-2.51599	g h q
-1.951335	g h r
-1.72163	g h s
-0.2541033	g h t
-1.883404	g h u
-2.712585	g h v
-2.060479	g h w
-4.352736	g h x
-2.843085	g h y
-4.179067	g h z
-3.594074	h h </s>
-0.3018835	h h a
-3.271299	h h d
-0.8557696	h h e
-3.594074	h h h
-0.6606392	h h i
-1.042557	h h o
-3.594074	h h s
-1.333447	h h u
-2.386693	h h y
-2.986324	i h </s>
-0.2345316	i h a
-1.499657	i h b
-2.509202	i h c
-1.57135	i h d
-1.356235	i h e
-2.795247	i h f
-3.067784	i h h
-1.141226	i h i
-2.795247	i h j
-1.907143	i h k
-2.259325	i h l
-1.972083	i h m
-2.986324	i h n
-0.789503	i h o
-2.259325	i h p
-2.287354	i h r
-2.162415	i h s
-2.083234	i h t
-1.958295	i h u
-2.812655	i h w
-3.067784	i h y
-0.1047354	j h a
-1.146128	j h e
-1.468902	j h h
-1.146128	j h o
-2.781206	k h </s>
-0.3129783	k h a
-2.992406	k h b
-2.515285	k h c
-2.190774	k h d
-1.279196	k h e
-3.073866	k h f
-2.038164	k h h
-1.031777	k h i
-2.801329	k h j
-2.390346	k h l
-1.7061	k h m
-0.7228933	k h o
-2.801329	k h p
-1.550449	k h r
-1.221554	k h s
-2.147308	k h t
-1.618269	k h u
-3.31518	k h v
-2.801329	k h w
-2.515285	k h y
-2.992406	k h z
-0.2812976	l h a
-3.153053	l h c
-0.7471668	l h e
-0.9236243	l h i
-0.9621131	l h o
-1.206354	l h u
-2.230187	l h y
-0.337704	m h a
-0.8640866	m h e
-3.263623	m h h
-0.7865258	m h i
-0.9422985	m h o
-2.749772	m h p
-3.022309	m h r
-3.263623	m h s
-2.940848	m h t
-0.9394032	m h u
-2.376577	m h y
-3.257006	n h </s>
-0.362801	n h a
-3.779885	n h b
-2.738492	n h c
-3.861345	n h d
-0.7635482	n h e
-3.353916	n h f
-3.779885	n h h
-0.7270628	n h i
-3.779885	n h k
-3.861345	n h m
-0.8270925	n h o
-4.102659	n h p
-3.568685	n h r
-4.102659	n h s
-3.606217	n h t
-1.325548	n h u
-3.861345	n h w
-2.279283	n h y
-3.455843	o h </s>
-0.3654812	o h a
-3.952286	o h b
-3.438435	o h c
-3.203543	o h d
-0.6850289	o h e
-3.952286	o h h
-0.816821	o h i
-2.110998	o h l
-2.744905	o h m
-1.276044	o h n
-0.9824547	o h o
-3.418312	o h p
-3.06524	o h r
-2.805603	o h s
-3.106633	o h t
-1.517801	o h u
-3.418312	o h w
-2.182353	o h y
-2.55529	p h </s>
-0.6828513	p h a
-2.631678	p h b
-2.791379	p h c
-2.502583	p h d
-0.6087422	p h e
-2.724432	p h f
-3.56953	p h g
-3.378453	p h h
-0.6675271	p h i
-3.143561	p h k
-3.005259	p h l
-3.143561	p h m
-2.599493	p h n
-0.8134012	p h o
-3.395862	p h p
-1.638411	p h r
-1.894363	p h s
-2.615288	p h t
-2.374553	p h u
-2.87056	p h w
-0.9363983	p h y
-0.06305175	q h a
-1.357002	q h e
-1.568202	q h i
-1.649662	q h o
-0.3585672	r h a
-3.65318	r h d
-0.7275245	r h e
-0.877206	r h i
-0.7314939	r h o
-3.975954	r h p
-3.65318	r h r
-1.300998	r h u
-2.266979	r h y
-4.502441	s h #
-2.266912	s h </s>
-4.825215	s h [
-4.502441	s h ]
-0.5132877	s h a
-2.366778	s h b
-2.095901	s h c
-2.520169	s h d
-0.9144681	s h e
-2.226746	s h f
-2.445536	s h g
-2.444268	s h h
-0.7278752	s h i
-3.423259	s h j
-3.060484	s h k
-2.477135	s h l
-1.849228	s h m
-2.537082	s h n
-0.5895106	s h o
-2.03311	s h p
-3.979562	s h q
-1.931898	s h r
-1.930732	s h s
-1.810181	s h t
-1.841259	s h u
-2.8212	s h v
-2.325386	s h w
-2.592172	s h y
-4.825215	s h z
-5.018765	t h #
-2.395775	t h </s>
-5.767509	t h [
-5.444734	t h ]
-5.767509	t h `
-0.7995511	t h a
-2.710468	t h b
-2.165143	t h c
-2.57825	t h d
-0.1950721	t h e
-2.599016	t h f
-2.844851	t h g
-2.610102	t h h
-1.198211	t h i
-3.416706	t h j
-2.482207	t h k
-2.657274	t h l
-2.527054	t h m
-2.529862	t h n
-1.469195	t h o
-2.438839	t h p
-3.395516	t h q
-1.500252	t h r
-2.07589	t h s
-1.768468	t h t
-2.227163	t h u
-3.369187	t h v
-2.52951	t h w
-4.880463	t h x
-2.748961	t h y
-4.599636	t h z
-2.451558	u h </s>
-0.1856366	u h a
-2.451558	u h b
-1.415603	u h d
-1.415603	u h e
-2.985532	u h f
-2.489089	u h h
-1.171396	u h i
-1.407485	u h k
-1.884607	u h l
-1.993751	u h m
-1.634729	u h n
-1.432309	u h o
-2.060698	u h p
-2.471681	u h r
-2.098486	u h s
-2.139879	u h t
-1.51663	u h u
-2.451558	u h w
-2.489089	u h y
-0.09691001	v h a
-0.8750613	v h e
-1.558581	v h o
-4.200504	w h </s>
-0.8249665	w h a
-4.411704	w h c
-0.5462248	w h e
-0.4598161	w h i
-0.7492294	w h o
-4.411704	w h p
-4.734478	w h s
-2.991198	w h u
-1.399992	w h y
-0.2924862	x h a
-2.62669	x h d
-1.289675	x h e
-0.5138652	x h i
-1.017609	x h o
-1.550588	x h u
-2.303916	x h y
-0.2102108	y h a
-3.468763	y h d
-0.9431721	y h e
-3.723892	y h f
-0.8815067	y h i
-0.9746674	y h o
-3.965206	y h s
-1.553705	y h u
-2.496304	y h y
-0.5086383	z h a
-2.623804	z h d
-0.7447275	z h e
-1.246672	z h i
-1.246672	z h k
-1.124939	z h n
-0.5963076	z h o
-2.127362	z h s
-1.273001	z h u
-2.623804	z h v
-1.076102	* i m
-0.2304489	* i n
-1.076102	* i s
-2.200846	<s> i a
-2.540584	<s> i b
-2.478927	<s> i c
-2.205926	<s> i d
-2.999682	<s> i e
-0.9550276	<s> i f
-2.949708	<s> i g
-2.212792	<s> i h
-3.533285	<s> i i
-3.924145	<s> i j
-2.999682	<s> i k
-2.820074	<s> i l
-1.972979	<s> i m
-0.2375894	<s> i n
-3.181102	<s> i o
-3.068398	<s> i p
-4.458119	<s> i q
-1.740893	<s> i r
-1.528247	<s> i s
-0.6701602	<s> i t
-3.466338	<s> i u
-3.121104	<s> i v
-2.24325	<s> i w
-0.9550511	[ i ]
-0.3444957	[ i n
-1.146128	[ i r
-0.6232493	[ i t
-0.4259687	] i n
-0.6918901	] i s
-0.90309	] i t
-0.7781513	` i f
-0.5870743	` i n
-0.8596115	` i t
-3.132356	a i </s>
-2.568085	a i a
-2.910507	a i b
-2.533757	a i c
-1.238586	a i d
-3.363495	a i e
-2.747005	a i f
-1.692147	a i g
-3.207421	a i h
-2.438936	a i i
-2.874792	a i j
-2.460405	a i k
-0.8994811	a i l
-1.274928	a i m
-0.2677793	a i n
-3.551486	a i o
-2.678844	a i p
-4.454576	a i q
-1.159082	a i r
-1.12995	a i s
-1.553117	a i t
-3.785569	a i u
-2.834787	a i v
-2.097276	a i w
-4.536036	a i x
-3.785569	a i y
-3.363495	a i z
-2.734919	b i </s>
-1.152076	b i a
-2.52757	b i b
-2.082428	b i c
-1.761653	b i d
-2.22055	b i e
-2.94821	b i f
-1.080412	b i g
-2.011991	b i h
-2.471089	b i i
-2.592511	b i j
-3.069632	b i k
-0.2876917	b i l
-2.862024	b i m
-1.013465	b i n
-1.444386	b i o
-2.293822	b i p
-2.450404	b i q
-1.803598	b i r
-1.603387	b i s
-1.064618	b i t
-3.305722	b i u
-2.728485	b i v
-2.734919	b i w
-3.414866	b i y
